SVM-light Version V6.02
2 # kernel type
3 # kernel parameter -d 
0.00093103969 # kernel parameter -g 
1 # kernel parameter -s 
1 # kernel parameter -r 
empty# kernel parameter -u 
260 # highest feature index 
13702 # number of training documents 
432 # number of support vectors plus 1 
1.2964186 # threshold b, each following line is a SV (starting with alpha*y)
8.2249106132485323428227275144309 1:0.27317488 2:0.57370758 3:0.10582013 4:0.70948642 5:0.48502037 6:0.10156769 7:0.38902918 8:0.29200318 9:0.02004512 10:-0.15056169 11:-0.15457273 12:-0.21788384 13:-0.12052651 14:0.50984955 15:0.82391876 16:0.3538456 17:-0.16323233 18:0.0086631104 19:0.47919992 20:-0.037112121 21:-0.12409039 22:0.75156766 23:0.33901846 24:0.34424546 25:-0.025439855 26:1.2340982 27:0.13758211 28:0.77108485 29:0.54465342 30:1.2372153 31:0.11072944 32:-0.15585451 33:0.16568862 34:0.03190171 35:-0.041497301 36:-0.032185499 37:-0.0063292724 38:0.30398494 39:0.53524166 40:0.32039309 41:0.30537206 42:0.36353502 43:0.48620412 44:0.048261963 45:0.11659174 46:0.72989851 47:-0.24676187 48:0.38743719 49:0.63522059 50:0.50416303 51:0.0021059799 52:0.18423887 53:0.40038747 54:0.20025827 55:0.40462816 56:0.32365394 57:0.25974748 58:-0.31056497 59:-0.089414306 60:0.37601599 61:0.034143031 62:0.21772395 63:0.41492096 64:-0.21769069 65:0.58133936 66:-0.18678339 67:0.19039421 68:0.24938484 69:-0.2141204 70:0.12906259 71:0.54256612 72:1.0362707 73:3.251611 74:0.23075792 75:0.52151191 76:0.27671418 77:0.42697203 78:0.59450793 79:0.81021088 80:1.7542542 81:1.5769506 82:0.72070897 83:1.1656137 84:0.62468982 85:-0.088373795 86:0.82964385 87:0.94591272 88:0.83970284 89:0.4262661 90:0.098682247 91:1.7285142 92:1.6926322 93:1.0337322 94:0.83838975 95:1.0085953 96:0.37649032 97:0.19448425 98:0.824435 99:0.10438701 100:0.79747462 101:0.10890319 102:1.5583106 103:0.063472554 104:0.1084834 105:0.93887573 106:0.8741253 107:0.41707277 108:0.093888924 109:1.1499668 110:0.1634381 111:0.27970397 112:0.46356618 113:-0.12356342 114:0.12147176 115:-0.022172067 116:0.57917148 117:-0.088063933 118:0.22541188 119:0.21463451 120:-0.22677262 121:0.52304322 122:-0.03385102 123:0.59389222 124:-0.02644683 125:0.022579845 126:0.031200664 127:0.23137334 128:-0.028913245 129:0.25707212 130:0.38415831 131:0.65605879 132:0.45931208 133:0.027893638 134:0.55456793 135:0.63239878 136:0.24228148 137:1.2509555 138:0.79820186 139:0.19788747 140:0.29883569 141:-0.090409875 142:-0.028046576 143:0.25958478 144:1.1092856 145:0.70547342 146:0.005292532 147:0.13251685 148:1.7583004 149:0.48807579 150:0.59915811 151:0.3818652 152:0.49609613 153:0.73707086 154:0.450376 155:1.204976 156:0.38961402 157:0.20182978 158:1.5566195 159:0.18586184 160:0.040735189 161:0.046646237 162:0.59076601 163:-0.1952545 164:1.6512378 165:1.1282656 166:0.30959907 167:1.3475461 168:0.90418285 169:0.45652357 170:0.5648824 171:0.60458875 172:-0.17626294 173:0.21182667 174:0.78938407 175:0.39286351 176:1.9748585 177:0.13649441 178:1.2253121 179:0.63419223 180:0.10131699 181:-0.11258383 182:0.11746151 183:-0.10190014 184:0.48704195 185:0.85194194 186:-0.23878202 187:1.1285751 188:0.56175292 189:0.81931275 190:0.65909499 191:0.21697098 192:0.16904885 193:-0.051679328 194:0.10029782 195:0.25008556 196:2.3297646 197:2.4494779 198:2.2282937 199:2.3705156 200:2.0025587 201:0.99769688 202:0.71441048 203:0.90219641 204:0.73682332 205:-0.056594834 206:1.1245484 207:0.97560871 208:0.45857441 209:1.9990497 210:0.95461929 211:-0.12229124 212:0.47635767 213:0.99152356 214:1.7159308 215:1.1033551 216:0.34219646 217:0.98499268 218:0.91224843 219:0.83738118 220:1.2386703 221:1.4642539 222:1.8399955 223:2.4322441 224:0.83886516 225:2.6339118 226:0.90122777 227:0.3397474 228:0.61876631 229:0.67059839 230:2.0124404 231:0.96459907 232:1.3555044 233:0.54343259 234:0.20624396 235:0.66412759 236:0.7968384 237:1.0039185 238:0.59643644 239:0.6968087 240:-0.069484733 241:0.45223668 242:-0.18085374 243:0.64629811 244:-0.010678559 245:0.03702116 246:0.23744115 247:0.25946236 248:1.0635909 249:0.32893768 250:0.23136388 251:0.0093064457 252:-0.14257945 253:0.14554484 254:0.0204315 255:0.034671877 256:0.1279801 257:0.64645535 258:-0.036760785 259:-0.1194388 260:0.0096338494 #
-1.4470611721254926784752115054289 1:1.2552296 2:2.6968541 3:0.23470838 4:2.3151588 5:0.32463548 6:2.1501334 7:1.154177 8:3.3389113 9:1.6379286 10:0.44671062 11:1.5842984 12:0.53761059 13:0.95905393 14:1.9243368 15:2.7483993 16:0.54131478 17:1.5302097 18:2.1392324 19:4.3579712 20:1.3198181 21:3.1683304 22:3.6521447 23:2.9177899 24:1.7571009 25:3.8109176 26:1.3757589 27:3.3632886 28:2.3230526 29:1.4819196 30:4.8269134 31:0.22641796 32:1.8551962 33:1.1828808 34:1.1981642 35:1.9616784 36:0.84104937 37:2.1912088 38:0.13830122 39:0.29504618 40:0.54512137 41:0.74299842 42:0.024901891 43:0.70299637 44:1.7912326 45:0.57049793 46:1.5001416 47:1.0329524 48:1.6720014 49:1.6464399 50:0.25578335 51:0.71029466 52:0.23258509 53:2.0422394 54:0.97100705 55:1.0685971 56:0.064663522 57:0.54496658 58:0.72335619 59:-0.19149993 60:1.1400672 61:0.36789045 62:0.42495146 63:0.244395 64:0.54527169 65:-0.053470664 66:0.043073393 67:0.78619951 68:1.864764 69:1.2103498 70:0.9260689 71:3.0939443 72:1.4733859 73:6.8581338 74:0.80641282 75:2.743957 76:9.6509943 77:2.8747163 78:3.1362553 79:0.26623318 80:6.3374057 81:0.21289106 82:0.91040653 83:4.6905122 84:1.1452485 85:2.4186599 86:1.3708345 87:3.0712461 88:3.0190876 89:0.96472937 90:2.8234453 91:1.5111057 92:1.4722564 93:1.2550293 94:1.045303 95:2.7020326 96:0.2926349 97:0.6941359 98:1.5012373 99:1.5030887 100:0.79662538 101:0.56634581 102:2.4524858 103:0.089909896 104:0.64555442 105:0.4040702 106:1.1474487 107:0.97797084 108:1.6054143 109:1.1466417 110:0.93499559 111:0.58566594 112:-0.19511497 113:0.00018261977 114:0.21281338 115:1.1096801 116:0.69132262 117:0.51332366 118:0.57293773 119:0.54647803 120:0.046254754 121:0.78866106 122:0.17498723 123:0.060255162 124:0.11595115 125:0.59871012 126:0.48656008 127:0.029100543 128:0.128659 129:-0.17093074 130:0.63003379 131:2.4422965 132:1.2420039 133:1.4143747 134:2.0910916 135:0.26791209 136:0.8936221 137:0.60949481 138:2.734287 139:1.4675007 140:2.2906184 141:3.8257482 142:2.9766784 143:1.8208933 144:1.9971346 145:1.2227346 146:1.0139487 147:1.5413952 148:2.0030406 149:5.1140962 150:2.3087828 151:2.0151377 152:4.6980686 153:2.3822539 154:1.1699835 155:4.7080364 156:2.3447595 157:3.5154884 158:2.3335786 159:2.4040756 160:2.9409721 161:1.2106837 162:2.3483891 163:0.6402486 164:0.95996135 165:1.892073 166:1.0977496 167:0.73349512 168:0.50232828 169:0.68021107 170:0.92858559 171:0.33369347 172:1.3716077 173:0.73887044 174:0.94234931 175:0.80343872 176:0.050722551 177:0.57049727 178:1.6018276 179:1.4894568 180:1.0640433 181:0.95647919 182:0.73468459 183:0.63236439 184:0.44853389 185:1.4546208 186:1.1408589 187:0.24414231 188:0.14455295 189:1.143983 190:0.42539033 191:0.11276832 192:0.69807464 193:0.52566326 194:0.80353487 195:0.45826459 196:1.0689673 197:1.8966217 198:6.6335363 199:7.8137445 200:3.7688115 201:2.6790845 202:2.0926158 203:1.6106735 204:0.066183887 205:0.4471907 206:1.6509047 207:1.8446759 208:1.026001 209:1.4457159 210:3.8634493 211:1.6773416 212:1.1463133 213:2.4714978 214:4.225059 215:3.8323686 216:3.7376542 217:2.3873374 218:3.1172369 219:1.4528636 220:3.4998996 221:1.3888154 222:1.3871788 223:3.6998439 224:2.2713413 225:2.2623875 226:1.872558 227:3.74704 228:0.89122093 229:1.9557675 230:2.2607486 231:2.0214536 232:2.5790412 233:2.6691933 234:3.2620592 235:2.1067748 236:0.70924044 237:0.90662855 238:1.6287493 239:1.6017663 240:1.3038764 241:1.3341345 242:0.35129929 243:0.035263695 244:0.26612824 245:-0.14343444 246:0.74306792 247:1.1863508 248:1.3399063 249:0.8981446 250:0.69304162 251:0.77149707 252:0.27350956 253:1.7395295 254:-0.093256071 255:0.52161402 256:0.97575146 257:0.51282263 258:0.60852993 259:0.55406535 260:0.029789146 #
8.2249106132485323428227275144309 1:0.026746312 2:0.5830065 3:0.27956656 4:0.1306176 5:0.066062421 6:0.84428644 7:0.25954399 8:0.032357465 9:-0.024212504 10:0.26205295 11:0.24924177 12:0.18083069 13:0.15809678 14:0.23727621 15:0.094212919 16:-0.098157197 17:0.49558872 18:0.95655936 19:0.14092365 20:-0.040078573 21:-0.24234454 22:0.36441287 23:-0.1894345 24:0.08125072 25:-0.11255102 26:0.16020967 27:0.17777972 28:0.23140968 29:0.054015145 30:0.15741859 31:-0.029857101 32:-0.054762494 33:0.024327608 34:0.76140034 35:0.22405097 36:-0.077434003 37:1.2166291 38:0.58383441 39:0.015066181 40:0.40787685 41:0.28743148 42:0.13363302 43:-0.16073607 44:-0.11319653 45:-0.11087249 46:0.41565007 47:0.2177624 48:0.199351 49:-0.12719262 50:0.065282449 51:-0.15310252 52:0.30890563 53:0.30891773 54:0.70300919 55:0.4116607 56:0.78914732 57:0.51910359 58:1.2073652 59:0.029938327 60:0.7616719 61:0.29244468 62:0.44655785 63:0.37053013 64:1.1792172 65:-0.026597232 66:-0.18534748 67:0.15639144 68:0.29269525 69:0.34593973 70:0.18921968 71:0.64612526 72:0.0071696374 73:0.047597662 74:0.039040189 75:0.40942287 76:-0.017552063 77:0.11703681 78:0.070321411 79:0.1037336 80:-0.0685976 81:0.29261777 82:0.93044353 83:1.1576805 84:0.74365091 85:0.77766466 86:0.30675638 87:0.20732732 88:0.31303889 89:0.30446133 90:0.39541736 91:-0.14125811 92:0.26244497 93:0.21208753 94:0.79681391 95:-0.15688242 96:-0.21005446 97:1.4553058 98:0.64608639 99:1.0249928 100:0.88703614 101:0.75064534 102:1.7062035 103:0.93316537 104:0.46450895 105:0.86501002 106:1.7151256 107:1.1755154 108:0.88837641 109:0.72266299 110:0.244496 111:0.94372457 112:1.0515724 113:0.11514045 114:0.25717062 115:1.2626318 116:-0.049113318 117:0.40843359 118:0.22143199 119:0.68140018 120:0.60471761 121:0.20172729 122:-0.020300621 123:0.87331992 124:0.3356986 125:0.14764617 126:0.67204529 127:0.35394946 128:0.19731313 129:0.31353772 130:0.1939864 131:0.81171113 132:1.1197311 133:0.45539638 134:0.21961947 135:0.49234882 136:0.95841813 137:0.42437902 138:0.68951422 139:1.2855375 140:0.94699961 141:1.0415145 142:0.9166348 143:1.7474865 144:1.4766874 145:0.93171543 146:-0.020684946 147:0.28665847 148:1.1820575 149:0.41432941 150:0.012953768 151:1.1423762 152:1.0134087 153:0.82874918 154:1.3078743 155:-0.18087769 156:1.8142524 157:1.6409448 158:0.61775875 159:1.1221716 160:0.88814479 161:0.21875873 162:1.1380587 163:0.68589824 164:1.2239705 165:0.7480517 166:1.042027 167:1.3426772 168:0.24435665 169:0.31756258 170:0.69314998 171:1.718025 172:0.42745635 173:1.6062579 174:1.9373946 175:0.18402995 176:0.93228394 177:0.89755851 178:1.488693 179:1.2351722 180:0.29107094 181:1.9036961 182:0.89803612 183:0.83180785 184:0.65729886 185:1.9400641 186:1.6804247 187:1.0694512 188:0.57631844 189:0.14320306 190:1.6462145 191:0.84589648 192:1.0706364 193:-0.023813615 194:0.00023829294 195:0.56938243 196:0.076237097 197:0.629547 198:0.50581956 199:0.87145907 200:0.06455823 201:0.44793728 202:0.94822174 203:0.59290057 204:-0.0096616792 205:0.83353621 206:0.85565776 207:0.5174163 208:-0.0061884322 209:1.103108 210:0.36782435 211:0.77665746 212:0.098961137 213:0.32236147 214:0.81237626 215:0.041938771 216:0.4637394 217:1.0492749 218:1.2034799 219:0.67851073 220:0.69973856 221:1.2234772 222:1.2458853 223:1.5016831 224:0.31427714 225:0.10646841 226:0.27537388 227:1.3459693 228:1.6862285 229:3.3625076 230:0.73753303 231:2.2436314 232:2.549156 233:2.5455678 234:0.55149043 235:1.9469006 236:0.80408996 237:0.090750523 238:0.17073406 239:1.0704179 240:1.8585755 241:0.40636072 242:0.72006994 243:0.39799833 244:1.6334933 245:0.12439147 246:0.69470018 247:0.14100407 248:0.16710341 249:-0.15337159 250:0.10302436 251:0.24138913 252:0.5154103 253:-0.12131539 254:0.34121859 255:0.44692031 256:0.0039312802 257:0.3004736 258:-0.07995332 259:-0.20062517 260:0.13600414 #
-2.4802220300421744525465328479186 1:5.398366 2:1.6633605 3:3.2939277 4:5.6914735 5:2.2745442 6:5.3580527 7:5.7796397 8:2.2460718 9:-0.0057111424 10:1.4846368 11:4.4726129 12:2.0615497 13:0.9250986 14:7.5581899 15:0.69799626 16:1.7603189 17:3.3742301 18:6.4785647 19:1.6899149 20:1.0616939 21:1.844726 22:1.5965753 23:0.86591357 24:0.99633396 25:1.6241317 26:1.4167941 27:0.89281523 28:0.49754664 29:0.78955227 30:1.1539754 31:-0.063979171 32:0.38959128 33:-0.0014403857 34:1.5759116 35:-0.21043448 36:0.26656073 37:1.9912218 38:0.79436982 39:0.65034562 40:0.62369514 41:0.70636117 42:-0.054741733 43:1.5334531 44:0.68572205 45:1.4347408 46:-0.071837828 47:0.27723387 48:0.88047773 49:0.41620687 50:0.31273496 51:-0.08603593 52:1.0312139 53:0.67159611 54:0.45340365 55:0.59709382 56:0.62361294 57:1.0418196 58:1.0508703 59:0.52422535 60:1.4746511 61:0.5483793 62:0.98390353 63:0.81646931 64:1.6751759 65:0.45951885 66:8.2827539 67:1.9172075 68:4.311028 69:7.2052331 70:2.206794 71:6.233429 72:4.207902 73:3.235409 74:1.6824934 75:3.5818877 76:2.4931402 77:0.89294994 78:0.6120705 79:7.4457808 80:0.4789705 81:2.0723245 82:5.8593116 83:4.272944 84:-0.21949297 85:3.5899985 86:0.091985337 87:3.9477675 88:0.65327281 89:2.7650952 90:2.2274442 91:5.14397 92:0.37786695 93:6.2779326 94:1.9232595 95:1.4728541 96:1.2853271 97:3.4059272 98:5.2356243 99:3.2018783 100:2.1442633 101:1.3729231 102:1.4490913 103:1.7696586 104:0.37731621 105:1.2270112 106:1.8912883 107:1.7944913 108:3.6512909 109:0.31798869 110:0.80370545 111:1.0273288 112:1.5729384 113:0.94297296 114:1.5277094 115:3.1612928 116:1.6894767 117:2.3702416 118:0.35710543 119:3.1717587 120:0.76904553 121:1.8551437 122:2.5925999 123:0.87891543 124:2.7471018 125:1.3677499 126:3.0749853 127:2.4587691 128:1.2824793 129:2.6909611 130:0.63453764 131:2.9948869 132:6.4964871 133:5.9070916 134:2.9433331 135:2.9248998 136:3.2630494 137:3.029639 138:0.52536643 139:0.39418033 140:2.9949217 141:2.3675914 142:1.3666862 143:1.5818561 144:0.82418537 145:0.17792006 146:1.8933468 147:3.9079893 148:2.2489636 149:2.2948968 150:3.8075879 151:3.4855773 152:1.7172058 153:-0.085135214 154:-0.05115908 155:2.0702648 156:1.5147028 157:1.0752745 158:-0.07609883 159:1.9932514 160:2.8800685 161:4.5282855 162:3.6881535 163:1.9248422 164:0.86476552 165:0.91600478 166:0.40888634 167:0.20801935 168:0.99498373 169:0.83021659 170:0.48740086 171:1.0652015 172:1.2476455 173:1.9770685 174:0.95997375 175:1.2874429 176:2.6608617 177:2.319802 178:2.8035066 179:3.0367892 180:3.0930939 181:3.2952714 182:2.3266437 183:2.2021236 184:3.7447126 185:1.6401688 186:2.8570051 187:1.7671996 188:2.4185483 189:2.2665281 190:0.89805019 191:2.6162677 192:1.7943031 193:2.5401845 194:0.18647482 195:-0.11673479 196:4.6743875 197:4.323863 198:3.9296167 199:2.4080639 200:2.0734222 201:4.0793481 202:5.7779574 203:1.3753178 204:1.0351523 205:1.41848 206:1.9545135 207:2.9410484 208:2.6711841 209:2.8697107 210:1.148261 211:0.59361899 212:0.78495884 213:2.3867543 214:2.5080702 215:2.237159 216:2.5633481 217:1.2147205 218:0.74367255 219:1.0758781 220:1.6341846 221:2.3564091 222:1.5619348 223:1.4264725 224:0.85454708 225:0.84933281 226:0.18198486 227:0.4699477 228:0.79204714 229:1.9333179 230:0.83838266 231:0.089321062 232:3.0272908 233:0.10732762 234:0.84186816 235:1.6358405 236:0.4805778 237:1.1927923 238:2.663528 239:1.1683002 240:0.9384321 241:0.33880943 242:1.401881 243:1.5416056 244:0.98813862 245:1.301488 246:0.14065814 247:0.4093695 248:0.13322014 249:0.86132181 250:1.2602147 251:1.5691561 252:0.63300246 253:0.48039079 254:0.83327663 255:0.42195192 256:-0.067554519 257:0.057880785 258:0.66697699 259:0.47329256 260:0.80967546 #
-1.5307882223068836058388342280523 1:0.47179216 2:1.8771341 3:2.1967576 4:1.8096812 5:-0.060306199 6:0.72302592 7:0.49370989 8:0.22594644 9:-0.23041159 10:0.66343951 11:0.78704625 12:0.45747095 13:0.36474568 14:0.89949059 15:0.55431163 16:0.52925742 17:1.015798 18:1.6782871 19:0.54796386 20:1.8458788 21:0.5287227 22:0.52776867 23:0.79865837 24:0.00061581738 25:0.11498274 26:-0.28604257 27:0.32243696 28:0.87267447 29:1.1234862 30:1.2338532 31:0.6953513 32:0.73704457 33:0.99267143 34:0.63145989 35:0.75608927 36:-0.07511016 37:0.25412101 38:-0.03169091 39:1.0745733 40:-0.24385612 41:0.24771878 42:0.12553267 43:0.64951366 44:0.15801148 45:0.28182417 46:0.44646582 47:0.46471682 48:0.40968803 49:0.40934896 50:0.21362366 51:0.46959564 52:0.26364595 53:0.60702586 54:0.5934689 55:0.65196437 56:0.08848419 57:-0.29134381 58:0.29073194 59:0.34214565 60:0.10782052 61:-0.23921035 62:-0.23158906 63:-0.16411196 64:-0.058948211 65:0.071034811 66:-0.16490084 67:1.1850628 68:3.396198 69:0.74812883 70:1.1511897 71:1.3038068 72:1.1041229 73:-0.077693768 74:-0.052248895 75:0.54812872 76:2.7239368 77:0.99439359 78:1.5692698 79:2.3369899 80:0.40259877 81:0.58502042 82:0.25118244 83:0.95324641 84:0.62231874 85:1.8438171 86:1.5911778 87:0.67933178 88:1.1314641 89:1.4990242 90:0.23661809 91:0.42484468 92:0.86805338 93:0.28249913 94:0.155983 95:0.71191293 96:1.0807356 97:0.71684682 98:0.80561644 99:1.1389687 100:0.29967263 101:0.49219233 102:0.62595016 103:0.95350367 104:0.46355411 105:0.79492432 106:0.53332847 107:0.51582235 108:-0.0016490179 109:0.16509852 110:0.21839866 111:0.40495011 112:0.50533277 113:-0.088692084 114:0.25694516 115:0.53435671 116:0.15322198 117:0.35103664 118:-0.21037371 119:0.21199948 120:0.38851458 121:-0.31011796 122:-0.105475 123:0.086090386 124:0.64398557 125:0.22450288 126:0.43825644 127:0.54423511 128:0.4002569 129:-0.23678482 130:-0.33069089 131:2.061707 132:2.8773487 133:4.1963539 134:3.1167157 135:1.7618088 136:3.7547626 137:1.8766513 138:2.1912365 139:2.4916146 140:1.5532434 141:1.6717021 142:0.77027792 143:1.6370871 144:0.51937425 145:2.0944681 146:0.87908661 147:0.66728467 148:0.70801085 149:0.96715432 150:0.58117914 151:0.57561457 152:0.46889365 153:1.1184274 154:0.41718948 155:0.97384501 156:0.95637065 157:1.1128813 158:2.2532418 159:1.4630406 160:0.67715436 161:0.92102557 162:0.34952754 163:2.2207782 164:0.94282675 165:1.3473316 166:3.2699933 167:0.16484608 168:1.8015643 169:0.73417801 170:1.4877934 171:0.53001106 172:1.0155294 173:1.6942497 174:1.2701442 175:1.7490208 176:1.4120758 177:0.77033812 178:0.96699518 179:0.48192662 180:0.10231554 181:0.49219069 182:0.8014009 183:2.052176 184:-0.14482252 185:-0.080081224 186:0.67682469 187:0.30422688 188:0.32889876 189:1.3011559 190:-0.082101762 191:1.3862109 192:1.1005789 193:0.55423641 194:0.18719265 195:0.19921471 196:2.5256524 197:3.1768272 198:4.0858464 199:2.043082 200:0.53620791 201:4.0063925 202:1.1763791 203:1.9545524 204:1.7435739 205:2.5931005 206:1.9947196 207:1.3201985 208:1.303422 209:2.9649906 210:0.16355002 211:1.4106686 212:0.14173803 213:1.9915664 214:1.6057742 215:1.4778335 216:0.89261007 217:1.2549902 218:0.014418668 219:1.4323406 220:2.4538612 221:1.6576734 222:1.7014036 223:1.2529309 224:1.7270974 225:0.81717962 226:1.315974 227:0.4119834 228:0.1985421 229:1.0000641 230:0.98638052 231:0.38726845 232:1.2849669 233:0.36101583 234:0.12370531 235:0.50209975 236:0.4531329 237:0.45985562 238:0.16499949 239:1.2437137 240:0.51880038 241:0.80532402 242:0.0091561284 243:0.31563231 244:0.48036942 245:0.28647956 246:0.13857871 247:0.18757813 248:-0.091683798 249:1.0983542 250:0.65827173 251:0.60021245 252:0.75627089 253:0.38014102 254:0.71650332 255:0.15839656 256:0.038304806 257:0.2967391 258:0.22394332 259:0.25183278 260:0.29839495 #
-7.1444537907500853535225360246841 1:0.20102315 2:1.057008 3:0.88428295 4:1.0566497 5:0.20729636 6:0.16618226 7:0.3712838 8:-0.081672348 9:-0.23765895 10:-0.05941505 11:0.24864812 12:0.42415887 13:0.10505845 14:0.31879818 15:0.76211929 16:0.41670066 17:-0.17182373 18:0.41377199 19:0.31884679 20:-0.0037023979 21:0.022588389 22:-0.017172609 23:0.19514532 24:0.4123354 25:0.47480616 26:0.16490707 27:0.47251078 28:0.11803985 29:-0.079704687 30:0.077954583 31:-0.24834213 32:0.22990814 33:0.27019325 34:0.15248995 35:0.27603063 36:0.74983859 37:0.19004826 38:0.21596298 39:0.3388904 40:0.83801079 41:0.447245 42:0.89996868 43:0.85464263 44:-0.23270996 45:-0.081700891 46:0.41829008 47:-0.16579898 48:-0.036837399 49:0.5460757 50:0.53284383 51:0.19454621 52:0.24436375 53:0.16146049 54:0.62026149 55:0.49390021 56:0.25179356 57:1.6266292 58:0.76339626 59:0.19540457 60:0.70433319 61:0.16658379 62:1.4455473 63:0.63954908 64:1.4320974 65:0.012432177 66:-0.2195559 67:0.77747089 68:0.41816244 69:0.50284529 70:0.50014281 71:0.93424827 72:0.29000062 73:-0.035812203 74:0.049861915 75:0.48410216 76:-0.049637333 77:0.1466431 78:0.18559673 79:0.45449767 80:1.0534904 81:0.44561198 82:0.2622681 83:0.0066027795 84:0.17871095 85:-0.0080003347 86:0.11362826 87:-0.16702455 88:0.17741871 89:0.36491567 90:0.37158653 91:0.39672416 92:0.030030388 93:0.15443055 94:-0.020525865 95:-0.083158016 96:-0.071277268 97:0.12008395 98:0.40697107 99:0.076834746 100:0.042289663 101:0.60100329 102:-0.067303896 103:1.0369179 104:1.3819476 105:0.66623086 106:-0.12746026 107:0.35838833 108:0.10911001 109:0.15765385 110:0.13590387 111:0.27569857 112:0.51654404 113:1.0818194 114:1.1139596 115:1.4702843 116:1.2816247 117:1.0928799 118:1.2053061 119:0.87322783 120:0.30835822 121:0.18243267 122:0.92262214 123:0.14775857 124:1.0459504 125:1.970067 126:1.2625517 127:0.45405537 128:0.4354575 129:0.90930057 130:0.16709585 131:0.91023266 132:1.6461667 133:0.25164402 134:1.3370628 135:0.61690027 136:0.97185463 137:1.4081193 138:-0.075834081 139:0.42262414 140:1.3494215 141:0.60096031 142:0.46413463 143:0.08826609 144:0.49863654 145:1.2791535 146:0.9623661 147:1.2540035 148:1.8891683 149:0.23182514 150:1.0517743 151:1.9764861 152:0.73885059 153:3.4224939 154:1.7597636 155:0.49992839 156:1.4951528 157:1.7580013 158:0.53601789 159:0.1425264 160:0.32802233 161:-0.11752722 162:0.99982965 163:1.8648009 164:1.2460512 165:0.11126295 166:1.4841155 167:1.0167434 168:0.46297219 169:0.3739993 170:0.66368574 171:1.0954973 172:0.35914993 173:1.611094 174:0.92827398 175:0.68569034 176:0.23202132 177:0.98052561 178:0.73060423 179:1.0135889 180:0.19892348 181:1.4822496 182:1.0268177 183:0.77716535 184:0.68092752 185:1.9320391 186:0.8705259 187:1.0203208 188:0.53430378 189:1.0842381 190:2.0055254 191:0.62796921 192:1.5260342 193:1.1867384 194:0.59580338 195:0.90183467 196:0.40911388 197:2.4884605 198:3.1887529 199:0.41417575 200:1.5322881 201:2.0138762 202:0.27530682 203:1.8209742 204:0.83662146 205:2.243185 206:2.5552959 207:0.90499437 208:0.89158881 209:1.4868793 210:1.2737844 211:0.44279528 212:0.57392168 213:0.95582968 214:1.1068835 215:1.2597672 216:0.46092239 217:1.6040853 218:1.2056731 219:1.1422038 220:0.53727537 221:3.1243231 222:1.869374 223:0.47205937 224:1.2519311 225:0.65920711 226:0.79421341 227:1.0143888 228:0.80075449 229:0.8462835 230:1.2492362 231:1.9440408 232:3.6850479 233:3.3080068 234:1.9731466 235:1.1339455 236:3.1691744 237:2.116152 238:0.25406307 239:0.36338726 240:0.36082679 241:0.63022184 242:0.52521217 243:1.2543342 244:1.7343798 245:0.62484211 246:0.46130612 247:0.66889274 248:1.7846423 249:1.5962124 250:0.5481137 251:2.2099507 252:0.49868399 253:-0.060573485 254:1.8819942 255:2.1761906 256:1.9328204 257:0.70546877 258:0.9570843 259:2.7551351 260:2.4597762 #
-0.2525408263811013132027483152342 1:1.5037751 2:-0.18719991 3:0.086770087 4:1.0930647 5:2.0484276 6:0.71679568 7:0.8113842 8:1.0857732 9:2.9225156 10:2.0022442 11:1.732444 12:0.18639259 13:0.34252697 14:1.0243763 15:1.0234145 16:0.87274569 17:0.23044834 18:2.3837345 19:1.4863257 20:0.51765931 21:0.78358626 22:0.64187664 23:0.010439965 24:1.2142028 25:-0.10871882 26:1.2013118 27:1.4674176 28:3.0941586 29:0.93271446 30:1.1937866 31:0.86393911 32:5.1669426 33:0.56349957 34:1.1321242 35:0.10328261 36:2.9017019 37:1.2467968 38:0.96839231 39:0.37107614 40:1.6137455 41:0.39350244 42:1.5735166 43:0.92082179 44:3.8902271 45:2.4388864 46:2.2093275 47:2.0106783 48:4.1181626 49:0.96272975 50:1.5661293 51:0.31190479 52:1.8129367 53:-0.27833271 54:1.1738143 55:2.7177176 56:1.6189507 57:1.0227917 58:1.119647 59:0.84990525 60:0.18093146 61:0.58475184 62:1.2591842 63:1.4679482 64:2.7271056 65:1.8621739 66:-0.082453795 67:0.30145794 68:-0.16902703 69:0.41749126 70:0.38094857 71:1.0444386 72:0.56965768 73:1.6600308 74:4.6680493 75:2.1091285 76:3.7750587 77:1.1920011 78:2.157963 79:1.4605052 80:1.6726733 81:1.9988717 82:1.5729666 83:0.20263301 84:0.67440975 85:2.616663 86:3.2249992 87:0.61968803 88:2.311446 89:5.4002867 90:1.8385346 91:0.076674916 92:0.97345448 93:1.2140551 94:1.1999841 95:1.1982694 96:0.99052495 97:4.6801729 98:1.6395242 99:1.2341622 100:-0.0154211 101:1.9275067 102:0.5400576 103:0.95712078 104:0.12097562 105:1.3825616 106:0.24642645 107:3.2501187 108:-0.041109331 109:6.0951481 110:0.82251072 111:2.131032 112:0.75532895 113:2.1159863 114:0.76810211 115:2.468519 116:2.3782878 117:5.0576677 118:0.20237154 119:2.7566366 120:3.6272016 121:1.1315858 122:3.1828578 123:0.0065472377 124:3.7632222 125:1.8419423 126:0.8832345 127:1.4644612 128:4.5691314 129:-0.00116774 130:3.40646 131:1.6829985 132:-0.20383249 133:-0.0046551647 134:0.38408649 135:1.3377476 136:0.49680725 137:0.3045125 138:0.49677998 139:0.92338347 140:0.78092903 141:0.37952566 142:0.90584987 143:2.8146565 144:1.0446206 145:0.58260447 146:1.5632628 147:2.0937953 148:0.74349797 149:0.30567664 150:1.7931867 151:1.9705786 152:1.4541667 153:0.10783023 154:0.43027896 155:1.1580687 156:0.96033597 157:0.35635811 158:-0.19478564 159:0.92532027 160:1.9879586 161:1.3696064 162:2.5140378 163:-0.013422936 164:1.2021506 165:-0.048840985 166:0.1669794 167:1.3153851 168:1.9135114 169:1.2417889 170:2.912318 171:1.1423873 172:2.4013076 173:1.8235836 174:1.7349136 175:2.1326027 176:0.43511978 177:0.39820671 178:2.074445 179:0.27428293 180:1.0619458 181:3.5747802 182:-0.05257564 183:0.77158141 184:2.6211929 185:-0.2467615 186:0.4133535 187:1.3875693 188:2.1174769 189:2.5374944 190:2.2177534 191:1.3560051 192:1.6816183 193:0.70598876 194:2.2059479 195:2.5629141 196:0.26825076 197:-0.13200253 198:1.3752481 199:1.3649209 200:3.0735502 201:1.2517928 202:0.50726265 203:0.83864355 204:2.2753878 205:0.04507079 206:0.44502616 207:1.5721188 208:3.1534193 209:2.7288239 210:3.0713391 211:1.7936549 212:3.9654238 213:2.7444868 214:2.4537864 215:1.1784792 216:3.2100666 217:0.52513504 218:2.7813277 219:4.8577642 220:3.6032884 221:0.39585245 222:2.8360279 223:0.99510747 224:0.31134555 225:1.4043542 226:1.7294447 227:0.15678704 228:1.2275909 229:0.20905545 230:2.6060512 231:1.6028731 232:-0.14719148 233:3.4416816 234:1.0988295 235:2.0156219 236:0.098838054 237:0.15406854 238:2.8490272 239:0.76056522 240:0.44122857 241:1.4126899 242:0.70308292 243:2.1149478 244:0.45261523 245:-0.10850053 246:1.7975236 247:1.7041292 248:0.91505402 249:0.97061741 250:1.5548712 251:1.5357896 252:1.2969918 253:1.4871745 254:1.350165 255:0.77107304 256:0.088053338 257:1.0567541 258:1.5290213 259:1.2245053 260:0.87649024 #
-2.3160591615745711457918787345989 1:0.58051801 2:1.9092402 3:1.1951253 4:0.95090497 5:0.04674549 6:1.2273809 7:0.50513315 8:0.44691622 9:0.11749455 10:1.0191352 11:0.34548524 12:0.37782133 13:0.36075413 14:0.27224615 15:0.44266635 16:0.58299875 17:0.047534406 18:0.80310792 19:1.7483238 20:0.59083325 21:0.54195309 22:0.7682572 23:0.42947024 24:0.81224304 25:0.5756315 26:0.081942715 27:0.6225971 28:0.7462337 29:0.28073168 30:0.0095591871 31:0.82908279 32:0.33035514 33:1.0588057 34:0.21054634 35:1.4062121 36:0.81203026 37:1.6047627 38:1.0934538 39:1.6827885 40:0.58351207 41:0.29541025 42:0.048793811 43:0.40407947 44:0.087510973 45:0.21930377 46:1.1201729 47:0.40836659 48:0.22247462 49:0.92053562 50:0.85602164 51:0.77599555 52:0.28535056 53:1.1748002 54:1.0714463 55:0.61535794 56:1.9325005 57:1.0955845 58:1.1389916 59:0.63809633 60:0.22130349 61:1.935608 62:0.61513573 63:-0.093986616 64:0.68484992 65:0.28144827 66:-0.23575021 67:1.2238086 68:3.5758667 69:2.4263623 70:0.82411802 71:-0.021410586 72:1.0689436 73:0.29824713 74:0.03750781 75:0.41196966 76:1.6287265 77:0.35184312 78:0.31328022 79:0.39870632 80:1.1744733 81:0.65002173 82:1.4266295 83:0.94706857 84:0.93822193 85:0.3205606 86:1.1414018 87:1.6903219 88:1.271137 89:1.0870466 90:0.62323934 91:0.81175768 92:-0.014757014 93:0.27420139 94:1.3472455 95:-0.12530921 96:0.48739165 97:1.3007705 98:1.7057909 99:-0.0086917039 100:0.60939217 101:1.5242789 102:1.7937326 103:0.64017045 104:0.72701061 105:1.2337493 106:0.59182036 107:0.4701654 108:0.9164598 109:0.31906828 110:0.88940454 111:1.0728892 112:0.54849154 113:0.39187855 114:1.4811504 115:0.24841404 116:1.6887636 117:-0.23235209 118:0.72777075 119:1.8156534 120:0.79992467 121:1.1462628 122:1.3568668 123:1.2338427 124:-0.079350993 125:0.42714098 126:1.3781502 127:0.90054822 128:0.52248412 129:1.5284458 130:-0.16813667 131:1.7014351 132:1.628125 133:1.3119373 134:1.429965 135:0.56867307 136:0.45917359 137:3.0921276 138:2.2493014 139:0.87830472 140:0.71132028 141:1.907547 142:0.70892256 143:1.9550689 144:4.4515371 145:3.3745534 146:1.5424303 147:1.3061743 148:1.3335974 149:0.13924718 150:1.9852327 151:1.9431335 152:-0.2495666 153:1.9751931 154:2.4023275 155:0.39076075 156:1.0477154 157:0.055724911 158:1.3824874 159:2.6014159 160:1.5293913 161:0.34404856 162:2.3618588 163:0.40715283 164:2.3848619 165:2.0513511 166:1.2744678 167:1.9404911 168:1.8228867 169:2.7035863 170:1.815397 171:1.8725109 172:1.3604461 173:2.2972441 174:0.55184704 175:1.735047 176:0.034862429 177:0.28946713 178:0.94118309 179:0.42230588 180:0.066036664 181:1.1431047 182:0.064879522 183:1.24266 184:1.5374843 185:2.3585331 186:1.6562405 187:0.65709674 188:1.3269452 189:1.2833909 190:0.31009185 191:1.6338127 192:-0.085014835 193:0.44068041 194:1.1790088 195:0.54903728 196:9.8929682 197:5.1941099 198:5.5987897 199:2.3169367 200:1.9954083 201:1.9485044 202:2.3497131 203:-0.017140005 204:0.63166255 205:2.1401494 206:0.72415262 207:1.3820014 208:0.71614689 209:0.58395952 210:2.4642212 211:-0.14065664 212:-0.046217982 213:2.0558627 214:1.7217803 215:1.073501 216:0.86446285 217:1.4624009 218:0.95394188 219:1.0573294 220:1.5165586 221:1.2519494 222:0.96333474 223:2.7227159 224:1.4111707 225:1.3580728 226:0.6619972 227:1.0460656 228:0.41233703 229:1.2011266 230:1.4812196 231:0.64826322 232:0.45399427 233:0.44873291 234:2.224448 235:1.6737143 236:1.3979508 237:0.86323929 238:2.3376138 239:2.7830462 240:0.28383148 241:1.0660691 242:0.6373747 243:1.2051104 244:0.079582959 245:0.40706432 246:0.59162027 247:0.0014610236 248:-0.014310858 249:0.40771458 250:0.44099998 251:1.4968432 252:0.61962348 253:0.50374776 254:0.44270435 255:0.67649096 256:0.4063586 257:1.4747955 258:-0.017385056 259:0.89068526 260:-0.055849545 #
-0.92881690944817496546903612397728 1:5.102993 2:2.6186008 3:0.46549854 4:5.885426 5:0.60011941 6:4.9085612 7:3.0309811 8:1.6075875 9:1.3732848 10:4.8900371 11:3.1001589 12:2.3910208 13:3.6526489 14:7.2593322 15:4.5896835 16:2.152564 17:1.4444534 18:2.6888447 19:2.3156579 20:0.93590885 21:3.5350795 22:3.1484768 23:0.48620319 24:1.5325735 25:1.0322016 26:2.3333793 27:0.31701934 28:1.6031986 29:1.5356396 30:1.5791743 31:1.0469972 32:0.96758735 33:2.8352206 34:0.55862737 35:1.8379886 36:0.97646505 37:0.8184976 38:1.5859773 39:1.6740152 40:2.8746607 41:1.3055664 42:1.3080941 43:4.930294 44:3.5884821 45:1.8136076 46:2.4883981 47:0.87369931 48:3.1849365 49:1.7142864 50:1.5409663 51:3.328928 52:1.5356439 53:0.30629244 54:1.6843132 55:3.0588479 56:0.64166027 57:1.9157265 58:2.0534546 59:0.68162763 60:-0.22460191 61:1.0291827 62:2.0605304 63:0.8540538 64:0.083260432 65:0.0067831143 66:9.513093 67:10.53019 68:0.20910169 69:6.9350076 70:0.10100652 71:6.4257236 72:2.8658547 73:3.0916498 74:0.94159245 75:2.8809285 76:1.4553534 77:1.792268 78:1.5597419 79:1.428768 80:1.0002286 81:1.8461199 82:0.1789272 83:1.4269245 84:0.93938619 85:-0.055791367 86:1.667119 87:1.9172405 88:1.3630775 89:2.032618 90:0.74950546 91:3.1266248 92:1.8451675 93:3.0949061 94:1.3433508 95:2.3736842 96:3.0180857 97:1.0841218 98:0.97218692 99:1.8037493 100:2.3338947 101:4.8459783 102:0.99861437 103:3.0522993 104:4.94625 105:4.1406531 106:0.76697296 107:4.174489 108:6.7674904 109:8.0376129 110:3.0568125 111:2.7585843 112:7.6002493 113:8.6396656 114:1.8514984 115:3.8476434 116:9.0163031 117:6.4114685 118:2.6360366 119:4.6492319 120:8.7977772 121:8.5681391 122:2.4690897 123:4.2689705 124:7.9521499 125:5.6392632 126:4.5942726 127:4.870728 128:8.3697786 129:6.2028532 130:5.3801179 131:2.1002543 132:2.3544328 133:3.1971166 134:2.1814353 135:0.74560457 136:1.5547932 137:0.10562453 138:2.1528978 139:1.5042323 140:1.5036826 141:2.4677639 142:1.178015 143:2.4461064 144:0.5856483 145:1.15017 146:1.558453 147:2.6366022 148:1.2522713 149:1.1992583 150:0.49793497 151:2.3433924 152:3.3212109 153:2.9387403 154:3.637167 155:2.4522099 156:0.11332464 157:1.14922 158:2.0577116 159:2.1332316 160:3.9478953 161:2.142386 162:2.2701728 163:3.5298572 164:2.200742 165:1.8400955 166:2.6550372 167:4.9921145 168:1.0738162 169:3.0544381 170:2.9869361 171:2.9125855 172:0.077415496 173:0.30842119 174:1.4208993 175:1.0024222 176:0.97463292 177:0.37340826 178:1.0735807 179:1.6008277 180:1.8244752 181:0.3759301 182:2.8230646 183:1.7907262 184:2.2743618 185:1.4316014 186:3.2691684 187:2.8914375 188:1.456375 189:1.9285511 190:3.7563229 191:0.72523463 192:0.35827568 193:1.2858224 194:2.1591566 195:1.5363134 196:5.1130548 197:6.7232199 198:6.069921 199:7.771832 200:1.1073134 201:2.4732294 202:3.2840819 203:2.453639 204:-0.21732718 205:1.7977434 206:1.296205 207:1.0230267 208:0.76838136 209:3.3830693 210:1.7171197 211:1.4942602 212:2.2044566 213:0.18037443 214:1.0928191 215:1.4911584 216:0.098750956 217:1.0882262 218:2.7640524 219:1.6720797 220:3.1991856 221:3.3022459 222:2.2451277 223:1.9466829 224:0.83092594 225:1.4856703 226:0.65021557 227:0.21742126 228:1.204232 229:3.0920904 230:2.0084631 231:3.7493143 232:3.5057552 233:2.1278088 234:1.8970436 235:3.8375366 236:2.1270978 237:0.60025364 238:3.0102696 239:2.5059295 240:0.36500469 241:1.1454962 242:2.9845619 243:2.2795346 244:-0.039552994 245:2.1954622 246:1.8332295 247:1.6462024 248:2.3689709 249:1.7693454 250:1.9347526 251:2.2636459 252:2.4846461 253:0.42679885 254:1.8000234 255:2.2624841 256:2.7354336 257:1.4889188 258:3.2648964 259:3.5619998 260:2.7635269 #
-5.0810137471604583936368726426736 1:0.3794052 2:0.58097762 3:0.95374513 4:1.1402864 5:0.22059084 6:0.71838135 7:-0.0021825032 8:0.52587765 9:0.31018615 10:-0.080613323 11:0.8837589 12:0.88765562 13:-0.0099752257 14:0.28336182 15:0.41465613 16:1.1112801 17:1.5193453 18:1.1405543 19:1.047511 20:0.44472 21:1.4756649 22:0.21834451 23:0.29190165 24:0.30379671 25:0.78417647 26:0.18789144 27:-0.040470149 28:0.19202757 29:1.0252329 30:-0.080159709 31:0.17030665 32:0.67402357 33:0.91922057 34:0.19851597 35:0.36826557 36:-0.067889802 37:0.75657165 38:0.42944363 39:0.65406024 40:1.3818727 41:0.36116779 42:-0.092969574 43:-0.27355337 44:-0.18112421 45:-0.0077841752 46:0.30793834 47:0.62210155 48:0.2753621 49:-0.039225515 50:0.73033226 51:0.34214672 52:-0.17226741 53:-0.25228631 54:0.40374804 55:0.87544239 56:0.20992564 57:-0.12087867 58:0.11948507 59:0.3504549 60:0.21289682 61:0.09703137 62:-0.13915522 63:0.08499448 64:-0.12472892 65:0.043276884 66:-0.15940662 67:0.41221038 68:0.30688825 69:0.1654288 70:0.23152213 71:1.0006541 72:1.6389021 73:1.5883204 74:2.1741056 75:0.81865031 76:0.88410401 77:0.18788251 78:0.69722009 79:-0.023823366 80:0.37783992 81:-0.25678998 82:0.15626048 83:0.088755034 84:-0.12091902 85:-0.045993119 86:-0.078989267 87:0.74198228 88:0.5190925 89:1.3824283 90:2.1914356 91:2.0989814 92:0.22739983 93:0.90037012 94:0.39896584 95:1.2623938 96:0.57101804 97:1.485058 98:1.2530407 99:1.6980152 100:0.42003885 101:0.1290444 102:-0.13441885 103:0.70029515 104:0.15896885 105:0.87226868 106:0.15854344 107:0.15010695 108:-0.10906968 109:0.0016721982 110:0.39713785 111:0.039603975 112:0.16540809 113:0.050973739 114:-0.18679878 115:0.25606337 116:0.52528989 117:-0.086553425 118:-0.221275 119:0.09365201 120:0.48301217 121:0.33854759 122:0.18901366 123:0.12184683 124:0.36130345 125:0.01311838 126:0.31150049 127:0.09834221 128:0.36145973 129:0.0065711834 130:0.051408291 131:0.48359737 132:0.18439139 133:-0.020845467 134:0.24587141 135:-0.06313765 136:0.9511022 137:0.42161348 138:0.45806116 139:0.21386193 140:0.30711251 141:0.27015617 142:0.38766775 143:0.084817417 144:0.13984157 145:0.16492675 146:-0.22720185 147:-0.16041729 148:0.1356675 149:0.084201403 150:0.41224596 151:0.30938467 152:-0.1546171 153:0.24517395 154:-0.2032498 155:0.53547591 156:1.0958942 157:-0.19810423 158:1.2960656 159:0.36473441 160:-0.095256284 161:0.19546402 162:0.29362723 163:0.71675014 164:0.33009067 165:0.36131051 166:0.83794719 167:0.54673642 168:1.5173106 169:0.7099722 170:0.67225116 171:0.7389397 172:0.69981372 173:0.73974115 174:0.57784218 175:0.5668034 176:0.086640164 177:-0.072642677 178:0.57545137 179:0.41366756 180:0.15779272 181:0.25862241 182:0.47624886 183:0.55273157 184:0.77727795 185:0.057347257 186:0.73398483 187:0.75172764 188:0.45058385 189:0.59268785 190:0.27247342 191:0.34767461 192:1.1463187 193:0.43904406 194:0.34036884 195:0.51045209 196:8.3582249 197:4.7335405 198:2.3200073 199:1.1332768 200:1.2289684 201:2.0994539 202:-0.1560964 203:-0.043295756 204:0.0019895567 205:0.80761606 206:0.63864356 207:-0.16167894 208:0.33709186 209:0.4455258 210:0.16552797 211:-0.092110023 212:0.52057606 213:0.35475561 214:0.094404325 215:0.70775473 216:0.41426086 217:0.67959315 218:0.12719782 219:0.87078029 220:0.74091083 221:0.52453452 222:0.79194576 223:0.12998362 224:-0.11149572 225:0.44167015 226:0.060251351 227:0.89387488 228:0.35629171 229:0.051535282 230:0.02756881 231:0.27619597 232:0.28899848 233:0.21301489 234:0.044435132 235:0.52645808 236:0.39264667 237:-0.075071476 238:0.5522067 239:0.42664063 240:0.30452445 241:0.058594733 242:0.38491681 243:0.28833032 244:0.25493741 245:0.32792974 246:-0.089027919 247:0.017527791 248:0.33863294 249:0.61313403 250:0.43639949 251:0.38612956 252:0.10279461 253:-0.23709828 254:-0.079549037 255:-0.071481958 256:0.088030875 257:0.050424181 258:0.091697946 259:-0.062184893 260:-0.20476247 #
-0.64197723674061102361321218268131 1:1.6807513 2:4.0204573 3:4.2211013 4:3.4879658 5:3.1511111 6:1.2793353 7:-0.0958893 8:2.1274343 9:1.646433 10:4.0066228 11:0.55465698 12:1.7626153 13:2.540596 14:3.4968441 15:1.9113487 16:1.5169671 17:3.8954718 18:1.0795622 19:0.77527708 20:3.1035364 21:4.3180304 22:3.9568429 23:1.1810092 24:4.2035913 25:4.0358357 26:3.1243691 27:4.1483593 28:4.8961515 29:4.2928147 30:3.0193398 31:1.5292392 32:3.4749322 33:7.0463314 34:5.4591174 35:4.6789355 36:2.1108148 37:5.4507689 38:2.8108807 39:1.0108279 40:4.924727 41:7.4393692 42:10.194596 43:2.3177299 44:9.1411381 45:10.778161 46:5.8177495 47:3.3752236 48:8.7383814 49:8.7788162 50:6.1040874 51:1.8807698 52:3.8082893 53:8.7556763 54:4.6539459 55:4.9430737 56:7.4476337 57:8.5226564 58:6.940732 59:0.38061133 60:8.1934538 61:9.9353666 62:7.0227103 63:2.4519134 64:3.3194091 65:8.5618725 66:-0.16701843 67:3.1247501 68:2.3972645 69:1.6703438 70:0.89770758 71:1.6236205 72:1.2411762 73:2.192378 74:1.5011156 75:3.354867 76:1.1897839 77:1.9585955 78:1.8048266 79:4.8911004 80:-0.16973276 81:2.2185664 82:4.1681218 83:5.0134511 84:2.4886706 85:1.2006911 86:4.2916994 87:0.57067907 88:2.4290082 89:0.52446538 90:1.4307592 91:3.229032 92:1.229418 93:0.49176979 94:3.9028523 95:4.6324697 96:1.3775724 97:2.6935418 98:5.1841326 99:3.1736178 100:1.840876 101:1.8857529 102:4.6703181 103:2.153374 104:2.1861045 105:1.9149296 106:3.5209782 107:1.7095039 108:2.7057345 109:4.7833495 110:3.7805557 111:4.7986207 112:0.25013673 113:3.6508625 114:2.8175972 115:2.4614589 116:1.3334845 117:2.6121049 118:2.1887639 119:1.8250409 120:1.9920485 121:3.1316335 122:2.4029315 123:4.837358 124:0.96215606 125:3.3106213 126:3.4074636 127:2.0121553 128:2.2309799 129:1.7604634 130:4.2208662 131:2.8652105 132:1.5479947 133:4.2347379 134:2.6771772 135:1.707572 136:3.6114001 137:0.82269138 138:1.9026775 139:0.11895747 140:2.0693226 141:0.4519197 142:1.9881908 143:3.6233554 144:4.0459089 145:1.2695669 146:1.3698322 147:3.171639 148:0.91566098 149:2.7094901 150:3.8629849 151:4.2888727 152:5.0372591 153:2.9940553 154:3.0234723 155:1.527831 156:5.6366634 157:0.98061973 158:2.8362062 159:3.6479352 160:2.7408831 161:1.5755759 162:1.6502241 163:4.0638418 164:3.9361837 165:2.5942905 166:3.7463133 167:5.0464396 168:1.9994186 169:5.002429 170:0.65311337 171:2.2058191 172:3.1103976 173:1.7830123 174:1.7436488 175:4.0281844 176:1.9220624 177:3.0785861 178:2.1460197 179:4.3811073 180:2.8316004 181:3.5761867 182:1.9559231 183:1.6485865 184:5.2928123 185:4.343379 186:2.1841888 187:2.2860696 188:4.6810336 189:2.1958644 190:1.8213651 191:3.5553069 192:3.8345008 193:-0.22807172 194:2.3499227 195:4.1783323 196:7.9257703 197:6.045845 198:2.5755596 199:3.1604457 200:0.27333856 201:3.1517723 202:2.7385185 203:1.7377373 204:2.6972661 205:0.68584877 206:1.4230515 207:1.5506569 208:0.73399568 209:1.2450863 210:1.8423529 211:1.528883 212:2.3165216 213:2.2109768 214:1.801966 215:1.2682955 216:3.3301308 217:2.4412053 218:1.7276205 219:3.8245504 220:3.9387014 221:2.6703937 222:2.7139826 223:1.6664962 224:1.2603927 225:3.297462 226:1.461744 227:4.1913586 228:4.3408456 229:2.4480212 230:3.4159234 231:1.3125926 232:2.6424677 233:3.7457321 234:3.4503391 235:3.3942301 236:3.891783 237:6.0723629 238:1.2058647 239:1.7054262 240:4.0004458 241:2.8421087 242:4.1137686 243:0.86116028 244:3.6089365 245:1.4016829 246:1.6943625 247:1.0335469 248:2.8294442 249:3.0371995 250:2.1624291 251:1.2581115 252:0.34299302 253:1.0975274 254:2.0036871 255:1.1544194 256:1.900335 257:1.0297368 258:2.4771156 259:2.1178291 260:1.26296 #
-4.3221218295381218510442522529047 1:3.5082355 2:0.12003691 3:0.85748523 4:2.159447 5:5.2142591 6:3.4486237 7:1.009791 8:0.37738845 9:1.3133252 10:0.62263286 11:2.2500148 12:4.9404531 13:2.1691742 14:1.8509613 15:3.2904615 16:0.92909825 17:0.97148556 18:1.2438902 19:0.94402486 20:2.0808682 21:1.6422883 22:0.26412621 23:1.2952859 24:0.45137274 25:0.12836614 26:1.1586299 27:1.6892852 28:0.22843629 29:0.69554627 30:0.95888019 31:0.69556057 32:0.52746886 33:0.70640779 34:1.679545 35:0.34245995 36:-0.16116293 37:0.098204747 38:0.7987228 39:0.026915958 40:-0.0144234 41:0.059368882 42:0.11908765 43:0.076880164 44:0.47276801 45:1.4562843 46:0.085396081 47:0.2485193 48:0.60112131 49:1.1421082 50:0.83810985 51:0.44894341 52:0.61901397 53:0.03128095 54:0.56594175 55:0.29887563 56:0.04338181 57:-0.036410425 58:0.35857531 59:0.6475296 60:0.62733197 61:0.80124789 62:0.043511156 63:0.44455859 64:0.42592335 65:0.65577644 66:0.7146067 67:1.2996999 68:4.6554766 69:8.6268177 70:9.3237457 71:5.2905488 72:1.0676632 73:1.3868848 74:1.5479838 75:3.2148008 76:1.3226266 77:3.7092345 78:2.2162101 79:3.1375685 80:2.2200329 81:0.58815086 82:1.349208 83:1.7009565 84:2.6874208 85:1.3226347 86:0.052247938 87:0.38896167 88:1.1778395 89:-0.12571006 90:1.0466716 91:1.4979693 92:1.7302182 93:0.044608038 94:1.4025638 95:1.3538748 96:1.5826206 97:0.35416293 98:0.45092228 99:1.9209187 100:0.51226252 101:0.042748436 102:0.14467654 103:1.2111685 104:0.37251371 105:0.59269696 106:0.60822874 107:0.81037593 108:0.73904699 109:0.073666036 110:1.6033275 111:0.3119559 112:0.682284 113:-0.31902161 114:1.1588477 115:0.16397351 116:-0.30435663 117:0.25644466 118:0.16810527 119:-0.28891614 120:0.065179996 121:0.68457061 122:0.25635436 123:-0.051073067 124:0.12397279 125:0.20961079 126:-0.28821546 127:-0.049209803 128:0.27304006 129:0.20131488 130:-0.20931676 131:4.6311111 132:0.61083931 133:0.04881284 134:0.4320868 135:1.3309414 136:0.25536487 137:1.9868124 138:8.0245733 139:3.7426026 140:0.75049502 141:0.40464643 142:3.2257614 143:0.84786624 144:0.28561166 145:1.2258781 146:1.8445225 147:2.8792381 148:1.0775558 149:2.8327549 150:1.0923033 151:1.7709097 152:0.74527371 153:2.1363702 154:0.29701871 155:1.204797 156:1.5371646 157:2.6247854 158:1.1483121 159:0.6305877 160:1.55847 161:2.9393826 162:0.88606739 163:1.027445 164:0.55489582 165:1.093011 166:0.88947642 167:1.4203318 168:1.0921113 169:1.6990212 170:1.1185091 171:1.8929031 172:1.3321778 173:0.41227287 174:1.3510791 175:0.90797544 176:0.57211709 177:0.90909648 178:0.49262765 179:1.4159137 180:0.80614954 181:1.1730503 182:1.4228554 183:0.19793016 184:0.68649441 185:-0.12373628 186:0.90542328 187:0.5690738 188:0.71119863 189:1.0229385 190:0.57205337 191:0.44421625 192:0.45516083 193:0.96556199 194:1.1993073 195:-0.12653875 196:3.1736343 197:1.7505248 198:2.2759297 199:3.8311808 200:1.9900988 201:1.481114 202:3.5821157 203:4.0291753 204:4.0965462 205:9.2519121 206:3.4845064 207:0.49213138 208:5.8786612 209:4.1984119 210:1.9621226 211:1.9320078 212:2.7941318 213:4.3594351 214:2.795434 215:0.60404718 216:1.0041111 217:1.9317431 218:2.6033909 219:1.6793355 220:0.56023061 221:0.92288661 222:1.3639635 223:0.099200659 224:0.76706958 225:1.382748 226:0.59637952 227:0.065031648 228:0.59227985 229:0.015423448 230:0.70623147 231:0.34089729 232:0.062741317 233:0.72786862 234:0.455208 235:0.66873813 236:0.25761679 237:0.13666995 238:0.31434184 239:-0.20354113 240:0.53522015 241:0.19004054 242:0.26862729 243:0.01928013 244:1.0846331 245:0.368727 246:-0.14184614 247:0.48127595 248:-0.18421145 249:-0.18251978 250:0.1186633 251:0.31885469 252:0.050496656 253:0.079070874 254:0.19744352 255:0.44852343 256:-0.033326194 257:-0.089379251 258:0.28905797 259:0.096389443 260:-0.072788924 #
8.2249106132485323428227275144309 1:0.23488848 2:0.14243852 3:-0.23831339 4:0.73430091 5:0.40362304 6:0.37912419 7:0.091045119 8:0.51292861 9:-0.23706028 10:0.71217155 11:0.82712704 12:-0.11929739 13:0.37045705 14:-0.17293051 15:0.27245727 16:-0.0095449118 17:-0.076091379 18:0.0089634685 19:0.059182841 20:-0.13165012 21:0.096859954 22:-0.0050813188 23:0.48822841 24:0.29511312 25:0.073674314 26:0.015397787 27:-0.13204505 28:0.2592448 29:0.45549756 30:0.70871133 31:-0.10054263 32:-0.16522771 33:0.15591545 34:0.032173071 35:0.29706329 36:-0.29024699 37:0.55517876 38:0.055897344 39:0.45217365 40:0.2277142 41:-0.046610914 42:0.26455659 43:-0.032952517 44:0.59819752 45:0.0080146752 46:0.15120703 47:0.099467017 48:-0.27204615 49:0.4855409 50:-0.014553239 51:0.11380003 52:0.20076251 53:-0.089915387 54:0.22324665 55:-0.051036958 56:0.32421139 57:-0.10558088 58:0.22687434 59:-0.22511314 60:0.02109031 61:-0.19243935 62:0.028908391 63:0.34281582 64:-0.0339895 65:0.069353089 66:-0.11258776 67:-0.13067865 68:-0.091076709 69:0.020874571 70:-0.0047125416 71:0.24080615 72:0.050789014 73:3.9347363 74:-0.13695151 75:0.082546413 76:0.57148188 77:0.3506453 78:0.02740336 79:1.312917 80:3.624717 81:0.35506138 82:0.20008007 83:0.48071375 84:-0.15713643 85:-0.31506541 86:2.0818319 87:1.5227599 88:-0.069978796 89:-0.035592742 90:0.042488467 91:-0.24672744 92:0.039440006 93:0.94384241 94:0.82419753 95:-0.12260421 96:-0.32040745 97:0.13338029 98:0.10088538 99:0.054837786 100:1.2738447 101:1.1447031 102:0.047979303 103:-0.12941715 104:-0.08325211 105:0.15643154 106:-0.11668751 107:1.3265955 108:1.159868 109:-0.040691663 110:0.16922726 111:-0.1344893 112:0.45851099 113:-0.048623633 114:1.5718838 115:0.67607176 116:-0.30440688 117:0.35057744 118:0.0073802606 119:0.14071167 120:-0.081102803 121:0.87454826 122:0.33298746 123:-0.18115862 124:0.03329381 125:0.7261017 126:0.10997941 127:0.088414922 128:0.77470571 129:0.51169986 130:0.10830671 131:0.36260727 132:-0.060361456 133:0.12307435 134:0.079288848 135:-0.11218681 136:-0.030561445 137:0.44298422 138:0.17787182 139:-0.0067576091 140:-0.17340524 141:0.080483995 142:-0.11975326 143:0.31399003 144:0.18526714 145:0.73131043 146:0.052069094 147:-0.12456905 148:-0.2071549 149:0.13132602 150:-0.0028686975 151:0.97851562 152:0.27675262 153:0.61433095 154:-0.2467504 155:0.98524547 156:0.71035099 157:0.099792361 158:0.24653199 159:0.1574612 160:0.41390124 161:-0.099977337 162:1.3162755 163:-0.1707854 164:0.32431111 165:0.29761955 166:0.095081255 167:0.78514069 168:-0.027476743 169:0.036139876 170:0.18471004 171:0.83406132 172:0.10968782 173:0.24818633 174:1.2922438 175:-0.17382154 176:0.18048055 177:0.0011737336 178:0.96649617 179:0.00050687348 180:-0.096677862 181:0.4867622 182:0.016684255 183:0.012813921 184:-0.19981037 185:0.86220944 186:-0.10126934 187:-0.18342976 188:-0.010485388 189:-0.091529131 190:0.25731367 191:0.11983007 192:0.81007856 193:0.16363798 194:0.24986921 195:-0.18392813 196:0.5243547 197:0.046316031 198:0.22834867 199:0.13148224 200:0.56034642 201:0.47746575 202:0.47985417 203:0.86533862 204:-0.22830646 205:-0.057995085 206:0.31829566 207:-0.0010496565 208:1.0317281 209:-0.1065183 210:0.91026127 211:0.092402801 212:0.35867587 213:0.029446803 214:0.47269121 215:0.106047 216:0.1273587 217:0.45872292 218:0.37539846 219:0.42262596 220:1.5196341 221:0.32415995 222:0.49470207 223:-0.038253106 224:0.39326057 225:0.043308504 226:0.54214871 227:0.087133877 228:0.3790144 229:0.32063881 230:0.38582477 231:0.75917798 232:0.80522352 233:-0.19548926 234:0.28238526 235:0.5185371 236:0.41038933 237:1.3710518 238:0.58310878 239:0.46842003 240:-0.099512316 241:0.14869089 242:0.06210291 243:0.0044346261 244:0.41694605 245:0.37748986 246:0.35095257 247:0.25575164 248:0.75517982 249:0.56309813 250:0.1566589 251:0.35105714 252:0.13682057 253:0.32611251 254:0.11990607 255:0.23535463 256:0.052247811 257:0.2229383 258:0.32537159 259:0.035618097 260:0.0082036201 #
8.2249106132485323428227275144309 1:-0.20935296 2:0.053143945 3:0.2202931 4:-0.11724059 5:-0.20380726 6:-0.013275988 7:-0.057308968 8:-0.23118334 9:-0.2616927 10:0.19523831 11:-0.13269594 12:0.080184229 13:0.26710656 14:0.24040748 15:0.2794238 16:-0.096093237 17:-0.16287528 18:-0.029887721 19:0.37134403 20:-0.010218741 21:0.22055711 22:-0.01050207 23:-0.1720482 24:0.20503336 25:0.038969174 26:-0.0011567894 27:0.22186489 28:0.13686869 29:-0.06795945 30:0.13250829 31:-0.044701554 32:-0.019513454 33:0.22821487 34:-0.041893877 35:-0.11785131 36:0.19673772 37:0.20777851 38:-0.01243996 39:0.1355482 40:-0.17548624 41:-0.1743183 42:0.2824499 43:0.11566401 44:0.51383138 45:0.19501814 46:0.43396878 47:0.27173182 48:0.1977852 49:0.2040641 50:0.023263318 51:0.060918789 52:-0.058492519 53:-0.083144903 54:0.48648205 55:0.62402397 56:0.49951571 57:0.34606841 58:0.54174727 59:0.59881681 60:0.50075293 61:0.52046037 62:0.81157839 63:0.39353502 64:0.25692675 65:-0.28832024 66:-0.091341168 67:-0.065161325 68:-0.0858934 69:-0.12993126 70:-0.21396476 71:-0.26194367 72:-0.19129039 73:-0.26002789 74:-0.24727434 75:-0.13384151 76:-0.25278074 77:-0.10145893 78:-0.17440337 79:0.095807455 80:-0.074261606 81:-0.2323129 82:-0.28346589 83:-0.21520357 84:0.018051155 85:-0.16908953 86:0.0068955701 87:-0.072466552 88:-0.092756741 89:-0.044363938 90:-0.024666807 91:0.01301616 92:0.01583929 93:-0.16160093 94:0.30764788 95:-0.23432875 96:0.053226978 97:0.073957019 98:-0.16483311 99:-0.067551874 100:-0.14134045 101:-0.013397857 102:0.020779558 103:-0.10706791 104:-0.16465861 105:-0.16337159 106:0.10404927 107:0.25520381 108:0.036052249 109:-0.095419966 110:-0.29539111 111:-0.065892287 112:-0.18111612 113:-0.31644347 114:-0.077262826 115:0.079068184 116:0.48625138 117:0.027957225 118:0.18154584 119:0.05344452 120:-0.23962963 121:0.0039340123 122:0.063897528 123:-0.2129903 124:0.14120147 125:0.18068619 126:-0.11679416 127:0.10237232 128:0.0072321785 129:-0.23024194 130:0.56897575 131:-0.17535283 132:-0.21267675 133:0.10070106 134:-0.17766972 135:-0.16973886 136:-0.15348722 137:-0.0099573936 138:-0.1658286 139:-0.052275624 140:0.19115661 141:0.13392733 142:0.10509294 143:0.097758256 144:-0.13279632 145:0.057964701 146:-0.1473498 147:-0.16845095 148:-0.081180558 149:0.050426137 150:0.020599255 151:0.10064217 152:0.20910303 153:-0.10977153 154:0.083817028 155:-0.15930162 156:-0.14959697 157:-0.25967708 158:0.038022563 159:-0.10964967 160:0.11003083 161:-0.21107715 162:0.23410614 163:0.064849645 164:-0.081928164 165:0.066994756 166:-0.052693687 167:0.1127575 168:-0.060476083 169:0.069114245 170:-0.0032566767 171:0.020405009 172:0.13968106 173:0.31826091 174:-0.14523138 175:-0.027796857 176:0.022332985 177:0.079705507 178:0.13930802 179:0.37135062 180:0.10057364 181:0.48182914 182:0.46293363 183:0.43642357 184:0.31459442 185:0.083835348 186:0.19918895 187:0.39757949 188:0.45635223 189:0.49303174 190:0.33072257 191:0.8339622 192:0.22271757 193:0.71152341 194:0.78911299 195:-0.012801019 196:-0.12619722 197:-0.18854405 198:-0.15422073 199:-0.21240196 200:-0.26824847 201:-0.17801917 202:-0.13059643 203:-0.20370615 204:-0.16814572 205:-0.23110728 206:-0.19168596 207:-0.27786466 208:-0.2087003 209:-0.2548514 210:-0.26893869 211:-0.21678098 212:-0.2440913 213:-0.13630237 214:-0.068150721 215:-0.13155213 216:-0.017616898 217:0.0013259596 218:-0.058650147 219:0.12575847 220:-0.085950986 221:0.053304404 222:-0.17417209 223:-0.14893813 224:-0.2260741 225:-0.064529985 226:0.23944193 227:0.41729689 228:0.39580798 229:0.16316137 230:0.29273069 231:0.08615008 232:-0.19265024 233:0.14304237 234:-0.090180077 235:0.0098102381 236:-0.15386853 237:-0.04176338 238:0.054237988 239:-0.18610333 240:0.0039731883 241:0.052992653 242:0.089081168 243:0.069855243 244:-0.2371988 245:-0.10205013 246:-0.185192 247:-0.2448014 248:-0.1453086 249:0.041775126 250:-0.06893231 251:-0.12244713 252:0.036883481 253:-0.12205761 254:-0.045213599 255:-0.019134879 256:-0.0074798395 257:-0.13042951 258:-0.024393747 259:-0.033299889 260:-0.08604344 #
-0.22439829164696342700402453829156 1:2.88323 2:1.4888171 3:0.050728537 4:1.400877 5:1.410063 6:2.5722837 7:1.4682084 8:0.86178756 9:0.97487271 10:1.3361977 11:0.47981957 12:0.31452176 13:2.7021484 14:4.7140269 15:1.6580325 16:1.4020027 17:0.72701454 18:2.3373144 19:2.0519679 20:1.7380203 21:2.4705641 22:1.6055408 23:0.59263664 24:0.73951596 25:2.1559572 26:2.8033197 27:1.6800554 28:1.2135111 29:1.7540345 30:3.4165823 31:3.8382711 32:3.6626649 33:2.9105184 34:3.7147682 35:4.037818 36:2.2663689 37:0.63457018 38:1.8365784 39:2.4311125 40:1.8517118 41:3.3875625 42:3.0738075 43:4.0046902 44:2.3268542 45:0.78168964 46:1.3698453 47:3.4562285 48:2.0481465 49:1.9456407 50:0.74153531 51:2.5616422 52:1.9657134 53:1.1264596 54:3.0404935 55:4.8504038 56:5.2765465 57:2.6943383 58:0.14157866 59:2.5436029 60:4.3232961 61:3.0696476 62:0.96808493 63:1.9816349 64:4.9287934 65:4.1426654 66:1.1695973 67:1.9764435 68:1.789539 69:4.2374086 70:1.1669743 71:2.4847982 72:2.1036968 73:0.88030046 74:1.1460689 75:2.5435426 76:2.3882644 77:1.3229226 78:1.4285942 79:3.0711932 80:1.284328 81:0.38662651 82:1.2838132 83:1.942688 84:0.74392736 85:2.8157122 86:4.0870519 87:3.2381294 88:2.50653 89:2.1632621 90:2.5975516 91:3.2347488 92:2.0076759 93:2.7018526 94:5.7146688 95:6.9306316 96:6.2816954 97:4.2202563 98:3.2558727 99:1.7958163 100:5.2011142 101:5.1492767 102:3.7626004 103:4.3726158 104:3.238235 105:3.6969345 106:5.4056258 107:5.8104796 108:4.8912711 109:4.4854512 110:4.9371586 111:2.5982158 112:4.5592904 113:2.9379246 114:4.0792241 115:5.0329561 116:3.583293 117:3.3030932 118:1.8214216 119:5.9405303 120:7.2998652 121:8.1856165 122:6.2918081 123:4.1220641 124:3.0481303 125:2.4384065 126:0.45904198 127:0.4782061 128:4.955152 129:8.3482599 130:7.5431643 131:2.8460386 132:4.7575235 133:1.41477 134:2.2519135 135:0.94611096 136:1.227692 137:1.2249762 138:0.8234089 139:0.023451125 140:2.3939466 141:2.1429164 142:3.3450649 143:5.0241489 144:3.0545151 145:1.0444416 146:4.4156127 147:5.0250993 148:5.0499439 149:4.0846739 150:0.74456364 151:2.0991337 152:1.9797915 153:0.97653317 154:3.4777951 155:2.7508762 156:2.3036895 157:2.5784097 158:2.4124384 159:5.9129357 160:4.605711 161:6.8039875 162:6.0408354 163:8.327116 164:5.8991189 165:2.2750003 166:0.22503532 167:0.95813477 168:1.02544 169:1.130306 170:2.710835 171:5.4203234 172:8.1728706 173:9.8506203 174:8.2479839 175:9.6742249 176:7.3547034 177:5.3916774 178:2.8603563 179:0.012704896 180:1.155274 181:3.5731311 182:4.0422487 183:6.1575937 184:7.7993002 185:7.4692454 186:4.9201951 187:5.8369546 188:5.3145447 189:5.3299675 190:3.1559834 191:2.839735 192:3.8186243 193:5.4259086 194:5.7058425 195:6.4676962 196:7.902082 197:11.231348 198:4.0491304 199:2.1585684 200:1.5809231 201:4.5734606 202:2.0545976 203:2.3121409 204:3.0828617 205:2.0542071 206:1.2053517 207:2.7530894 208:1.766519 209:1.8333917 210:1.8936565 211:0.057959449 212:1.106961 213:1.6010182 214:1.7235019 215:0.54055572 216:2.7178962 217:3.5846944 218:4.5121427 219:5.2118397 220:6.1007309 221:5.8794637 222:5.167295 223:4.6223698 224:3.8956451 225:3.4701767 226:3.2474639 227:3.5808237 228:5.0252209 229:6.0419688 230:8.7167292 231:9.5302048 232:9.3551435 233:7.0846376 234:3.501333 235:1.4850392 236:1.5968245 237:3.0068498 238:2.9827857 239:3.4802389 240:3.629045 241:3.0651774 242:2.9979637 243:2.142483 244:2.4531281 245:1.99413 246:0.80761206 247:0.98618227 248:3.2583385 249:4.9567389 250:5.2307467 251:5.2072711 252:4.6737242 253:5.814363 254:6.3574247 255:7.0838447 256:7.1343827 257:6.2987719 258:5.3911037 259:4.8343544 260:6.7476835 #
-0.051145497492172835307666645121571 1:4.4427104 2:0.35647002 3:0.87528402 4:1.8967701 5:1.742159 6:1.6806555 7:1.1430738 8:0.23513111 9:1.4575218 10:5.7018385 11:0.36174408 12:12.875953 13:2.3500776 14:3.5407894 15:4.3269005 16:0.67273313 17:0.93291605 18:1.8660283 19:2.960943 20:1.1747985 21:-0.006751826 22:0.063247956 23:3.7077954 24:2.3053689 25:0.39010775 26:0.62418008 27:1.349249 28:0.66682476 29:0.39701864 30:0.98060334 31:0.55880368 32:0.65119618 33:0.30175814 34:0.50231552 35:0.36153764 36:1.1129394 37:-0.15484537 38:1.8848976 39:0.93916404 40:-0.22518224 41:1.0187973 42:1.1357266 43:0.37926498 44:0.13094482 45:0.020647475 46:0.60077441 47:0.72093368 48:-0.055814631 49:0.16531196 50:0.051751733 51:-0.19005544 52:0.2721011 53:-0.066781268 54:0.69468111 55:0.20321566 56:0.096860081 57:0.15212132 58:0.52912909 59:1.0077853 60:0.75149763 61:0.88178235 62:0.29453316 63:0.583202 64:0.12847973 65:0.38988909 66:1.4271147 67:4.6284127 68:8.871706 69:12.926208 70:10.044629 71:4.0666604 72:6.5824714 73:7.9273963 74:1.4409423 75:2.9757006 76:0.98806232 77:0.85167706 78:2.1663506 79:1.4033889 80:2.3143914 81:2.1000938 82:1.9310541 83:1.4260712 84:1.1227325 85:1.5427942 86:0.19241652 87:1.0733457 88:1.1051942 89:0.024421666 90:0.12761387 91:0.099847659 92:0.68606925 93:0.4382962 94:0.26355311 95:1.0252876 96:0.29270133 97:0.42496383 98:0.35271701 99:0.91563869 100:0.19697507 101:0.7171495 102:0.27063924 103:0.53834057 104:0.41059718 105:-0.19918463 106:-0.021247961 107:0.67992586 108:0.17097783 109:0.70919132 110:0.67812634 111:-0.14404371 112:0.46500725 113:0.52009863 114:0.27154416 115:0.14576407 116:0.6598143 117:-0.10576949 118:0.56775099 119:0.63839614 120:0.079781234 121:0.43537828 122:0.095163211 123:-0.13969688 124:0.071321741 125:0.18903889 126:0.13362353 127:0.013985641 128:-0.10086885 129:-0.12322436 130:0.5479036 131:6.3199291 132:1.359841 133:1.2146029 134:3.3347363 135:1.7147894 136:0.90197599 137:1.9706157 138:10.659231 139:6.1670756 140:1.504202 141:2.7879155 142:2.43504 143:1.6305774 144:3.7903566 145:4.3312058 146:0.36778331 147:1.0849147 148:0.77798831 149:0.68896961 150:0.51313877 151:1.0401289 152:1.5700355 153:3.1689343 154:2.1551116 155:1.0487754 156:1.4860005 157:2.1205559 158:1.3720273 159:0.91946048 160:1.5677481 161:2.4968226 162:0.47194484 163:0.37703431 164:1.0773902 165:1.5012879 166:0.25714687 167:0.84034234 168:0.92198056 169:2.0613914 170:0.98922509 171:1.5017133 172:0.79164439 173:0.47146553 174:1.3180063 175:0.34002456 176:0.090507649 177:-0.051713575 178:0.33826327 179:0.49686325 180:0.22266974 181:0.3747904 182:0.97860581 183:1.256929 184:0.44069815 185:0.6996972 186:1.0984334 187:1.4379418 188:-0.066733643 189:0.2972613 190:0.61348987 191:0.97871357 192:0.35081065 193:0.20085575 194:0.23735915 195:1.3176682 196:1.4333642 197:0.5056867 198:0.99299252 199:3.4054823 200:2.8123014 201:2.1855099 202:2.1790226 203:3.2922623 204:1.3860536 205:-0.098291889 206:1.5145568 207:4.3671374 208:2.5389097 209:4.2759824 210:4.254199 211:1.9382653 212:2.1330557 213:3.4723592 214:3.6382582 215:4.0572472 216:1.2151321 217:1.4306626 218:3.4407053 219:2.8870149 220:2.5553885 221:0.13124588 222:2.2507956 223:0.1925364 224:2.3715742 225:2.7683582 226:1.3356766 227:0.38957375 228:0.99534553 229:1.0772108 230:0.75082797 231:0.92665321 232:0.35973683 233:0.85018539 234:1.9032435 235:2.2651622 236:1.0868349 237:0.74158299 238:0.92316687 239:1.1952375 240:1.1318783 241:1.0129341 242:1.1489441 243:1.2925693 244:1.4227788 245:0.75922322 246:0.69285339 247:0.74860841 248:1.3430309 249:1.4892217 250:0.87777519 251:1.6991501 252:1.2678578 253:1.3312831 254:1.5174909 255:1.1168642 256:1.8003663 257:1.665902 258:1.6352254 259:2.0308535 260:2.1137614 #
8.2249106132485323428227275144309 1:1.1729579 2:-0.10233509 3:-0.11515119 4:0.19021183 5:1.008445 6:-0.22115664 7:0.090427332 8:0.22874865 9:1.4688807 10:0.79293591 11:0.16427879 12:0.66492027 13:1.0952682 14:0.048367757 15:-0.16064702 16:-0.26725891 17:-0.21640787 18:-0.20241369 19:-0.081269026 20:0.049919125 21:0.12337825 22:-0.093687139 23:0.012110869 24:-0.061634734 25:0.026042555 26:0.13970318 27:-0.046396412 28:-0.12861663 29:0.25298098 30:0.53783315 31:-0.26314259 32:0.44779596 33:-0.081480525 34:0.051777784 35:-0.27562946 36:0.68578899 37:-0.26606816 38:-0.010133824 39:-0.19477539 40:0.21997614 41:-0.18501988 42:-0.2192657 43:0.17011781 44:0.77915561 45:-0.26436111 46:-0.05892932 47:-0.24488597 48:0.53752029 49:0.16077082 50:0.026878588 51:0.56571442 52:0.19681515 53:0.11799511 54:-0.14478143 55:-0.028810054 56:0.48255917 57:0.23191744 58:0.22200619 59:0.040408034 60:-0.15792572 61:-0.055919856 62:0.055933025 63:0.0033908475 64:0.19106896 65:-0.11925189 66:0.11763458 67:0.21736145 68:0.25240797 69:-0.013395458 70:0.55572414 71:0.69591945 72:0.48567325 73:0.62541842 74:2.1962702 75:0.92660201 76:0.47641468 77:0.17870507 78:1.2760968 79:1.0286553 80:0.17037119 81:0.25397199 82:-0.060738437 83:0.12596779 84:-0.2034726 85:-0.14622895 86:-0.17767355 87:-0.19220096 88:0.022643631 89:0.11036476 90:0.20833066 91:0.053886432 92:0.12988056 93:0.63929343 94:-0.22607522 95:-0.12843902 96:0.12034159 97:0.80119532 98:-0.007177595 99:0.48543656 100:0.38666394 101:1.1326733 102:0.15677781 103:-0.080589242 104:0.26585272 105:2.2112408 106:0.74225998 107:0.043793879 108:0.42825019 109:0.94001466 110:-0.26993996 111:0.61266989 112:0.011829057 113:1.4765406 114:0.89488214 115:0.40969616 116:0.22825845 117:0.74013585 118:-0.035058618 119:0.71227694 120:-0.036240991 121:0.60431892 122:0.39803451 123:0.36415178 124:0.22966348 125:0.27938476 126:-0.34613851 127:-0.19220112 128:0.024893733 129:0.19696841 130:0.43903482 131:0.08925692 132:-0.21363047 133:-0.044176094 134:-0.16240849 135:-0.12825909 136:-0.0062667746 137:-0.21536091 138:-0.19106847 139:-0.0075409506 140:0.048793763 141:-0.057425968 142:0.1710626 143:0.42414704 144:-0.036345132 145:-0.16835548 146:-0.19997783 147:0.013491838 148:-0.16491462 149:0.25726497 150:0.081713736 151:-0.065487891 152:-0.10658791 153:0.10707818 154:0.15781893 155:0.027943458 156:-0.097269706 157:-0.044217758 158:0.27176249 159:-0.1726709 160:-0.23786773 161:-0.16963708 162:0.029487789 163:-0.047682025 164:-0.21902454 165:-0.0055601667 166:-0.064723775 167:-0.067658767 168:0.015416402 169:-0.0074741538 170:0.015780848 171:-0.21907926 172:-0.096486807 173:-0.072447397 174:0.18004173 175:0.018032454 176:-0.15023406 177:0.31872934 178:0.25279987 179:-0.20852365 180:-0.0067396085 181:-0.2092528 182:-0.016194424 183:-0.12665737 184:-0.069629155 185:0.12931854 186:0.26364338 187:-0.25007129 188:-0.04561156 189:0.14140865 190:0.14433372 191:-0.17579424 192:0.05426104 193:0.16994226 194:0.072175436 195:0.19073458 196:0.31024522 197:0.092701115 198:-0.010776136 199:-0.26845521 200:1.1152569 201:-0.11977728 202:0.15293352 203:0.09176977 204:0.51124907 205:0.33105224 206:0.29500961 207:-0.075868554 208:1.4077547 209:0.98217577 210:0.39021635 211:0.50948405 212:-0.00043314192 213:0.20399775 214:-0.14425935 215:0.83764321 216:0.51457351 217:0.30294412 218:0.28382024 219:0.41767529 220:0.1307708 221:0.03279905 222:-0.21496575 223:1.0292449 224:0.45678526 225:0.26880115 226:-0.11560032 227:0.2045279 228:0.54878676 229:0.61084181 230:0.25490505 231:-0.024365406 232:0.1662534 233:0.11600218 234:0.30883008 235:0.065097541 236:-0.10563817 237:-0.24810567 238:-0.22647515 239:0.18159768 240:-0.10602632 241:0.087540559 242:0.036922861 243:0.2964333 244:-0.15533517 245:-0.14437863 246:0.012215094 247:0.12601128 248:0.25128433 249:0.031031262 250:0.18780383 251:-0.10323501 252:0.033471972 253:-0.13217813 254:-0.017056493 255:-0.081226632 256:-0.1087172 257:-0.1503953 258:0.073866419 259:0.15006392 260:0.42369032 #
8.2249106132485323428227275144309 1:0.76620227 2:2.0960982 3:0.67878801 4:0.93219459 5:1.1907837 6:0.30837208 7:0.088094838 8:0.28531384 9:1.1732235 10:0.84999031 11:0.67224205 12:0.12885322 13:1.599305 14:-0.039850526 15:-0.049231026 16:0.21402027 17:-0.22433856 18:0.50322717 19:0.080151282 20:0.60539085 21:0.29482248 22:0.049322587 23:0.017755672 24:-0.127959 25:0.17293525 26:-0.086088143 27:0.18522686 28:0.11472419 29:0.80181539 30:0.98790973 31:-0.10488477 32:0.20891514 33:-0.2061563 34:-0.062125623 35:0.053431585 36:0.34037641 37:0.21261938 38:0.087797001 39:0.27407914 40:0.62089151 41:0.11308984 42:0.030840673 43:-0.12131774 44:-0.15834422 45:-0.16479555 46:0.43034944 47:0.15234168 48:-0.026260478 49:0.078648075 50:0.22372819 51:-0.0074554058 52:0.046312269 53:0.0042527663 54:1.9383753e-05 55:0.36951986 56:0.33718958 57:0.22700302 58:0.16837047 59:0.0015420353 60:0.32048729 61:-0.042482443 62:0.075207949 63:0.14436513 64:0.43648612 65:0.060574464 66:-0.03297893 67:0.67975062 68:-0.033345185 69:0.25740319 70:0.49236974 71:0.25260279 72:0.59586471 73:0.22209947 74:2.50121 75:0.66492969 76:0.78260452 77:0.16823733 78:0.56730282 79:0.44003651 80:0.37374327 81:-0.12246073 82:-0.098160729 83:-0.11985738 84:0.050235674 85:0.35986954 86:0.78867561 87:-0.071152844 88:-0.012820588 89:0.2710799 90:0.03604063 91:-0.073889181 92:0.71345353 93:0.32627547 94:-0.0037516316 95:-0.25547528 96:-1.9324842e-05 97:0.1309664 98:0.43710324 99:0.30976149 100:0.022358388 101:0.12258656 102:1.1068469 103:0.19668482 104:0.14904663 105:1.8501284 106:0.36906078 107:-0.18690571 108:0.54011357 109:0.19041513 110:0.38866031 111:-0.31095347 112:0.31701776 113:1.8777547 114:0.08270546 115:0.30702925 116:0.43517059 117:0.73203117 118:0.46304166 119:0.25319368 120:-0.050232168 121:1.3024837 122:-0.26900506 123:0.4635883 124:-0.072156221 125:0.70543426 126:0.021866187 127:0.47406438 128:-0.25712398 129:0.49264926 130:-0.27943176 131:0.19937424 132:-0.098243482 133:-0.12681228 134:-0.060140852 135:-0.0041234335 136:0.35318172 137:0.066523023 138:0.020666888 139:0.21942022 140:-0.035084218 141:-0.001407698 142:-0.048694942 143:0.10508677 144:0.21262081 145:-0.13251884 146:0.020458065 147:0.23912679 148:-0.11990427 149:-0.15000273 150:0.10545906 151:0.35751364 152:0.35614884 153:-0.032290421 154:-0.028737474 155:0.1295598 156:0.079104863 157:0.042655915 158:0.17737766 159:0.16251452 160:-0.20258589 161:-0.14656837 162:0.11234608 163:0.14929177 164:0.011937841 165:0.029664455 166:0.34629527 167:-0.17167221 168:-0.072291978 169:-0.21729669 170:0.29413223 171:-0.2639485 172:0.0019242284 173:-0.28333485 174:0.25329939 175:-0.14676304 176:-0.040362392 177:0.06613563 178:0.23955892 179:-0.045439526 180:-0.077568531 181:0.11277393 182:0.18449105 183:-0.08409597 184:0.16272654 185:0.098593548 186:0.18670495 187:-0.03057098 188:-0.078300871 189:0.044510487 190:0.10217912 191:-0.12177259 192:0.29759371 193:0.097231321 194:0.37908795 195:0.25646177 196:-0.12025955 197:0.23816547 198:0.32960725 199:0.051815338 200:1.7358767 201:0.92506355 202:0.56759006 203:0.31143099 204:0.70982569 205:0.33102879 206:0.26400381 207:-0.01023028 208:1.3977072 209:0.97623354 210:-0.019771975 211:0.31360373 212:0.48085016 213:-0.08332067 214:-0.038149059 215:0.17233886 216:0.49564931 217:0.52427226 218:0.0021317773 219:0.87988609 220:-0.13503237 221:-0.058492769 222:0.0001451253 223:0.052652352 224:0.60179603 225:-0.12786692 226:0.36215368 227:0.10061087 228:-0.048134219 229:-0.024025247 230:0.50803429 231:0.62445706 232:-0.1144423 233:0.20477499 234:-0.028770406 235:0.048950355 236:-0.12849346 237:-0.018722277 238:0.090961941 239:0.20607117 240:-0.054999746 241:0.12149637 242:0.11798912 243:0.022332216 244:-0.18566689 245:-0.0043319236 246:-0.21960464 247:-0.22338663 248:0.020738719 249:0.11635822 250:-0.16569318 251:0.40359688 252:-0.039796501 253:-0.090409778 254:-0.12616654 255:0.039346006 256:-0.16197613 257:-0.06627021 258:-0.047255151 259:0.026510336 260:-0.21659695 #
-2.6993631864344793669374666933436 1:3.8108442 2:-0.23893243 3:0.021795938 4:0.16027154 5:0.45517844 6:0.79463661 7:0.7989611 8:1.6840794 9:0.38112059 10:0.32575715 11:0.70540911 12:1.6115203 13:0.80968237 14:1.3334693 15:3.944968 16:2.3863387 17:1.4052259 18:1.1073703 19:2.0651436 20:0.86172229 21:0.1987083 22:2.2662215 23:8.7105532 24:3.0019271 25:1.3908066 26:6.3389568 27:3.0603178 28:2.0025992 29:0.88318259 30:2.0236745 31:0.60710543 32:0.93906569 33:0.65070719 34:2.0619833 35:0.97650635 36:0.55333334 37:1.1564636 38:-0.029845981 39:0.9909544 40:-0.18838811 41:1.8377229 42:0.15460792 43:1.5628645 44:0.38040853 45:1.8575947 46:0.23064536 47:0.21552335 48:0.18121077 49:1.0859671 50:0.77850407 51:0.10039562 52:0.99872696 53:1.1597748 54:0.590195 55:1.4293106 56:0.23694947 57:1.3445746 58:0.1690833 59:1.9766054 60:1.5468985 61:1.2244685 62:1.9633878 63:1.0728109 64:0.65293199 65:1.523807 66:3.2570612 67:0.71228564 68:0.57582134 69:0.40809754 70:0.42861792 71:0.54380226 72:1.1095928 73:3.5192385 74:0.68215638 75:1.605993 76:-0.16286731 77:1.5163462 78:0.50257045 79:1.0615262 80:2.3254983 81:1.2220685 82:0.23630364 83:0.070988387 84:3.0583501 85:0.32642528 86:0.27810499 87:0.14161462 88:0.71871012 89:0.39990127 90:-0.080524676 91:1.8077058 92:-0.22535492 93:-0.16287674 94:0.29571509 95:2.5979204 96:1.1009363 97:0.94591635 98:2.0528276 99:1.8906703 100:1.7265127 101:0.18447472 102:0.2915532 103:0.39029539 104:0.082132466 105:2.6001587 106:4.9488306 107:0.42403081 108:1.2338183 109:0.27734998 110:0.56860572 111:1.5453784 112:2.1564167 113:1.8613949 114:0.47158855 115:1.5435601 116:0.33779246 117:0.53428483 118:1.735256 119:0.19669488 120:1.0765454 121:0.063991085 122:1.7413186 123:1.1899196 124:1.3987498 125:0.51973635 126:0.99255717 127:1.7922734 128:0.53251457 129:1.5494586 130:0.46326903 131:1.4153696 132:-0.10491376 133:0.029103352 134:0.66856825 135:1.3556256 136:0.372538 137:0.50292617 138:0.6521402 139:0.16622135 140:-0.0081892395 141:0.27547401 142:1.7402567 143:0.041681107 144:0.18940571 145:1.4770032 146:2.2058961 147:1.071172 148:0.98812747 149:2.0128393 150:0.19188374 151:-0.020941813 152:0.93066442 153:0.43949753 154:0.89468658 155:1.0081 156:0.76110685 157:1.0028574 158:1.1031101 159:1.487022 160:3.6728501 161:0.90609467 162:0.20077841 163:-0.070557207 164:3.0521805 165:1.5150969 166:2.0598757 167:4.0328698 168:0.022614995 169:0.82689703 170:1.1801062 171:0.89606035 172:1.048829 173:1.5550351 174:0.9423852 175:1.0866491 176:0.97205913 177:1.3532529 178:2.4352462 179:0.23982143 180:1.185375 181:0.33317244 182:2.2317486 183:0.56928831 184:-0.21303627 185:2.2703905 186:1.5976464 187:0.61736488 188:-0.014415197 189:0.21131031 190:1.7767922 191:0.16504921 192:1.0972768 193:-0.036397196 194:0.31710231 195:0.87051517 196:0.73620152 197:0.1881534 198:0.61670166 199:2.9273658 200:1.8329359 201:1.9295634 202:1.0667067 203:1.130962 204:0.5313921 205:0.38545695 206:0.60812622 207:0.87011325 208:0.37880012 209:0.32408547 210:0.77019179 211:0.61044109 212:0.8405779 213:0.17271256 214:6.9725995 215:0.24594417 216:0.44728372 217:0.30088359 218:3.9941437 219:0.83932233 220:0.73434591 221:1.5371335 222:0.75337619 223:0.39288694 224:0.69944859 225:1.7797943 226:-0.22491974 227:0.56512576 228:0.90149635 229:1.9818608 230:1.3196028 231:0.1702494 232:0.84730196 233:1.124216 234:0.98891431 235:-0.0097252382 236:1.13915 237:0.012337749 238:0.57686675 239:0.81460494 240:0.24237062 241:0.90288997 242:-0.10986594 243:0.57953578 244:0.01822065 245:0.56884015 246:0.13099717 247:1.1579905 248:0.089528881 249:1.2338417 250:0.54857832 251:0.77511811 252:0.36539194 253:0.90571302 254:0.091720559 255:0.63673717 256:0.95742166 257:1.7136199 258:0.80761164 259:2.1290059 260:2.7124262 #
0.1959041388113854087471565890155 1:4.5488939 2:3.4385755 3:4.643353 4:12.369789 5:7.4488349 6:3.2035322 7:4.0892701 8:3.9471815 9:1.7890202 10:2.5789499 11:7.5596323 12:9.8411446 13:9.2397327 14:2.3439298 15:2.4636045 16:3.4560461 17:6.7200994 18:1.3927439 19:3.0158715 20:3.343287 21:3.5048156 22:2.2863457 23:3.3470423 24:3.517518 25:2.4456584 26:0.62227988 27:0.82153124 28:0.24328038 29:2.2040081 30:0.2883929 31:1.1709753 32:1.8521289 33:0.097232305 34:2.4684281 35:0.63379437 36:0.68380922 37:0.689605 38:0.51783788 39:2.0417058 40:0.61596602 41:0.24958454 42:0.15841527 43:1.2457544 44:0.19791509 45:0.71608669 46:0.019145343 47:0.67247403 48:1.207772 49:-0.15344675 50:0.77856165 51:-0.017575257 52:0.010628035 53:0.047729455 54:0.69281304 55:0.52970821 56:0.60580468 57:0.13288346 58:0.50307149 59:0.78668135 60:0.30454004 61:0.46000454 62:0.18429899 63:0.63688576 64:0.2261873 65:0.011960519 66:0.52462381 67:6.2653127 68:10.685151 69:8.0715666 70:4.0275536 71:8.9101715 72:12.110116 73:7.6391377 74:4.7959085 75:9.165555 76:7.1119576 77:5.4827337 78:8.5937929 79:9.2977066 80:3.4538267 81:5.0499783 82:5.8055015 83:1.9956032 84:0.75988322 85:2.8708434 86:3.0879629 87:3.0699575 88:3.9695995 89:0.7181769 90:3.7052634 91:3.6365073 92:0.46388263 93:2.1986449 94:1.7473089 95:1.0071644 96:1.4156829 97:2.7313552 98:0.32840133 99:1.9045861 100:1.2473141 101:0.57000721 102:1.056603 103:1.602769 104:0.71305847 105:0.7794289 106:0.29425678 107:0.25048032 108:0.16285257 109:0.64444458 110:0.5043627 111:0.98964578 112:0.15568694 113:0.78628856 114:0.57650167 115:0.44452962 116:-0.012029667 117:-0.050419245 118:0.095329605 119:0.28253174 120:-0.27985615 121:0.88642192 122:0.3930915 123:0.26601356 124:-0.26454076 125:-0.048153374 126:0.051507559 127:0.040421665 128:0.14126863 129:-0.33527026 130:0.8318733 131:7.219656 132:4.4060788 133:1.5231814 134:4.8786368 135:3.0979187 136:2.165776 137:5.3766313 138:8.5794706 139:8.0208902 140:6.6506939 141:4.2810163 142:3.6358232 143:3.0322044 144:3.3926384 145:7.1037149 146:3.566385 147:2.0581899 148:4.1900907 149:0.84868562 150:0.79777014 151:1.8397923 152:4.5878096 153:3.9392691 154:3.6165235 155:2.9679997 156:2.0622482 157:6.0459957 158:4.4176259 159:2.9880352 160:3.7188227 161:1.5047839 162:1.7092954 163:2.3884003 164:1.8545504 165:1.0289111 166:0.72759545 167:3.1719935 168:1.2937938 169:1.9431099 170:3.3159614 171:1.1327887 172:2.1753938 173:1.9369632 174:1.1795251 175:1.4690726 176:0.52696979 177:0.6258406 178:0.77363712 179:0.85929811 180:0.62270468 181:1.5789531 182:1.625584 183:0.90040362 184:2.0145192 185:1.464929 186:1.2564881 187:1.1533747 188:0.39466912 189:0.067607388 190:-0.18247759 191:0.86974543 192:0.047672663 193:0.26306358 194:0.93962973 195:0.051241763 196:3.1306429 197:3.4834173 198:4.5456605 199:5.0208592 200:0.99928802 201:9.0149069 202:6.4908271 203:3.6856277 204:1.5863861 205:0.94809341 206:2.7220595 207:4.6712441 208:4.3231568 209:5.6640792 210:5.4458804 211:2.8490753 212:0.10180927 213:1.7412865 214:6.5439525 215:1.7257031 216:8.2933636 217:6.1117196 218:2.5230393 219:4.6878653 220:2.6442904 221:5.9410768 222:2.404027 223:2.8824599 224:1.8532223 225:0.76542532 226:1.2451335 227:0.63542813 228:0.34661278 229:1.2398413 230:0.31233045 231:0.91875118 232:0.40231714 233:1.1383209 234:1.1208134 235:0.8829779 236:1.2634846 237:0.48679748 238:1.2207681 239:1.5113515 240:1.2622271 241:0.60914439 242:0.47669291 243:1.1238205 244:1.0768019 245:1.2193861 246:0.84122849 247:0.71094739 248:1.1351546 249:1.1427823 250:1.3008229 251:0.630638 252:0.95193875 253:0.66111588 254:0.88798493 255:0.67345363 256:0.48291966 257:0.64238805 258:0.98540956 259:0.83435518 260:0.85873991 #
-0.6112260684438329816359214419208 1:3.95083 2:1.5885518 3:0.8096202 4:4.7595558 5:3.7663827 6:3.2916033 7:0.70470023 8:0.54540324 9:0.20603529 10:4.3875141 11:0.74839091 12:8.7680254 13:2.6724944 14:1.4629667 15:1.1551979 16:2.6948903 17:1.6446463 18:1.5063328 19:0.24955167 20:1.9568751 21:-0.074385643 22:2.8156838 23:3.9464011 24:1.7680564 25:-0.26578099 26:0.18680392 27:-0.049618825 28:0.86724544 29:1.7505393 30:0.85887772 31:1.4737235 32:0.348847 33:0.81898105 34:1.0318104 35:1.1030934 36:0.093235783 37:0.56479251 38:0.44796833 39:-0.061111391 40:0.33384743 41:-0.25761706 42:0.72337359 43:-0.26515582 44:0.039982997 45:1.347775 46:0.4198072 47:-0.14605151 48:0.56838542 49:-0.25782308 50:-0.32846984 51:-0.17811328 52:0.73423731 53:1.1458899 54:-0.10560215 55:0.08541692 56:0.56926292 57:0.30512503 58:0.33975628 59:0.10089761 60:-0.11512763 61:0.017187985 62:0.42155424 63:0.043955635 64:-0.12280238 65:-0.1121302 66:0.62303948 67:4.7316003 68:8.0876646 69:11.654171 70:10.426538 71:3.3346999 72:3.5264814 73:2.4820852 74:3.2134759 75:2.1870346 76:3.5178459 77:4.9493656 78:3.1198032 79:1.2214538 80:2.132391 81:1.0383062 82:0.89095485 83:1.9493333 84:2.7084727 85:1.3694634 86:1.2856984 87:1.7392914 88:1.1674622 89:0.14785336 90:0.61931694 91:1.5982722 92:1.9480805 93:0.2159452 94:0.22727895 95:1.8357806 96:1.5907282 97:1.1093186 98:1.007666 99:1.4544412 100:0.73404658 101:-0.0054948367 102:-0.25435162 103:1.6536605 104:0.42921877 105:0.51557392 106:0.15454742 107:1.9959852 108:1.1780341 109:1.6210335 110:1.3775945 111:0.47530633 112:1.1106747 113:0.45187128 114:0.71162808 115:0.14146292 116:0.26886228 117:1.3091528 118:0.55864292 119:0.22797665 120:0.75731254 121:0.99067193 122:1.5382938 123:0.8067506 124:1.1158837 125:1.3693875 126:0.68541408 127:0.92983758 128:0.06329526 129:0.40776899 130:0.78567785 131:5.5822606 132:0.055963546 133:0.63985491 134:0.84944856 135:2.0340576 136:0.31909251 137:3.8220148 138:8.2443571 139:7.1675091 140:2.0417557 141:2.6904018 142:4.8588138 143:3.7037206 144:2.3737714 145:0.56477839 146:3.0259941 147:0.50257629 148:1.5944577 149:1.5502964 150:2.2456715 151:2.174077 152:2.3300531 153:0.50247741 154:2.5779092 155:1.5872927 156:0.60899389 157:2.0701172 158:1.1163602 159:2.9428732 160:3.8820505 161:2.9497998 162:1.7022523 163:1.6846375 164:3.7220912 165:0.44597107 166:0.38740838 167:2.3576574 168:1.9693567 169:0.32340005 170:0.81845927 171:0.40720183 172:0.8889029 173:0.84776211 174:1.1978879 175:1.2516818 176:0.23462519 177:1.171791 178:0.91521412 179:0.73359269 180:0.58900714 181:0.38660061 182:0.79583216 183:1.5395734 184:0.41766295 185:0.77250022 186:0.63830805 187:0.31966624 188:1.3767841 189:0.71543944 190:0.77112579 191:1.1574893 192:0.81033474 193:0.7043907 194:1.4016827 195:0.28778669 196:1.4052864 197:1.4482869 198:2.46627 199:-0.20752065 200:0.81953996 201:3.5993266 202:2.4482474 203:5.218658 204:1.9781286 205:5.7751474 206:0.64838606 207:3.1896677 208:1.7945377 209:2.125247 210:5.1674438 211:3.3783257 212:2.3982835 213:3.4683273 214:2.8856022 215:0.87822986 216:0.58211744 217:0.75936329 218:1.692626 219:2.1626654 220:0.69354463 221:1.2829511 222:0.98677671 223:0.17498843 224:0.28537208 225:-0.14835653 226:0.45039338 227:0.21573736 228:0.85469079 229:0.41885889 230:0.59326828 231:0.54460585 232:0.44127929 233:0.41536281 234:-0.081198364 235:0.42043978 236:0.43130553 237:0.14964765 238:0.23713835 239:0.26165512 240:0.044505946 241:-0.15651132 242:0.14627588 243:0.060323536 244:0.046961978 245:-0.090845801 246:-0.036238324 247:0.18864797 248:0.20289218 249:-0.15420069 250:-0.098794304 251:0.20647855 252:-0.13947584 253:0.23272912 254:0.17230381 255:0.0012928454 256:-0.024575805 257:0.22000861 258:0.0020583146 259:0.073570766 260:-0.093662076 #
-0.21299249232245354157555539131863 1:2.2805698 2:0.81440949 3:1.1791713 4:3.7400978 5:3.2203975 6:0.26387918 7:2.2572556 8:4.0749545 9:0.80403614 10:0.27786869 11:1.0069051 12:7.0805416 13:0.54905856 14:2.7029026 15:1.9550257 16:2.1775827 17:2.3685374 18:0.36966544 19:7.3410134 20:6.0694628 21:1.7140967 22:4.2712116 23:2.7511797 24:1.766169 25:2.7113314 26:2.92203 27:3.2903271 28:1.1824167 29:4.2360396 30:10.794635 31:2.2806919 32:3.4364974 33:2.1965582 34:2.7529404 35:2.6542463 36:2.725801 37:10.785022 38:2.5809548 39:7.1893382 40:3.4694386 41:11.734849 42:2.9758735 43:5.7250528 44:0.092533812 45:2.5985405 46:1.0407912 47:1.8365024 48:7.5047827 49:5.6332846 50:6.6441798 51:1.9719326 52:7.981565 53:4.3390994 54:4.6422811 55:1.9909147 56:4.0212164 57:1.0571543 58:5.8362746 59:4.6660018 60:9.9038906 61:7.2280803 62:6.5146255 63:5.1962652 64:4.0062809 65:6.1965795 66:-0.083344676 67:-0.031566679 68:0.82057321 69:0.86937952 70:0.12428703 71:1.4150726 72:1.3292261 73:4.1071248 74:0.55274016 75:2.8255394 76:2.0692177 77:4.598299 78:1.1791991 79:1.1101495 80:5.2011628 81:1.6964072 82:1.8691612 83:0.34003139 84:5.5306845 85:2.5218244 86:0.31288588 87:1.0321289 88:4.1899676 89:3.4493172 90:1.1929287 91:3.3649571 92:5.9656577 93:1.840121 94:2.6383443 95:9.4431973 96:1.0875455 97:2.0830519 98:5.8828816 99:8.095603 100:1.8892201 101:1.5033838 102:3.4067245 103:6.6115823 104:2.0823574 105:4.3935924 106:7.8401952 107:2.4355562 108:3.4051661 109:2.0117502 110:6.8948808 111:3.0878589 112:2.1595592 113:0.46710062 114:5.1740594 115:4.8071837 116:1.1174796 117:4.5338497 118:1.022557 119:4.4343805 120:2.0931034 121:6.0846334 122:5.6547718 123:2.0549545 124:1.0967972 125:1.6729534 126:4.9237251 127:5.3574376 128:0.1611459 129:6.9705515 130:8.1872053 131:2.0117388 132:0.40526712 133:0.12338986 134:0.82007498 135:0.58906728 136:0.56392795 137:0.60136282 138:2.2907584 139:1.1159732 140:0.30786496 141:0.17436212 142:3.4992559 143:0.44460633 144:1.5630434 145:2.15396 146:2.185101 147:1.0789689 148:0.6332128 149:0.49826279 150:1.5473958 151:0.15052564 152:0.36269945 153:2.373055 154:0.55885619 155:1.5810671 156:1.5369871 157:2.7634525 158:0.52450693 159:1.1185784 160:5.5727882 161:2.1685011 162:-0.32722932 163:-0.1445691 164:4.1268063 165:1.0117549 166:3.4825814 167:0.6296621 168:2.2460966 169:1.4274988 170:4.2456503 171:3.3121274 172:4.5030894 173:-0.0012923576 174:2.5228772 175:2.9923997 176:1.4564862 177:0.81607991 178:0.46937793 179:1.4476781 180:1.7532648 181:2.3117085 182:3.2529502 183:3.778796 184:2.4171581 185:2.3385234 186:5.5822339 187:1.11686 188:0.80409551 189:1.5849273 190:1.0260394 191:3.4103701 192:1.0671912 193:5.6047845 194:4.7993855 195:3.8355334 196:1.4821776 197:1.4407072 198:1.1095582 199:1.3004088 200:2.1739774 201:0.82845342 202:0.54301256 203:0.99391335 204:0.82211405 205:1.6905037 206:0.21035895 207:2.2283709 208:1.3743935 209:0.44325376 210:1.3849708 211:0.82784927 212:0.062071953 213:2.6347051 214:1.8959272 215:2.4443219 216:2.0161903 217:2.9514253 218:5.2108274 219:0.90316856 220:1.8550342 221:2.709559 222:1.8382815 223:5.3184109 224:3.5687001 225:1.7390543 226:3.198909 227:3.752671 228:2.6170456 229:2.6895564 230:2.214355 231:1.2839679 232:4.4914351 233:4.1718793 234:2.9080307 235:4.278698 236:1.6919215 237:3.7974749 238:3.8149397 239:1.8270855 240:3.8375459 241:4.9139309 242:0.68212396 243:2.0138123 244:1.8850546 245:3.3931496 246:2.8397205 247:1.5455554 248:2.5281692 249:0.49855703 250:4.8363261 251:1.0349057 252:6.4760542 253:-0.13631001 254:0.84255511 255:2.8701034 256:3.203805 257:5.6167622 258:3.526798 259:2.1778522 260:1.6714922 #
-0.64236056227117066530496458653943 1:2.3857076 2:0.54588473 3:0.65139145 4:0.82870811 5:2.4814689 6:1.3807963 7:3.7702806 8:4.2753658 9:1.2962428 10:2.5686924 11:0.98626679 12:4.7548394 13:0.77804166 14:1.0359488 15:1.8825471 16:2.2869158 17:1.4459405 18:2.3323507 19:4.382906 20:4.0762415 21:1.217816 22:2.8873177 23:2.3357205 24:0.4354187 25:0.33235204 26:0.32188103 27:2.6551762 28:1.5333477 29:1.0860531 30:2.9244928 31:3.6605706 32:-0.050965652 33:0.45122549 34:1.114885 35:-0.12474059 36:2.7094951 37:0.15196085 38:2.2276835 39:3.1020279 40:0.82473761 41:0.88157785 42:3.068572 43:0.89198089 44:0.19305611 45:0.78923696 46:1.8535978 47:1.0616044 48:1.6718657 49:1.5379381 50:2.2578335 51:0.72226298 52:0.67157423 53:1.3832601 54:0.60586375 55:1.0764498 56:0.22365621 57:0.35093093 58:3.1683273 59:0.74216807 60:2.6153781 61:3.809005 62:2.0096903 63:1.0267898 64:1.61689 65:0.086431652 66:0.48048249 67:0.035130642 68:0.12912074 69:0.76654607 70:0.593153 71:0.94998592 72:1.3595784 73:3.9402008 74:0.2958231 75:1.8563745 76:1.7102542 77:3.0270479 78:1.4118625 79:1.5031819 80:1.8563052 81:3.0566025 82:1.412848 83:1.4404899 84:1.1431105 85:4.6991167 86:1.8457478 87:2.2021806 88:1.8445681 89:2.3017275 90:2.3164198 91:3.9313865 92:0.54583919 93:2.6097755 94:1.6527216 95:2.8772573 96:3.8466141 97:2.1743271 98:2.8106525 99:1.7063018 100:1.3420221 101:2.3756576 102:3.1344137 103:1.2105752 104:0.5435456 105:0.7860465 106:2.1513007 107:2.1921904 108:1.7925826 109:3.2036407 110:1.5973872 111:3.3390951 112:0.74484104 113:1.5082467 114:1.2507499 115:1.9836857 116:-0.029834921 117:0.62170541 118:3.7561932 119:2.386759 120:3.2048821 121:2.0964816 122:1.7073995 123:0.96366733 124:1.0627387 125:2.3068721 126:2.399287 127:1.2419578 128:3.6474428 129:1.0240334 130:0.14721026 131:3.2408192 132:1.7786115 133:1.2237834 134:3.4721987 135:3.4817576 136:2.554661 137:2.0842574 138:-0.0081824716 139:1.2951041 140:0.87964594 141:0.7165125 142:1.4536296 143:1.4289931 144:1.7304845 145:2.5958335 146:3.5446954 147:4.4357567 148:2.7627532 149:3.8806674 150:7.5380692 151:0.18444155 152:7.0161319 153:4.4330597 154:3.1590879 155:3.8260691 156:2.7504368 157:3.9172511 158:0.87463778 159:2.2781482 160:2.8709567 161:3.306334 162:1.0025035 163:3.4424748 164:3.4720416 165:2.8308117 166:0.50170445 167:2.1768775 168:5.4549084 169:2.0615613 170:1.8314693 171:4.8917217 172:3.0211928 173:0.27817458 174:2.2270353 175:4.1706481 176:2.2454257 177:1.3047838 178:2.3685944 179:4.2116752 180:0.22488508 181:0.8059206 182:1.4727812 183:2.6485453 184:1.0134441 185:2.1007509 186:1.9626848 187:1.9280002 188:1.9865814 189:0.74495167 190:1.9550391 191:0.60879248 192:1.151196 193:0.091958508 194:0.12296971 195:0.010446473 196:0.73241919 197:0.76593977 198:1.4298487 199:1.3618248 200:3.0216584 201:4.618793 202:2.5487943 203:3.6715188 204:0.85076201 205:1.3038226 206:4.2400041 207:6.8398433 208:0.55804622 209:2.4232678 210:1.3756567 211:1.838452 212:2.4512227 213:4.0350232 214:3.8463373 215:2.4274962 216:3.9261034 217:4.0856256 218:1.7354356 219:5.2301245 220:1.1054394 221:5.2039518 222:3.0535312 223:0.80311978 224:-0.080492742 225:2.7372496 226:2.0373626 227:1.521347 228:1.7887621 229:1.443072 230:1.3562001 231:1.7717649 232:-0.15352105 233:3.0577054 234:0.63464439 235:0.68705779 236:1.3795663 237:2.1366446 238:0.076086409 239:1.8831437 240:1.6278311 241:1.6854712 242:0.81395054 243:2.5577903 244:0.89670408 245:1.3824123 246:0.41294831 247:1.5786893 248:2.6814346 249:1.0816667 250:2.774147 251:2.6592979 252:1.4005984 253:0.4528051 254:3.0242851 255:0.49440902 256:0.11994381 257:0.36615881 258:3.2778549 259:1.3100443 260:2.4404063 #
-1.7247748277683772055723920857417 1:5.2320266 2:0.1606297 3:0.054757286 4:1.305625 5:0.12702931 6:0.32871994 7:0.83416516 8:5.4321246 9:0.24299882 10:1.3597218 11:4.3986697 12:1.1885718 13:0.4443599 14:2.0395961 15:6.1386743 16:1.1717937 17:1.1170157 18:6.3742142 19:0.21801798 20:0.31586313 21:3.5824227 22:4.5108123 23:1.7544758 24:0.1938291 25:1.6119781 26:1.3338282 27:1.4494877 28:2.5700927 29:2.3212495 30:1.4157341 31:0.24479932 32:0.4485471 33:1.2926925 34:0.46171206 35:2.2673435 36:1.4902036 37:1.1798271 38:0.470745 39:1.5947617 40:0.86044765 41:0.42446476 42:1.3736283 43:1.1912724 44:0.69035923 45:0.32901049 46:0.83708012 47:0.0064149736 48:0.71749526 49:1.8358428 50:0.053211655 51:0.36774859 52:0.49794227 53:0.087983862 54:-0.016449742 55:0.5053547 56:0.63968623 57:0.55258554 58:0.30379489 59:0.88198358 60:0.4569782 61:0.47351667 62:0.78546137 63:0.6370635 64:0.18129244 65:0.43360484 66:8.0962553 67:0.80529863 68:1.9061521 69:2.5470922 70:0.29084849 71:-0.12987722 72:0.89530265 73:2.4141092 74:0.02650509 75:0.17479166 76:1.7635326 77:1.8260528 78:1.6985248 79:3.2842681 80:5.0790024 81:0.69836509 82:0.82308453 83:7.9635882 84:3.0707049 85:2.7768121 86:-0.058149431 87:1.3444543 88:1.1872691 89:1.8170656 90:4.5995302 91:1.9310936 92:0.52800858 93:4.2111344 94:2.9980114 95:1.0623443 96:0.70399374 97:3.9126463 98:0.50975281 99:0.95796883 100:3.6156013 101:1.0663793 102:0.67989486 103:1.0292742 104:3.0130103 105:0.65292895 106:0.4641133 107:1.116048 108:-0.0027362036 109:1.5088516 110:-0.29680997 111:0.61491853 112:0.72870487 113:0.04407965 114:0.44262582 115:0.53652596 116:0.84360045 117:1.8150188 118:-0.092029013 119:0.72064412 120:0.86480182 121:0.15277794 122:1.0238627 123:0.43322468 124:2.9574852 125:0.41837922 126:0.702658 127:0.55646116 128:1.4890321 129:1.7083292 130:0.33697444 131:1.1281953 132:-0.097647227 133:0.025241787 134:1.2425818 135:0.75155371 136:0.29414344 137:0.48634997 138:0.068314582 139:0.026475649 140:0.38791126 141:1.6014085 142:0.56171519 143:0.62416148 144:-0.11484542 145:1.8819529 146:0.071227901 147:0.99748313 148:1.2015117 149:0.58657098 150:0.33762822 151:1.4222181 152:1.086429 153:0.772057 154:0.79154611 155:1.9944099 156:0.33538309 157:0.27056116 158:0.75709629 159:0.23016301 160:0.27930945 161:0.25566509 162:1.1077318 163:0.35195827 164:0.97897047 165:0.8239482 166:1.0417746 167:0.2630887 168:0.20186265 169:-0.05424875 170:0.24759595 171:0.27205634 172:0.035084322 173:0.48620939 174:1.0647898 175:0.46116188 176:2.5375082 177:0.62965679 178:0.011980521 179:0.38626671 180:0.35674593 181:1.1054292 182:0.24226238 183:0.4766542 184:0.24657954 185:0.79300207 186:0.74340069 187:0.13582414 188:1.014315 189:0.73338729 190:0.3216798 191:0.010811083 192:0.85735053 193:0.38450062 194:0.20521398 195:-0.23691303 196:0.73180127 197:0.3637304 198:0.80064714 199:3.0491347 200:1.3257917 201:1.2613901 202:1.9850836 203:2.5663593 204:-0.14158241 205:0.51127946 206:2.2268648 207:0.91453594 208:0.38108239 209:0.14037804 210:0.14175881 211:-0.11432539 212:-0.079312943 213:0.59045595 214:-0.12883583 215:-0.020215714 216:0.66788203 217:0.73318279 218:-0.14364395 219:0.32558534 220:0.20373283 221:0.14038676 222:0.92808056 223:0.29701188 224:0.41723168 225:0.47010183 226:1.2500672 227:1.1849986 228:0.62939411 229:0.22256139 230:2.0110586 231:1.1264234 232:0.21783006 233:0.059042599 234:2.5728819 235:1.420386 236:1.4757079 237:2.2285984 238:0.71048677 239:0.59127045 240:0.98086232 241:0.36558172 242:0.037326489 243:0.58762467 244:0.38979685 245:0.22411112 246:1.0999942 247:0.33379063 248:0.17027733 249:0.39636233 250:0.0041683763 251:0.095080115 252:-0.011029582 253:0.25924703 254:0.098528646 255:0.023058048 256:0.0076503097 257:0.14532053 258:0.80936784 259:0.37133074 260:0.36050546 #
8.2249106132485323428227275144309 1:0.18114366 2:0.061549019 3:-0.033154387 4:1.3634629 5:-0.0035177283 6:0.034497261 7:0.98629385 8:-0.088874154 9:-0.1734819 10:0.56581163 11:0.16149151 12:0.42672947 13:-0.071498975 14:0.44247305 15:0.067503102 16:0.17823756 17:0.81847095 18:0.50613135 19:0.12159484 20:0.26719043 21:-0.21993481 22:0.24473166 23:0.16775291 24:0.59234852 25:-0.18645477 26:0.62584573 27:-0.11871441 28:0.11382491 29:0.25527918 30:1.1248628 31:0.25864092 32:0.26252842 33:-0.21069565 34:-0.22992672 35:0.44583571 36:-0.050463818 37:0.20088264 38:-0.055013794 39:-0.022721082 40:0.092259623 41:-0.044091921 42:-0.23783773 43:0.17010489 44:-0.012776956 45:-0.12054741 46:-0.074577622 47:0.28315517 48:-0.20744325 49:-0.21493867 50:-0.083490402 51:-0.24338032 52:0.16239072 53:0.15854223 54:0.13132539 55:-0.023495521 56:0.19688225 57:-0.08517988 58:-0.20130569 59:0.13131467 60:0.11842752 61:0.32438663 62:-0.065648057 63:0.080621667 64:-0.14157854 65:-0.14298463 66:-0.11984605 67:0.076844834 68:0.3895427 69:0.11001288 70:-0.018837538 71:0.73794043 72:2.4297235 73:0.28169209 74:-0.084211797 75:0.28070784 76:0.7240265 77:1.4134377 78:1.9142793 79:2.7384462 80:0.864079 81:-0.057666309 82:0.64235377 83:0.41329408 84:0.53155625 85:0.46817401 86:1.5622722 87:0.31749758 88:0.4472962 89:1.2602323 90:0.79025835 91:0.69211447 92:1.0154613 93:-0.030239161 94:0.072809398 95:0.35265416 96:0.51373237 97:0.19194567 98:0.5843249 99:0.02546362 100:0.057316512 101:-0.24784848 102:-0.084844984 103:0.083044857 104:-0.029393679 105:-0.0089586563 106:-0.021241168 107:0.15843669 108:-0.087624282 109:0.22811347 110:-0.080345981 111:0.29333502 112:-0.11110447 113:0.28820199 114:-0.081469312 115:0.1982196 116:-0.014446779 117:0.83138126 118:0.1209712 119:-0.246571 120:-0.10119506 121:-0.094816007 122:-0.072482176 123:0.327856 124:0.5666222 125:-0.049161762 126:-0.32704484 127:0.24042499 128:-0.028269542 129:-0.24050479 130:0.6758756 131:0.52144921 132:0.77784735 133:0.13675104 134:0.26686579 135:0.082249008 136:0.90126687 137:1.3079319 138:-0.077970058 139:0.4455303 140:0.15187183 141:0.59001482 142:1.0870212 143:0.1296398 144:0.23446088 145:0.29730988 146:0.0034491266 147:0.37078696 148:0.030964058 149:-0.12075935 150:0.0040926938 151:0.42028981 152:0.34607676 153:0.37394345 154:0.59771699 155:0.0044896286 156:0.021774987 157:-0.11333507 158:0.54205471 159:0.63418126 160:0.41258666 161:-0.30435458 162:0.10693049 163:0.078645229 164:0.11816666 165:0.066178836 166:0.18224818 167:-0.014867068 168:-0.14037184 169:-0.037892886 170:-0.13283245 171:0.049669702 172:0.22356626 173:0.097111329 174:-0.083001845 175:-0.058192138 176:0.11049293 177:-0.19439553 178:0.11162159 179:0.022313979 180:-0.035215043 181:-0.11630084 182:0.24494135 183:0.014516834 184:-0.03659625 185:-0.080761999 186:0.13734084 187:-0.17426723 188:-0.051580496 189:-0.096548595 190:-0.11381539 191:-0.080184363 192:-0.25473106 193:-0.26169795 194:-0.029382339 195:-0.029031616 196:1.0811291 197:0.65387183 198:0.98037028 199:2.9274943 200:0.50446808 201:0.70638567 202:0.54852521 203:0.16126598 204:0.18877685 205:0.13275599 206:0.10488196 207:0.33693734 208:-0.098034188 209:0.45069152 210:0.18308434 211:-0.067444168 212:0.14051621 213:0.82387131 214:0.58107275 215:-0.19854446 216:0.93732101 217:0.21209946 218:-0.23967144 219:1.7504143 220:0.79873806 221:0.62503076 222:1.3984553 223:0.12927449 224:0.95659655 225:1.1059185 226:0.47159526 227:0.10782364 228:0.41292268 229:0.13931637 230:-0.22791255 231:0.32243645 232:0.13107993 233:-0.051505312 234:-0.10283042 235:0.27673393 236:0.42439759 237:0.15162383 238:0.13367984 239:0.52843034 240:0.16325356 241:0.020970773 242:0.038554255 243:0.19472493 244:-0.01070792 245:0.71249938 246:0.075797983 247:-0.084131069 248:0.024307894 249:0.41456097 250:0.11149868 251:-0.064976662 252:0.23270725 253:0.11350939 254:0.047698144 255:0.23133276 256:0.099044248 257:-0.058757007 258:0.022500101 259:0.32623225 260:0.02188308 #
-3.3620755534213850879154961148743 1:0.23114027 2:1.329065 3:0.43718189 4:0.85630947 5:0.62269026 6:1.1587338 7:0.91380161 8:0.48932543 9:0.10946631 10:0.99135065 11:0.94374371 12:0.82728738 13:0.5973714 14:0.27280021 15:0.44466802 16:0.63621652 17:0.60337871 18:0.84673613 19:-0.040232707 20:0.030991245 21:0.75230205 22:0.66171318 23:0.56977713 24:0.62535495 25:-0.23668513 26:-0.24962741 27:0.24686532 28:0.69499505 29:0.36715636 30:0.52027935 31:0.24161433 32:0.88212562 33:0.57263017 34:0.21955685 35:0.13360451 36:0.7794283 37:0.78365159 38:0.091955259 39:-0.071971044 40:-0.2329472 41:0.51051986 42:0.82114595 43:0.8681289 44:0.0016214376 45:1.1074415 46:0.27100232 47:0.46073657 48:-0.23613736 49:0.23837392 50:0.52265847 51:-0.047826834 52:0.44256765 53:-0.085428238 54:0.36643398 55:-0.25068212 56:1.3438017 57:0.55374771 58:0.29725787 59:0.11818339 60:1.2568828 61:0.72711211 62:1.4280585 63:0.42964363 64:0.087742887 65:-0.27356726 66:0.066502251 67:1.1157856 68:2.0548389 69:1.384886 70:-0.0957653 71:1.0074013 72:0.84789997 73:0.70897484 74:-0.22410873 75:0.49067232 76:0.28644624 77:0.88235384 78:0.71252596 79:0.93136221 80:0.64077365 81:0.094943978 82:0.16043288 83:-0.15828969 84:-0.10634878 85:0.824637 86:0.11537245 87:0.83663309 88:0.36868945 89:0.59821224 90:0.51486462 91:1.9159859 92:1.3606987 93:1.9631658 94:0.2562812 95:0.72248083 96:0.48021623 97:0.52143753 98:0.4378843 99:1.1964494 100:1.5558089 101:0.90660053 102:0.68780565 103:0.36579624 104:0.82187396 105:0.73620909 106:0.26702306 107:1.7199277 108:-0.14694589 109:0.80507356 110:0.22207215 111:0.16316579 112:1.530847 113:1.8076901 114:0.15530567 115:0.73508155 116:1.4590683 117:1.2555453 118:1.5300075 119:1.5889082 120:1.4823543 121:0.61290234 122:0.9725787 123:-0.20006438 124:0.43399301 125:0.69261527 126:0.91949129 127:0.39901567 128:-0.007603751 129:0.58387488 130:-0.14731297 131:1.8248911 132:2.4956558 133:0.29317737 134:3.8586149 135:4.7089987 136:4.392334 137:1.4224883 138:2.9929707 139:2.448307 140:4.7142134 141:3.3580229 142:1.444092 143:2.0793178 144:3.9895818 145:3.3008454 146:2.1303022 147:1.617921 148:2.5446837 149:1.3194162 150:1.3776703 151:1.0773107 152:3.3348229 153:2.4974961 154:0.1467085 155:1.5850912 156:1.3371165 157:1.822703 158:1.3576733 159:2.704366 160:1.807524 161:1.6563406 162:0.83692104 163:0.83441502 164:2.1084909 165:2.6850219 166:1.6326437 167:0.017341094 168:0.94670039 169:0.82015377 170:0.99182487 171:0.44644746 172:0.29320052 173:2.0540698 174:0.69547486 175:1.4669002 176:1.6792301 177:0.65845191 178:1.8195105 179:1.4369141 180:2.0696635 181:0.773947 182:1.577895 183:0.90153873 184:2.3488483 185:2.7571058 186:0.95075959 187:1.6556257 188:1.9852166 189:1.0772934 190:1.4742848 191:0.91021568 192:1.9533633 193:0.72637814 194:0.87334573 195:1.1253104 196:1.2496667 197:5.2129807 198:7.3985991 199:7.6205544 200:1.5502059 201:1.9433359 202:3.6478276 203:3.3481283 204:1.3581214 205:1.7084897 206:4.2405753 207:2.1289301 208:3.1343341 209:1.8273801 210:0.90624589 211:1.3111732 212:1.5949183 213:2.265003 214:1.9063426 215:1.755717 216:0.92112613 217:0.81525642 218:0.78748715 219:0.7520873 220:1.4523053 221:1.3761766 222:0.29269782 223:1.0202979 224:0.29663122 225:0.85063702 226:1.6444168 227:1.0255561 228:0.17395252 229:0.45162717 230:0.30351225 231:0.056449551 232:0.30015877 233:1.3415165 234:0.77606326 235:0.24388453 236:0.38913864 237:0.97532189 238:0.49424726 239:0.81820959 240:-0.17789966 241:0.97518897 242:0.86881506 243:0.52755767 244:0.14411157 245:0.98405683 246:0.68009812 247:0.97484756 248:0.23078516 249:1.2315831 250:0.59233695 251:0.43636963 252:0.25734419 253:0.5255332 254:0.48552319 255:-0.07186047 256:0.4289465 257:0.76725507 258:0.35807469 259:1.3967017 260:1.6588734 #
