SVM-light Version V6.02
2 # kernel type
3 # kernel parameter -d 
0.00056917773 # kernel parameter -g 
1 # kernel parameter -s 
1 # kernel parameter -r 
empty# kernel parameter -u 
260 # highest feature index 
13702 # number of training documents 
141 # number of support vectors plus 1 
-0.19836828 # threshold b, each following line is a SV (starting with alpha*y)
0.39400485450039474111250115129224 1:1.4885139 2:8.905282 3:8.310565 4:4.0369983 5:1.7322222 6:7.2997813 7:8.1726303 8:3.9692433 9:3.0426579 10:7.1483741 11:7.0688915 12:4.0550175 13:2.2538695 14:1.4601129 15:3.0006399 16:3.4378214 17:3.9721012 18:4.6206794 19:2.5541463 20:0.86271518 21:1.0896399 22:2.9062603 23:2.151989 24:1.3603522 25:0.55159497 26:0.010250014 27:0.025356473 28:-0.14358233 29:1.3964748 30:2.6973758 31:2.2440584 32:1.6476927 33:1.2710559 34:2.9651873 35:3.6073322 36:5.0785146 37:4.5495191 38:5.7252707 39:5.0371161 40:5.0614791 41:4.5893292 42:2.8936667 43:2.4716024 44:5.908381 45:7.1157207 46:8.1270084 47:7.2817512 48:7.0579987 49:5.7459426 50:6.0571246 51:5.2894258 52:5.9835815 53:5.7760277 54:3.5471711 55:3.0604191 56:2.0323026 57:3.6546495 58:7.2595253 59:8.3624897 60:7.0026894 61:4.4267159 62:2.117918 63:0.56312978 64:0.42413175 65:0.55359018 66:0.62139958 67:9.1311922 68:9.0470018 69:4.6719942 70:1.5655731 71:4.4824581 72:3.9263864 73:1.6292391 74:1.2119502 75:0.68985593 76:1.6174536 77:3.0175097 78:2.5823958 79:4.9548469 80:2.3510535 81:2.2363849 82:2.0860186 83:1.7825884 84:1.6075677 85:1.2961028 86:1.8018545 87:1.9154419 88:1.5417789 89:3.1994522 90:3.8875692 91:3.651041 92:3.9309773 93:3.552474 94:4.4504066 95:4.8548031 96:2.507308 97:3.0215833 98:0.99051374 99:1.4301358 100:0.34556907 101:1.1148276 102:1.8469491 103:2.1191056 104:0.43308073 105:2.5032742 106:3.9861181 107:3.2675335 108:3.4844704 109:2.7598829 110:4.3836274 111:8.5075502 112:9.1142998 113:5.861043 114:4.0826149 115:0.76084876 116:8.0042067 117:0.62620312 118:4.5923266 119:4.1990042 120:7.1830168 121:3.1860769 122:6.9803109 123:5.4808779 124:5.0872717 125:4.2307181 126:4.6751308 127:12.274117 128:1.0138596 129:6.9969044 130:4.5848422 131:3.0906479 132:11.599332 133:12.322014 134:10.567489 135:6.4004946 136:3.5449002 137:1.1342323 138:2.5022559 139:3.7571378 140:7.746717 141:8.9589977 142:8.6541805 143:7.7030382 144:7.9647646 145:7.8365326 146:8.7130184 147:11.597898 148:13.092386 149:10.964955 150:6.2463923 151:2.2662466 152:4.246789 153:8.5900726 154:11.082704 155:12.729516 156:13.00385 157:11.316536 158:9.3566618 159:7.2860198 160:3.6921499 161:1.7000775 162:6.3016005 163:11.204456 164:15.585865 165:16.924856 166:18.058577 167:16.938171 168:12.971213 169:8.5188303 170:3.797004 171:-0.19456691 172:2.7714508 173:5.1129375 174:6.4172854 175:7.5652328 176:7.5848327 177:6.6199789 178:4.8171721 179:2.5770011 180:3.0306158 181:5.1765604 182:7.2327256 183:8.8192835 184:9.2406311 185:7.9760561 186:4.702095 187:2.0203543 188:2.7066219 189:6.5759039 190:10.759401 191:13.791981 192:16.328039 193:15.783497 194:14.158502 195:11.497693 196:10.862264 197:10.695858 198:11.016133 199:8.540925 200:3.8342226 201:5.5258384 202:2.9880919 203:0.54604954 204:0.35173959 205:1.5531634 206:1.6471878 207:0.74632365 208:0.69133681 209:2.6328957 210:4.2266169 211:4.2497582 212:5.8738227 213:7.2889724 214:6.3281474 215:3.791549 216:2.1209493 217:2.417202 218:4.6350584 219:6.5840354 220:8.7749882 221:9.2102079 222:8.0244131 223:5.965745 224:6.0282197 225:8.3054018 226:11.700537 227:14.203488 228:15.174478 229:15.799551 230:16.091576 231:15.975873 232:14.521503 233:11.972771 234:9.2868214 235:9.4072971 236:12.109797 237:15.284904 238:18.242083 239:18.487547 240:17.407871 241:14.306699 242:12.310582 243:10.786886 244:9.7398157 245:11.079727 246:14.39924 247:18.830948 248:19.334583 249:18.568491 250:15.052106 251:10.004815 252:6.0670691 253:6.5158768 254:8.5114717 255:10.155159 256:11.182957 257:10.971563 258:9.669817 259:7.7968769 260:5.733119 #
0.42217525403234201775148903834634 1:1.001632 2:9.9951153 3:10.421956 4:6.9758124 5:2.0641375 6:7.6378174 7:10.657168 8:6.0933499 9:4.5633554 10:9.8774395 11:8.4811945 12:5.3984895 13:5.7152796 14:9.0659637 15:8.2595978 16:5.5637445 17:6.178391 18:8.3128843 19:7.9182949 20:6.6188312 21:7.1126328 22:7.4635472 23:6.3236279 24:5.5006452 25:5.6541309 26:4.9939442 27:3.5130491 28:2.5315616 29:3.2679036 30:5.2829189 31:5.7227006 32:7.1587863 33:7.29493 34:6.3331709 35:4.5312414 36:4.0852098 37:4.9897933 38:6.3468008 39:7.4159431 40:8.7495775 41:9.154171 42:9.5288124 43:10.384897 44:10.196967 45:9.9954538 46:8.1406708 47:7.8893661 48:8.6121473 49:8.0370741 50:8.0148497 51:7.6473575 52:7.2063956 53:6.218061 54:6.8756871 55:7.9472675 56:8.2384138 57:8.3097553 58:7.5725942 59:6.8133292 60:6.6614637 61:7.9201088 62:10.093388 63:10.830951 64:10.639758 65:10.191443 66:0.23793553 67:6.3532114 68:10.509606 69:8.347662 70:3.8195112 71:10.18867 72:8.3907061 73:2.6413593 74:1.4370837 75:2.4966063 76:-0.015295093 77:1.3811295 78:3.3799117 79:7.0469651 80:6.1367035 81:4.0584464 82:4.7799873 83:5.8313098 84:6.3066654 85:5.9520903 86:6.5273967 87:5.1020923 88:2.4452846 89:1.8594812 90:5.9058995 91:9.9573927 92:11.514779 93:13.494111 94:12.60009 95:11.061142 96:6.5983243 97:1.9451056 98:2.928643 99:7.49123 100:9.945734 101:11.565667 102:11.593456 103:9.8783112 104:6.5150356 105:3.4433916 106:0.57134968 107:1.0003815 108:2.3730614 109:3.0539532 110:3.4627774 111:3.1553404 112:2.8849797 113:4.0478878 114:5.390214 115:8.8109236 116:11.596908 117:13.736713 118:13.681242 119:13.014087 120:8.318758 121:6.4145846 122:9.0828247 123:13.434343 124:20.625248 125:22.850368 126:24.795816 127:22.745237 128:19.539854 129:12.056917 130:0.31303981 131:2.1319082 132:8.8265543 133:9.0843973 134:7.0696893 135:3.371798 136:4.3118949 137:7.8962102 138:8.2274656 139:7.2865067 140:9.1437559 141:5.4384584 142:1.7779899 143:4.0728273 144:8.3692293 145:10.192515 146:9.5581818 147:9.9257441 148:9.1619844 149:7.2020369 150:6.351223 151:8.9358912 152:11.318604 153:12.429219 154:11.544606 155:10.548347 156:8.3087769 157:5.0450487 158:2.3188624 159:1.1732897 160:1.9931954 161:2.97121 162:3.8908126 163:4.5667863 164:5.1715846 165:4.8615837 166:4.6856074 167:4.5663724 168:4.7331586 169:5.6036277 170:7.0324054 171:8.3230667 172:9.4329166 173:10.486229 174:10.900524 175:11.908663 176:11.317221 177:10.310457 178:8.5121508 179:6.7960477 180:6.3818102 181:7.6951723 182:8.6779881 183:8.4755926 184:6.5998559 185:3.7259839 186:5.3519258 187:9.8847961 188:14.004308 189:17.179605 190:16.920187 191:13.649007 192:9.3225117 193:3.1903694 194:3.6713207 195:1.3781853 196:0.024769956 197:0.21748218 198:0.60291266 199:0.85421878 200:0.55280298 201:1.708746 202:1.8479327 203:1.4016297 204:1.3389273 205:2.3567507 206:2.416631 207:1.5324949 208:0.99940234 209:1.2128537 210:2.7996855 211:3.6847918 212:6.2361817 213:9.2142067 214:9.8531666 215:7.9915247 216:7.2490892 217:5.1092954 218:2.5124285 219:1.9321363 220:3.3048565 221:4.2599616 222:4.4710045 223:3.7058415 224:2.7423992 225:2.0237951 226:1.5443887 227:0.9381355 228:0.84235191 229:1.6372097 230:2.6589289 231:3.4733119 232:3.9986062 233:4.4268346 234:4.8153796 235:5.3050632 236:5.1294184 237:3.8045874 238:1.6252736 239:0.90322864 240:4.0379701 241:6.3476329 242:8.153265 243:9.0198536 244:8.1974974 245:6.3342109 246:4.046463 247:2.9571643 248:3.8368134 249:6.0849171 250:7.8281727 251:8.8015366 252:8.5563412 253:7.642849 254:6.3522458 255:4.7439156 256:3.4913127 257:3.1944587 258:4.3352704 259:5.8521953 260:5.1248045 #
-0.555182995123473799203850376216 1:0.81347781 2:3.6437938 3:4.7849989 4:1.5401584 5:2.4784229 6:0.33377266 7:1.0682545 8:1.3065947 9:0.71302277 10:4.109179 11:1.1010643 12:3.2260697 13:0.52366555 14:4.0992503 15:3.0008852 16:1.0100195 17:3.4682019 18:2.8727424 19:4.120944 20:1.7782644 21:1.3049486 22:1.3279967 23:1.1259041 24:3.2837403 25:2.6187181 26:1.5643802 27:0.89303493 28:2.9751573 29:3.9868634 30:0.87061059 31:3.6066892 32:1.3741832 33:4.3864117 34:1.1508991 35:4.1401119 36:3.1210837 37:3.0470779 38:2.2801304 39:1.2043422 40:1.2737896 41:3.2744498 42:1.8460021 43:1.6364185 44:2.2460804 45:3.8230624 46:1.0988504 47:1.8851953 48:2.8780742 49:0.47992027 50:1.427184 51:2.0965745 52:4.1732135 53:0.9070816 54:3.3546646 55:0.47562528 56:3.0637681 57:0.91076928 58:1.8452477 59:2.0458791 60:0.59648424 61:3.368535 62:0.37847725 63:3.819849 64:1.8376763 65:3.2468235 66:-0.11600661 67:0.91386747 68:3.2759776 69:0.090033427 70:0.9322834 71:1.8243841 72:4.2566462 73:1.108182 74:1.286943 75:1.9938868 76:5.2343554 77:6.546885 78:5.2679696 79:4.2805386 80:4.7098231 81:4.3923283 82:1.8176553 83:7.9749923 84:6.6744308 85:3.6793439 86:4.9346042 87:3.2053213 88:2.9747162 89:4.6295123 90:9.8800983 91:2.8889437 92:4.5181899 93:4.7777157 94:5.4221253 95:4.0441279 96:7.7961669 97:10.572382 98:3.8045139 99:9.2032528 100:8.3757172 101:8.0769138 102:5.8824248 103:8.5951033 104:5.50384 105:5.854362 106:11.014318 107:7.2875214 108:4.400485 109:7.6989217 110:7.183547 111:6.1301875 112:10.228781 113:12.170463 114:1.5005827 115:8.634244 116:7.1492424 117:10.34605 118:5.2451243 119:9.8972073 120:4.9604025 121:8.2146616 122:9.5256195 123:4.266263 124:7.8793154 125:2.8392677 126:6.5221062 127:7.1406417 128:7.8861742 129:2.7405491 130:5.9246559 131:3.7071846 132:7.6629767 133:4.6233101 134:3.6858673 135:5.2868981 136:2.8565173 137:4.8930106 138:3.5093153 139:2.2284696 140:5.0173326 141:2.6289303 142:5.6679139 143:1.3696327 144:5.4132895 145:6.9683919 146:5.3211131 147:13.816085 148:8.4897556 149:4.9098077 150:1.4897255 151:3.1338556 152:7.0701065 153:4.2421732 154:5.066618 155:4.312109 156:3.7007849 157:2.7429087 158:4.9276867 159:5.2851591 160:6.1847157 161:16.121265 162:10.632984 163:7.9631386 164:9.2979393 165:6.0557089 166:1.4860605 167:8.6183949 168:5.523139 169:1.7397088 170:7.3428769 171:6.8430285 172:5.1067147 173:4.8919864 174:3.5199926 175:11.611333 176:3.5847545 177:9.1543303 178:10.836761 179:3.9144592 180:1.9227918 181:9.5112686 182:9.093399 183:3.0017548 184:8.9470615 185:3.0588048 186:4.2724705 187:9.753231 188:4.2541237 189:5.9350209 190:1.3120275 191:8.5407124 192:3.7957973 193:3.443646 194:5.9178662 195:7.8517666 196:3.4857664 197:3.1161478 198:2.539887 199:3.0053344 200:0.93909717 201:2.4154308 202:1.2665136 203:2.699301 204:1.6679029 205:0.85263354 206:2.1725502 207:0.61964619 208:2.315423 209:3.1012411 210:0.77876729 211:2.0587289 212:2.079519 213:1.1522692 214:1.4046863 215:0.77942818 216:1.1083282 217:0.92278278 218:2.0847859 219:2.7876101 220:3.0588758 221:2.7898493 222:2.9701099 223:1.5508964 224:0.47435367 225:1.1320548 226:2.1229 227:2.8475397 228:3.0738847 229:3.1974733 230:0.29329157 231:2.7956052 232:2.4583168 233:4.4340091 234:2.849201 235:2.579246 236:2.1764064 237:0.6509496 238:0.5155735 239:1.1375809 240:2.9362299 241:1.7636578 242:1.9474511 243:-0.096793383 244:1.3072158 245:0.15956978 246:0.55045438 247:0.34059203 248:-0.1219277 249:1.9545755 250:2.3335488 251:2.1511052 252:1.9489022 253:0.40168962 254:0.33288243 255:1.2089475 256:0.55051488 257:1.2170743 258:0.28166613 259:1.275962 260:-0.15853317 #
0.77524200392856046359923993804841 1:0.700261 2:7.0956717 3:9.5900745 4:9.4967594 5:4.6935921 6:9.5959492 7:8.1159163 8:3.4710393 9:1.9337264 10:3.8958266 11:2.5722663 12:0.802625 13:-0.092696533 14:1.3639603 15:2.7817755 16:2.6534188 17:4.3214598 18:6.9659629 19:7.6463237 20:6.5777192 21:7.6516833 22:8.1643314 23:7.0393209 24:6.3212738 25:6.5488329 26:7.0686426 27:5.9540577 28:5.0375094 29:4.4005208 30:3.7602165 31:2.2511024 32:2.1192274 33:1.31002 34:1.0059289 35:1.2777988 36:1.3765687 37:1.9530253 38:2.138272 39:2.8621216 40:3.1139307 41:3.302537 42:2.920855 43:3.1869822 44:2.8364158 45:2.3006599 46:1.8475468 47:1.0309963 48:0.75555199 49:0.88404608 50:1.4345515 51:2.3728006 52:3.3181653 53:3.4894269 54:4.6485243 55:5.6431355 56:5.375206 57:6.1747351 58:6.6780109 59:7.0092101 60:6.454679 61:6.143127 62:6.4405479 63:5.1207166 64:4.9989181 65:4.546083 66:0.87895393 67:12.233613 68:14.193309 69:9.232439 70:3.4989552 71:9.0963812 72:5.7730279 73:2.2804852 74:1.3468773 75:3.3597038 76:3.3295124 77:1.5706707 78:1.4968039 79:1.3945385 80:1.0057423 81:0.54997373 82:0.81909412 83:0.97699904 84:1.1939508 85:1.1701421 86:1.104859 87:1.1870096 88:0.50306422 89:0.65390819 90:0.70547873 91:0.67915237 92:1.1472826 93:2.3289185 94:3.1221075 95:3.8998742 96:3.7353921 97:4.1764145 98:4.5729575 99:4.7083001 100:4.6290321 101:4.1346774 102:3.9519584 103:3.7716169 104:3.0029845 105:2.5225821 106:2.2318256 107:2.5413027 108:2.3992128 109:2.2524896 110:1.9371639 111:1.4718285 112:1.1269367 113:2.2087848 114:3.3348954 115:2.9743114 116:3.1013653 117:4.8696985 118:5.0029325 119:7.2936592 120:5.685286 121:5.4589581 122:6.5430803 123:4.7702389 124:6.2768345 125:5.6886454 126:4.5200715 127:4.0634303 128:1.9383905 129:3.6585991 130:1.7288598 131:3.8706148 132:16.082588 133:20.093269 134:23.07844 135:22.105858 136:27.244595 137:26.182056 138:19.618595 139:15.531011 140:21.104155 141:18.665201 142:14.455385 143:12.588404 144:12.386147 145:10.060521 146:7.594727 147:7.5176044 148:7.2955956 149:6.536674 150:5.2613206 151:5.7370753 152:5.5950322 153:5.3169065 154:4.3667197 155:3.78913 156:3.0797358 157:2.2165051 158:1.3231883 159:1.3844987 160:2.0204976 161:2.981488 162:4.0203619 163:4.8726921 164:5.964407 165:6.4926629 166:7.9634514 167:9.4463606 168:10.675919 169:11.510003 170:13.395695 171:15.118828 172:17.060488 173:18.958906 174:20.58007 175:23.430435 176:24.78998 177:26.901602 178:29.113071 179:29.938601 180:29.628004 181:30.118877 182:29.597706 183:29.235655 184:28.84375 185:27.147297 186:23.913103 187:21.679398 188:19.41861 189:18.565838 190:16.833073 191:14.95972 192:14.39727 193:12.945506 194:11.695072 195:1.1295352 196:9.7530813 197:9.4482479 198:10.525661 199:9.6702194 200:5.7568521 201:12.309462 202:12.735373 203:9.9027939 204:9.1844311 205:14.269461 206:14.911377 207:11.960817 208:13.241895 209:17.138126 210:15.696929 211:11.700067 212:13.807748 213:16.694189 214:16.574987 215:14.144917 216:15.387972 217:15.627802 218:13.815663 219:12.703522 220:13.743777 221:14.077266 222:14.378446 223:13.583291 224:13.070326 225:12.833985 226:13.538241 227:13.964993 228:14.077971 229:14.741851 230:15.6319 231:16.33287 232:16.216764 233:15.732413 234:14.902738 235:15.354843 236:15.427914 237:15.098088 238:15.269365 239:14.507154 240:13.87577 241:12.231367 242:11.608477 243:11.474819 244:10.664954 245:9.9662266 246:9.5004559 247:9.9531012 248:9.3223438 249:9.4201937 250:9.5388651 251:9.6802549 252:9.4687042 253:9.4614086 254:9.6243868 255:9.9609365 256:10.743087 257:11.235198 258:11.575344 259:12.441767 260:15.09383 #
1.1717017932937210389354731887579 1:0.72271383 2:1.7840396 3:3.4424434 4:1.4543157 5:0.04764666 6:0.41809997 7:3.0267546 8:0.43200284 9:0.58795768 10:0.50018418 11:2.0274975 12:0.78495014 13:2.4467907 14:1.4338734 15:1.9590491 16:1.296315 17:0.42802268 18:1.1577412 19:2.1341336 20:0.87851608 21:0.25235382 22:2.2527013 23:0.93243432 24:1.0958239 25:1.8416988 26:0.14412524 27:1.1271453 28:2.1434743 29:0.97597444 30:1.0872836 31:0.41285443 32:0.76035267 33:0.77990854 34:1.0560371 35:2.0161121 36:1.5882655 37:1.405268 38:1.2362689 39:0.88225216 40:0.45361495 41:2.8458312 42:0.35447112 43:1.7790327 44:0.31854159 45:0.15656857 46:1.4997114 47:0.67006451 48:1.1580091 49:1.8249365 50:0.7574172 51:2.1860359 52:0.60675955 53:0.3638511 54:0.72271574 55:0.083565772 56:0.97401416 57:1.7776659 58:1.5000064 59:1.5937904 60:0.92926806 61:0.072176397 62:2.0449488 63:1.8510253 64:0.44190693 65:0.10147316 66:-0.20743474 67:-0.086435303 68:0.34868309 69:0.060767647 70:0.13740873 71:0.76907712 72:1.5758841 73:0.0025271971 74:0.56053549 75:1.0084628 76:2.077523 77:1.4814739 78:1.7823052 79:1.038242 80:1.8694004 81:0.52164847 82:1.3868265 83:3.6709371 84:2.6034014 85:2.6178577 86:1.599136 87:-0.15986675 88:0.27033448 89:1.7247599 90:4.0883465 91:5.2084322 92:4.7142453 93:1.5034858 94:5.4594417 95:1.0075294 96:4.8073416 97:2.3502762 98:3.335048 99:0.20511808 100:0.74383229 101:2.6641099 102:5.7505836 103:1.3352108 104:3.780925 105:1.7486758 106:0.28850666 107:2.7598577 108:4.8978391 109:2.6295595 110:3.4650838 111:6.3273716 112:1.6835892 113:3.8851323 114:3.7924523 115:4.9061332 116:2.5435739 117:9.5980778 118:1.3002944 119:4.4507961 120:3.7985756 121:8.994895 122:2.0804815 123:8.0768404 124:0.28355166 125:4.8589516 126:5.9211111 127:5.2943301 128:3.3035631 129:5.5001464 130:1.4584072 131:3.3272896 132:0.82140601 133:8.1896858 134:3.1849225 135:4.2644925 136:5.8714976 137:12.136678 138:4.131175 139:8.4090996 140:4.8528676 141:4.9598737 142:2.4238353 143:6.2188635 144:2.3158286 145:7.5018206 146:1.2148283 147:5.9551702 148:3.6248698 149:5.0411024 150:1.466084 151:5.6116247 152:3.8186002 153:6.6544247 154:8.1165352 155:3.6768439 156:4.6538997 157:3.1185803 158:0.32131192 159:7.4632921 160:6.2356648 161:6.0876474 162:6.443738 163:3.6029384 164:2.0065045 165:6.9385862 166:4.6808133 167:10.573592 168:7.0236421 169:6.5213485 170:3.0012066 171:9.54673 172:2.8433642 173:9.1245146 174:5.93085 175:4.1088905 176:2.1127944 177:6.0169458 178:0.29825246 179:7.0840883 180:7.6013608 181:7.0590529 182:2.3079774 183:8.52742 184:6.2676396 185:13.46818 186:9.3760777 187:6.6761165 188:7.939435 189:2.4734111 190:1.5841589 191:8.0042086 192:7.4466896 193:9.2567511 194:8.3398142 195:0.9968276 196:3.5625987 197:8.2870073 198:1.3924669 199:2.115355 200:0.92398894 201:0.90611577 202:1.6682495 203:5.4958105 204:3.5837197 205:7.2959566 206:5.8268685 207:1.9557891 208:2.700696 209:4.0948267 210:2.483288 211:1.281963 212:2.7946181 213:3.0052903 214:3.2974417 215:5.968997 216:3.4773836 217:5.7806649 218:1.454556 219:3.2227209 220:2.6036956 221:7.9794159 222:8.037879 223:8.3355474 224:6.3613133 225:3.5146282 226:2.4289882 227:2.9796369 228:3.2912228 229:7.3335285 230:5.1626859 231:4.199152 232:2.1858902 233:1.1465054 234:5.1710825 235:2.4890285 236:5.59203 237:2.2371001 238:0.78543907 239:2.094933 240:1.8757266 241:1.0837767 242:1.6484138 243:0.79077369 244:2.7766862 245:-0.070319407 246:1.8559774 247:0.12420919 248:1.1355531 249:0.71027988 250:1.256302 251:1.1949501 252:3.5176919 253:0.62631947 254:1.3101259 255:0.6835168 256:1.3863971 257:1.8214085 258:1.412601 259:2.7167456 260:3.6627951 #
0.42222008458231879979294376425969 1:1.4260243 2:12.496536 3:13.938946 4:9.0115652 5:2.0021305 6:3.8158381 7:6.2045326 8:3.494061 9:2.380852 10:5.8578205 11:5.4258251 12:3.16904 13:3.7411735 14:8.0495377 15:9.9788036 16:7.9107122 17:8.4245911 18:7.7171483 19:3.250695 20:4.2701163 21:8.3753805 22:11.973395 23:11.133614 24:9.4780693 25:9.2776318 26:7.8290091 27:5.9630446 28:4.8954163 29:4.5249448 30:4.304493 31:2.7198472 32:2.9587169 33:2.1351247 34:1.6741544 35:1.3182188 36:2.1527297 37:4.1743326 38:5.9114676 39:7.4524426 40:8.7663145 41:9.3598137 42:8.3602133 43:7.4438338 44:5.3241534 45:3.8229201 46:1.3731565 47:1.259558 48:3.0303276 49:2.9891176 50:2.4106426 51:1.63463 52:1.4968367 53:1.3769957 54:3.3387837 55:5.3621597 56:6.6521916 57:8.9049625 58:8.8461685 59:6.8244019 60:5.7128758 61:4.6229048 62:5.4577818 63:6.1085463 64:5.6260023 65:1.7336724 66:0.16145346 67:2.3844764 68:1.7300971 69:1.392983 70:0.92686933 71:4.3482542 72:5.7939367 73:1.8035929 74:1.0339437 75:1.3968624 76:0.60528904 77:1.9843776 78:4.062901 79:6.1805649 80:4.6908412 81:2.7590199 82:2.0311112 83:5.6428027 84:9.1618233 85:10.679157 86:13.22734 87:12.363739 88:8.6677322 89:5.1101031 90:2.334707 91:1.4613943 92:2.5543382 93:4.2299294 94:6.7520537 95:8.4366484 96:7.6375608 97:7.0438809 98:5.1344614 99:1.8626821 100:2.6097422 101:6.3145781 102:8.7270327 103:9.517272 104:9.5394955 105:7.9965382 106:6.5121422 107:5.7076592 108:4.547688 109:4.346283 110:4.1880369 111:4.2844396 112:1.2811313 113:2.3182507 114:0.76982236 115:1.1886814 116:2.3323998 117:2.533093 118:1.4189347 119:3.4737701 120:9.2851543 121:10.104417 122:8.6149015 123:8.1744194 124:2.9923286 125:1.0258225 126:2.2890937 127:4.7517028 128:4.34903 129:3.6562681 130:3.0429282 131:2.1685214 132:8.5131207 133:8.756608 134:7.0437212 135:4.745151 136:5.7573977 137:6.1263714 138:4.3260193 139:2.8983772 140:3.9353645 141:3.3427033 142:1.8090805 143:2.9431102 144:7.1046352 145:10.310036 146:11.013871 147:13.26229 148:14.685103 149:14.315336 150:12.613712 151:14.981106 152:16.518049 153:17.744593 154:16.715708 155:15.390486 156:12.011515 157:7.5921211 158:5.6158128 159:6.5778265 160:6.7989302 161:5.7284007 162:7.2896113 163:10.058995 164:12.253487 165:11.62673 166:11.296198 167:11.268182 168:13.433829 169:16.834576 170:20.18878 171:22.425776 172:22.07608 173:20.211134 174:16.869602 175:15.471522 176:14.308433 177:13.903728 178:13.531667 179:12.321921 180:11.455428 181:10.442647 182:8.254528 183:4.9424944 184:6.1006846 185:11.366748 186:14.960255 187:16.26713 188:15.180085 189:12.377689 190:9.619462 191:10.400946 192:14.387022 193:16.779938 194:17.736568 195:9.6271706 196:0.55215126 197:0.53698462 198:0.55909485 199:0.54100513 200:0.22820333 201:0.65653384 202:0.19582224 203:0.14886948 204:0.81811076 205:2.4874215 206:3.3759694 207:2.901499 208:3.1193619 209:3.6395087 210:2.8087676 211:1.7286539 212:1.8207018 213:2.1655519 214:2.4935079 215:2.6479645 216:3.4069698 217:3.4303763 218:2.4138918 219:1.4132251 220:1.4564044 221:2.3048999 222:2.9806437 223:2.948925 224:2.9763572 225:3.3932304 226:4.0147038 227:3.9851222 228:2.9780791 229:1.3996507 230:0.6702593 231:2.0453627 232:2.4312675 233:1.5069821 234:0.79079753 235:2.8906772 236:5.1606283 237:6.1802011 238:6.3314061 239:5.1532631 240:4.3848758 241:4.5235252 242:5.3433471 243:5.2460432 244:5.0004172 245:4.7177887 246:4.8236976 247:4.3954997 248:2.71246 249:2.7895546 250:5.8512826 251:8.5119886 252:9.006176 253:8.6770697 254:7.3579521 255:7.2354136 256:8.7100096 257:9.5127602 258:9.4956656 259:8.8246689 260:1.3870752 #
0.38795475079181712674269988383458 1:1.7497385 2:11.730421 3:13.093478 4:8.4477644 5:2.053479 6:4.7003469 7:5.2214441 8:3.5714281 9:2.4223795 10:6.597435 11:5.4266868 12:2.2830477 13:4.5424104 14:8.5617323 15:9.1179962 16:7.5898495 17:8.7534599 18:8.2038021 19:3.1132319 20:3.7996035 21:9.3367071 22:11.792452 23:10.999109 24:9.3317881 25:9.4047279 26:7.9370093 27:5.8797369 28:5.0039582 29:4.2557349 30:4.4148088 31:3.1655343 32:2.5916212 33:1.8827782 34:1.7261113 35:1.4277444 36:2.8999884 37:4.6130142 38:6.0026665 39:7.3812499 40:8.5871429 41:8.1057205 42:9.2991076 43:7.8245697 44:6.2179732 45:2.904274 46:0.72003132 47:2.0357938 48:2.0936749 49:3.169497 50:2.105933 51:1.9505868 52:1.886979 53:1.0131754 54:2.9116514 55:5.8044801 56:7.3672929 57:8.1988173 58:8.603652 59:7.8099427 60:4.8013506 61:4.4513421 62:5.498116 63:6.3575039 64:4.940506 65:1.4676746 66:0.086444393 67:2.8033834 68:1.9960088 69:1.0661786 70:0.84101474 71:5.0771952 72:5.3679781 73:2.1030045 74:0.68944639 75:1.7344651 76:0.54107326 77:2.1564426 78:3.6456313 79:6.6481071 80:4.6810045 81:2.8185673 82:1.8143859 83:5.9227819 84:9.2827673 85:10.355212 86:13.600236 87:11.701005 88:8.9608936 89:5.302475 90:3.0216868 91:1.805416 92:2.4380949 93:3.9578025 94:6.5514131 95:8.3758974 96:8.5504923 97:7.0078945 98:4.8415093 99:1.6325512 100:3.1095741 101:6.1833711 102:7.7466984 103:9.8291597 104:9.3252506 105:8.6541119 106:6.1356444 107:8.20471 108:4.1164355 109:4.583744 110:3.7053504 111:3.3625765 112:1.0928973 113:2.2556312 114:0.29676589 115:1.6335994 116:3.0820773 117:4.2720475 118:2.9523869 119:5.2469206 120:8.6030083 121:9.3810053 122:9.1850491 123:6.8206453 124:2.7999561 125:0.5871262 126:2.4170835 127:3.8717961 128:3.766165 129:4.5656705 130:4.1314754 131:2.2618818 132:8.6219769 133:8.3792133 134:6.7917628 135:5.0196967 136:6.1542983 137:5.478446 138:4.2750587 139:3.1351871 140:4.084877 141:3.0164349 142:1.7524625 143:3.1820085 144:7.0132957 145:9.8831673 146:11.208079 147:13.349256 148:14.877644 149:14.084934 150:12.468269 151:15.27533 152:16.469843 153:17.689081 154:16.646494 155:15.478094 156:12.061918 157:7.4206529 158:5.806139 159:6.6319156 160:6.4664516 161:5.9360924 162:7.4157305 163:10.009956 164:11.877456 165:11.807351 166:11.508483 167:11.047002 168:13.488002 169:16.82342 170:20.116241 171:22.502054 172:22.445923 173:19.880827 174:16.555573 175:15.767728 176:14.657558 177:13.719217 178:12.92986 179:12.742706 180:11.759096 181:10.486777 182:7.6496248 183:5.2180405 184:6.1977358 185:10.941031 186:14.578144 187:16.54233 188:15.694628 189:12.273697 190:9.2912798 191:10.401258 192:14.937732 193:16.685303 194:17.398943 195:9.7774382 196:0.85770297 197:0.64053148 198:0.44591337 199:0.48255792 200:0.18507655 201:0.59348047 202:0.20091236 203:0.089860976 204:0.78629208 205:2.4621317 206:3.4829378 207:2.9489551 208:3.1314249 209:3.5501385 210:2.7517326 211:1.6978928 212:1.9798959 213:2.2436914 214:2.5012419 215:2.6325791 216:3.2653627 217:3.3825228 218:2.5235763 219:1.4294521 220:1.3933036 221:2.3282833 222:3.062238 223:2.863533 224:2.9550812 225:3.4964075 226:3.9895368 227:3.9160571 228:2.9508407 229:1.454864 230:0.59634686 231:2.092792 232:2.4012518 233:1.485086 234:0.75927365 235:2.8966749 236:5.0046916 237:6.344594 238:6.5448494 239:4.9415417 240:4.3304086 241:4.6302791 242:5.3907452 243:5.465723 244:4.5960522 245:4.6818156 246:5.1842608 247:4.6583881 248:2.6786389 249:2.5809767 250:5.5784855 251:8.1628122 252:9.1521511 253:8.7157068 254:7.5464859 255:7.1898046 256:8.4103451 257:9.6988935 258:9.6279583 259:8.8633509 260:1.2153436 #
-0.21106069115452158468926313616976 1:1.0641874 2:4.0448189 3:5.5900383 4:4.2921681 5:1.7257433 6:3.3288743 7:2.038197 8:0.28493428 9:-0.18005653 10:0.13878331 11:0.34910783 12:0.83208251 13:0.18757898 14:0.88398534 15:0.71494788 16:0.08001063 17:0.59688848 18:0.027968252 19:0.086422801 20:-0.052068707 21:0.36363134 22:1.1336205 23:0.54415494 24:0.32130763 25:0.35677758 26:-0.14144361 27:0.2864069 28:0.39788884 29:0.16146576 30:0.61030239 31:0.51500422 32:0.7903536 33:0.79325509 34:1.5099069 35:0.98680937 36:1.0604157 37:0.72465491 38:2.5236297 39:0.88763505 40:1.4272544 41:0.82125539 42:1.7853827 43:0.14790231 44:1.3487607 45:1.8191277 46:1.3402892 47:0.7926057 48:1.638962 49:0.092579149 50:1.3236403 51:0.93933809 52:2.2680037 53:3.0251083 54:1.253302 55:0.0039267554 56:1.4097307 57:0.33807805 58:2.6787674 59:1.9339851 60:1.4830106 61:0.29932243 62:2.4257591 63:1.8830556 64:1.3860053 65:1.5066243 66:0.31202412 67:5.114502 68:6.9363775 69:3.6184566 70:0.47913918 71:0.55485827 72:0.76853997 73:0.6684342 74:1.2600182 75:2.8796716 76:3.2629986 77:0.32071385 78:0.51305038 79:0.35628703 80:0.10896657 81:0.28833246 82:1.0004233 83:1.5312314 84:1.9126438 85:2.7396011 86:-0.10133548 87:0.94138575 88:-0.096245043 89:0.8441292 90:1.4522613 91:3.2490444 92:1.5128472 93:3.0353706 94:0.52155638 95:1.9971973 96:0.78483683 97:-0.31841797 98:1.1014124 99:1.1735561 100:2.1824126 101:1.7639216 102:0.76663047 103:2.4818132 104:1.0252638 105:4.7108374 106:0.76608223 107:0.34733471 108:2.5451219 109:3.0286438 110:2.0222571 111:1.5672232 112:-0.072349884 113:1.1662246 114:2.2054837 115:3.5571799 116:2.2998748 117:0.38726231 118:1.742121 119:1.2364236 120:0.094429083 121:2.6967132 122:2.196979 123:2.8953979 124:2.827703 125:1.9060581 126:1.8959326 127:1.8362126 128:0.73087919 129:1.9366989 130:0.91527086 131:-0.1934682 132:-0.15795681 133:-0.12398602 134:-0.14483073 135:-0.28869045 136:-0.085606858 137:-0.22645549 138:-0.21648419 139:-0.2530514 140:-0.059288777 141:-0.1995831 142:-0.21360654 143:-0.11857355 144:-0.24489219 145:-0.10687964 146:-0.27877173 147:-0.27553329 148:-0.14974223 149:-0.29906556 150:-0.29772821 151:-0.1823176 152:-0.22372818 153:-0.27091235 154:-0.27835745 155:-0.20973296 156:-0.26347491 157:-0.14705163 158:-0.10358917 159:-0.11566007 160:-0.2443004 161:-0.19059241 162:-0.24809569 163:-0.30542946 164:-0.19734789 165:-0.23954485 166:-0.19658895 167:-0.20690052 168:-0.080560513 169:-0.14162378 170:-0.19258426 171:-0.2111865 172:-0.29418036 173:-0.26370132 174:-0.21602859 175:-0.22962965 176:-0.21063966 177:-0.21397054 178:-0.17216896 179:-0.072688192 180:-0.250296 181:-0.15465841 182:-0.17944236 183:-0.22755665 184:-0.27483299 185:-0.18964033 186:-0.23218933 187:-0.17194767 188:-0.17794971 189:-0.11270548 190:-0.22885673 191:-0.05248725 192:-0.27212003 193:-0.073831871 194:-0.14403619 195:-0.22130896 196:-0.040240526 197:-0.24055225 198:-0.21346055 199:-0.26602939 200:-0.291201 201:-0.20767903 202:-0.19902307 203:-0.22311096 204:-0.22064997 205:-0.11904907 206:-0.19371544 207:-0.23293206 208:-0.20053372 209:-0.17390473 210:-0.18259835 211:-0.2540178 212:-0.26547432 213:-0.24075535 214:-0.2899746 215:-0.28943285 216:-0.26498592 217:-0.23583595 218:-0.22785163 219:-0.22683185 220:-0.2741935 221:-0.15301986 222:-0.17229739 223:-0.26669955 224:-0.24360515 225:-0.20815334 226:-0.2229902 227:-0.27920282 228:-0.26401556 229:-0.18689668 230:-0.17356689 231:-0.13893268 232:-0.21212763 233:-0.10338148 234:-0.14042591 235:-0.096952125 236:-0.21277733 237:-0.13800517 238:-0.21554734 239:-0.19595739 240:-0.18855016 241:-0.17419629 242:-0.18741947 243:-0.094163261 244:-0.071491741 245:-0.1873555 246:-0.13185579 247:-0.085372105 248:-0.16982074 249:-0.23149781 250:-0.1033069 251:-0.14661285 252:0.0036913615 253:-0.12732774 254:-0.13525759 255:-0.081590086 256:-0.055541847 257:-0.12833489 258:-0.17677957 259:-0.10024568 260:-0.066727109 #
0.46737234974265468023801872732292 1:1.9884254 2:13.89224 3:3.7208622 4:7.5479078 5:3.8507667 6:7.6787634 7:7.3282189 8:1.8969035 9:2.054939 10:5.3022857 11:7.0936356 12:6.4137697 13:4.8778744 14:6.5132623 15:5.5508494 16:1.2057972 17:1.5347639 18:3.7117393 19:2.2124088 20:1.260814 21:0.5092383 22:2.2094824 23:2.4322195 24:2.2487924 25:1.9546977 26:2.227833 27:1.1801568 28:2.3645623 29:3.8063774 30:3.9833272 31:4.3325624 32:6.425961 33:5.7433195 34:2.7788498 35:3.1908526 36:4.3627248 37:2.520221 38:3.3924708 39:3.4844308 40:0.61212915 41:5.1294241 42:6.4149246 43:4.6525426 44:2.1392415 45:2.1331711 46:2.8831537 47:3.5223265 48:4.9025927 49:3.8578086 50:1.9848182 51:2.2189596 52:1.8364142 53:0.90212142 54:1.8480273 55:4.808022 56:7.0904212 57:6.8039565 58:6.1827655 59:7.7125282 60:7.0471835 61:4.3516726 62:4.0969267 63:5.4579334 64:7.2793221 65:4.0415454 66:1.4338593 67:14.812157 68:9.1274977 69:3.9147813 70:1.0865781 71:2.570838 72:4.7863407 73:1.9700875 74:0.68785304 75:3.2009473 76:4.3978496 77:1.8978022 78:4.0602307 79:7.4466453 80:2.9839699 81:1.5779719 82:5.1527634 83:5.0863705 84:0.24935946 85:5.1573863 86:6.8004212 87:2.8811669 88:2.3001091 89:5.3074226 90:6.6256676 91:5.6178107 92:5.4701819 93:7.4846902 94:8.6915331 95:8.0261421 96:7.0325541 97:5.5913935 98:3.9023612 99:6.3570852 100:6.7375121 101:4.0408587 102:2.7873638 103:6.2376547 104:5.5257444 105:0.47772533 106:3.0368557 107:4.7853713 108:4.3880234 109:1.175801 110:4.3163872 111:5.9284034 112:4.2057338 113:4.1998458 114:4.5647373 115:4.2954311 116:6.0256467 117:5.7232661 118:4.5926547 119:2.4054613 120:5.4065113 121:4.9195728 122:5.2207723 123:4.9311724 124:5.8406658 125:6.9331985 126:10.299363 127:11.862198 128:10.912215 129:7.8344455 130:4.38026 131:4.7944794 132:19.067722 133:22.289639 134:25.074099 135:22.433311 136:25.043156 137:22.334888 138:15.748644 139:12.505293 140:18.031775 141:18.378325 142:17.614614 143:18.200418 144:20.641426 145:17.865366 146:13.106203 147:12.447741 148:10.249728 149:5.2094874 150:1.7502559 151:2.2015808 152:4.5933099 153:5.9245329 154:6.0758533 155:5.3439469 156:3.283025 157:2.1721656 158:3.9684834 159:7.095232 160:9.4270163 161:10.329885 162:11.091178 163:10.505093 164:10.080079 165:7.7880154 166:4.8868561 167:3.2100058 168:3.2724798 169:3.5572598 170:5.7604647 171:8.2330484 172:8.6092167 173:7.4668732 174:6.6480761 175:5.6046872 176:2.8937795 177:1.710728 178:2.826297 179:3.9880946 180:4.4788342 181:4.8931236 182:5.0020914 183:5.2110248 184:4.5632629 185:4.0518684 186:5.3975744 187:5.6896253 188:6.029305 189:7.0442963 190:6.0104876 191:3.7901642 192:2.062248 193:4.2279615 194:6.5690379 195:5.79638 196:3.2499576 197:3.1856441 198:3.8527369 199:3.9612215 200:2.6527288 201:6.8259845 202:8.3185854 203:7.4450135 204:7.3585334 205:11.563499 206:12.418329 207:10.016061 208:10.277867 209:12.44263 210:11.076467 211:7.2582231 212:6.7050734 213:6.4036875 214:4.5120711 215:2.2243893 216:3.9495864 217:6.1983414 218:6.8955908 219:7.9314613 220:10.258967 221:11.0686 222:10.753754 223:9.1733351 224:7.2879562 225:4.9669886 226:3.3976831 227:3.9815567 228:5.9991751 229:8.5889215 230:11.39737 231:13.271853 232:13.003104 233:11.546848 234:9.5312595 235:7.4214158 236:3.944231 237:-0.00082676078 238:3.974577 239:7.9939723 240:11.423709 241:13.094854 242:15.218251 243:17.162046 244:16.772785 245:15.098234 246:12.904999 247:10.944853 248:7.0472279 249:3.626972 250:3.9636958 251:7.349081 252:10.236925 253:12.672654 254:14.316698 255:15.11084 256:15.659 257:14.735238 258:12.964514 259:11.569765 260:0.49930084 #
-0.26911583897409502297293215633545 1:0.93972069 2:0.93803453 3:6.4076047 4:1.7120006 5:0.62932587 6:3.2116263 7:2.9528501 8:0.69805455 9:0.7561062 10:1.62883 11:2.1403599 12:4.5317183 13:1.6835476 14:6.97545 15:4.1171236 16:2.8783965 17:4.7576404 18:2.8425145 19:6.0319238 20:1.3799776 21:3.4871662 22:1.234095 23:4.4820833 24:1.1606243 25:5.3170848 26:4.0574317 27:5.9387007 28:6.0588436 29:5.5381966 30:6.3752489 31:2.5144033 32:5.5191646 33:3.4229367 34:3.720371 35:2.1653798 36:3.6866119 37:1.6962383 38:4.8761349 39:3.4830298 40:4.8600931 41:5.3762445 42:5.3158875 43:7.4850111 44:5.1428013 45:6.9881606 46:3.731163 47:4.5933638 48:1.1563779 49:5.1131773 50:0.60104311 51:4.3655357 52:3.9075894 53:5.1322193 54:6.1787472 55:4.5339446 56:5.7766924 57:2.9434781 58:7.9205356 59:3.0554402 60:7.4893932 61:3.3190281 62:4.112792 63:4.3816624 64:3.1191063 65:3.3258369 66:-0.065304935 67:2.1829574 68:1.6942527 69:2.6831784 70:0.33134037 71:4.7010975 72:1.7951292 73:1.2913558 74:0.6231091 75:2.0813305 76:3.5614684 77:2.5155821 78:3.9153385 79:7.056982 80:5.7970567 81:2.3191535 82:5.375814 83:1.5050391 84:3.8222668 85:1.6444288 86:3.2332346 87:3.0213866 88:4.9005675 89:2.719722 90:6.5864482 91:7.9132276 92:9.239831 93:9.1189756 94:9.7824936 95:5.8697629 96:6.8219914 97:6.2831678 98:3.7815926 99:6.1929131 100:3.6908967 101:4.6762023 102:3.930124 103:8.4039507 104:4.5760446 105:5.9610376 106:7.455224 107:6.578691 108:9.2976284 109:4.9918718 110:9.5252171 111:2.7973554 112:5.0877528 113:1.6882393 114:3.6096196 115:3.7379036 116:4.3292418 117:6.2834072 118:7.4696035 119:5.7425904 120:10.84545 121:6.1690407 122:7.2028465 123:7.6813655 124:5.468761 125:8.2628384 126:2.9747217 127:5.9935288 128:4.3357587 129:5.7481899 130:4.4489527 131:3.1474814 132:1.9216303 133:8.6916676 134:6.1463308 135:3.1595345 136:9.6095295 137:1.9403656 138:5.8253179 139:1.1223123 140:4.8089318 141:2.2680514 142:4.1003146 143:1.5692858 144:2.2924294 145:5.4662614 146:0.38710254 147:4.0673003 148:6.8136435 149:4.3651214 150:6.6299272 151:4.0754409 152:1.3930401 153:9.7753916 154:0.72298265 155:10.086637 156:4.1265311 157:7.0568919 158:10.301911 159:7.6300979 160:8.0159445 161:7.197052 162:3.8079367 163:6.4902387 164:8.069108 165:3.8621829 166:4.9695191 167:8.6828079 168:1.3079267 169:9.61024 170:3.8959825 171:5.5205417 172:7.1480846 173:2.1533194 174:8.4023943 175:2.0191839 176:5.3600278 177:7.0278587 178:1.6803638 179:6.7300248 180:4.1113725 181:4.378552 182:5.9294887 183:9.0968428 184:5.3318906 185:12.680941 186:8.1993914 187:5.2956595 188:9.1412201 189:5.7832799 190:7.2506003 191:6.3827863 192:3.8246386 193:7.6438894 194:7.3512278 195:3.0001535 196:8.3542414 197:5.104023 198:4.631115 199:5.3871756 200:2.1666858 201:4.0393362 202:4.2138352 203:3.6345453 204:5.0970974 205:5.0530977 206:7.7420883 207:5.7220459 208:1.2160618 209:3.2820666 210:3.9818966 211:1.0251535 212:4.4978123 213:3.979903 214:1.6031194 215:3.3162746 216:2.2860529 217:5.9166875 218:3.0625398 219:0.47540146 220:4.2487478 221:6.0621319 222:3.4421213 223:5.1053624 224:3.2488184 225:1.6734704 226:1.9616429 227:2.9492123 228:1.3678298 229:1.665148 230:0.40478316 231:6.5183473 232:4.8710213 233:3.4528351 234:5.5220346 235:3.7940352 236:2.8375142 237:3.0969677 238:3.5649681 239:0.58650857 240:4.1971574 241:2.2439635 242:1.1236856 243:0.67536914 244:4.0796518 245:3.771606 246:3.9401333 247:5.8697805 248:2.2553606 249:3.0496695 250:3.5257738 251:3.7456589 252:3.2868564 253:2.5732872 254:2.3132362 255:2.7835207 256:2.8308623 257:4.2492442 258:4.0520077 259:4.4148216 260:3.6712892 #
-0.072128323903104488157289608807332 1:1.0036067 2:6.6705542 3:4.0965142 4:3.7230549 5:0.72567391 6:5.0692773 7:3.5160511 8:0.37024474 9:0.11657099 10:1.0001265 11:2.2985642 12:0.59178239 13:0.45030618 14:1.2077703 15:0.68037784 16:1.8828825 17:0.61230403 18:0.97275364 19:0.6631549 20:1.8197602 21:1.189815 22:0.2589646 23:1.6934563 24:0.27600041 25:1.3350966 26:0.29028594 27:1.5902935 28:1.97925 29:-0.15367252 30:2.3874359 31:1.3038507 32:-0.04583225 33:0.076012447 34:1.9848661 35:1.5009923 36:0.48941588 37:1.4945253 38:1.1892058 39:0.89063025 40:2.2751892 41:5.366611 42:5.8750319 43:4.2516756 44:3.4719372 45:1.4763258 46:1.8978271 47:4.5835476 48:4.9932027 49:2.9423587 50:3.3909636 51:2.3868933 52:1.9951149 53:0.49185809 54:1.4996593 55:2.1112418 56:3.4062321 57:3.2948747 58:2.5343516 59:1.3594878 60:1.0516644 61:2.7977295 62:2.3558707 63:2.2091882 64:0.70944959 65:0.42722219 66:0.045992598 67:1.2743325 68:1.1179032 69:2.3597002 70:0.48394436 71:1.9168606 72:0.69914103 73:-0.10230511 74:-0.12720662 75:-0.034028664 76:-0.048704207 77:0.51397586 78:1.1533839 79:1.349632 80:0.69007254 81:1.6407839 82:0.81326491 83:2.2946637 84:5.2728858 85:7.5454502 86:10.651432 87:13.480948 88:10.394451 89:4.407218 90:1.1663485 91:7.0214014 92:8.682312 93:8.3844604 94:6.2718277 95:1.3462019 96:1.6317436 97:1.7172836 98:3.7849178 99:1.5942208 100:2.1628642 101:3.6455119 102:2.9143386 103:2.0786586 104:2.5960412 105:2.3358681 106:4.0632696 107:5.4420433 108:3.0163221 109:0.12831196 110:0.49823529 111:3.4586561 112:0.35317507 113:4.3693261 114:2.4665852 115:-0.34340742 116:-0.0066302135 117:4.0339651 118:4.6170421 119:0.9773674 120:0.57318211 121:1.7785118 122:4.1491928 123:3.668489 124:0.61269671 125:2.3488533 126:0.67407286 127:-0.080857001 128:0.94743609 129:0.18139762 130:1.2044432 131:3.8610215 132:6.9676838 133:2.1805806 134:3.5514851 135:0.96876574 136:4.3948388 137:4.4914966 138:1.8363581 139:1.1483033 140:2.7988052 141:6.7124815 142:3.4460249 143:3.4604683 144:2.9214425 145:2.5613232 146:4.0065012 147:3.0173581 148:5.3867311 149:2.5359015 150:6.3906198 151:6.5128446 152:2.9390662 153:6.4643402 154:2.4376385 155:0.56004381 156:2.6245437 157:2.5282292 158:3.2794619 159:5.318224 160:6.4625835 161:1.2851993 162:5.7083936 163:5.9192348 164:1.4622012 165:2.2070315 166:6.7098689 167:9.6561232 168:2.8230181 169:4.2197113 170:7.6744676 171:10.024028 172:7.2222314 173:13.7323 174:9.2477169 175:3.2142267 176:7.3910542 177:8.3349915 178:11.648235 179:14.095907 180:6.7277923 181:2.6186197 182:2.7536721 183:4.351769 184:3.0888686 185:6.0870066 186:6.5749707 187:5.199285 188:8.3558397 189:8.2725325 190:6.6449499 191:8.2068453 192:6.0964618 193:6.2024922 194:1.3314829 195:5.7317829 196:1.2394974 197:2.6730103 198:3.1463027 199:2.7461982 200:0.90878886 201:1.5181865 202:3.0241027 203:2.6423604 204:1.2633379 205:1.653523 206:1.9908726 207:1.7793047 208:1.3216535 209:1.5332664 210:1.1793662 211:0.36169839 212:1.8313417 213:0.84635198 214:1.0779994 215:1.8710938 216:3.9058933 217:6.9053717 218:3.2227843 219:3.4303827 220:1.8124552 221:3.850091 222:8.2292833 223:4.3988194 224:2.6207969 225:1.2919011 226:0.7736671 227:2.8119142 228:2.1848052 229:2.5670149 230:3.8871958 231:4.0476317 232:2.1998019 233:1.5422057 234:3.3186922 235:1.9001721 236:1.6475965 237:3.7400746 238:0.91708791 239:0.86468673 240:1.3934987 241:3.4854257 242:5.5140257 243:3.2211149 244:0.43610418 245:1.0724009 246:0.49705711 247:1.52077 248:1.5945109 249:1.1381027 250:1.8108417 251:0.97873485 252:0.19412051 253:0.95923197 254:0.65036821 255:0.33761385 256:-0.06334167 257:1.7506868 258:0.26318192 259:2.2761106 260:1.126857 #
-0.042907559902253901429336480077836 1:4.2014694 2:3.161463 3:4.1452689 4:2.1321356 5:1.8818254 6:3.2988439 7:3.2311201 8:1.5522254 9:4.124486 10:0.87885129 11:4.7507963 12:6.3296194 13:13.329399 14:12.157716 15:9.4464188 16:1.3018335 17:5.7342653 18:5.0745182 19:1.6830745 20:1.9026448 21:10.24412 22:3.9835441 23:0.61535829 24:5.2144084 25:3.8984361 26:9.0341282 27:5.7171125 28:2.7101724 29:11.136709 30:3.1513546 31:3.2979105 32:3.4983852 33:8.5731363 34:10.372413 35:3.7665043 36:6.3727932 37:5.0610619 38:5.3984966 39:4.2724371 40:4.7851524 41:8.7158346 42:3.3820267 43:1.9361725 44:5.3556943 45:5.3714104 46:6.4021711 47:4.120285 48:3.4829047 49:3.7731013 50:4.6980238 51:2.6640441 52:10.755974 53:9.2032766 54:3.5253067 55:5.4208937 56:1.7907519 57:4.841002 58:3.6075964 59:1.8439658 60:7.1577411 61:5.7243819 62:2.717766 63:4.5070939 64:4.1908922 65:2.8730752 66:2.1689057 67:0.72019964 68:1.5839324 69:0.054993406 70:1.1322463 71:1.5591753 72:2.1973124 73:0.32037559 74:4.1314664 75:0.83932555 76:3.2073703 77:4.6995602 78:4.2563429 79:6.1304274 80:4.7965612 81:3.1855478 82:8.7676907 83:3.9394965 84:2.2588918 85:8.5250845 86:7.8056145 87:2.1405013 88:4.464334 89:4.655129 90:5.1474619 91:14.249926 92:5.7126622 93:9.5980282 94:4.6242285 95:1.416957 96:5.910624 97:5.0232782 98:3.2858202 99:9.2727299 100:4.1269412 101:8.5686569 102:2.1584244 103:5.9611902 104:4.2204213 105:7.7279382 106:1.1284177 107:4.6460633 108:2.0999863 109:5.5848513 110:0.46674603 111:5.6805286 112:4.0363741 113:5.9507933 114:1.4990945 115:2.9009974 116:2.4866993 117:3.4207659 118:4.3911042 119:9.7258167 120:1.6211258 121:6.524559 122:1.5037426 123:1.4999782 124:2.7737374 125:1.2298485 126:6.7032104 127:5.4926004 128:4.4636855 129:3.7637572 130:1.7719208 131:1.9195749 132:0.59504336 133:1.1384132 134:0.53534752 135:1.4782375 136:1.1018227 137:0.75785291 138:0.66336918 139:3.4030859 140:1.928162 141:1.7454255 142:-0.017491974 143:2.0592494 144:1.8445662 145:0.88378787 146:1.0188311 147:1.4805008 148:0.29304853 149:1.6184376 150:2.0618138 151:1.056242 152:2.9481707 153:0.99848318 154:3.9911847 155:0.10690923 156:1.485135 157:0.40695807 158:0.99905115 159:0.96631956 160:3.1261027 161:1.1447048 162:0.18821149 163:4.8109236 164:2.0157676 165:2.6018021 166:2.013042 167:1.9507129 168:3.2870417 169:0.85478234 170:1.3613486 171:4.1149173 172:2.4185898 173:2.8537912 174:2.6166179 175:4.0457053 176:2.9034202 177:3.223644 178:1.4894583 179:2.1786954 180:4.2309585 181:2.7938623 182:5.7330284 183:1.6240238 184:4.1668458 185:2.0607777 186:2.484252 187:2.6900358 188:4.1015325 189:1.8375025 190:4.4854527 191:0.84116054 192:0.81408608 193:2.3647032 194:4.3860521 195:0.93440366 196:0.35108554 197:0.57006776 198:2.2932453 199:0.2971665 200:2.5098524 201:0.85503548 202:0.77815646 203:0.41132936 204:2.2979333 205:0.78714293 206:2.4128146 207:0.45326334 208:4.6393633 209:4.1680202 210:0.44035125 211:1.2121036 212:0.47537085 213:0.093998238 214:2.1867485 215:1.0784688 216:2.9687726 217:2.2653382 218:2.1981649 219:1.6102089 220:5.1141572 221:5.875834 222:4.3072348 223:3.4615443 224:1.6676531 225:3.5623765 226:4.3591123 227:3.9193134 228:4.4825368 229:4.9170351 230:3.6277456 231:4.6703482 232:1.5424645 233:3.6512918 234:3.0999281 235:3.9409032 236:0.24384889 237:2.0992243 238:5.0171981 239:7.3870616 240:7.1659784 241:4.5019207 242:4.748105 243:2.2504289 244:2.9715064 245:4.1884661 246:2.9483769 247:2.8833275 248:4.2722163 249:4.1130471 250:2.4436543 251:4.7483225 252:3.9359679 253:3.1075017 254:2.9121504 255:5.0848346 256:0.79723018 257:2.9884334 258:1.9510977 259:4.100492 260:0.73631263 #
-0.0075581861987014465134593343975666 1:2.3801789 2:-0.08181487 3:-0.15265365 4:0.018566523 5:1.4920425 6:0.40451699 7:-0.081897371 8:0.37406284 9:6.3495617 10:2.1915534 11:0.94940186 12:0.43394116 13:4.0953813 14:2.5477157 15:1.2407246 16:0.68372178 17:2.2479498 18:0.46982461 19:1.169351 20:0.37355012 21:6.8368611 22:3.7137988 23:0.20235659 24:0.6401282 25:11.205791 26:4.4676242 27:0.70231152 28:1.3146197 29:4.75632 30:2.0372202 31:0.92842001 32:5.3554296 33:10.429977 34:5.4798403 35:0.79525799 36:-0.15522037 37:1.1858494 38:1.6980486 39:2.1453629 40:4.4502268 41:3.8349206 42:5.4256339 43:1.2764251 44:3.1999903 45:2.7813714 46:3.7367864 47:0.25300279 48:2.0945826 49:4.6857686 50:0.41182047 51:0.82934529 52:5.7417798 53:4.6013308 54:5.007164 55:2.2522702 56:9.3427515 57:6.4961748 58:9.0537558 59:2.3258607 60:2.0503607 61:2.02525 62:1.5761855 63:1.2469879 64:14.275626 65:3.3169234 66:0.61581331 67:0.0064370525 68:0.66050577 69:0.029606994 70:0.32617864 71:-0.088986501 72:-0.092369325 73:-0.2433442 74:3.8079722 75:0.42628866 76:0.62984282 77:0.65043753 78:5.0025692 79:0.42315796 80:-0.065407872 81:0.9355858 82:3.7197194 83:1.2742662 84:0.54674774 85:0.55013198 86:3.331063 87:1.5559635 88:0.37398532 89:2.8556187 90:5.8565702 91:0.69100225 92:-0.00062478986 93:0.15371212 94:3.394249 95:0.34801462 96:0.81734049 97:2.5832677 98:9.0659008 99:1.3602676 100:0.57524991 101:3.3470278 102:9.5298204 103:5.8586473 104:1.3803031 105:1.2044991 106:13.035131 107:3.4603701 108:0.31146029 109:2.842366 110:6.3007011 111:7.6737137 112:-0.048707735 113:4.5800624 114:11.120465 115:3.5020211 116:1.2135873 117:2.6355793 118:4.3513508 119:4.6499062 120:0.26983932 121:6.4470191 122:3.9766133 123:0.14031523 124:0.95834762 125:3.476856 126:6.7292366 127:2.9670184 128:0.87559491 129:5.1047211 130:4.2677422 131:1.6984692 132:0.05107858 133:0.087241076 134:-0.19533227 135:2.140238 136:0.11134403 137:-0.028646462 138:-0.26662257 139:2.2162945 140:0.71782064 141:0.35151231 142:0.53315008 143:0.5286842 144:0.57618761 145:0.20597526 146:0.62386572 147:1.7254574 148:0.91575509 149:0.97563845 150:1.2469947 151:4.8248491 152:1.3571278 153:0.080650635 154:1.7855065 155:5.4714789 156:1.0866071 157:0.88906991 158:1.8032581 159:5.2481723 160:0.5437355 161:0.6550765 162:1.3797113 163:6.665029 164:3.4090919 165:0.53168499 166:3.8032377 167:1.9978275 168:0.98408818 169:0.61112553 170:0.71979922 171:0.82471073 172:2.4958415 173:0.23279187 174:1.8621792 175:3.5400326 176:4.2239399 177:0.77558273 178:1.7354838 179:2.8988128 180:3.4021103 181:0.49798632 182:3.230336 183:3.2737877 184:2.9309461 185:1.5477388 186:0.85345715 187:2.0191975 188:1.1519281 189:1.4297726 190:2.3020406 191:3.0298991 192:0.59701675 193:1.8502866 194:0.99306792 195:1.891745 196:0.28522202 197:0.61239189 198:0.77470726 199:0.54296261 200:3.4181466 201:1.4279594 202:0.24603488 203:0.3175905 204:6.3612499 205:0.3717387 206:0.48307726 207:0.2354209 208:5.3623276 209:2.5145545 210:0.15196007 211:0.35529193 212:1.9527673 213:0.32274058 214:0.18170084 215:0.2840682 216:5.3546257 217:2.1783981 218:0.19256848 219:1.3446327 220:4.3788524 221:1.3357995 222:0.33991849 223:1.340585 224:2.5301096 225:2.4010572 226:1.4345195 227:1.5628681 228:5.1471143 229:2.7151036 230:0.72712153 231:2.2239237 232:4.3187051 233:3.1147385 234:1.1263542 235:2.2962234 236:4.1115947 237:2.198127 238:0.0031772782 239:1.1546719 240:2.9892008 241:1.9882962 242:0.46748757 243:0.55136722 244:0.6553573 245:1.0163201 246:0.18693021 247:1.6678331 248:2.0842426 249:0.44467971 250:0.91179848 251:1.8012542 252:5.0687804 253:3.8431594 254:0.56940466 255:4.0138412 256:2.9220414 257:5.189949 258:0.77735001 259:5.4882293 260:10.085112 #
0.51162906293933152479525006128824 1:1.5142661 2:10.4508 3:11.606784 4:8.07339 5:3.1908698 6:6.3355875 7:8.5740118 8:4.6384864 9:3.6477752 10:6.8533235 11:4.9583621 12:0.23623392 13:2.1709683 14:5.7727232 15:5.0862699 16:3.7133148 17:3.6490011 18:3.2341485 19:1.4094671 20:2.1391003 21:2.6149726 22:2.7965703 23:2.3089268 24:1.9950534 25:2.4524047 26:2.3989255 27:1.0484928 28:0.97726518 29:0.38990372 30:0.027012134 31:0.39833295 32:0.3514238 33:0.30280656 34:1.2674476 35:2.4423273 36:2.4714339 37:2.9062331 38:1.4597962 39:2.5466568 40:1.0242312 41:1.0316266 42:1.2413803 43:2.3087294 44:3.1793609 45:3.9756095 46:2.7926993 47:3.5049019 48:3.034806 49:4.6151395 50:2.6696622 51:2.5639756 52:1.1592878 53:2.7191608 54:1.9451993 55:1.6860282 56:2.6643069 57:4.2274103 58:3.9602664 59:4.0451665 60:2.9326921 61:3.2439237 62:3.9491642 63:3.530169 64:2.521585 65:0.11447048 66:0.40956357 67:6.2657995 68:7.9164639 69:4.8346462 70:3.4630334 71:10.017284 72:6.103199 73:1.308593 74:0.77336252 75:1.9715743 76:2.9341085 77:3.9547997 78:4.9450917 79:4.64151 80:3.154892 81:1.8319858 82:4.1076932 83:5.5460215 84:5.3522282 85:5.0196524 86:6.4723167 87:7.1869578 88:4.423326 89:4.0392289 90:4.528976 91:4.8864393 92:5.1146483 93:4.7701869 94:4.6192918 95:4.9808044 96:4.7191439 97:5.1709905 98:6.0346246 99:6.691823 100:7.4159117 101:7.0583754 102:5.891674 103:3.5197699 104:3.8899384 105:4.1158676 106:7.1838913 107:6.4517708 108:5.8594351 109:5.9502716 110:6.5543041 111:6.0290585 112:7.2872472 113:4.5775571 114:3.8589046 115:3.5626748 116:4.9432693 117:3.7010474 118:5.1183996 119:5.9799533 120:6.5152154 121:3.9559853 122:1.4433628 123:2.5850568 124:3.4163735 125:3.7802613 126:4.6164746 127:6.1480241 128:4.2411203 129:1.9990209 130:3.2924137 131:1.147699 132:4.3817034 133:4.3552728 134:4.1362863 135:3.8511109 136:4.4097848 137:4.4070449 138:3.3325377 139:2.8186617 140:4.6962504 141:4.7333426 142:3.551106 143:2.3032882 144:2.9901328 145:2.8551989 146:1.9400634 147:1.9153886 148:3.2511177 149:3.3097951 150:3.3391495 151:4.0736847 152:4.6679587 153:4.6410079 154:5.3951015 155:5.6697392 156:5.2707038 157:4.6623621 158:3.847116 159:3.6009989 160:3.4693575 161:3.8734837 162:4.3945556 163:4.8117561 164:3.9559221 165:2.5553839 166:1.3427318 167:0.18950687 168:1.6652876 169:3.0002799 170:3.9115889 171:4.518208 172:4.4519873 173:3.4963617 174:3.1784737 175:4.176445 176:5.0095568 177:5.8999081 178:7.0624132 179:5.953939 180:5.0410814 181:4.0695667 182:3.5809498 183:3.0098565 184:4.9092216 185:4.8923478 186:4.9716477 187:4.7008443 188:5.5724711 189:3.7871287 190:1.954649 191:2.6455264 192:2.4115183 193:4.0535994 194:5.0003467 195:2.6710699 196:0.31340069 197:-0.066213518 198:0.059878342 199:-0.033205524 200:-0.19469678 201:0.27868706 202:0.41884521 203:0.29742095 204:0.10199008 205:-0.0047403169 206:-0.17489155 207:-0.1163777 208:0.37071586 209:1.4870458 210:1.4289821 211:1.0260617 212:1.5107161 213:2.3325195 214:2.100385 215:1.2722925 216:1.5608494 217:2.0562098 218:1.5896529 219:1.6846979 220:3.9047565 221:6.4905477 222:7.5347805 223:7.2403836 224:7.2865486 225:7.8101621 226:8.4837837 227:6.9781628 228:5.7297707 229:7.4026074 230:10.297927 231:10.645161 232:8.6031284 233:6.6324539 234:5.3381982 235:4.1454754 236:2.3583465 237:2.305131 238:3.6163607 239:3.466193 240:1.9298565 241:0.15341276 242:0.51559442 243:3.6570044 244:7.2597742 245:8.2837925 246:8.5376139 247:11.750372 248:12.263645 249:13.097317 250:13.255231 251:17.084526 252:17.788773 253:20.394936 254:22.833166 255:26.003988 256:26.820215 257:27.168768 258:26.911434 259:27.588352 260:14.151033 #
-0.98446415698195188781483011553064 1:0.73598504 2:3.2683735 3:5.1469297 4:2.1909325 5:2.6449893 6:5.4774384 7:1.3547405 8:1.1846944 9:1.2357506 10:1.3016177 11:3.006084 12:1.0072771 13:1.8661078 14:1.3866866 15:1.4087765 16:1.9697659 17:-0.013965655 18:3.2184603 19:0.55219698 20:2.9318485 21:1.7418383 22:2.3586144 23:2.3467681 24:0.66866237 25:2.3628707 26:1.4570509 27:4.5258684 28:0.83440083 29:3.7286577 30:3.5566711 31:4.2257471 32:2.7575066 33:3.1992409 34:3.2904441 35:4.4238544 36:3.9156933 37:3.6978822 38:1.8563665 39:4.4373965 40:3.0277157 41:5.1362596 42:2.7357113 43:3.5109737 44:3.2144754 45:4.4244728 46:3.791347 47:3.5992675 48:2.6059015 49:3.0588157 50:2.4792483 51:2.0006714 52:1.2305876 53:1.425018 54:1.5890007 55:0.5075475 56:0.91840827 57:0.46539766 58:0.20822392 59:1.0668895 60:0.29791477 61:1.0216556 62:0.56420279 63:0.9204762 64:0.5144127 65:0.55107766 66:0.10407884 67:6.183054 68:8.4217196 69:6.9574533 70:1.8581482 71:3.7170737 72:1.4332917 73:0.45706877 74:0.69813418 75:2.6093397 76:2.4556525 77:0.99339551 78:1.1647999 79:0.30847067 80:2.0599859 81:0.97454512 82:2.3779674 83:1.6534233 84:4.1902194 85:3.4057772 86:2.9003534 87:4.495235 88:4.6631994 89:4.1663709 90:2.7926774 91:4.53616 92:4.5683203 93:3.3657439 94:3.832613 95:0.57485467 96:3.5292108 97:1.479045 98:3.2675033 99:3.6512029 100:1.2356751 101:2.9166927 102:1.1307172 103:3.5313432 104:1.6578819 105:0.3076638 106:2.8935161 107:0.42215702 108:3.0773716 109:2.0524373 110:2.6011236 111:1.5705913 112:2.1099184 113:1.1641843 114:0.40187982 115:3.3085496 116:2.5746393 117:1.0585142 118:1.2634294 119:2.8612385 120:3.1431417 121:3.3676846 122:1.9582634 123:4.7693458 124:4.8659425 125:3.7148049 126:3.5753806 127:3.3897746 128:5.0538383 129:2.6747429 130:2.0430036 131:4.4951892 132:6.2850533 133:10.950431 134:7.5572782 135:16.892962 136:13.177361 137:18.411118 138:6.2047811 139:13.963157 140:11.103146 141:21.031342 142:7.9518466 143:15.790432 144:9.5279322 145:18.562399 146:7.9181056 147:16.105782 148:12.219266 149:15.500454 150:8.3479862 151:12.183034 152:13.551484 153:13.796647 154:6.1122169 155:3.9143798 156:11.897361 157:10.198043 158:0.61020696 159:1.835031 160:10.211206 161:9.9021854 162:1.9466006 163:6.5603061 164:11.041409 165:11.408659 166:5.3066273 167:6.2265968 168:12.446332 169:13.614225 170:12.933017 171:13.549675 172:12.481795 173:17.751013 174:16.833439 175:16.269768 176:18.801649 177:17.731619 178:22.933798 179:16.687445 180:20.861868 181:13.590544 182:25.053947 183:16.012417 184:18.987879 185:8.2502747 186:20.107866 187:11.860545 188:13.786052 189:2.6380484 190:11.402653 191:6.890121 192:10.661023 193:2.3997896 194:6.7872357 195:2.3947172 196:0.84438461 197:2.7163644 198:4.8011823 199:2.0829101 200:2.5085504 201:5.6043873 202:1.6998335 203:1.2280612 204:2.5951009 205:6.1217937 206:3.7790856 207:2.6237984 208:0.90943944 209:3.7884779 210:0.28150639 211:0.40267631 212:2.315577 213:5.0525036 214:1.1487485 215:1.2646369 216:1.9376744 217:3.9697869 218:1.3060502 219:0.65783173 220:2.8699379 221:4.0358334 222:2.7731433 223:1.0761395 224:4.3648357 225:3.9466927 226:1.397799 227:0.5571779 228:2.1906018 229:4.9711285 230:3.6140873 231:0.2236983 232:0.15243034 233:2.3855159 234:2.7279742 235:2.38851 236:2.0954993 237:3.4814568 238:2.7529025 239:2.0669274 240:2.9878478 241:2.814832 242:0.76104325 243:-0.007775899 244:1.8496001 245:1.5838472 246:1.8240973 247:1.0069773 248:2.0231872 249:2.2631438 250:4.2143774 251:1.9779299 252:2.4204764 253:2.198688 254:3.3169246 255:2.6382182 256:2.3180358 257:1.1881721 258:4.5960526 259:3.1810155 260:3.9726076 #
-0.18005787250868587889840455318335 1:1.6534439 2:8.7396946 3:4.7809935 4:6.0623708 5:2.4701927 6:3.8593476 7:1.3323616 8:1.8099339 9:1.7023504 10:4.5142708 11:2.3524024 12:1.660957 13:1.2588494 14:2.0591609 15:2.2098558 16:1.9510756 17:0.20431028 18:-0.0074039167 19:1.9205983 20:1.7100518 21:1.8292223 22:2.9184906 23:2.2672014 24:2.6991456 25:1.9202909 26:0.67735726 27:2.8079779 28:3.0289807 29:2.82688 30:5.0743008 31:4.7039537 32:6.3520637 33:4.515336 34:3.3768721 35:3.2627015 36:2.9223435 37:0.77001208 38:3.5161266 39:5.3810573 40:4.9958549 41:2.735523 42:3.2182388 43:4.8039799 44:4.1307449 45:6.4692092 46:7.5176287 47:8.921361 48:8.5584898 49:5.9981523 50:6.7191029 51:7.0395212 52:3.6981916 53:3.1820159 54:6.172328 55:6.399303 56:4.4813032 57:3.4656024 58:4.3230329 59:3.8111165 60:3.1418569 61:2.4879837 62:0.76082516 63:0.69532865 64:2.5366189 65:3.3129411 66:-0.015829029 67:2.1318855 68:0.80750805 69:3.014492 70:2.1166172 71:1.8518146 72:8.0725975 73:3.9393697 74:1.684152 75:0.65301853 76:5.1073527 77:3.1371155 78:4.6073627 79:5.8403373 80:2.0060875 81:1.9992328 82:2.5204182 83:8.0654459 84:7.6965795 85:5.9245157 86:5.6162405 87:4.6596661 88:2.9025521 89:3.2337403 90:4.4188261 91:7.3993988 92:8.7997828 93:7.3526001 94:8.4028282 95:10.649435 96:6.3683038 97:1.6998823 98:0.6958456 99:2.435287 100:3.9896078 101:4.9572034 102:3.3057199 103:3.1558821 104:2.9597542 105:0.46135259 106:2.8476849 107:2.8991182 108:1.8371035 109:0.35030317 110:1.7886294 111:1.8354613 112:3.1479707 113:2.2262003 114:3.1344397 115:4.8045478 116:3.6066341 117:2.3894825 118:1.6301162 119:2.2678926 120:1.8458508 121:4.8639903 122:5.6475472 123:6.6396627 124:5.7071805 125:1.1713606 126:0.77321279 127:2.1521797 128:1.582561 129:2.2204144 130:1.9396384 131:0.7570135 132:1.6966094 133:1.1505519 134:1.413723 135:0.56044847 136:1.4377391 137:0.70729691 138:0.40188259 139:0.28669438 140:1.089473 141:0.37154514 142:0.2866345 143:1.1885327 144:0.069502614 145:0.26819694 146:0.24196105 147:0.052131779 148:0.24935003 149:0.11722699 150:-0.02273218 151:0.24760447 152:0.36104485 153:1.1713722 154:0.87073892 155:0.05078572 156:0.3375645 157:0.87722874 158:1.8405571 159:1.206001 160:-0.21574219 161:1.3971037 162:2.3505306 163:2.3487408 164:1.1298513 165:0.11763213 166:1.4110435 167:1.3122492 168:-0.23238362 169:0.41064227 170:1.0250956 171:0.96760225 172:0.42777708 173:0.92946208 174:2.2110858 175:2.1813691 176:3.2392857 177:3.7263165 178:3.3604081 179:2.4880331 180:1.798218 181:1.4263779 182:0.80564177 183:0.87296778 184:0.16984597 185:0.36247778 186:0.66348737 187:1.968407 188:2.4209599 189:2.1364763 190:2.9629614 191:2.0364661 192:2.1178317 193:2.3337829 194:2.3655305 195:0.16302212 196:1.5874449 197:1.3089459 198:0.37320372 199:0.58956856 200:0.16330171 201:0.050358646 202:0.82370347 203:0.20228978 204:1.0951697 205:1.2554886 206:1.4818487 207:0.14573634 208:0.46142799 209:1.1644025 210:0.86938226 211:0.92662406 212:1.8926985 213:2.294771 214:4.4366632 215:3.9313171 216:5.3986831 217:5.2288299 218:2.7794423 219:3.1471651 220:3.6527419 221:8.8639917 222:5.5477433 223:7.6219063 224:6.0142612 225:8.0377693 226:6.2426362 227:4.7639642 228:7.2145782 229:3.3843076 230:6.0061922 231:3.6522231 232:2.2378104 233:2.7099419 234:5.7405505 235:0.58122671 236:4.6983566 237:1.6734339 238:3.2281492 239:2.9777291 240:3.9587338 241:1.5729878 242:1.7583423 243:0.55580723 244:4.4080043 245:2.8736157 246:0.49874911 247:1.0064427 248:3.9785781 249:2.5718913 250:3.2886589 251:1.8043866 252:4.6778874 253:3.5314989 254:1.7334284 255:1.921815 256:4.3296423 257:4.578042 258:1.9404349 259:2.6297863 260:2.1175928 #
-0.45792853877646172433557580916386 1:3.2472994 2:7.505362 3:2.5500331 4:3.5921135 5:1.3833818 6:2.4179125 7:7.8069391 8:3.0319595 9:2.8960187 10:2.7688317 11:2.1853404 12:0.7786575 13:1.2230616 14:1.2111878 15:1.5501933 16:2.0549088 17:0.94689339 18:1.3103333 19:6.2383399 20:0.75959134 21:0.47059801 22:2.2977858 23:2.3752475 24:2.2400198 25:1.7306136 26:4.506114 27:0.80983835 28:1.9656097 29:2.7348552 30:0.80389267 31:0.26832637 32:0.19574422 33:0.3369616 34:0.81103343 35:0.98063362 36:1.9141707 37:1.1491816 38:0.66480148 39:-0.14175078 40:0.71962351 41:2.4993916 42:1.2056587 43:0.97913194 44:0.79686987 45:1.4419276 46:0.16855575 47:1.9121737 48:4.4491282 49:0.49205241 50:1.6184441 51:0.6737594 52:1.2406954 53:2.1479893 54:0.90677965 55:2.6101503 56:1.5409662 57:0.86806089 58:2.2621334 59:0.88865006 60:1.214391 61:1.0249307 62:1.2482381 63:-0.21932349 64:0.66738987 65:0.50437307 66:5.1072526 67:33.955765 68:11.525984 69:6.227931 70:3.0004108 71:1.1451858 72:4.1203241 73:2.1114106 74:2.5005393 75:3.4574983 76:2.6761165 77:3.1021125 78:0.7340681 79:5.0515566 80:3.3282161 81:2.2425022 82:2.577342 83:0.50994223 84:4.1782618 85:0.011243848 86:2.3612921 87:0.27855095 88:4.5951233 89:4.5725875 90:3.9642718 91:4.3169107 92:2.2331417 93:1.1824727 94:4.7089896 95:3.0701575 96:2.2577262 97:1.8342481 98:0.71473867 99:1.0378717 100:0.3593722 101:1.6155609 102:1.4973612 103:1.2560073 104:1.7435263 105:0.44186893 106:2.4732063 107:1.5249889 108:2.5089552 109:0.40134779 110:0.33286583 111:0.85214907 112:1.3173237 113:1.9816915 114:-0.11655086 115:0.74829882 116:2.0573096 117:0.814583 118:0.89959741 119:0.63975394 120:1.2806152 121:2.3184485 122:1.74103 123:0.5113712 124:0.89825284 125:1.0419861 126:0.59038299 127:0.48439547 128:1.2333797 129:1.0108714 130:0.80875027 131:0.99000388 132:0.34243482 133:0.9047299 134:-0.04834117 135:0.20451257 136:0.22701049 137:2.1975052 138:2.8583002 139:1.2435776 140:2.0859013 141:0.71594292 142:0.13256465 143:0.081107363 144:2.2323256 145:0.56578493 146:1.270417 147:0.60543317 148:1.3293245 149:0.25454021 150:0.51951253 151:-0.13587452 152:0.11776064 153:1.7745957 154:1.0695128 155:1.6276286 156:0.27425605 157:0.84189093 158:0.45271802 159:0.87478828 160:1.5886592 161:1.0698738 162:2.4340966 163:1.0313668 164:0.7041046 165:2.1119664 166:1.1352365 167:0.6712032 168:1.8923237 169:3.8477471 170:2.652591 171:1.8549517 172:3.4017453 173:2.5188675 174:0.7590428 175:3.3838682 176:4.1451821 177:0.22252984 178:3.6443636 179:2.8457987 180:3.702647 181:2.3879526 182:3.2098663 183:3.4140964 184:3.7692413 185:3.2191167 186:1.094882 187:1.9867024 188:3.3110557 189:1.6121724 190:1.3261733 191:4.803865 192:1.4999644 193:0.48994699 194:1.5756042 195:-0.078753866 196:0.63418126 197:0.10830317 198:0.92965996 199:0.27664158 200:0.32317063 201:0.21672566 202:0.77421594 203:0.45232311 204:0.1281544 205:0.23454025 206:1.0363234 207:0.42332378 208:0.82308096 209:0.93990165 210:0.6963743 211:1.2109621 212:1.2697443 213:2.0338058 214:0.89589894 215:-0.002547459 216:0.063143387 217:2.4656482 218:1.6079931 219:2.6258504 220:2.8124168 221:1.2351565 222:1.3337423 223:0.29531378 224:1.9438659 225:2.3101821 226:3.2360437 227:2.0804539 228:0.14624299 229:0.94358832 230:0.306095 231:0.21858755 232:1.9367145 233:2.5565598 234:1.7270808 235:1.2819237 236:0.57308984 237:0.062426418 238:0.76311237 239:0.51062405 240:0.91804862 241:0.69016814 242:1.8901327 243:1.1565921 244:1.2609328 245:0.89290637 246:0.69824851 247:0.58733505 248:1.1149286 249:2.6734052 250:0.53806221 251:1.3678225 252:1.2167343 253:0.10511307 254:1.3079019 255:1.7685084 256:1.8282422 257:0.69266278 258:1.7062069 259:1.3829467 260:0.47483677 #
-0.66693952228721320452109466714319 1:2.2636726 2:6.8795047 3:3.3554943 4:4.2025857 5:0.87493807 6:3.3362646 7:2.0223908 8:0.036862846 9:0.50366318 10:3.0155945 11:0.32115123 12:0.56864607 13:3.1781611 14:1.9391729 15:5.3368897 16:2.4251604 17:4.6509056 18:7.2481303 19:2.6827934 20:0.0074697314 21:1.4085706 22:0.85580611 23:0.70005119 24:3.4999661 25:2.8848872 26:3.48124 27:5.743547 28:3.009721 29:2.0768147 30:2.6538644 31:3.1994603 32:1.9878927 33:5.9999704 34:4.5600419 35:1.2241589 36:5.1888123 37:2.5730665 38:1.29853 39:2.8326914 40:3.9388061 41:0.84940058 42:2.705642 43:2.450712 44:1.5488607 45:1.5739329 46:0.38449025 47:3.1096613 48:3.9162433 49:2.3452466 50:0.20625912 51:1.6860356 52:0.42022845 53:3.6844943 54:4.1272836 55:-0.14016274 56:2.8890996 57:3.9923515 58:1.0589544 59:2.5415955 60:1.6470062 61:1.0989841 62:0.90207392 63:0.53854924 64:2.1639009 65:2.7574704 66:0.3113451 67:2.9450727 68:5.4273491 69:5.3794208 70:1.9165617 71:8.2158918 72:3.6315119 73:3.0896983 74:1.1138904 75:0.15583742 76:1.1594161 77:4.4294176 78:5.164413 79:3.186806 80:5.0408373 81:3.9896655 82:0.89520186 83:2.9307103 84:2.1577775 85:7.2515197 86:3.0344889 87:2.3672414 88:2.6660714 89:2.2779887 90:3.6340785 91:2.7929823 92:6.7061491 93:2.450104 94:5.7598848 95:1.6498625 96:1.0314986 97:6.9693284 98:2.0481942 99:3.0307386 100:9.2343941 101:0.74440968 102:3.514699 103:5.4330769 104:5.1320138 105:8.487359 106:4.8417668 107:4.8497109 108:0.49235407 109:0.27984551 110:5.2522464 111:0.73862654 112:2.3830762 113:5.5950403 114:0.36500141 115:4.7213335 116:3.2864773 117:4.5735402 118:4.7749605 119:6.9275208 120:4.2123146 121:1.1579406 122:5.2275519 123:7.4210172 124:7.73488 125:2.6150656 126:8.699832 127:5.390934 128:3.6225178 129:1.4211546 130:0.066611946 131:8.0555201 132:2.9387257 133:7.1771283 134:7.8898239 135:1.504276 136:5.4614201 137:7.0613699 138:1.9574995 139:7.7944994 140:14.935766 141:4.8207335 142:9.5279121 143:0.82346809 144:5.4613733 145:12.078485 146:4.1384659 147:8.6093807 148:9.3720322 149:8.635891 150:9.0643969 151:13.044872 152:6.4878078 153:4.3565092 154:16.420443 155:0.79585093 156:0.85907018 157:5.86304 158:5.4621582 159:9.7802658 160:5.5099053 161:10.139206 162:12.695581 163:9.2957678 164:3.3642035 165:9.6949692 166:4.0266886 167:5.756628 168:7.2076688 169:6.1156025 170:2.6862154 171:12.803535 172:9.1622248 173:2.0907156 174:11.506222 175:8.450366 176:7.4821692 177:7.6140251 178:14.12332 179:9.7884502 180:4.6711879 181:2.4293377 182:7.8144503 183:1.4047747 184:1.5056827 185:3.5096295 186:4.6214542 187:6.1106372 188:8.0205441 189:5.7876091 190:1.7556901 191:8.5367432 192:3.7604885 193:4.4039812 194:5.1169691 195:1.8208833 196:18.416542 197:15.578588 198:9.7982597 199:12.431036 200:4.7535543 201:12.868055 202:7.7761464 203:4.5188861 204:5.0773277 205:6.0238543 206:0.13882026 207:3.2051146 208:6.7575469 209:6.7364831 210:5.8904877 211:9.6868582 212:0.84283412 213:0.4285641 214:0.88477343 215:6.1374121 216:2.7070291 217:2.451299 218:7.970221 219:1.2565324 220:10.289784 221:4.5995631 222:3.9735167 223:11.321788 224:6.2302089 225:10.908855 226:6.5746188 227:4.6531487 228:5.8877015 229:2.2670565 230:3.3075027 231:3.9294395 232:7.6526952 233:2.0954485 234:7.1650524 235:11.7867 236:3.842473 237:8.7263489 238:6.4965477 239:4.7049341 240:7.7027802 241:2.0387385 242:0.4655588 243:4.493052 244:3.279269 245:2.0547538 246:7.9840713 247:4.36235 248:3.2134035 249:7.7370305 250:3.4059412 251:6.3369713 252:6.7199521 253:3.9818132 254:5.7685728 255:5.9888802 256:0.41589177 257:6.4847445 258:5.1671672 259:1.9907926 260:3.8480437 #
0.58660515341928676225080607764539 1:4.8781157 2:19.845621 3:17.583536 4:18.594131 5:6.9118505 6:20.185854 7:11.480637 8:5.1827064 9:6.1040907 10:14.328269 11:15.772072 12:8.8541479 13:7.6540341 14:11.26795 15:7.9804115 16:6.5994859 17:9.0836439 18:16.568151 19:17.084993 20:12.570342 21:14.726794 22:21.508856 23:18.973221 24:15.884089 25:15.275311 26:17.680368 27:13.693501 28:16.338099 29:18.96595 30:19.057232 31:16.768553 32:23.457531 33:24.881472 34:17.498857 35:13.107966 36:12.780478 37:11.525393 38:10.67292 39:2.6532383 40:3.7982903 41:9.0016212 42:5.9400258 43:6.9930544 44:3.3179824 45:1.8547769 46:4.9265585 47:17.033133 48:27.998444 49:21.169498 50:21.122507 51:13.605152 52:9.6732912 53:13.909269 54:7.1674418 55:7.7640567 56:15.878131 57:17.137222 58:17.191963 59:6.7280741 60:3.8632932 61:7.7091913 62:8.3330364 63:4.0062547 64:2.4847033 65:4.1380382 66:0.43684453 67:4.7910233 68:4.7474003 69:3.427954 70:3.6715832 71:1.3107492 72:9.5024853 73:5.3926172 74:2.0581467 75:6.25455 76:8.9010992 77:1.5308275 78:2.9506214 79:5.7345858 80:5.4631333 81:4.040421 82:5.0301442 83:3.8308089 84:7.1271868 85:10.21002 86:19.382439 87:16.311155 88:8.8460407 89:5.8050685 90:4.2392163 91:12.421064 92:15.31892 93:11.405984 94:6.1807971 95:8.8482227 96:14.29312 97:9.2182484 98:9.5190239 99:4.4840703 100:7.529232 101:11.64753 102:3.758513 103:5.0635371 104:12.491946 105:14.952367 106:10.289633 107:6.4653563 108:2.6552577 109:6.1891437 110:12.942883 111:4.2321377 112:7.7186322 113:9.1644421 114:2.4620864 115:12.222359 116:7.3280592 117:7.5081391 118:2.2514448 119:2.7704101 120:4.4513278 121:1.0461763 122:14.7268 123:13.463951 124:7.7034984 125:4.4719858 126:7.6197562 127:11.875305 128:5.6097016 129:6.9042373 130:9.5957308 131:1.9534796 132:2.7051811 133:1.2684755 134:0.66389871 135:1.0001875 136:3.3007383 137:1.1809911 138:0.79905635 139:1.9269503 140:4.0957947 141:3.1278281 142:2.408448 143:2.1361306 144:2.7962487 145:2.2886698 146:2.0098498 147:1.1393306 148:0.54519516 149:0.51846623 150:0.34715372 151:1.8039497 152:1.924937 153:3.5387087 154:3.4764507 155:3.1771777 156:2.8070943 157:1.734131 158:1.9956892 159:2.0760858 160:2.2984364 161:3.6754782 162:6.8255916 163:7.1669598 164:4.1496825 165:5.2875624 166:4.2697029 167:2.8407753 168:4.0842271 169:2.4818337 170:3.2202182 171:5.2803812 172:3.9463835 173:2.0195398 174:2.8095644 175:0.38506287 176:3.2973874 177:3.8349547 178:6.3789225 179:5.3093047 180:2.1342952 181:1.0069624 182:1.5622325 183:1.0142312 184:2.3003194 185:2.8427589 186:3.9265633 187:6.3683572 188:9.9587536 189:7.6095366 190:0.18647201 191:1.3488301 192:4.3594136 193:5.3770757 194:2.2628031 195:-0.18307509 196:1.8521407 197:0.68683064 198:1.1269838 199:1.379293 200:0.83568555 201:0.18431202 202:1.0214108 203:0.42083827 204:0.66513658 205:0.59432739 206:0.64713204 207:1.5615523 208:1.9752843 209:2.1261864 210:2.8648059 211:1.2712291 212:3.6148133 213:4.3297548 214:1.6025884 215:9.9650812 216:11.096216 217:4.8624492 218:2.7376671 219:0.28390333 220:6.8561707 221:18.624826 222:8.6007376 223:5.7518849 224:6.8735738 225:18.934729 226:0.19742398 227:5.0944009 228:4.1557951 229:4.2600203 230:8.1146603 231:0.41369456 232:0.88182676 233:3.835608 234:9.0089293 235:7.1174326 236:2.5921366 237:2.7807343 238:1.7510302 239:8.7126045 240:6.1403208 241:4.1018767 242:1.256689 243:1.1982032 244:3.6290121 245:3.8784745 246:5.1528587 247:6.2360592 248:5.3190107 249:1.5023234 250:2.9250977 251:2.772886 252:4.7196736 253:6.6375394 254:3.3775609 255:4.5039978 256:3.5825958 257:3.0386491 258:6.9748898 259:9.9563065 260:0.64386648 #
0.66448212145713858589601841231342 1:2.6638448 2:14.952668 3:12.550508 4:12.365685 5:7.147326 6:13.140304 7:9.1582518 8:6.9650474 9:7.0928645 10:11.077315 11:3.3153558 12:5.9117031 13:10.775225 14:8.9931202 15:6.5562563 16:6.2570338 17:4.5771089 18:4.8005261 19:18.844795 20:17.292961 21:16.051168 22:12.974439 23:7.2513576 24:9.095911 25:11.310488 26:6.4088502 27:7.6023998 28:9.8510761 29:3.3529103 30:1.7904631 31:2.0321882 32:3.430243 33:1.5245345 34:3.1438267 35:5.2632961 36:2.3997531 37:3.7845938 38:2.4257698 39:7.3422866 40:3.1690562 41:8.7931461 42:7.4558821 43:10.505349 44:8.5945835 45:5.2612486 46:6.033433 47:1.6722314 48:0.045503084 49:6.6007328 50:6.0749397 51:4.2542148 52:8.5625439 53:3.4247508 54:2.1958294 55:6.6313362 56:8.0671711 57:6.6788659 58:11.075038 59:1.5749955 60:3.9440677 61:6.1894383 62:12.410483 63:6.0146513 64:11.865501 65:4.4483581 66:-0.16959338 67:4.5701313 68:9.3066492 69:2.4673049 70:1.1178246 71:6.1754541 72:7.854691 73:2.6257584 74:2.6147552 75:3.6470728 76:2.3052137 77:1.7783506 78:6.0580044 79:7.2084212 80:2.7534425 81:1.9460725 82:2.0943036 83:6.0340629 84:9.3825245 85:4.5830593 86:5.8039474 87:8.7178602 88:11.802946 89:10.369232 90:7.0586982 91:11.050459 92:13.066952 93:15.306306 94:15.071668 95:9.8964205 96:18.097149 97:19.369013 98:17.117973 99:17.055269 100:16.448503 101:20.748486 102:16.381453 103:6.647069 104:23.347582 105:24.992672 106:20.42696 107:13.335259 108:11.738056 109:14.854062 110:12.671023 111:5.999403 112:20.821205 113:22.827133 114:16.60359 115:9.5844488 116:4.5228319 117:6.1505556 118:9.2219238 119:3.5544298 120:16.373644 121:21.21439 122:24.265352 123:23.121338 124:9.301959 125:6.3657112 126:10.006095 127:14.141056 128:6.9641232 129:21.3566 130:23.902008 131:3.6487465 132:9.1740103 133:4.9032464 134:4.0213213 135:3.9220352 136:5.4068642 137:6.1158934 138:3.1769979 139:5.3940401 140:8.2896967 141:3.0006976 142:4.4565582 143:7.5967026 144:11.54509 145:6.0403285 146:5.7744889 147:1.805097 148:2.8270109 149:2.3710153 150:6.7008777 151:10.732086 152:8.9612131 153:3.7781475 154:6.1722789 155:4.1787982 156:3.1360774 157:1.9404471 158:6.1461463 159:9.2133923 160:9.2172689 161:3.3521557 162:4.0793338 163:3.601965 164:1.8818698 165:1.3740247 166:1.5938336 167:2.3212969 168:3.9413998 169:6.4755163 170:4.4793153 171:0.7812168 172:1.9345489 173:1.6580342 174:0.70336896 175:1.584059 176:5.5498505 177:9.4293919 178:8.593852 179:3.360523 180:4.513176 181:1.9837953 182:4.0667267 183:2.1755326 184:2.5760572 185:5.6402192 186:8.4438677 187:4.1179771 188:3.6461196 189:3.6880558 190:7.8058853 191:7.7073951 192:7.9061866 193:4.3691058 194:10.048733 195:11.079612 196:0.30993122 197:1.4013636 198:3.6891906 199:3.2437956 200:1.0870422 201:4.2417459 202:6.4416785 203:3.4016616 204:1.7627785 205:4.328536 206:4.1958685 207:1.7399607 208:1.1336811 209:4.5384922 210:3.3064089 211:-0.086718105 212:1.1316819 213:2.3231993 214:3.2163217 215:1.5524939 216:2.0259335 217:5.5129633 218:4.4579549 219:2.6614652 220:4.4710045 221:11.086451 222:11.078161 223:2.4915123 224:2.9901867 225:7.8524718 226:8.3812189 227:6.7439528 228:10.091368 229:14.70962 230:10.917901 231:3.0335407 232:10.955313 233:14.950711 234:14.393705 235:5.9554973 236:12.353338 237:16.169666 238:11.322087 239:6.9446454 240:19.514376 241:20.761206 242:15.657727 243:2.4894712 244:14.977884 245:18.683203 246:13.11297 247:7.961586 248:18.854513 249:20.348713 250:12.761837 251:7.0341206 252:20.10334 253:21.786264 254:13.272649 255:2.9440789 256:16.337931 257:17.778223 258:10.688367 259:3.7310278 260:1.4352598 #
-0.18802986757162132303022872292786 1:0.83832335 2:0.67805541 3:3.8738873 4:2.398206 5:-0.23268889 6:1.6948265 7:3.2396233 8:1.1329263 9:0.55161357 10:0.5662818 11:1.5174598 12:0.9965362 13:1.8682945 14:2.7299447 15:0.8051551 16:1.2072643 17:0.8989194 18:0.63367581 19:1.1514406 20:1.5411917 21:1.0669168 22:2.2036502 23:1.7380412 24:1.4581114 25:-0.085074186 26:2.7311058 27:0.47247452 28:1.0221914 29:1.2921001 30:1.7198745 31:0.84042233 32:-0.13937768 33:0.90143239 34:0.50119734 35:1.4298748 36:0.7372691 37:1.8070585 38:0.17134294 39:1.6697214 40:-0.19812873 41:2.1959584 42:1.5940782 43:0.38578522 44:0.73519659 45:1.323326 46:1.267548 47:1.0183318 48:2.6319079 49:0.21404655 50:0.8134892 51:2.1943724 52:0.079048537 53:1.3452461 54:0.79098481 55:2.0233345 56:1.3073847 57:2.2814295 58:1.4185891 59:2.0800781 60:2.4628456 61:1.2252729 62:1.9010918 63:2.5031559 64:2.1691051 65:0.10930125 66:-0.17259261 67:0.0021396391 68:1.8286082 69:1.9317819 70:1.0826635 71:1.1459117 72:4.5176425 73:0.41436684 74:0.52616876 75:0.38188997 76:4.2896018 77:2.2306776 78:1.2944524 79:0.84073126 80:1.2219778 81:0.66055357 82:1.2763442 83:2.1424568 84:3.5842597 85:1.6857636 86:1.7601272 87:1.9321022 88:1.3677623 89:0.58583051 90:4.7197399 91:5.6268239 92:3.7842658 93:5.1298103 94:0.50733328 95:5.4493012 96:1.0711343 97:4.3964038 98:0.8312704 99:1.6808944 100:2.1476133 101:1.0478504 102:1.9199491 103:3.6787639 104:0.72478151 105:1.7642382 106:2.5835402 107:0.73583668 108:0.21993424 109:2.0633368 110:2.7747302 111:3.1957307 112:4.253984 113:0.72084415 114:0.40722457 115:3.465898 116:0.51972449 117:4.7662625 118:2.8132181 119:2.8786728 120:0.18899855 121:2.7416794 122:2.150455 123:4.4889655 124:2.663363 125:3.1018713 126:3.7032807 127:1.2732574 128:3.1504271 129:2.6627305 130:1.4492813 131:2.8402376 132:1.3946178 133:5.8145428 134:1.5381091 135:1.0353246 136:4.2479892 137:5.0351439 138:2.8616781 139:4.1245408 140:4.460866 141:0.87621671 142:3.9867918 143:3.9599764 144:3.9134617 145:4.0987697 146:3.8702729 147:3.0455763 148:3.1341233 149:4.4596195 150:3.6430969 151:2.4057751 152:2.0975826 153:4.081429 154:5.5220132 155:4.7943473 156:2.666055 157:5.3452969 158:1.9520391 159:5.8509507 160:4.6436005 161:8.3388948 162:6.0337081 163:2.3883281 164:2.8732829 165:3.9821525 166:6.1006312 167:9.5376911 168:10.453572 169:2.6789579 170:8.0489264 171:1.1918179 172:8.6913795 173:7.0803699 174:7.1060276 175:3.693886 176:2.3708994 177:0.026822293 178:6.3664131 179:6.1681542 180:6.9879594 181:5.2553468 182:5.3365054 183:4.7684703 184:9.6045046 185:11.402769 186:10.859938 187:7.7011232 188:5.7093592 189:0.72592181 190:3.8132887 191:6.2579951 192:9.4147367 193:7.7351556 194:9.006218 195:0.38119391 196:4.102561 197:2.1169553 198:6.9209538 199:2.604831 200:2.9124475 201:2.8095489 202:3.6461263 203:1.3022691 204:0.23831847 205:2.5793653 206:1.8438148 207:2.2749965 208:2.8846259 209:4.3623824 210:2.3464799 211:0.95479858 212:0.26573351 213:2.9249761 214:4.8549299 215:2.7381325 216:6.1494579 217:4.0399013 218:0.44419751 219:3.217541 220:3.8239892 221:6.0640349 222:8.4695902 223:10.109414 224:3.1656423 225:6.7223115 226:3.2568176 227:0.79964614 228:2.9679618 229:7.7480187 230:1.6521131 231:7.243576 232:1.3409184 233:2.6665761 234:2.6584175 235:4.3208008 236:5.7461863 237:4.8321581 238:4.5597839 239:0.8778156 240:0.27796397 241:2.370688 242:2.773458 243:1.106434 244:2.553771 245:1.1042396 246:0.3403675 247:1.9312973 248:1.5242267 249:0.58591539 250:0.44104269 251:2.6727595 252:1.8000895 253:2.9299359 254:2.9746926 255:0.63621747 256:0.7894792 257:4.420814 258:0.83079314 259:2.6336899 260:4.6750526 #
-0.018854591209412744495788061271924 1:3.2998536 2:2.9105673 3:3.3934016 4:1.4451877 5:1.4329396 6:0.06621483 7:2.2720032 8:6.5106378 9:3.1573255 10:5.8026357 11:3.0972638 12:2.7055633 13:1.3817831 14:2.2045972 15:1.2748703 16:2.250078 17:1.540888 18:5.3405252 19:4.7418289 20:3.0829258 21:2.6449707 22:1.6345185 23:2.4436505 24:2.8514531 25:4.3517957 26:0.62975258 27:1.536087 28:5.8801155 29:2.4554713 30:1.9258804 31:6.0105062 32:6.0985122 33:3.0931079 34:6.2835236 35:2.524914 36:15.381016 37:8.5631409 38:2.3552392 39:4.4727182 40:6.4339681 41:2.3565524 42:5.3163557 43:12.551952 44:5.303575 45:9.7640591 46:4.2575283 47:5.2015371 48:2.7209017 49:2.7598727 50:8.0557146 51:4.5586629 52:5.9337354 53:2.5329485 54:6.8151264 55:6.2442088 56:4.7984214 57:1.9300084 58:0.045875505 59:5.3806348 60:1.0751697 61:7.1739688 62:3.9961672 63:4.013032 64:6.9702325 65:2.2655897 66:0.3976897 67:3.6370857 68:2.4365871 69:0.99329293 70:1.6372969 71:2.0380545 72:2.6703868 73:2.9434345 74:3.3944998 75:1.5866607 76:2.7945554 77:6.7930264 78:7.0014873 79:4.5651531 80:0.82702851 81:7.5169382 82:2.276485 83:3.3801336 84:4.4508533 85:12.144547 86:2.1114645 87:5.3629766 88:8.4510422 89:9.145956 90:6.8382473 91:4.2304649 92:3.4783757 93:2.7299752 94:2.0268869 95:4.4172277 96:4.8985314 97:3.2124271 98:4.5463648 99:1.1283559 100:1.4867367 101:7.2035179 102:1.9471385 103:7.2333889 104:1.5417401 105:7.1215534 106:2.8235779 107:1.720571 108:10.491175 109:3.6863577 110:2.177953 111:8.5541296 112:10.257154 113:2.5284376 114:5.5116897 115:4.4112434 116:12.503781 117:2.5084705 118:7.46803 119:6.2276406 120:6.9324732 121:1.7423643 122:2.4134963 123:8.9436865 124:4.2409396 125:8.7840624 126:2.5376015 127:5.9739094 128:2.4065642 129:4.9350476 130:7.8246298 131:2.877357 132:0.83239233 133:0.92794698 134:1.1746433 135:2.7838349 136:2.0549307 137:0.19735554 138:0.41618428 139:1.3286009 140:1.5112723 141:0.84983104 142:2.9637058 143:2.5063312 144:0.8013227 145:1.8735851 146:3.6426952 147:0.92753804 148:3.4951527 149:3.1018903 150:6.0708957 151:1.4324524 152:4.0283775 153:2.2349758 154:5.6022797 155:1.9271947 156:3.0111058 157:1.6121848 158:2.52562 159:2.3980291 160:1.5854461 161:5.1018124 162:1.7035451 163:2.4599674 164:2.3170338 165:2.982003 166:4.2715688 167:1.5015926 168:4.412951 169:2.0463603 170:4.7867823 171:5.3295541 172:4.1604037 173:4.9703002 174:2.1092083 175:5.1307611 176:0.61923474 177:1.335393 178:4.6316037 179:3.8717775 180:1.6869285 181:2.1436787 182:1.8294451 183:1.7990382 184:2.9656732 185:0.9615131 186:0.60974097 187:2.4234309 188:1.8642733 189:1.774052 190:0.29066932 191:3.1822484 192:1.8746208 193:2.4923098 194:2.9978611 195:3.2887702 196:0.44127432 197:1.5950224 198:2.0070243 199:0.51061273 200:2.3033957 201:2.0492566 202:0.91463614 203:3.3288193 204:5.2875485 205:1.4818578 206:1.3720449 207:3.1675475 208:3.5273476 209:1.8714794 210:3.5149655 211:1.7269621 212:1.4170641 213:2.8324749 214:2.2522082 215:6.7071691 216:3.4908674 217:0.93903124 218:2.2699285 219:6.5367055 220:8.1540871 221:6.9012113 222:0.7622965 223:2.1655273 224:4.6865978 225:2.896018 226:4.2844367 227:3.4571307 228:2.6526926 229:4.4069715 230:3.5918474 231:1.5979748 232:1.8505957 233:1.5059124 234:2.8623993 235:1.6706157 236:4.443325 237:6.3388634 238:4.3094025 239:7.7926092 240:1.2814907 241:1.950294 242:9.135355 243:4.8038836 244:1.2041955 245:4.1066418 246:0.22316131 247:0.67858493 248:2.1164885 249:5.4991255 250:4.1193113 251:2.1750517 252:0.89277697 253:1.118959 254:5.6211252 255:3.858053 256:5.039566 257:2.7269063 258:4.5249114 259:7.6992245 260:1.1475965 #
-0.15846159060496789461325306547224 1:3.4697683 2:2.3313842 3:2.3578959 4:3.9741352 5:0.53872114 6:3.3647864 7:5.2961745 8:1.4713337 9:0.57966691 10:3.4240389 11:3.4358497 12:0.43182287 13:2.8718605 14:4.7906775 15:1.9016801 16:7.012321 17:9.4191065 18:5.4493775 19:5.3414674 20:4.2455935 21:4.833734 22:5.1364026 23:-0.10412878 24:2.6559467 25:5.7320018 26:2.3564951 27:2.954313 28:4.0298738 29:5.7935138 30:0.89898229 31:3.95576 32:8.1755724 33:6.6999531 34:7.009201 35:5.433847 36:1.4842696 37:6.5650001 38:9.5755186 39:8.5979748 40:12.399737 41:4.9514771 42:3.8338451 43:4.4309835 44:3.5217714 45:4.2821164 46:3.2081709 47:4.1746597 48:3.8663445 49:4.1600981 50:1.2463514 51:2.1314421 52:0.85442811 53:7.7977681 54:2.3853638 55:4.2701139 56:0.18723668 57:5.6298757 58:4.0104799 59:4.0833092 60:7.8127608 61:2.5637991 62:5.9345264 63:6.2204776 64:6.9594393 65:3.4738917 66:2.9645457 67:3.2457743 68:9.3893299 69:2.1779592 70:1.2528979 71:3.4347239 72:0.74080783 73:0.77211499 74:0.020534953 75:1.310791 76:3.0402989 77:1.3551481 78:2.2947586 79:4.3068991 80:1.2227174 81:2.5775676 82:3.6483567 83:0.51310933 84:2.8878572 85:2.8331275 86:0.55388212 87:2.2950478 88:1.3754888 89:0.2215163 90:3.3891292 91:1.6873455 92:0.50469923 93:1.5292993 94:3.5584214 95:1.2086288 96:3.4354341 97:2.2730639 98:0.91705579 99:1.3414186 100:2.9205239 101:1.4822795 102:1.4554906 103:1.3070327 104:4.3112097 105:5.4359455 106:3.2363968 107:2.3987916 108:3.0551431 109:2.9037561 110:1.1662252 111:2.9658213 112:1.6143917 113:0.82699203 114:0.23273288 115:1.329496 116:0.43578163 117:1.8756499 118:3.9818811 119:0.62705171 120:2.7082052 121:0.7317068 122:0.80526918 123:2.2540112 124:3.5980194 125:5.970582 126:0.71785152 127:3.5235837 128:4.413753 129:2.4471626 130:3.7281682 131:0.52972847 132:-0.004402454 133:0.47834328 134:0.60478234 135:0.15030725 136:0.74600947 137:0.84908324 138:0.3940883 139:0.24609722 140:0.36111665 141:0.6568464 142:0.78718597 143:0.89069998 144:0.62438345 145:1.2022785 146:0.35757861 147:0.32199073 148:0.44428536 149:0.99247712 150:0.77475548 151:-0.080043055 152:0.28656888 153:0.38367349 154:0.17477897 155:0.58301061 156:0.41374788 157:0.2968035 158:-0.18058306 159:0.811584 160:0.11228495 161:0.091201954 162:0.13648671 163:-0.053277727 164:0.33042267 165:0.23615241 166:0.59230971 167:0.91160941 168:-0.19771127 169:0.87167269 170:0.73872089 171:0.57571781 172:-0.20263086 173:1.3103586 174:0.57797551 175:0.34771162 176:1.8132265 177:1.1066061 178:1.5182621 179:0.18488203 180:1.0571134 181:1.282969 182:0.86253828 183:0.97734606 184:1.3146648 185:1.3314531 186:0.69436741 187:1.5769616 188:1.0858707 189:1.1606135 190:1.6243534 191:1.0544014 192:1.4023983 193:1.7328148 194:2.0183523 195:1.4787675 196:1.4941027 197:0.27940929 198:0.67749459 199:0.49593988 200:0.16631198 201:0.10458941 202:-0.075466648 203:0.74355388 204:-0.26021817 205:0.65690768 206:-0.0032057397 207:0.3551029 208:0.046978157 209:0.34026435 210:0.4992536 211:0.22498579 212:0.34808066 213:0.63466364 214:0.12866408 215:-0.19961637 216:0.34969908 217:-0.073176034 218:0.13604559 219:0.14028771 220:0.024752317 221:-0.11033518 222:0.16694891 223:0.56765723 224:0.51182282 225:0.38802391 226:-0.098499499 227:0.81302559 228:-0.013931313 229:0.22189814 230:0.79436153 231:0.11482839 232:0.77597272 233:0.73347193 234:1.8709619 235:0.9757877 236:1.6198642 237:0.95217174 238:1.0435115 239:0.91516328 240:0.84871018 241:1.7179306 242:0.88938487 243:-0.095493823 244:1.7766851 245:1.6763117 246:0.41865808 247:0.56864136 248:1.2985708 249:2.0298369 250:1.1670306 251:1.1869857 252:1.5668188 253:1.2410618 254:1.1264628 255:2.8991942 256:1.8302687 257:2.4524429 258:3.5376959 259:2.0919557 260:2.7145438 #
0.55576750807541530630118131739437 1:1.1058211 2:11.190949 3:10.020893 4:6.1918588 5:3.0347519 6:10.096091 7:10.763609 8:4.9309464 9:2.7401273 10:4.7845793 11:4.9466186 12:3.396107 13:2.6134858 14:2.5655105 15:1.5020827 16:1.5079809 17:2.8601756 18:4.7926564 19:3.46173 20:1.1742131 21:0.91019416 22:1.726869 23:2.2049437 24:2.6707261 25:3.6953363 26:4.0479646 27:3.3318558 28:2.4224231 29:1.4038488 30:0.69717598 31:0.74271828 32:0.94305623 33:0.81640786 34:1.8928766 35:2.8212781 36:3.2789254 37:2.5996175 38:1.7989719 39:2.2236071 40:3.534749 41:4.2936621 42:4.0928845 43:3.7428942 44:2.8679483 45:2.2096481 46:1.6566664 47:1.3320062 48:0.99944818 49:0.82565981 50:1.1988261 51:1.6497767 52:2.0360644 53:2.2123098 54:2.9087634 55:3.8631461 56:4.7298803 57:5.4845629 58:5.7432337 59:5.0807962 60:3.5089405 61:1.7388105 62:0.67686307 63:1.5378399 64:1.9537219 65:1.0926709 66:0.095959671 67:4.1082954 68:7.2280879 69:5.8609247 70:2.8252778 71:6.8454127 72:5.5824161 73:2.2051098 74:1.4858276 75:4.7418647 76:4.7518144 77:1.7821243 78:0.42679197 79:1.2086273 80:1.132007 81:0.57209122 82:0.23980552 83:-0.13607271 84:0.41977504 85:0.34490606 86:0.12567943 87:0.61894387 88:1.5707685 89:2.6000676 90:4.1220231 91:5.0076256 92:4.2742038 93:3.8170049 94:3.6597598 95:3.8835764 96:4.2522864 97:4.827548 98:4.9808631 99:4.4638042 100:3.3831532 101:2.7316539 102:2.0602729 103:1.6803631 104:2.2544196 105:3.4118731 106:4.5355902 107:4.6462684 108:4.0241241 109:4.2649136 110:5.1733503 111:6.4834213 112:7.4580941 113:8.4935484 114:8.8126392 115:9.0562687 116:8.7209396 117:7.7489314 118:6.4197869 119:5.1999187 120:4.8742886 121:5.3634996 122:6.4006877 123:6.6995535 124:6.4720097 125:3.6825249 126:0.10854366 127:4.7793155 128:8.8064976 129:8.4123373 130:2.3106034 131:1.7535132 132:7.381073 133:6.9148359 134:4.6823411 135:1.5695837 136:2.6706507 137:5.1815238 138:5.408 139:5.009757 140:7.3496647 141:7.624053 142:7.7606182 143:8.2768803 144:8.4671917 145:6.0462451 146:4.1770115 147:4.8356419 148:5.602355 149:5.6900911 150:5.7660413 151:7.6078262 152:8.1040583 153:8.1242638 154:8.0319929 155:8.6356277 156:8.728466 157:7.835865 158:6.9948354 159:6.0320859 160:4.4687142 161:4.0162106 162:6.8006363 163:9.6921463 164:11.310616 165:9.9892855 166:8.5970125 167:6.6777186 168:5.2643976 169:5.1076102 170:6.5107541 171:7.7867517 172:7.3099656 173:5.2775607 174:4.3054242 175:7.1766686 176:9.8481083 177:11.293586 178:11.460318 179:10.030538 180:7.3328538 181:5.0796313 182:5.5360527 183:8.4511118 184:11.16231 185:12.071799 186:11.314761 187:10.524069 188:9.8748531 189:9.0846605 190:6.5584216 191:4.6023631 192:7.2655678 193:10.662681 194:13.385356 195:15.910453 196:1.735628 197:2.0725803 198:2.854037 199:2.9268777 200:1.5557532 201:2.7109103 202:1.5066929 203:0.42975551 204:0.88364089 205:2.596509 206:3.5216455 207:2.9851556 208:3.0541294 209:3.6732299 210:3.5816276 211:2.9698606 212:3.6336925 213:3.8902469 214:2.9277823 215:2.0931954 216:2.936914 217:4.2631025 218:5.0301008 219:5.5745435 220:6.3879204 221:6.0528255 222:5.2855792 223:4.5248966 224:4.6180906 225:5.2127233 226:6.2734995 227:6.9042215 228:6.6900816 229:5.9817882 230:4.7833223 231:3.4721012 232:2.9293246 233:3.7149742 234:4.712234 235:5.5848103 236:5.5256581 237:4.6427007 238:4.0346365 239:4.012979 240:4.5113106 241:4.448256 242:4.5578375 243:5.2194328 244:6.1193066 245:7.083653 246:7.6263828 247:7.9180679 248:6.371398 249:5.5231924 250:6.2721977 251:7.7654076 252:8.2184763 253:7.6908846 254:7.0281162 255:7.4115181 256:9.1463108 257:10.549602 258:10.931032 259:10.748727 260:9.4062243 #
1.1717017932937210389354731887579 1:1.2587649 2:11.652291 3:12.466942 4:10.468911 5:4.155386 6:6.6701059 7:7.4928951 8:3.315074 9:2.2044303 10:5.4725266 11:4.7503815 12:2.1473875 13:1.3123795 14:2.8266342 15:1.8052225 16:0.57894117 17:0.093678527 18:0.98337162 19:1.39306 20:0.65094197 21:1.0852821 22:0.77863598 23:0.29736775 24:0.3513087 25:0.53313577 26:-0.17633629 27:0.83219999 28:0.98045945 29:0.64070702 30:0.59873533 31:0.69917601 32:1.0310241 33:0.53388309 34:0.17206022 35:0.94249713 36:1.9178544 37:1.988317 38:1.1561947 39:0.6222412 40:0.68558609 41:0.73077095 42:1.1383307 43:1.8342232 44:2.1210485 45:1.8988012 46:1.2998174 47:0.64699298 48:0.55351979 49:0.067103401 50:-0.026569247 51:0.11417187 52:0.28603145 53:0.23195648 54:-0.045364257 55:0.37326992 56:0.57433194 57:1.071412 58:1.9340705 59:2.5998323 60:2.9108689 61:2.775239 62:2.4119165 63:1.703019 64:1.1633747 65:0.056884583 66:0.44744757 67:6.4431429 68:8.4959927 69:5.6682906 70:2.5400164 71:6.389967 72:5.857717 73:2.5181847 74:1.9289075 75:6.1438022 76:6.1524725 77:2.6753125 78:3.5138078 79:4.4102025 80:2.0905764 81:0.19089952 82:0.025559744 83:1.2532856 84:1.4810278 85:1.6367645 86:3.88504 87:4.0909028 88:4.2955513 89:5.3119559 90:7.2809858 91:7.2275348 92:5.1118031 93:3.6018016 94:1.9270077 95:0.50014335 96:1.8796301 97:3.0568976 98:3.5014632 99:3.1206255 100:2.4354508 101:2.3820474 102:2.4951591 103:3.1340239 104:3.6697376 105:3.8721435 106:4.6564722 107:5.4122834 108:5.6208329 109:5.427465 110:4.9804487 111:5.5517368 112:6.4037771 113:7.0993328 114:6.5645885 115:5.737422 116:4.7957029 117:4.4489217 118:4.6270657 119:4.1710281 120:3.7176521 121:3.192106 122:2.7585907 123:1.788453 124:1.0297724 125:1.3393594 126:2.4422429 127:2.892781 128:3.086061 129:3.0370898 130:2.8522298 131:0.35996851 132:2.0995286 133:1.7231871 134:1.5672265 135:1.7059544 136:2.5781045 137:2.2837305 138:1.2242125 139:0.47418106 140:0.62313217 141:1.2256495 142:1.2935791 143:0.95244658 144:0.49336877 145:0.29295215 146:0.4571813 147:0.61316615 148:0.39069507 149:0.34220856 150:0.34934077 151:0.35160193 152:0.12713714 153:0.28634378 154:0.55027151 155:0.87302244 156:0.72030377 157:0.98917776 158:1.4235232 159:1.518929 160:1.5073994 161:1.6621004 162:1.843399 163:1.6776989 164:1.5943097 165:1.4794812 166:1.7721605 167:1.8520107 168:1.6773388 169:1.5153922 170:1.559041 171:1.4886814 172:1.2750148 173:1.0263216 174:0.903889 175:0.98659945 176:1.1229587 177:1.2313759 178:1.2588139 179:1.3526357 180:1.4296094 181:1.723758 182:1.9582679 183:2.2578785 184:2.469516 185:2.6329608 186:2.6700366 187:2.6143637 188:2.4929898 189:2.531729 190:2.4142883 191:2.1839337 192:2.1236916 193:1.885673 194:1.8318734 195:1.8906784 196:1.5400356 197:1.5625387 198:1.5698572 199:1.164529 200:0.36390916 201:0.71352482 202:0.48157102 203:0.11487317 204:0.016056662 205:0.35834768 206:0.48818472 207:0.25239104 208:0.23141634 209:0.30027825 210:0.097597301 211:0.15865642 212:0.38854656 213:0.48668456 214:0.4595674 215:0.36865973 216:0.54169399 217:0.70624381 218:0.70745784 219:0.58638775 220:0.62957221 221:0.64368123 222:0.72109532 223:0.69512695 224:0.60538018 225:0.44691268 226:0.8263312 227:1.2537161 228:1.3972192 229:1.4089751 230:1.5073253 231:1.8537518 232:1.8906173 233:1.7547557 234:1.3989731 235:1.3904401 236:1.5291121 237:1.6721708 238:1.878024 239:1.8879105 240:2.0196512 241:1.8945177 242:1.9532447 243:2.0883114 244:2.2166948 245:2.1322458 246:2.0971594 247:2.1096067 248:1.7418573 249:1.5085138 250:1.1619502 251:1.0245552 252:0.88494712 253:1.0011536 254:1.2617334 255:1.6020591 256:1.9873656 257:2.2866457 258:2.5403001 259:2.9719071 260:2.8046513 #
0.50230264308647898374715623504017 1:1.6553304 2:11.920255 3:11.696186 4:11.281051 5:5.4388456 6:11.751275 7:12.053412 8:7.1305633 9:5.3664346 10:15.081725 11:14.979862 12:11.036983 13:9.307497 14:12.575447 15:11.278543 16:8.754405 17:10.57674 18:14.055048 19:12.687691 20:8.8752069 21:9.4365435 22:10.036017 23:8.4404173 24:7.4188461 25:8.8289328 26:10.175191 27:10.29568 28:10.209572 29:9.7992945 30:9.5712261 31:8.4926052 32:9.4773607 33:8.7047806 34:6.0361156 35:4.9778323 36:4.9377999 37:6.517611 38:8.3931684 39:7.7341604 40:7.8139739 41:8.2443972 42:7.9108005 43:6.7975206 44:6.3881898 45:5.5196595 46:4.5161104 47:4.2843347 48:5.2188039 49:4.7631879 50:4.4391003 51:4.5346971 52:5.5704832 53:7.1364903 54:6.1866274 55:4.1218195 56:2.594383 57:2.360836 58:1.9881046 59:2.2489457 60:3.0072348 61:3.0434139 62:2.1343675 63:0.86679703 64:1.0201519 65:0.56716585 66:0.25056463 67:2.1174586 68:1.8397776 69:1.070726 70:1.0195892 71:3.762078 72:3.7308474 73:1.8653387 74:1.5398264 75:6.6614699 76:5.44346 77:3.6018813 78:2.3518612 79:2.3092821 80:4.0658789 81:3.8135364 82:3.9872036 83:0.23585574 84:2.753803 85:2.2309446 86:1.7515253 87:4.2307277 88:4.1514668 89:4.6645637 90:6.6821179 91:6.6916018 92:5.3973856 93:1.8515135 94:3.7605457 95:5.851737 96:5.4431996 97:3.8029704 98:1.9993658 99:5.9827824 100:9.8709536 101:9.761797 102:9.8289557 103:5.6632729 104:5.7992811 105:12.675467 106:14.333398 107:13.813816 108:8.2355328 109:3.974983 110:7.8961592 111:9.7537804 112:5.51752 113:8.206728 114:11.497785 115:11.73803 116:16.420734 117:10.381951 118:4.5692749 119:3.7216401 120:11.08077 121:11.755279 122:10.246977 123:8.7951717 124:7.1790295 125:8.1124115 126:4.9464431 127:3.1744399 128:6.4111185 129:10.894664 130:15.494578 131:2.0017521 132:5.9136868 133:4.124815 134:4.4118242 135:4.2103829 136:4.6162405 137:2.9979661 138:1.2093025 139:1.2273515 140:5.9484191 141:8.0096798 142:7.4319882 143:9.0295725 144:10.364838 145:9.075861 146:9.0373344 147:11.013943 148:8.9089727 149:6.2685647 150:5.6409764 151:3.6873813 152:2.9598079 153:5.9884439 154:6.980999 155:8.8398485 156:10.765571 157:11.864944 158:11.467524 159:13.465005 160:12.865001 161:9.3740349 162:8.0380192 163:6.0486927 164:5.1510682 165:6.1053195 166:9.5268393 167:11.697746 168:13.027067 169:14.216509 170:13.413195 171:13.860649 172:13.488325 173:11.3726 174:8.853466 175:7.4936771 176:6.8337541 177:7.7309132 178:9.2635717 179:11.130087 180:12.253416 181:13.038886 182:14.821394 183:15.858059 184:15.777195 185:14.927242 186:13.046154 187:11.346705 188:10.228412 189:10.551334 190:10.497669 191:10.884955 192:12.873767 193:13.965292 194:16.030365 195:18.819515 196:0.55580735 197:1.2346734 198:1.9299581 199:1.4880708 200:0.33888939 201:0.35440025 202:-0.031507768 203:0.10517316 204:0.18010955 205:0.13352445 206:0.2889688 207:0.43980718 208:0.29575953 209:0.34943983 210:0.91417587 211:0.73606092 212:0.64971721 213:0.68565464 214:0.82829201 215:0.84173757 216:1.1720281 217:1.2632974 218:1.1342192 219:0.96293634 220:0.69113696 221:0.21903218 222:0.18375435 223:0.67150724 224:1.3132207 225:1.601297 226:1.7410903 227:2.0800066 228:2.4375184 229:2.4023044 230:2.4530201 231:2.52285 232:2.0743406 233:1.0735977 234:0.40340996 235:0.13777502 236:0.22092813 237:0.97023994 238:1.7500584 239:2.4303877 240:2.9149966 241:2.9260821 242:3.1143174 243:2.9970036 244:2.7423761 245:2.0452352 246:1.5319575 247:1.1844748 248:0.4456504 249:1.3981612 250:1.8392977 251:1.8202083 252:2.0688598 253:2.0738935 254:2.5788753 255:2.5040047 256:2.5480475 257:2.4501672 258:1.4843746 259:0.36427236 260:0.65601826 #
-0.10468449785125306938926570410331 1:5.102993 2:2.6186008 3:0.46549854 4:5.885426 5:0.60011941 6:4.9085612 7:3.0309811 8:1.6075875 9:1.3732848 10:4.8900371 11:3.1001589 12:2.3910208 13:3.6526489 14:7.2593322 15:4.5896835 16:2.152564 17:1.4444534 18:2.6888447 19:2.3156579 20:0.93590885 21:3.5350795 22:3.1484768 23:0.48620319 24:1.5325735 25:1.0322016 26:2.3333793 27:0.31701934 28:1.6031986 29:1.5356396 30:1.5791743 31:1.0469972 32:0.96758735 33:2.8352206 34:0.55862737 35:1.8379886 36:0.97646505 37:0.8184976 38:1.5859773 39:1.6740152 40:2.8746607 41:1.3055664 42:1.3080941 43:4.930294 44:3.5884821 45:1.8136076 46:2.4883981 47:0.87369931 48:3.1849365 49:1.7142864 50:1.5409663 51:3.328928 52:1.5356439 53:0.30629244 54:1.6843132 55:3.0588479 56:0.64166027 57:1.9157265 58:2.0534546 59:0.68162763 60:-0.22460191 61:1.0291827 62:2.0605304 63:0.8540538 64:0.083260432 65:0.0067831143 66:9.513093 67:10.53019 68:0.20910169 69:6.9350076 70:0.10100652 71:6.4257236 72:2.8658547 73:3.0916498 74:0.94159245 75:2.8809285 76:1.4553534 77:1.792268 78:1.5597419 79:1.428768 80:1.0002286 81:1.8461199 82:0.1789272 83:1.4269245 84:0.93938619 85:-0.055791367 86:1.667119 87:1.9172405 88:1.3630775 89:2.032618 90:0.74950546 91:3.1266248 92:1.8451675 93:3.0949061 94:1.3433508 95:2.3736842 96:3.0180857 97:1.0841218 98:0.97218692 99:1.8037493 100:2.3338947 101:4.8459783 102:0.99861437 103:3.0522993 104:4.94625 105:4.1406531 106:0.76697296 107:4.174489 108:6.7674904 109:8.0376129 110:3.0568125 111:2.7585843 112:7.6002493 113:8.6396656 114:1.8514984 115:3.8476434 116:9.0163031 117:6.4114685 118:2.6360366 119:4.6492319 120:8.7977772 121:8.5681391 122:2.4690897 123:4.2689705 124:7.9521499 125:5.6392632 126:4.5942726 127:4.870728 128:8.3697786 129:6.2028532 130:5.3801179 131:2.1002543 132:2.3544328 133:3.1971166 134:2.1814353 135:0.74560457 136:1.5547932 137:0.10562453 138:2.1528978 139:1.5042323 140:1.5036826 141:2.4677639 142:1.178015 143:2.4461064 144:0.5856483 145:1.15017 146:1.558453 147:2.6366022 148:1.2522713 149:1.1992583 150:0.49793497 151:2.3433924 152:3.3212109 153:2.9387403 154:3.637167 155:2.4522099 156:0.11332464 157:1.14922 158:2.0577116 159:2.1332316 160:3.9478953 161:2.142386 162:2.2701728 163:3.5298572 164:2.200742 165:1.8400955 166:2.6550372 167:4.9921145 168:1.0738162 169:3.0544381 170:2.9869361 171:2.9125855 172:0.077415496 173:0.30842119 174:1.4208993 175:1.0024222 176:0.97463292 177:0.37340826 178:1.0735807 179:1.6008277 180:1.8244752 181:0.3759301 182:2.8230646 183:1.7907262 184:2.2743618 185:1.4316014 186:3.2691684 187:2.8914375 188:1.456375 189:1.9285511 190:3.7563229 191:0.72523463 192:0.35827568 193:1.2858224 194:2.1591566 195:1.5363134 196:5.1130548 197:6.7232199 198:6.069921 199:7.771832 200:1.1073134 201:2.4732294 202:3.2840819 203:2.453639 204:-0.21732718 205:1.7977434 206:1.296205 207:1.0230267 208:0.76838136 209:3.3830693 210:1.7171197 211:1.4942602 212:2.2044566 213:0.18037443 214:1.0928191 215:1.4911584 216:0.098750956 217:1.0882262 218:2.7640524 219:1.6720797 220:3.1991856 221:3.3022459 222:2.2451277 223:1.9466829 224:0.83092594 225:1.4856703 226:0.65021557 227:0.21742126 228:1.204232 229:3.0920904 230:2.0084631 231:3.7493143 232:3.5057552 233:2.1278088 234:1.8970436 235:3.8375366 236:2.1270978 237:0.60025364 238:3.0102696 239:2.5059295 240:0.36500469 241:1.1454962 242:2.9845619 243:2.2795346 244:-0.039552994 245:2.1954622 246:1.8332295 247:1.6462024 248:2.3689709 249:1.7693454 250:1.9347526 251:2.2636459 252:2.4846461 253:0.42679885 254:1.8000234 255:2.2624841 256:2.7354336 257:1.4889188 258:3.2648964 259:3.5619998 260:2.7635269 #
