SVM-light Version V6.02
2 # kernel type
3 # kernel parameter -d 
0.00093103969 # kernel parameter -g 
1 # kernel parameter -s 
1 # kernel parameter -r 
empty# kernel parameter -u 
260 # highest feature index 
13702 # number of training documents 
521 # number of support vectors plus 1 
0.95563425 # threshold b, each following line is a SV (starting with alpha*y)
-0.17900868928537216895335859589977 1:3.2998536 2:2.9105673 3:3.3934016 4:1.4451877 5:1.4329396 6:0.06621483 7:2.2720032 8:6.5106378 9:3.1573255 10:5.8026357 11:3.0972638 12:2.7055633 13:1.3817831 14:2.2045972 15:1.2748703 16:2.250078 17:1.540888 18:5.3405252 19:4.7418289 20:3.0829258 21:2.6449707 22:1.6345185 23:2.4436505 24:2.8514531 25:4.3517957 26:0.62975258 27:1.536087 28:5.8801155 29:2.4554713 30:1.9258804 31:6.0105062 32:6.0985122 33:3.0931079 34:6.2835236 35:2.524914 36:15.381016 37:8.5631409 38:2.3552392 39:4.4727182 40:6.4339681 41:2.3565524 42:5.3163557 43:12.551952 44:5.303575 45:9.7640591 46:4.2575283 47:5.2015371 48:2.7209017 49:2.7598727 50:8.0557146 51:4.5586629 52:5.9337354 53:2.5329485 54:6.8151264 55:6.2442088 56:4.7984214 57:1.9300084 58:0.045875505 59:5.3806348 60:1.0751697 61:7.1739688 62:3.9961672 63:4.013032 64:6.9702325 65:2.2655897 66:0.3976897 67:3.6370857 68:2.4365871 69:0.99329293 70:1.6372969 71:2.0380545 72:2.6703868 73:2.9434345 74:3.3944998 75:1.5866607 76:2.7945554 77:6.7930264 78:7.0014873 79:4.5651531 80:0.82702851 81:7.5169382 82:2.276485 83:3.3801336 84:4.4508533 85:12.144547 86:2.1114645 87:5.3629766 88:8.4510422 89:9.145956 90:6.8382473 91:4.2304649 92:3.4783757 93:2.7299752 94:2.0268869 95:4.4172277 96:4.8985314 97:3.2124271 98:4.5463648 99:1.1283559 100:1.4867367 101:7.2035179 102:1.9471385 103:7.2333889 104:1.5417401 105:7.1215534 106:2.8235779 107:1.720571 108:10.491175 109:3.6863577 110:2.177953 111:8.5541296 112:10.257154 113:2.5284376 114:5.5116897 115:4.4112434 116:12.503781 117:2.5084705 118:7.46803 119:6.2276406 120:6.9324732 121:1.7423643 122:2.4134963 123:8.9436865 124:4.2409396 125:8.7840624 126:2.5376015 127:5.9739094 128:2.4065642 129:4.9350476 130:7.8246298 131:2.877357 132:0.83239233 133:0.92794698 134:1.1746433 135:2.7838349 136:2.0549307 137:0.19735554 138:0.41618428 139:1.3286009 140:1.5112723 141:0.84983104 142:2.9637058 143:2.5063312 144:0.8013227 145:1.8735851 146:3.6426952 147:0.92753804 148:3.4951527 149:3.1018903 150:6.0708957 151:1.4324524 152:4.0283775 153:2.2349758 154:5.6022797 155:1.9271947 156:3.0111058 157:1.6121848 158:2.52562 159:2.3980291 160:1.5854461 161:5.1018124 162:1.7035451 163:2.4599674 164:2.3170338 165:2.982003 166:4.2715688 167:1.5015926 168:4.412951 169:2.0463603 170:4.7867823 171:5.3295541 172:4.1604037 173:4.9703002 174:2.1092083 175:5.1307611 176:0.61923474 177:1.335393 178:4.6316037 179:3.8717775 180:1.6869285 181:2.1436787 182:1.8294451 183:1.7990382 184:2.9656732 185:0.9615131 186:0.60974097 187:2.4234309 188:1.8642733 189:1.774052 190:0.29066932 191:3.1822484 192:1.8746208 193:2.4923098 194:2.9978611 195:3.2887702 196:0.44127432 197:1.5950224 198:2.0070243 199:0.51061273 200:2.3033957 201:2.0492566 202:0.91463614 203:3.3288193 204:5.2875485 205:1.4818578 206:1.3720449 207:3.1675475 208:3.5273476 209:1.8714794 210:3.5149655 211:1.7269621 212:1.4170641 213:2.8324749 214:2.2522082 215:6.7071691 216:3.4908674 217:0.93903124 218:2.2699285 219:6.5367055 220:8.1540871 221:6.9012113 222:0.7622965 223:2.1655273 224:4.6865978 225:2.896018 226:4.2844367 227:3.4571307 228:2.6526926 229:4.4069715 230:3.5918474 231:1.5979748 232:1.8505957 233:1.5059124 234:2.8623993 235:1.6706157 236:4.443325 237:6.3388634 238:4.3094025 239:7.7926092 240:1.2814907 241:1.950294 242:9.135355 243:4.8038836 244:1.2041955 245:4.1066418 246:0.22316131 247:0.67858493 248:2.1164885 249:5.4991255 250:4.1193113 251:2.1750517 252:0.89277697 253:1.118959 254:5.6211252 255:3.858053 256:5.039566 257:2.7269063 258:4.5249114 259:7.6992245 260:1.1475965 #
-0.51206986477110527644640569633339 1:2.6233885 2:0.80386448 3:0.59113365 4:0.083060041 5:0.89213842 6:0.8545686 7:0.12863658 8:0.95146662 9:4.532495 10:3.295872 11:0.4643198 12:1.8759311 13:1.0700859 14:2.249577 15:1.0990266 16:0.14965843 17:3.3003669 18:4.0023532 19:0.92584378 20:0.96269727 21:1.9422228 22:1.9200857 23:1.0675834 24:1.4789664 25:2.1016784 26:-0.16755253 27:0.48856312 28:0.62070823 29:2.5331223 30:1.4227383 31:2.0245745 32:1.8653107 33:1.0029465 34:0.94915819 35:1.4646201 36:1.2988468 37:0.76280415 38:0.96276742 39:0.91538608 40:0.7009173 41:2.8301647 42:0.58354557 43:1.1489192 44:0.55033773 45:0.97109014 46:0.67931527 47:0.62063867 48:1.5717065 49:0.048645064 50:0.97536731 51:-0.06872531 52:0.15329885 53:0.8847121 54:1.3929847 55:0.081010804 56:0.44471675 57:0.31046373 58:1.1532434 59:0.46111634 60:1.1978916 61:0.48788452 62:0.58718145 63:0.32884318 64:1.4926606 65:-0.25783798 66:1.3500507 67:0.39171362 68:0.058273017 69:0.26475817 70:-0.15374725 71:1.2535496 72:0.47566152 73:0.02280681 74:3.2699878 75:1.2207048 76:0.54808134 77:1.1180673 78:1.1481994 79:0.014793739 80:0.040602267 81:0.63242507 82:0.36102185 83:1.2282159 84:0.2038767 85:1.4571071 86:1.8054905 87:0.93521947 88:0.98758698 89:0.15253039 90:0.84942406 91:0.47668251 92:-0.093182318 93:-0.23354971 94:1.2149607 95:1.9905022 96:0.73261851 97:0.20213674 98:0.96895713 99:1.0356891 100:0.85080963 101:-0.019529605 102:0.49516401 103:0.4929572 104:0.49825674 105:0.16749564 106:0.99802142 107:0.74033546 108:-0.10576767 109:0.73832554 110:0.74179429 111:0.68830729 112:0.4591296 113:1.2131112 114:0.16324046 115:1.1753443 116:0.15985771 117:0.93455362 118:0.029538451 119:0.31628364 120:-0.034758683 121:-0.13169728 122:0.40381163 123:0.20729326 124:0.39240602 125:0.91509253 126:0.5670445 127:-0.17500246 128:0.51175749 129:0.29386744 130:0.72906744 131:2.4129169 132:1.750739 133:0.98706287 134:0.46182695 135:2.2303059 136:1.3873556 137:1.4191096 138:0.30649972 139:2.0834951 140:1.9077241 141:0.16575672 142:1.1636277 143:0.71689463 144:1.202857 145:2.9923997 146:2.3346121 147:3.0976849 148:2.3675113 149:2.5157044 150:1.9266711 151:1.5433965 152:1.4125822 153:1.5168834 154:0.73227352 155:3.2044683 156:2.0696406 157:0.78574604 158:2.4071124 159:4.4353242 160:1.2500123 161:4.0683808 162:-0.085441723 163:1.9766208 164:1.7748567 165:1.6930503 166:1.1213045 167:3.514632 168:2.4713509 169:0.36920652 170:1.9373393 171:0.86004281 172:0.012071735 173:1.1514503 174:2.1236069 175:0.40408114 176:1.28967 177:1.7016616 178:1.7910153 179:1.0855815 180:0.3490237 181:2.3210034 182:0.78157473 183:0.67390418 184:1.2655652 185:1.0942558 186:0.21395373 187:1.5185293 188:1.871143 189:0.58353668 190:0.85845655 191:1.342692 192:0.6749512 193:0.8183856 194:2.4118822 195:0.017920222 196:0.95016456 197:1.0617456 198:0.4123733 199:1.2740171 200:2.0796363 201:5.4039035 202:2.1979926 203:4.4943757 204:4.5154395 205:4.1887298 206:0.24458149 207:0.55515093 208:3.584269 209:2.9899986 210:1.0638609 211:1.9403151 212:0.87589943 213:5.5323267 214:2.5509598 215:0.62940198 216:3.7569211 217:-0.0098358905 218:2.0941951 219:0.28090733 220:1.0409861 221:1.2759336 222:2.988564 223:0.49614838 224:0.85617667 225:0.12024131 226:1.1263137 227:1.5014476 228:1.6289634 229:1.2702402 230:0.42517573 231:1.2020638 232:1.8046027 233:0.21183844 234:0.97273618 235:0.32493001 236:0.61077833 237:0.06663391 238:1.2768956 239:0.24817681 240:0.45607445 241:0.73639911 242:2.1551595 243:-0.1737842 244:0.50262362 245:1.2219608 246:0.32477185 247:2.1530485 248:1.0835122 249:0.20239942 250:0.58160281 251:0.8154335 252:0.46609157 253:0.44671452 254:0.67625582 255:1.1285268 256:0.86520946 257:0.51814979 258:1.2022212 259:0.57579744 260:2.187058 #
-0.34313482183862020757914024216007 1:2.9330132 2:-0.23723571 3:0.61659724 4:1.5771549 5:1.1448089 6:1.7296891 7:4.1605759 8:6.6472135 9:4.0553656 10:3.9546893 11:2.8309944 12:2.0729249 13:2.7214663 14:1.902051 15:1.6401777 16:2.7553871 17:1.9986342 18:3.795805 19:1.890201 20:2.2353408 21:0.1925997 22:2.637706 23:4.8438282 24:1.5663266 25:0.68409181 26:-0.15656547 27:1.317636 28:1.049733 29:0.85301417 30:1.9537836 31:4.1146288 32:2.156322 33:2.5687506 34:3.8258286 35:1.6167619 36:1.228125 37:2.1478996 38:3.8452547 39:1.6573008 40:0.41124144 41:1.727586 42:4.1960092 43:0.20768458 44:2.3168743 45:3.3451724 46:2.7201345 47:1.2234304 48:2.8056893 49:2.2289164 50:1.2584944 51:0.71998221 52:0.48402643 53:0.81717485 54:0.43942401 55:0.62579918 56:1.4978727 57:2.5287778 58:1.8535819 59:1.2881552 60:0.41355157 61:0.59979951 62:1.2016287 63:0.71815407 64:1.72084 65:0.70778161 66:1.1326874 67:1.2242773 68:1.4268706 69:0.44866386 70:0.4731141 71:1.2276691 72:2.4558065 73:3.5704298 74:1.9879228 75:0.80923373 76:1.9826151 77:2.682142 78:0.038509157 79:0.64437562 80:1.4405822 81:4.666934 82:0.8365441 83:1.7301902 84:0.88476187 85:1.783474 86:1.0022259 87:1.169994 88:9.2830601 89:3.9220407 90:0.48723173 91:4.3404088 92:3.7465255 93:-0.0097866915 94:2.3997433 95:3.252435 96:5.9196758 97:0.87651229 98:1.8343886 99:3.9191012 100:1.629593 101:0.86970031 102:-0.23215611 103:5.643899 104:1.6113323 105:0.36863852 106:1.8109283 107:6.9923635 108:1.0698202 109:0.75067455 110:2.7218525 111:3.4394417 112:1.3341546 113:0.90815496 114:3.3599067 115:1.8953052 116:1.6347271 117:2.3599386 118:0.84446108 119:2.0599918 120:1.4545763 121:1.2860258 122:0.51975042 123:2.2467678 124:0.22174674 125:0.64450389 126:2.661536 127:0.13826811 128:0.37239093 129:1.494053 130:0.57005638 131:1.3909439 132:-0.11505568 133:-0.03408359 134:0.098546028 135:1.2157233 136:0.33024758 137:0.67592907 138:0.097962976 139:0.33404395 140:0.27571127 141:0.16590852 142:2.4021077 143:0.74360943 144:0.47025263 145:0.84576571 146:2.3395407 147:0.76527274 148:0.28820238 149:1.6947075 150:2.0498345 151:-0.021825517 152:0.70268887 153:0.93358296 154:0.46156248 155:0.94645625 156:0.41115373 157:0.69919169 158:0.86887205 159:0.81248051 160:0.51265049 161:1.74257 162:1.3545675 163:2.2026508 164:1.3703606 165:0.44315633 166:0.35195565 167:0.3379859 168:1.8771454 169:0.61255693 170:-0.083936095 171:1.4488438 172:1.0719557 173:0.71463478 174:0.94801438 175:1.1285882 176:1.6355126 177:0.27807549 178:0.24453627 179:1.0665617 180:0.57624215 181:-0.057089381 182:2.6883597 183:2.4522157 184:1.7434641 185:1.9231957 186:0.87936062 187:1.2682332 188:2.8944635 189:0.49950162 190:0.81957722 191:2.4042032 192:0.50065762 193:0.50123113 194:2.3521624 195:0.40832692 196:0.078642316 197:0.18622546 198:1.161688 199:1.2503947 200:0.5767206 201:1.3260598 202:1.1763624 203:1.5109305 204:0.7456342 205:1.281538 206:0.79566503 207:3.6026206 208:1.8242745 209:1.6979609 210:1.6961669 211:1.7290161 212:0.61682189 213:-0.017271301 214:0.49141631 215:1.431257 216:0.25760722 217:0.88910574 218:1.9610682 219:0.81479257 220:0.51433665 221:1.3151317 222:1.9871045 223:1.0361027 224:0.41445842 225:0.14222722 226:3.0542173 227:1.8022032 228:0.41820028 229:0.35690743 230:1.1926664 231:1.4238498 232:0.88058919 233:1.3826189 234:0.84508204 235:1.3741198 236:1.0839326 237:1.0588349 238:0.53030342 239:1.5449328 240:1.1975304 241:0.41667241 242:0.75897336 243:0.64018637 244:1.0255052 245:0.99829429 246:0.6017307 247:1.2658043 248:0.52848792 249:1.1294971 250:0.51103461 251:1.2990674 252:1.2182755 253:1.0757101 254:0.49490952 255:0.76408893 256:0.62226605 257:1.3533056 258:0.9576118 259:1.2718002 260:1.4889867 #
1.3260380212191678062083610711852 1:2.1104221 2:2.6505716 3:3.1314945 4:1.9329219 5:0.75924772 6:4.9406953 7:0.6204533 8:1.5730611 9:0.59418601 10:0.70277327 11:0.91402793 12:1.5740645 13:1.7367975 14:3.222822 15:1.7386607 16:0.87243563 17:1.6152928 18:1.9420346 19:1.0986066 20:0.54349482 21:1.2484577 22:3.4305408 23:3.0028181 24:1.3942817 25:0.7460838 26:3.5558491 27:2.5199146 28:2.4790053 29:2.3045733 30:1.6299536 31:1.6331397 32:1.8542019 33:0.15756729 34:3.7009275 35:1.1305999 36:3.6953549 37:1.4700861 38:1.4154785 39:3.9411409 40:1.3430516 41:2.8336048 42:3.8054307 43:3.7906914 44:4.5708342 45:4.2071309 46:4.4211583 47:1.1620958 48:1.470736 49:5.8757362 50:1.7027504 51:2.0595431 52:4.1087289 53:6.1672659 54:4.0385618 55:1.6561149 56:5.9939723 57:3.7855678 58:3.437911 59:1.0881522 60:0.53390408 61:1.4533585 62:2.0575423 63:2.9572582 64:3.0108972 65:7.8764462 66:0.49350116 67:1.2106148 68:3.122401 69:2.1665981 70:0.24676117 71:1.0493487 72:2.6253946 73:1.2747065 74:0.46581125 75:2.1227062 76:2.801487 77:0.77297759 78:2.6687982 79:3.5993276 80:3.9502184 81:2.2294486 82:2.7277596 83:4.8942027 84:3.2001934 85:2.7844975 86:3.0238533 87:5.68152 88:1.5926127 89:3.3368146 90:6.1194658 91:6.5065789 92:7.6936002 93:5.3822055 94:3.7679992 95:5.1621513 96:1.8657064 97:2.9024892 98:2.8995523 99:5.5222054 100:2.6362009 101:4.7037344 102:6.4231091 103:2.7379425 104:5.3961854 105:1.9843755 106:3.7846839 107:2.4593563 108:7.6193533 109:3.8623006 110:1.6925765 111:1.3472489 112:9.1348429 113:1.2984093 114:3.8903263 115:3.7463753 116:4.0870595 117:2.4138906 118:7.8179188 119:7.0085311 120:0.39572197 121:6.5263982 122:9.6336136 123:5.2951016 124:14.487111 125:11.566579 126:13.324241 127:12.235278 128:2.017287 129:4.9329405 130:3.4157693 131:4.1185179 132:5.5881429 133:9.7434168 134:6.793612 135:8.1058683 136:9.0483379 137:3.9691529 138:3.9218125 139:2.2064216 140:2.4977033 141:8.8799448 142:4.859416 143:4.618844 144:8.2427282 145:8.1808043 146:7.5728097 147:0.76862228 148:3.2523808 149:7.2677841 150:2.5328372 151:8.7848549 152:3.2265613 153:11.212795 154:6.7884536 155:9.8901138 156:6.053596 157:5.0813475 158:4.6496682 159:3.3961186 160:7.4453602 161:1.7895619 162:6.5756049 163:3.6844218 164:7.4459534 165:5.097209 166:7.8183017 167:0.61345702 168:5.4549322 169:1.9462734 170:7.0746794 171:3.5495851 172:5.4698462 173:4.0534735 174:8.2080488 175:3.5871878 176:5.8515658 177:4.6033134 178:7.917645 179:4.9286208 180:5.0973797 181:1.5550505 182:3.9257638 183:5.4972196 184:6.8389788 185:5.3342252 186:5.7325692 187:11.836399 188:13.315662 189:12.613019 190:8.6191874 191:8.4489861 192:10.285572 193:6.204802 194:2.8949916 195:1.4317992 196:0.0073176525 197:5.2096319 198:2.5428967 199:1.11718 200:2.4388864 201:6.1610961 202:3.5048718 203:5.394875 204:2.3764522 205:6.8564448 206:2.9198685 207:8.5375376 208:4.3659706 209:6.0404215 210:1.5050406 211:5.3084664 212:3.2896342 213:4.9188128 214:3.1074445 215:1.5513049 216:6.4187627 217:4.748127 218:4.6589336 219:3.0838845 220:3.9751706 221:6.2312865 222:6.2839704 223:7.6657953 224:5.9325948 225:4.0213184 226:5.6835623 227:5.181283 228:6.2288079 229:1.7368929 230:2.6190724 231:5.252912 232:1.7926192 233:1.7056162 234:0.92178845 235:2.0893707 236:1.8478231 237:2.3248079 238:5.6569557 239:6.6602321 240:8.3465691 241:7.2539577 242:8.9978771 243:8.8422155 244:7.6224012 245:8.1890383 246:4.8580184 247:5.966012 248:4.1482077 249:5.1124616 250:3.456907 251:2.914161 252:4.2449422 253:2.5151541 254:3.0390308 255:4.0501466 256:2.207412 257:1.6879053 258:2.4507341 259:1.7558777 260:3.3400977 #
-0.91133699078697261164450083015254 1:0.47314191 2:0.26369315 3:3.8466613 4:4.7812991 5:0.53921878 6:5.1971254 7:2.0089514 8:1.7742476 9:0.89478135 10:2.3420374 11:3.1258914 12:0.72946322 13:1.8427551 14:0.8020547 15:1.2308017 16:0.37571102 17:0.45345539 18:1.7476557 19:0.83003825 20:1.5571594 21:2.0715418 22:3.0448265 23:2.107532 24:3.2674351 25:2.3731954 26:4.0634403 27:3.3751686 28:2.9730783 29:3.4108272 30:3.7938435 31:1.8684437 32:3.1893971 33:3.6130843 34:1.5420208 35:3.7859125 36:1.8519241 37:3.1405089 38:2.768436 39:1.8795198 40:3.9435234 41:0.95699942 42:4.2594614 43:1.559315 44:3.8098481 45:3.0713 46:2.27701 47:3.410495 48:2.325984 49:3.3726406 50:3.2156754 51:1.451686 52:3.7363815 53:1.4589233 54:3.2881444 55:1.7271791 56:2.4153972 57:4.0239768 58:0.40730065 59:6.1484213 60:1.4651781 61:3.7050784 62:3.3112426 63:4.4310598 64:4.4796925 65:2.9943388 66:-0.23000795 67:0.96785754 68:0.91101766 69:1.4059635 70:0.90774864 71:2.0478938 72:1.1125398 73:0.5216651 74:0.14972398 75:1.7273879 76:-0.12205372 77:0.52140158 78:0.051167 79:0.63277847 80:1.8423092 81:0.56037557 82:1.1234714 83:0.69550794 84:1.2291337 85:0.83205789 86:1.3932339 87:1.0620842 88:0.57156831 89:0.14332747 90:0.87603647 91:0.99112058 92:1.9036113 93:0.4845795 94:1.7190655 95:1.3980403 96:0.97319126 97:1.953945 98:1.0615362 99:2.5062175 100:1.6830493 101:1.1392857 102:2.3030906 103:0.0087108938 104:1.8183644 105:0.24130708 106:0.9542532 107:1.3453269 108:1.1409657 109:1.4317427 110:0.29183945 111:1.3365103 112:0.070595816 113:1.1424505 114:1.3589189 115:0.54852706 116:0.87880069 117:1.9404829 118:1.1110281 119:0.47422367 120:2.1780329 121:0.39118421 122:0.66817248 123:1.4792559 124:1.6467422 125:0.23503792 126:1.6190802 127:1.8403498 128:0.77170354 129:1.0141286 130:1.6185402 131:1.2887014 132:2.6880698 133:1.3835984 134:2.6647995 135:0.67481989 136:0.84782273 137:1.5302776 138:1.6224948 139:1.3869689 140:2.6944611 141:2.1609969 142:2.3653574 143:1.947786 144:1.273459 145:3.0096736 146:3.2294295 147:2.078876 148:0.1138146 149:0.94283271 150:0.00048023023 151:1.3586254 152:0.75342023 153:1.2513036 154:0.52705914 155:1.3399385 156:1.5278882 157:1.529645 158:1.1466777 159:2.1120348 160:0.62605596 161:2.9992309 162:1.6150312 163:2.3493631 164:0.62292629 165:1.3465599 166:1.947458 167:3.0679145 168:1.2105671 169:0.37511098 170:2.7208345 171:1.5264891 172:2.1811678 173:1.6023965 174:1.2338508 175:2.5356352 176:2.4285479 177:2.214788 178:1.2071974 179:1.0717945 180:0.86390346 181:0.73950297 182:1.209011 183:1.9463395 184:0.90166533 185:1.472316 186:0.70613736 187:0.49887913 188:0.84465355 189:1.0335182 190:1.1733202 191:0.90698999 192:1.9294397 193:1.313483 194:0.99309796 195:-0.22120813 196:0.13130662 197:2.673403 198:4.9409823 199:1.695801 200:1.1297905 201:3.2569714 202:2.2381079 203:2.49142 204:0.69211191 205:1.5785156 206:5.4554276 207:1.4104601 208:2.1225085 209:2.5452647 210:0.35684109 211:2.8247757 212:1.2615906 213:3.678118 214:0.44229716 215:1.8360403 216:3.4624267 217:0.98490441 218:0.097490184 219:1.5831244 220:0.49901122 221:1.1213019 222:1.3523666 223:2.5774002 224:2.6791744 225:0.8189047 226:1.1921263 227:0.91965532 228:1.7207266 229:2.760205 230:4.2275438 231:2.6483588 232:1.4501493 233:2.1803167 234:3.265029 235:1.9750065 236:0.18154983 237:2.3080342 238:2.1143937 239:1.6960504 240:1.017352 241:1.3932166 242:0.72763389 243:0.4580234 244:1.4988254 245:1.1702151 246:1.4615753 247:2.0543697 248:0.76607227 249:0.065000519 250:2.0579252 251:1.6821401 252:1.3682793 253:1.0347645 254:1.1588086 255:1.422062 256:0.67766649 257:0.76421618 258:1.6003685 259:0.10356856 260:3.1028426 #
-2.6952157810813552885065291775391 1:2.680788 2:-0.12902124 3:0.39660937 4:0.31499672 5:0.29368156 6:0.05503412 7:0.86705691 8:1.9297071 9:1.5413411 10:1.5704892 11:1.7405968 12:4.2880306 13:0.67072761 14:0.19365394 15:0.03387909 16:3.8658278 17:0.58806539 18:2.4627717 19:4.1592445 20:6.1172996 21:2.0417871 22:2.0094869 23:4.8748155 24:2.1836278 25:1.4887738 26:2.0353713 27:3.8111622 28:0.65449005 29:0.60636568 30:0.38281554 31:2.466429 32:0.97254789 33:1.0265425 34:3.9374292 35:4.880136 36:1.8473072 37:0.50568575 38:2.3825276 39:1.2294887 40:0.82165277 41:0.080772147 42:1.9068102 43:0.83673275 44:1.469492 45:0.61886406 46:1.4207768 47:0.25063616 48:0.64702928 49:1.5833095 50:1.1892744 51:0.40354043 52:1.148283 53:1.651583 54:0.94264269 55:2.7434177 56:1.0466919 57:0.47484964 58:0.71633041 59:0.82956529 60:1.0207915 61:0.9945215 62:1.0904526 63:1.4147455 64:1.7215379 65:1.5190634 66:1.3875835 67:0.85478699 68:0.69803447 69:0.52746272 70:1.2139345 71:1.4557406 72:1.450579 73:2.0166528 74:0.75892067 75:0.96487278 76:0.52773666 77:2.0681906 78:1.2333937 79:0.26147723 80:1.1389371 81:2.3600314 82:0.48011148 83:0.11207035 84:1.1576425 85:2.5515301 86:1.1773602 87:1.0546062 88:4.0878291 89:1.7161474 90:-0.12444793 91:1.2891949 92:4.2941623 93:1.2883288 94:0.62630916 95:0.81227928 96:0.94371712 97:0.37985659 98:0.33361304 99:2.5211554 100:1.7788583 101:0.41040307 102:0.47178081 103:2.7086062 104:1.1262528 105:0.81704038 106:0.98809707 107:2.0733116 108:0.40407488 109:1.1342081 110:0.51423985 111:0.99594969 112:-0.24021412 113:0.76330084 114:0.94213682 115:0.35341606 116:0.49136034 117:0.63733387 118:0.77810782 119:0.65991372 120:-0.076423608 121:0.47912654 122:0.038393773 123:-0.057135694 124:0.42948157 125:0.92407227 126:0.69646192 127:-0.081429169 128:0.23127733 129:0.3267647 130:0.021519752 131:1.0095277 132:-0.2025115 133:-0.13629425 134:0.51196963 135:0.75195074 136:0.28022698 137:0.11505511 138:0.86258262 139:0.54351461 140:0.046025511 141:-0.069539972 142:1.348597 143:0.0020876075 144:0.56339914 145:-0.18625416 146:1.6231927 147:0.032900747 148:0.68603379 149:0.89797831 150:2.1206322 151:1.3031533 152:0.21914889 153:1.1888829 154:0.15882368 155:0.43217224 156:-0.024637366 157:1.4593029 158:-0.1606939 159:0.63185298 160:0.4782207 161:1.7090966 162:0.7596224 163:0.8258757 164:2.1222217 165:1.0026935 166:0.4847489 167:-0.0099740801 168:0.94139338 169:0.22776499 170:0.18915749 171:1.3961729 172:0.74525297 173:-0.022947537 174:0.24998738 175:0.98027772 176:2.2986212 177:1.4194832 178:1.3848784 179:1.907549 180:0.69800025 181:0.44923317 182:0.62456703 183:2.9965608 184:0.37312713 185:0.40350491 186:0.23801169 187:2.5660117 188:1.7224782 189:0.82329845 190:0.92981845 191:1.1067539 192:0.92099816 193:0.75428516 194:1.070756 195:1.3578104 196:-0.085718006 197:0.2211808 198:0.64252877 199:1.8395604 200:3.2708437 201:1.8687824 202:2.1673646 203:2.8705075 204:1.3513076 205:0.81749183 206:1.3345432 207:3.8465631 208:1.0938311 209:0.14037338 210:0.76058829 211:2.3652892 212:0.16225907 213:0.91716623 214:3.052851 215:3.6648493 216:0.86485815 217:1.0889041 218:3.7964876 219:1.4849266 220:0.24059823 221:1.3998234 222:1.2608175 223:0.53798902 224:0.28382498 225:0.68998158 226:1.7522085 227:0.33695164 228:1.8338201 229:0.4847919 230:1.5530198 231:0.36495766 232:1.1605027 233:1.606433 234:1.3055973 235:0.70836228 236:-0.013615415 237:1.9287663 238:0.91761953 239:0.77317363 240:0.66495013 241:2.0129848 242:1.0738729 243:1.2537417 244:0.95904201 245:0.76612628 246:-0.063362427 247:0.40532866 248:0.83865827 249:0.97899967 250:0.3384428 251:1.0418546 252:2.8164361 253:0.21327616 254:0.056622047 255:0.082504079 256:1.5719529 257:0.75775778 258:0.24399772 259:0.57712108 260:0.13361686 #
-1.0284446779789486736689241297427 1:0.77501839 2:1.1152954 3:1.6052396 4:1.2815959 5:-0.20047563 6:2.80387 7:0.038503684 8:0.076047845 9:0.97855937 10:1.7458371 11:1.4631137 12:0.39056513 13:1.305357 14:1.4452143 15:1.2217596 16:1.4518287 17:0.54535997 18:0.83257854 19:2.0047381 20:0.8739273 21:0.23871636 22:-0.079844534 23:0.74642873 24:0.95981175 25:1.2115927 26:1.936487 27:1.7615361 28:1.0156859 29:1.3442686 30:1.8540589 31:0.74034017 32:0.022176091 33:0.29060665 34:1.2187393 35:-0.27526289 36:0.90473652 37:2.1845682 38:0.74585342 39:0.24726677 40:0.80707043 41:0.61650336 42:0.37110478 43:-0.30813196 44:0.36174387 45:0.51425326 46:0.51870281 47:0.13578263 48:1.5819834 49:0.33096263 50:0.74682641 51:0.058857705 52:0.4743568 53:0.68451399 54:0.65458071 55:0.50825936 56:0.55342942 57:1.1132953 58:0.62475359 59:1.3331842 60:0.49435019 61:0.39608422 62:0.52231735 63:0.63348305 64:0.40422809 65:0.10992106 66:-0.11976342 67:0.98944747 68:1.5094899 69:0.99921787 70:0.49512529 71:1.7438704 72:1.4287741 73:2.7945249 74:2.5016832 75:2.8524313 76:1.1673104 77:1.6890271 78:0.9771837 79:-0.034150828 80:0.80594194 81:0.9687798 82:1.6330822 83:1.4133428 84:2.6825492 85:2.1177626 86:-0.13280013 87:0.63200468 88:0.6760143 89:1.0776796 90:0.57932204 91:2.3672636 92:0.97848201 93:1.0860139 94:0.49266765 95:1.3081901 96:0.75364089 97:1.7365299 98:2.1533303 99:1.8831081 100:-0.21174747 101:0.54935652 102:0.20083334 103:0.59134746 104:1.2392565 105:0.11619537 106:0.23503701 107:0.74892765 108:0.41047201 109:0.2710405 110:0.98788851 111:0.78583175 112:0.098887183 113:0.035586786 114:0.19546407 115:0.44590923 116:0.35601738 117:0.37409344 118:-0.10997263 119:0.31430948 120:0.79499793 121:0.20410769 122:0.11767936 123:0.054892518 124:0.40274227 125:0.64016902 126:0.76565301 127:-0.39447021 128:0.84610748 129:0.15015545 130:-0.094868325 131:1.2015616 132:0.49906358 133:-0.047335759 134:0.55946523 135:1.3538725 136:0.91011536 137:0.40561208 138:0.20857109 139:0.77729273 140:1.2099743 141:0.12357184 142:0.91979402 143:-0.10215589 144:1.0349948 145:1.0965667 146:1.63447 147:0.90948331 148:2.3440678 149:1.4209419 150:1.3076944 151:0.67437708 152:2.0159316 153:1.6598891 154:0.33925951 155:-0.12659515 156:-0.044778734 157:2.4438591 158:0.78460914 159:0.18122198 160:0.1538887 161:0.93637186 162:0.9655208 163:1.1121111 164:1.5453367 165:0.92500126 166:1.0139712 167:0.52074283 168:0.34871456 169:0.42149583 170:0.33974323 171:1.5661626 172:1.219851 173:0.96218687 174:0.63230819 175:1.1617023 176:0.79640484 177:1.236258 178:1.2229663 179:1.418178 180:0.55482394 181:0.58823121 182:0.091376565 183:0.51353574 184:0.78050417 185:-0.038314294 186:0.24795718 187:0.19516918 188:0.4239724 189:1.3195403 190:0.28952533 191:0.65014285 192:0.51131505 193:0.7361232 194:-0.11672018 195:0.9082942 196:6.6149569 197:2.3404858 198:2.1195602 199:1.3772548 200:4.2340074 201:4.0794139 202:4.243885 203:4.4378114 204:1.1278557 205:1.989765 206:3.3097851 207:0.27177331 208:1.0399446 209:1.7731416 210:3.9812784 211:4.1835918 212:2.7795432 213:4.0553737 214:5.3376546 215:4.5896721 216:2.606127 217:7.1075029 218:0.71924037 219:2.7489333 220:2.9443336 221:3.6434996 222:0.39822966 223:0.62174588 224:0.94155955 225:0.39178783 226:1.7026176 227:1.4657446 228:1.9551036 229:0.41211876 230:2.2707517 231:1.1457952 232:0.12479471 233:1.1848243 234:0.64388871 235:0.048050001 236:0.53181618 237:0.98854071 238:0.961721 239:0.29929802 240:0.78142107 241:1.2914563 242:1.2174834 243:0.7788108 244:0.11268358 245:0.97348696 246:0.91416866 247:-0.017230876 248:0.26160002 249:0.42636946 250:0.29742247 251:0.98197234 252:0.68374503 253:0.31591874 254:0.021719387 255:0.41931006 256:1.0849432 257:0.72182691 258:0.67937672 259:0.081970826 260:0.72200167 #
-0.025393893770953194360950888608386 1:2.7578816 2:5.1605892 3:8.5048361 4:8.8314438 5:2.0361278 6:4.6259632 7:8.3629236 8:3.9007807 9:2.0830598 10:6.6152906 11:11.83338 12:5.8226771 13:6.3679252 14:4.7986493 15:4.347321 16:1.4217458 17:6.2585263 18:3.5367632 19:0.82082593 20:2.764853 21:2.4782617 22:3.3548179 23:4.9510045 24:0.8869971 25:3.7415578 26:7.4799542 27:5.0441194 28:1.7009438 29:0.77364618 30:3.5076857 31:3.2913492 32:3.8314598 33:4.0631537 34:0.024585173 35:5.6797171 36:6.4639516 37:3.3765299 38:2.156163 39:0.93741715 40:1.5949198 41:1.9591963 42:5.5333486 43:5.6898451 44:2.9168727 45:2.5613301 46:4.8681355 47:7.2764397 48:3.9545689 49:2.7627509 50:4.9208641 51:3.0681338 52:2.9038017 53:1.9718915 54:4.4898329 55:5.060627 56:3.0078292 57:4.6893525 58:1.860247 59:3.7882595 60:5.9921541 61:5.584825 62:6.018301 63:0.98132014 64:1.6536318 65:1.7908257 66:2.4746189 67:12.347582 68:5.6284966 69:3.3725996 70:3.2551858 71:6.8093004 72:5.8122449 73:0.62187052 74:-0.068383619 75:2.9672837 76:3.7671254 77:0.67860889 78:6.1445665 79:3.3239925 80:0.44751456 81:2.1946049 82:5.9786205 83:4.7364244 84:8.5883446 85:2.3084521 86:3.4889729 87:3.7486293 88:2.2174871 89:3.5377209 90:2.8548689 91:4.4155188 92:4.3363318 93:7.6976671 94:8.792963 95:3.4465618 96:5.4490852 97:5.4909554 98:0.86698836 99:6.1639643 100:10.066176 101:8.6189966 102:2.4276645 103:4.6268964 104:3.4545853 105:-0.017694319 106:3.2253687 107:8.6627245 108:10.934649 109:6.5366645 110:4.6532779 111:1.534339 112:9.3824911 113:3.7945731 114:5.1625834 115:7.4789219 116:6.0696516 117:7.4389486 118:7.4015665 119:4.4284635 120:10.167866 121:6.7656102 122:4.3475904 123:6.516129 124:5.6357274 125:3.6791637 126:8.4325237 127:8.8643932 128:12.194111 129:13.926815 130:0.13690174 131:7.0141287 132:19.370678 133:12.813081 134:18.589785 135:16.079737 136:9.1411858 137:2.607801 138:6.2690463 139:6.7546935 140:5.8536377 141:4.3877363 142:3.7455132 143:3.22505 144:9.6811113 145:6.3296309 146:3.7744336 147:14.123487 148:14.466717 149:8.3229103 150:11.005839 151:11.046534 152:1.9700801 153:9.1763773 154:3.0742128 155:10.966285 156:18.316515 157:13.655938 158:13.936582 159:11.854817 160:0.85563844 161:5.6940093 162:6.2380471 163:8.7583208 164:5.3175974 165:11.6245 166:13.031168 167:1.6902167 168:12.714883 169:9.0811167 170:5.4908428 171:7.4161282 172:6.1458936 173:17.531267 174:14.723516 175:7.1242657 176:8.6423388 177:8.1468611 178:10.081757 179:4.9763532 180:4.3189192 181:5.4686227 182:8.317091 183:15.198014 184:8.4756241 185:9.7709084 186:17.535107 187:13.570018 188:7.3956599 189:7.6654205 190:8.8422918 191:8.1619654 192:7.9528098 193:17.873638 194:17.234184 195:5.4418435 196:4.9543614 197:2.7798388 198:0.8920725 199:1.5836885 200:0.58997846 201:1.4247226 202:3.3250594 203:1.3625687 204:1.2917721 205:5.319695 206:5.6885605 207:1.9908381 208:3.6729085 209:8.4295378 210:3.7453213 211:3.3194251 212:7.0836244 213:6.292582 214:0.78959411 215:3.6336422 216:8.4866467 217:8.1420507 218:4.9404054 219:9.6432467 220:9.3785954 221:6.0446095 222:5.1994672 223:4.1711607 224:9.2290764 225:9.1490173 226:10.659467 227:12.062657 228:10.823098 229:6.6428781 230:4.0692072 231:7.5013895 232:5.2014861 233:2.9342265 234:5.8893523 235:7.8276973 236:4.7673268 237:4.949501 238:4.1788888 239:5.3945537 240:13.958196 241:11.651824 242:18.209806 243:22.815971 244:15.574203 245:25.285395 246:21.913162 247:14.46654 248:28.389935 249:23.44347 250:26.580532 251:32.021664 252:26.281008 253:28.099861 254:19.572781 255:20.354712 256:19.487736 257:11.704014 258:21.820747 259:20.685175 260:0.28315008 #
1.7569992795133964058607034530723 1:3.3932111 2:0.66356164 3:0.35899112 4:1.8906285 5:2.6699572 6:0.45346996 7:1.8481745 8:2.3039441 9:3.4951637 10:1.2429235 11:0.8918069 12:1.0861119 13:1.0920832 14:1.4940568 15:1.709604 16:2.6108844 17:2.3248076 18:0.98420662 19:1.726673 20:4.7376814 21:2.0671301 22:0.85525399 23:0.98382229 24:7.3590412 25:2.5485477 26:1.0933219 27:1.51617 28:7.0185261 29:2.2494717 30:3.323601 31:3.9736748 32:6.4941201 33:3.2478957 34:2.949656 35:6.165813 36:5.865788 37:0.22405303 38:1.3588824 39:4.3352056 40:2.4097168 41:1.4525105 42:2.7364542 43:6.1955967 44:2.9719186 45:2.1483102 46:1.7518349 47:3.3374884 48:3.345988 49:1.9277872 50:2.5717547 51:6.7281327 52:3.1094816 53:3.3628302 54:3.7742279 55:3.2853839 56:5.1705427 57:3.7647316 58:4.1809239 59:4.090497 60:2.6456516 61:2.3512998 62:3.0383775 63:3.0862935 64:5.5493126 65:4.9467726 66:0.769898 67:0.13338915 68:0.48526436 69:0.133891 70:1.1160371 71:1.6908162 72:2.0605271 73:2.5138988 74:4.4979568 75:2.0058801 76:1.865012 77:2.3841951 78:1.4912053 79:1.3474219 80:2.2757359 81:4.5589771 82:2.7732654 83:2.6168156 84:1.9016646 85:7.0919867 86:1.4903848 87:0.67204082 88:1.9425349 89:2.1000838 90:0.18674773 91:0.73517013 92:2.6263065 93:8.453721 94:0.76547545 95:1.004568 96:1.9067469 97:3.1471374 98:1.2672024 99:0.46049514 100:2.0876608 101:2.5093684 102:1.4074628 103:1.3012717 104:1.2855555 105:1.0865475 106:1.2798797 107:0.79335147 108:1.6284113 109:1.4089414 110:0.079468772 111:0.21631335 112:2.263267 113:1.7076265 114:1.0733079 115:-0.093325607 116:5.0869937 117:1.3148886 118:1.5146141 119:1.0816976 120:0.75375539 121:3.7195988 122:-0.075899549 123:1.6043651 124:2.5632954 125:2.0426481 126:0.9189375 127:1.9497234 128:0.96778613 129:3.1901722 130:0.45117941 131:2.2366202 132:0.40380707 133:0.15218242 134:0.33365566 135:1.115593 136:0.75653672 137:1.5917196 138:0.32373258 139:2.9445324 140:0.98086226 141:0.16138363 142:1.1397852 143:1.6552888 144:0.68459588 145:2.0347137 146:3.3622127 147:2.1726115 148:1.5969945 149:0.97592551 150:2.8784273 151:1.1830186 152:1.4241138 153:0.63124722 154:4.6282234 155:2.0121968 156:2.4491336 157:0.044871084 158:2.4307146 159:1.5394695 160:0.9379428 161:0.84757477 162:3.0327358 163:0.78969568 164:4.4869919 165:3.1655321 166:4.7816291 167:3.0583858 168:1.045455 169:4.5232921 170:4.9296837 171:0.73183507 172:2.5669398 173:2.2053828 174:0.85068679 175:0.83138102 176:1.893527 177:5.9842043 178:4.0576496 179:1.2080622 180:0.95046049 181:3.4376998 182:2.173846 183:1.3562093 184:1.9983146 185:5.0730319 186:0.11638261 187:0.51230162 188:1.2797592 189:3.5057406 190:1.0364627 191:0.86210221 192:1.2653748 193:2.0449903 194:1.2453594 195:1.6669737 196:0.013348887 197:0.15145116 198:0.74560231 199:0.2656959 200:2.6469967 201:1.5982015 202:2.9799709 203:4.5100918 204:7.6816134 205:2.413398 206:2.8491282 207:4.3440652 208:4.2416425 209:2.3769639 210:3.4742088 211:7.8558135 212:4.8996592 213:0.66353136 214:2.9372613 215:8.0823755 216:1.9432849 217:1.0777681 218:1.4291189 219:7.9344044 220:2.7971792 221:2.2069194 222:3.3405271 223:6.5121021 224:2.8232615 225:2.7617965 226:3.7433887 227:5.7940931 228:1.3367345 229:4.0726533 230:5.2835941 231:6.0926208 232:4.4812393 233:3.7775285 234:5.7574129 235:4.8021388 236:2.5227499 237:3.9508493 238:7.1173868 239:7.7451797 240:1.0841349 241:1.7448747 242:5.6254215 243:5.3566775 244:2.7306373 245:1.3712912 246:6.5061998 247:7.2479458 248:2.2267942 249:1.34858 250:7.4395003 251:3.0614202 252:1.5749911 253:0.69350076 254:5.4368386 255:2.5194607 256:0.69378477 257:-0.015618111 258:8.5493317 259:0.80222756 260:0.4631533 #
-0.10632307966354764827698886620055 1:3.7749267 2:-0.12288161 3:0.24332294 4:0.90522349 5:1.8074893 6:1.1702642 7:1.4943889 8:2.2801926 9:2.810194 10:2.4304914 11:3.0145016 12:7.7604074 13:4.0528955 14:3.2903972 15:1.9602025 16:5.9734969 17:2.9935982 18:2.1296902 19:1.6611639 20:6.1378269 21:2.179446 22:2.6068606 23:3.7925222 24:4.5929289 25:2.2916913 26:6.8186812 27:4.6190524 28:4.9256282 29:3.3673706 30:3.5410542 31:7.7333226 32:6.0154023 33:2.7707806 34:2.394407 35:0.64906472 36:0.43362504 37:2.4653108 38:2.1862285 39:5.651813 40:1.9486458 41:2.416966 42:5.2953992 43:6.9300785 44:7.4610538 45:4.8195729 46:3.6292336 47:1.7387463 48:2.6009111 49:2.5702326 50:3.2968175 51:2.1098788 52:4.2933526 53:3.3760679 54:3.1497931 55:3.2853057 56:0.92047513 57:0.8775472 58:0.77994365 59:3.5462854 60:0.87171763 61:1.1950904 62:3.0392985 63:2.3268774 64:1.9185768 65:-0.077939279 66:1.9652227 67:0.92003626 68:1.5487434 69:0.78213829 70:1.8220783 71:1.6788729 72:3.1338708 73:3.5469654 74:2.583662 75:3.3509583 76:2.3687367 77:1.5689714 78:2.2644389 79:2.829253 80:1.0292532 81:5.7692533 82:1.20743 83:3.5857189 84:5.5794482 85:10.793643 86:4.1814098 87:3.8476162 88:6.4481192 89:4.9990401 90:4.1649222 91:4.3073802 92:9.2865973 93:7.4405308 94:8.7188511 95:4.7467275 96:7.1686702 97:3.5030863 98:5.576355 99:6.6660285 100:5.8399057 101:4.6971192 102:2.8962855 103:2.7161977 104:5.0649734 105:1.0350665 106:2.4842868 107:2.1833146 108:1.4364916 109:1.0989432 110:3.8739457 111:1.3166184 112:1.6742326 113:3.6455963 114:0.26742283 115:0.65575564 116:0.53489888 117:-0.18812725 118:0.81893307 119:-0.12884128 120:1.969057 121:-0.03826426 122:1.4328978 123:0.2555005 124:2.5658045 125:4.798347 126:2.1550102 127:1.7720418 128:3.3831222 129:1.9308585 130:1.5708828 131:2.0845885 132:0.11979857 133:0.2863974 134:0.66985452 135:1.2202657 136:0.075930603 137:1.2368436 138:1.5406498 139:1.7056855 140:0.22569034 141:0.78634262 142:1.0516069 143:0.68580925 144:0.54527158 145:0.52511704 146:0.46985036 147:0.24281454 148:1.2426283 149:0.59946412 150:4.4282413 151:1.93713 152:0.33917889 153:1.1061556 154:0.9168207 155:0.89723247 156:0.87094337 157:-0.094710067 158:1.6564997 159:0.70025426 160:3.3639801 161:3.4073851 162:3.4732184 163:2.4716907 164:3.1742177 165:2.1803472 166:1.3931375 167:4.8332734 168:1.3087292 169:2.2852297 170:0.42166969 171:2.0636561 172:0.35883555 173:2.2001145 174:3.1891623 175:1.0471791 176:2.2141058 177:0.8152163 178:0.60338652 179:3.4338429 180:1.6427408 181:1.9275359 182:0.37001207 183:3.2971232 184:1.7633729 185:3.0704353 186:4.0992618 187:1.2316556 188:1.0252345 189:0.28110802 190:3.1608624 191:0.54381704 192:3.1980069 193:1.2143621 194:1.3873565 195:0.32645002 196:-0.018646205 197:0.22952265 198:0.3724792 199:0.58293307 200:2.4628494 201:1.0788202 202:1.1784995 203:1.2286258 204:1.9210721 205:0.28757444 206:0.13266854 207:1.1354144 208:1.328052 209:0.89058238 210:0.55857575 211:0.20460518 212:-0.057196293 213:1.2655436 214:0.85423207 215:2.242326 216:0.30705747 217:3.2032757 218:2.9054174 219:3.7029607 220:0.88033712 221:0.9254517 222:5.5474524 223:3.2173839 224:3.3972268 225:2.6643167 226:3.4911735 227:0.67147374 228:1.4814448 229:2.2542231 230:3.9565151 231:0.80243993 232:0.33470276 233:3.6582086 234:4.4997396 235:2.7217066 236:1.5644962 237:0.43132752 238:2.8795693 239:3.0979586 240:1.7454491 241:1.052474 242:0.77865082 243:1.3802941 244:0.47207373 245:1.7436569 246:1.2101822 247:2.5851076 248:2.7560751 249:2.7530956 250:1.4494113 251:2.1532903 252:1.5141197 253:2.3726969 254:2.146939 255:0.87575394 256:1.7727553 257:3.705204 258:3.9061024 259:1.3721552 260:3.0618639 #
-2.3004223063604527510506159160286 1:0.34808478 2:0.30435452 3:0.086006239 4:0.44162482 5:0.19213039 6:0.72596681 7:0.55172426 8:0.043480985 9:-0.23212449 10:0.66556203 11:0.5366087 12:0.46678898 13:0.15086681 14:1.2801564 15:0.3475084 16:0.13742915 17:0.16255528 18:0.95826554 19:0.7089144 20:0.44536835 21:0.59922171 22:0.59426671 23:0.30551064 24:-0.071945146 25:0.425634 26:0.89146334 27:0.38111752 28:1.1124921 29:0.28376776 30:0.43391547 31:0.46880797 32:0.9433372 33:0.19250709 34:-0.040655017 35:0.46724084 36:0.11700994 37:-0.075312138 38:0.80141062 39:1.6682464 40:0.15305795 41:-0.17200649 42:0.28532636 43:0.76290041 44:0.31618193 45:1.3485267 46:0.45531788 47:0.12615725 48:0.43044725 49:1.0061032 50:1.4350624 51:0.88986301 52:0.4020817 53:0.26379663 54:0.26976359 55:-0.17678112 56:0.53076011 57:0.93122077 58:0.60005456 59:0.68515021 60:-0.21465082 61:1.3108574 62:-0.27925935 63:0.71066457 64:-0.15901889 65:0.43249416 66:-0.18860461 67:0.5122928 68:0.39581078 69:0.53149319 70:0.00063558528 71:0.4544498 72:-0.13526411 73:-0.07907933 74:-0.017071512 75:0.19535881 76:0.53037602 77:0.46070698 78:0.64892858 79:0.93625081 80:0.46278065 81:0.86238778 82:1.0663942 83:1.0771869 84:1.9269192 85:1.4241441 86:2.0815134 87:1.9210813 88:1.6942639 89:1.8129569 90:1.1201959 91:0.50312108 92:0.76364839 93:0.92423695 94:1.0535682 95:0.5971458 96:0.31413671 97:0.32737425 98:1.1410925 99:0.76042056 100:0.31312707 101:0.060108729 102:-0.20620251 103:0.57675976 104:1.1254667 105:0.18067755 106:1.3134563 107:0.48912802 108:1.1042702 109:0.64198637 110:2.3723319 111:1.6451309 112:0.4383184 113:-0.14743015 114:0.92387921 115:0.14440186 116:-0.2897341 117:0.42313132 118:1.0788556 119:0.90498674 120:1.518314 121:0.87303764 122:1.1905791 123:0.6827985 124:0.45735657 125:0.46829194 126:1.6503466 127:1.1536587 128:1.0058374 129:0.68722731 130:1.2797139 131:0.68614179 132:1.0453808 133:0.86295485 134:0.088035412 135:0.69556046 136:0.7878539 137:0.8172192 138:0.7950927 139:0.82963371 140:0.66669399 141:0.3029758 142:0.26212323 143:0.012845453 144:0.4713648 145:-0.12913716 146:1.0655617 147:0.97900653 148:1.9394553 149:0.49102363 150:1.08478 151:1.6349875 152:2.316319 153:1.5907562 154:1.1658757 155:1.0844803 156:1.4261642 157:1.967975 158:2.3311925 159:1.4089479 160:1.8347566 161:0.88029099 162:0.25829262 163:1.4548852 164:1.4495877 165:0.60770541 166:0.59396595 167:0.42562252 168:1.3259008 169:1.1576945 170:0.80891687 171:0.75866759 172:0.62590712 173:0.34336308 174:0.13350469 175:2.5797396 176:2.094893 177:1.3007834 178:0.3110432 179:1.1522794 180:1.5173761 181:1.1470183 182:2.1026342 183:0.57202995 184:2.153373 185:1.1868985 186:0.42379782 187:0.5651719 188:0.73169023 189:0.70313638 190:0.97278267 191:0.5228492 192:0.65108019 193:0.010573733 194:1.1607407 195:-0.26301146 196:-0.068659656 197:0.71199608 198:0.66181529 199:0.35519862 200:0.2737717 201:1.1989529 202:1.1194885 203:1.4449211 204:0.77333742 205:0.89271861 206:-0.14498714 207:0.075567991 208:0.083144255 209:1.118203 210:0.90081507 211:0.27302089 212:-0.11515953 213:0.78187406 214:0.48696631 215:-0.17490759 216:0.38707802 217:0.73339772 218:0.3595947 219:0.56876844 220:0.25127777 221:-0.10246624 222:0.1563658 223:0.25058556 224:0.25578713 225:0.46469733 226:0.42862877 227:0.2266012 228:0.26646399 229:0.56351972 230:0.36144865 231:0.13755748 232:0.18335024 233:1.2694253 234:0.51898396 235:0.52172559 236:-0.039229374 237:1.4913843 238:1.1351092 239:1.2457887 240:0.7623837 241:0.15801665 242:0.010817544 243:0.4335255 244:1.5254506 245:1.0398748 246:1.3191344 247:1.6926545 248:1.011242 249:1.1834549 250:1.0059996 251:0.11564422 252:0.95820439 253:0.48518896 254:1.5372573 255:0.76696128 256:1.2998052 257:1.0841353 258:1.719177 259:0.97654277 260:0.49927551 #
8.2249106132485323428227275144309 1:1.6354269 2:-0.060312215 3:-0.14924917 4:-0.10467853 5:-0.24698247 6:-0.23498172 7:-0.22989109 8:-0.12843153 9:-0.13897276 10:0.017585745 11:-0.12802178 12:-0.072735623 13:0.17939711 14:-0.08781518 15:0.027237657 16:0.079287626 17:0.3743504 18:0.05341256 19:0.15292788 20:0.082591705 21:0.23570339 22:-0.1272338 23:-0.039690677 24:0.066194043 25:-0.22491829 26:0.091931731 27:0.21232074 28:-0.057718925 29:0.05149547 30:-0.01721601 31:-0.038256742 32:-0.017665982 33:0.024609208 34:0.48835707 35:0.13232383 36:-0.0022155901 37:0.072581962 38:-0.17096032 39:-0.25173241 40:-0.11275037 41:0.19836809 42:-0.0010255937 43:0.52428788 44:0.11408399 45:-0.18469368 46:0.33824012 47:0.064449236 48:0.71939737 49:0.068777271 50:0.13299975 51:0.13865502 52:0.64316505 53:1.1254748 54:0.52242446 55:0.47860411 56:0.7905671 57:0.35435092 58:0.69043499 59:0.99618977 60:0.52812237 61:-0.30795485 62:0.58785826 63:0.92667609 64:-0.033701606 65:-0.21839175 66:0.43760428 67:-0.12775494 68:0.21532732 69:0.051696047 70:-0.18659094 71:0.019054499 72:-0.11114231 73:-0.21707761 74:-0.13142963 75:-0.0037907774 76:0.04338732 77:-0.021731118 78:0.26227164 79:1.2138723 80:0.81420636 81:0.77194172 82:0.5619908 83:0.51305705 84:0.54558283 85:0.00064256944 86:0.76894844 87:0.56162131 88:0.086785577 89:0.83441734 90:0.019114412 91:0.61414272 92:0.75952697 93:0.37216347 94:0.98147452 95:0.92283362 96:1.1958969 97:0.5813179 98:0.93910778 99:1.8025177 100:0.82369864 101:1.2512029 102:1.5194284 103:1.0182765 104:0.94594187 105:1.2273617 106:1.0886739 107:1.0829161 108:0.4822492 109:1.1005661 110:0.39601281 111:0.51192564 112:0.71437675 113:0.47128519 114:0.77354938 115:0.8074615 116:0.5690847 117:0.35421765 118:0.10592204 119:-0.019703126 120:0.049593039 121:0.22241864 122:0.044662952 123:0.32511827 124:0.74276596 125:0.24270821 126:0.57476228 127:0.90930647 128:0.13221645 129:-0.38006914 130:-0.34881902 131:0.88710451 132:0.57967246 133:1.2507386 134:2.0798407 135:0.056765243 136:1.2041286 137:0.054399751 138:-0.12536483 139:0.49135062 140:0.20188627 141:2.2439005 142:0.50335741 143:2.4216731 144:1.5945977 145:0.39397404 146:1.1825345 147:-0.22925563 148:1.8365703 149:0.68538642 150:0.89479774 151:0.90778822 152:0.42534101 153:3.6092262 154:0.84112149 155:1.3883445 156:3.1553335 157:0.46728945 158:2.5714393 159:0.99395394 160:0.59587866 161:1.7217159 162:0.91761333 163:1.7955797 164:0.62606281 165:1.455767 166:1.7172724 167:0.45951119 168:0.66813076 169:0.52571106 170:1.3639698 171:0.34684429 172:0.51286334 173:0.5165149 174:0.73322773 175:0.8860271 176:0.57334816 177:0.79901314 178:0.42248294 179:0.25770241 180:0.076132625 181:-0.061933402 182:0.31529641 183:0.31305283 184:1.2989596 185:0.068438575 186:0.86505896 187:1.2036091 188:0.37297702 189:0.86369145 190:1.9518715 191:1.0394611 192:1.409315 193:2.2931459 194:1.8452973 195:1.6395224 196:-0.033854716 197:0.31146452 198:0.43407804 199:0.3281233 200:-0.12200119 201:-0.19135039 202:-0.11039784 203:0.30143961 204:0.17082565 205:0.16887763 206:0.63751835 207:0.50892818 208:0.20250535 209:1.333414 210:0.45479703 211:0.63367432 212:0.53793436 213:0.21034133 214:0.99281394 215:0.2106519 216:0.35226765 217:0.15027909 218:0.91869527 219:0.24010193 220:0.41169056 221:0.4297612 222:0.17689048 223:0.39761418 224:0.0070210393 225:0.30972353 226:1.0274857 227:-0.16758345 228:0.31010306 229:0.93684471 230:0.23561183 231:0.90292519 232:0.41263694 233:0.77514291 234:1.1307051 235:-0.099719256 236:0.033182811 237:0.61246657 238:-0.0074518598 239:-0.029866792 240:0.44334087 241:-0.083954133 242:-0.1807474 243:0.37233788 244:-0.025114836 245:0.12917838 246:0.19442925 247:-0.027914817 248:0.37382865 249:0.10589584 250:0.48561805 251:0.20033461 252:-0.087479919 253:0.7027595 254:0.036548074 255:0.021811871 256:0.27337945 257:0.48058245 258:0.43032661 259:0.2020175 260:0.45969275 #
-0.46731066681687000174960644471867 1:0.24696121 2:0.12666735 3:0.063840464 4:0.58584899 5:0.056060061 6:-0.12687996 7:-0.14620681 8:0.74194199 9:0.2709251 10:-0.18450406 11:-0.1228229 12:-0.067413606 13:0.071543686 14:0.34073618 15:0.30528778 16:0.73511779 17:0.24998376 18:0.15406096 19:0.2776221 20:0.115412 21:-0.0048727402 22:0.45222044 23:0.85902429 24:0.33575624 25:-0.29885578 26:0.042095516 27:-0.086692043 28:-0.14112894 29:0.022782562 30:0.11533553 31:0.013642832 32:-0.2185104 33:-0.0023756204 34:0.016272089 35:0.018838143 36:-0.1356912 37:-0.25552115 38:-0.21324079 39:-0.059833445 40:-0.021199083 41:0.046586599 42:-0.30116645 43:-0.11307421 44:-0.019624611 45:0.18210937 46:-0.2116833 47:-0.071671478 48:0.25552517 49:-0.032570265 50:-0.23733351 51:-0.018235926 52:-0.020206891 53:-0.29785326 54:-0.20883243 55:-0.12770398 56:0.053818662 57:0.018709902 58:0.17913228 59:-0.27390319 60:-0.13755655 61:-0.24507959 62:0.048772316 63:-0.30209267 64:-0.027629413 65:-0.26691788 66:-0.16697465 67:0.087160669 68:0.520329 69:0.21373168 70:0.6237663 71:1.5508205 72:3.4078786 73:3.0914371 74:1.3417023 75:2.1914358 76:1.4822851 77:0.74437559 78:0.57803792 79:1.2539152 80:1.7198976 81:0.95635742 82:0.48683771 83:0.71203911 84:2.1939993 85:1.7768184 86:0.25264212 87:0.36579627 88:4.4720421 89:0.2209318 90:-0.032353751 91:1.0601186 92:1.5918419 93:0.85106677 94:0.66806954 95:4.2359877 96:0.47248775 97:0.59010535 98:0.57848537 99:1.4890479 100:0.75121576 101:0.32166839 102:1.2841589 103:2.933964 104:0.081446216 105:0.26902196 106:0.17251973 107:0.37700647 108:0.96311152 109:0.24545659 110:2.8151274 111:0.56870723 112:0.054713152 113:0.14207348 114:0.57650965 115:0.33953911 116:-0.010224313 117:0.60075283 118:0.54735625 119:0.46480674 120:-0.19093837 121:0.12041002 122:0.30891803 123:0.17087716 124:0.025961222 125:-0.25755841 126:0.042872131 127:-0.10867503 128:0.12408306 129:0.49610412 130:0.14660978 131:0.50321722 132:-0.12825631 133:-0.14356515 134:0.074948825 135:0.089515664 136:0.16605778 137:-0.016576201 138:0.50506121 139:-0.0090070013 140:0.0057034944 141:0.1260861 142:0.47627142 143:0.12850934 144:-0.098833956 145:1.1078974 146:0.089390546 147:0.44445258 148:0.40136418 149:-0.162412 150:0.36785713 151:0.85412443 152:1.0276347 153:0.95951843 154:1.0293791 155:0.40577877 156:-0.024448728 157:0.33650506 158:0.27878204 159:-0.010884559 160:1.2984362 161:-0.057037208 162:0.5057025 163:0.10894738 164:0.62431592 165:0.31221586 166:0.33664519 167:0.9322015 168:0.090252116 169:1.2599976 170:0.31680307 171:0.26918665 172:-0.14654496 173:1.3542458 174:0.11820087 175:0.7390638 176:0.32041961 177:0.22448668 178:1.687178 179:0.27516755 180:0.4794625 181:0.15579559 182:0.37641424 183:0.45625198 184:-0.074854515 185:-0.070564941 186:0.89149576 187:-0.037286565 188:0.62370068 189:0.39041021 190:1.2120265 191:-0.10436762 192:-0.12838982 193:0.72570288 194:0.59119248 195:1.0380715 196:-0.25026071 197:0.28748024 198:0.31093255 199:2.3045826 200:2.3927159 201:0.59586436 202:0.31186101 203:0.55607396 204:-0.18762258 205:1.2640859 206:0.12003764 207:0.76520926 208:0.6165843 209:0.19832 210:0.11675804 211:-0.10603876 212:0.018702727 213:0.00180299 214:0.0023376651 215:-0.057133947 216:-0.092679031 217:-0.038823374 218:-0.11246405 219:0.34313223 220:-0.00083020376 221:0.22552893 222:0.66686445 223:0.021365432 224:0.060497284 225:0.30115893 226:-0.10631832 227:0.06953612 228:0.16098224 229:0.13327174 230:0.30024493 231:0.12609233 232:-0.17664663 233:0.39386177 234:0.039512545 235:-0.26207903 236:-0.029431304 237:0.11633045 238:0.23757383 239:0.13980038 240:0.48319349 241:0.09571448 242:0.1739237 243:-0.10397662 244:-0.014949465 245:0.32434794 246:0.12475111 247:0.043029599 248:0.21663405 249:0.048575129 250:0.24942581 251:0.21471944 252:-0.0041365204 253:0.21216029 254:0.044377323 255:0.085023977 256:0.1110006 257:0.10967383 258:0.25322786 259:0.2863175 260:0.14257434 #
8.2249106132485323428227275144309 1:1.0125874 2:-0.2492414 3:0.20887573 4:1.3652173 5:1.5315439 6:0.62216669 7:1.6679314 8:1.4512315 9:0.25760686 10:0.028939344 11:0.94072437 12:3.0854793 13:-0.051538032 14:0.4319751 15:1.1673559 16:0.85068256 17:-0.0021691523 18:0.0037510486 19:0.67141497 20:0.16406368 21:0.91281742 22:1.0781457 23:1.5279435 24:0.64293575 25:0.73307151 26:0.29145011 27:0.70636886 28:1.293282 29:0.42669147 30:1.3369486 31:0.26550922 32:0.12856761 33:0.73267251 34:1.7290959 35:0.37293443 36:0.93322468 37:0.83795178 38:0.2798968 39:0.10960348 40:0.35089591 41:0.98947185 42:0.051458523 43:0.60275227 44:-0.19087213 45:1.2557365 46:0.53628933 47:0.34365085 48:0.45328149 49:0.73616332 50:0.23396231 51:0.26011863 52:0.92199665 53:0.66682887 54:0.13010183 55:-0.028770152 56:0.35346717 57:-0.17963807 58:0.32040566 59:1.070985 60:0.33462617 61:-0.049087673 62:0.077896595 63:0.75183088 64:0.52355069 65:0.093663044 66:0.10275115 67:0.80793101 68:1.16892 69:0.64690965 70:0.66582394 71:1.7283832 72:2.3998096 73:5.1290288 74:1.1759217 75:1.4221114 76:-0.1367432 77:1.0697629 78:0.64308012 79:0.48565027 80:0.64206517 81:1.9018025 82:0.77730817 83:2.0337031 84:0.56219721 85:0.88707787 86:0.3781904 87:0.58572751 88:2.9198513 89:0.8933022 90:0.81076896 91:1.1805985 92:1.157672 93:0.43325531 94:-0.2549096 95:1.0866152 96:0.86334336 97:0.21174335 98:0.68277943 99:0.97487521 100:0.12929383 101:0.049200747 102:1.0642165 103:1.1429133 104:0.13884069 105:-0.010780621 106:0.83063829 107:0.30876231 108:-0.11178946 109:0.19344193 110:1.2863184 111:-0.11375707 112:-0.13188353 113:-0.037051648 114:0.93403023 115:0.26080674 116:0.38443398 117:0.57436335 118:0.81460506 119:0.1585582 120:0.19796698 121:-0.044124972 122:-0.0049649961 123:0.17770851 124:0.55078399 125:0.45275053 126:0.023114314 127:0.32358122 128:0.45526722 129:0.63574129 130:0.2393959 131:0.45532921 132:0.11157779 133:-0.090120129 134:-0.17116176 135:-0.20234844 136:-0.14402835 137:-0.088306084 138:0.58973277 139:0.25028089 140:0.57838815 141:0.84379488 142:0.52431935 143:0.25921354 144:-0.072865508 145:-0.12650658 146:-0.25481674 147:0.4217495 148:0.80694401 149:0.050402146 150:0.23510316 151:0.51502526 152:-0.088282444 153:0.78636384 154:-0.19622928 155:0.60974485 156:0.14123933 157:0.66570914 158:0.29735908 159:0.55507582 160:1.0031195 161:0.68651152 162:0.90539944 163:0.2673935 164:0.076532625 165:-0.16255742 166:-0.16453889 167:-0.23051742 168:0.59632432 169:0.51638329 170:0.39230672 171:0.44285151 172:0.14355551 173:0.28888914 174:0.27894464 175:0.11260287 176:0.57865661 177:0.36837038 178:0.36520761 179:-0.12180718 180:0.50749886 181:0.59667045 182:-0.16585112 183:0.031349577 184:-0.14839971 185:0.56456172 186:0.009351111 187:0.20219438 188:-0.034782819 189:-0.064348631 190:-0.02558847 191:0.067217432 192:0.11733528 193:0.11273541 194:0.087671638 195:-0.18949342 196:1.4219353 197:0.3353813 198:-0.028267125 199:0.79406875 200:1.1244936 201:-0.04291299 202:0.90381962 203:0.46918294 204:-0.094329126 205:0.15777905 206:0.8080861 207:0.60017073 208:0.23435646 209:0.15594541 210:0.94148892 211:0.10748532 212:-0.014699877 213:-0.22862081 214:0.27737162 215:-0.097733989 216:0.060338613 217:-0.042212073 218:0.62378716 219:0.88457119 220:0.42622334 221:0.54184824 222:0.59493947 223:0.36230719 224:0.91732025 225:0.65306491 226:0.12113605 227:0.64825135 228:0.24271192 229:-0.13733679 230:0.35759348 231:0.98228848 232:0.88927662 233:1.1399407 234:0.092331931 235:-0.15296826 236:0.10393801 237:0.27741289 238:0.45323443 239:1.0508969 240:1.8015746 241:0.37412018 242:-0.053692356 243:0.89396536 244:0.64646518 245:-0.10411645 246:0.90817088 247:1.145915 248:0.40898088 249:0.32398865 250:0.76158738 251:0.016375292 252:0.4809553 253:0.86948425 254:0.30599481 255:0.56852615 256:0.4851436 257:0.48213759 258:0.34090739 259:0.41574159 260:0.63526833 #
-0.079568126371345193614814661486889 1:0.2867851 2:2.5305688 3:2.3918986 4:1.945911 5:-0.058546174 6:0.70195121 7:1.0364133 8:0.51570159 9:0.10663716 10:1.314615 11:1.1303232 12:0.09086474 13:0.13717809 14:0.94264656 15:0.32924989 16:-0.095014848 17:0.48198977 18:0.61208946 19:-0.036668245 20:0.83768737 21:0.4679499 22:0.30188087 23:0.17078382 24:0.019023513 25:0.69750619 26:0.36121795 27:0.049628399 28:0.15216456 29:1.2632101 30:1.2944852 31:1.2447261 32:1.5475761 33:1.2690866 34:1.4493051 35:0.41659489 36:0.40604818 37:0.36136779 38:0.65720397 39:0.4907974 40:1.7856452 41:0.45667657 42:1.571575 43:1.4391564 44:1.3537046 45:2.063422 46:1.6849939 47:1.0050765 48:-0.041838292 49:0.36643049 50:-0.19581747 51:0.62655663 52:0.2292276 53:-0.14179389 54:0.29823548 55:-0.30405942 56:0.39277828 57:-0.14282002 58:0.42165017 59:-0.031382065 60:0.88579452 61:0.96625507 62:0.46966937 63:1.3647381 64:0.66338491 65:-0.1773746 66:-0.20630248 67:0.37883019 68:0.6679557 69:1.0041883 70:0.27046767 71:0.19827022 72:-0.11879789 73:-0.05119174 74:0.037144512 75:1.0200924 76:1.162865 77:0.48609215 78:0.066686362 79:0.56669843 80:0.071146421 81:1.1207305 82:1.0114572 83:2.0962481 84:2.1822765 85:0.89321834 86:1.5949453 87:1.7198253 88:0.71265751 89:1.0527214 90:1.1748663 91:1.7243891 92:2.1774805 93:1.5311738 94:1.3965222 95:2.9546735 96:1.2381949 97:0.30467281 98:2.02986 99:1.6843849 100:1.265823 101:0.42737874 102:1.062934 103:1.0737479 104:1.7860461 105:1.8912541 106:0.7467314 107:1.4846667 108:0.70569074 109:2.2372751 110:1.5881085 111:0.53503948 112:1.1618367 113:0.94883358 114:0.57696146 115:0.37562099 116:1.097047 117:2.4517307 118:1.8389732 119:2.7092893 120:1.542311 121:0.68879497 122:0.87750548 123:1.1066273 124:1.3112588 125:-0.066566795 126:0.76310384 127:1.4554346 128:2.6703722 129:3.5123265 130:0.78522927 131:1.9720924 132:3.9104853 133:3.6445723 134:4.0641069 135:0.3601926 136:1.5403551 137:2.5809188 138:1.0816152 139:2.1736839 140:4.8716722 141:3.0189705 142:0.9622575 143:2.4928265 144:1.4701461 145:1.7985663 146:3.4803028 147:1.0596495 148:3.9293034 149:5.4920125 150:0.15427387 151:4.8588047 152:2.8405836 153:0.48632172 154:0.6300115 155:2.0519271 156:1.6697675 157:3.2491918 158:2.3845835 159:1.1374439 160:3.0854354 161:1.9385432 162:0.61443168 163:1.5762454 164:2.8952715 165:2.2218747 166:1.9116924 167:3.8715951 168:0.75466049 169:2.4119985 170:1.0254558 171:1.0171665 172:2.6576324 173:0.14041261 174:2.4910638 175:2.9668248 176:0.91873592 177:1.8162251 178:2.1422122 179:1.0272115 180:0.69497871 181:1.5661079 182:1.795135 183:1.6989613 184:1.7855479 185:2.5992086 186:3.1028526 187:2.2058072 188:1.0054227 189:1.2689737 190:1.6198933 191:1.2891461 192:0.38405117 193:0.54764009 194:1.3036743 195:-0.061394893 196:0.58959961 197:0.2344387 198:0.64892077 199:2.4641917 200:0.039607015 201:5.0273776 202:7.8466001 203:3.3478487 204:3.2308569 205:5.3144455 206:3.4365225 207:0.56813139 208:1.9190011 209:4.3258462 210:2.3037338 211:2.9959679 212:2.0439234 213:2.0564697 214:2.717428 215:1.0422218 216:1.1839941 217:1.6456368 218:2.0534954 219:3.7367942 220:8.3866606 221:5.8472648 222:4.2740493 223:0.99120831 224:1.664979 225:0.47248673 226:0.89491081 227:0.40800154 228:2.1732831 229:2.626837 230:0.10514928 231:2.6772807 232:2.6813405 233:3.5589719 234:3.0151258 235:1.3203725 236:3.2686474 237:1.8729779 238:1.7565806 239:1.4443123 240:2.3308227 241:2.4933739 242:1.8942701 243:1.9929738 244:0.7198326 245:0.91136271 246:0.78050941 247:0.73640376 248:1.1537415 249:1.1860664 250:1.1540359 251:0.53661305 252:0.31965801 253:0.90525365 254:0.56670064 255:0.95557624 256:0.11651529 257:0.15767384 258:0.40113163 259:0.20462951 260:0.03487505 #
-0.044029220892172961365762517971234 1:0.700261 2:7.0956717 3:9.5900745 4:9.4967594 5:4.6935921 6:9.5959492 7:8.1159163 8:3.4710393 9:1.9337264 10:3.8958266 11:2.5722663 12:0.802625 13:-0.092696533 14:1.3639603 15:2.7817755 16:2.6534188 17:4.3214598 18:6.9659629 19:7.6463237 20:6.5777192 21:7.6516833 22:8.1643314 23:7.0393209 24:6.3212738 25:6.5488329 26:7.0686426 27:5.9540577 28:5.0375094 29:4.4005208 30:3.7602165 31:2.2511024 32:2.1192274 33:1.31002 34:1.0059289 35:1.2777988 36:1.3765687 37:1.9530253 38:2.138272 39:2.8621216 40:3.1139307 41:3.302537 42:2.920855 43:3.1869822 44:2.8364158 45:2.3006599 46:1.8475468 47:1.0309963 48:0.75555199 49:0.88404608 50:1.4345515 51:2.3728006 52:3.3181653 53:3.4894269 54:4.6485243 55:5.6431355 56:5.375206 57:6.1747351 58:6.6780109 59:7.0092101 60:6.454679 61:6.143127 62:6.4405479 63:5.1207166 64:4.9989181 65:4.546083 66:0.87895393 67:12.233613 68:14.193309 69:9.232439 70:3.4989552 71:9.0963812 72:5.7730279 73:2.2804852 74:1.3468773 75:3.3597038 76:3.3295124 77:1.5706707 78:1.4968039 79:1.3945385 80:1.0057423 81:0.54997373 82:0.81909412 83:0.97699904 84:1.1939508 85:1.1701421 86:1.104859 87:1.1870096 88:0.50306422 89:0.65390819 90:0.70547873 91:0.67915237 92:1.1472826 93:2.3289185 94:3.1221075 95:3.8998742 96:3.7353921 97:4.1764145 98:4.5729575 99:4.7083001 100:4.6290321 101:4.1346774 102:3.9519584 103:3.7716169 104:3.0029845 105:2.5225821 106:2.2318256 107:2.5413027 108:2.3992128 109:2.2524896 110:1.9371639 111:1.4718285 112:1.1269367 113:2.2087848 114:3.3348954 115:2.9743114 116:3.1013653 117:4.8696985 118:5.0029325 119:7.2936592 120:5.685286 121:5.4589581 122:6.5430803 123:4.7702389 124:6.2768345 125:5.6886454 126:4.5200715 127:4.0634303 128:1.9383905 129:3.6585991 130:1.7288598 131:3.8706148 132:16.082588 133:20.093269 134:23.07844 135:22.105858 136:27.244595 137:26.182056 138:19.618595 139:15.531011 140:21.104155 141:18.665201 142:14.455385 143:12.588404 144:12.386147 145:10.060521 146:7.594727 147:7.5176044 148:7.2955956 149:6.536674 150:5.2613206 151:5.7370753 152:5.5950322 153:5.3169065 154:4.3667197 155:3.78913 156:3.0797358 157:2.2165051 158:1.3231883 159:1.3844987 160:2.0204976 161:2.981488 162:4.0203619 163:4.8726921 164:5.964407 165:6.4926629 166:7.9634514 167:9.4463606 168:10.675919 169:11.510003 170:13.395695 171:15.118828 172:17.060488 173:18.958906 174:20.58007 175:23.430435 176:24.78998 177:26.901602 178:29.113071 179:29.938601 180:29.628004 181:30.118877 182:29.597706 183:29.235655 184:28.84375 185:27.147297 186:23.913103 187:21.679398 188:19.41861 189:18.565838 190:16.833073 191:14.95972 192:14.39727 193:12.945506 194:11.695072 195:1.1295352 196:9.7530813 197:9.4482479 198:10.525661 199:9.6702194 200:5.7568521 201:12.309462 202:12.735373 203:9.9027939 204:9.1844311 205:14.269461 206:14.911377 207:11.960817 208:13.241895 209:17.138126 210:15.696929 211:11.700067 212:13.807748 213:16.694189 214:16.574987 215:14.144917 216:15.387972 217:15.627802 218:13.815663 219:12.703522 220:13.743777 221:14.077266 222:14.378446 223:13.583291 224:13.070326 225:12.833985 226:13.538241 227:13.964993 228:14.077971 229:14.741851 230:15.6319 231:16.33287 232:16.216764 233:15.732413 234:14.902738 235:15.354843 236:15.427914 237:15.098088 238:15.269365 239:14.507154 240:13.87577 241:12.231367 242:11.608477 243:11.474819 244:10.664954 245:9.9662266 246:9.5004559 247:9.9531012 248:9.3223438 249:9.4201937 250:9.5388651 251:9.6802549 252:9.4687042 253:9.4614086 254:9.6243868 255:9.9609365 256:10.743087 257:11.235198 258:11.575344 259:12.441767 260:15.09383 #
-0.18372463366697128206439515452075 1:3.1587372 2:3.5982442 3:6.1706996 4:7.5343318 5:8.5953951 6:2.5540981 7:2.5895574 8:4.0572562 9:4.9888072 10:3.6635811 11:1.5265464 12:2.3461163 13:5.9352407 14:2.592196 15:2.4334908 16:1.8727189 17:1.8430275 18:0.97509885 19:4.5097833 20:5.2491117 21:3.0682395 22:1.346149 23:1.7385346 24:1.4773042 25:1.1186801 26:1.0380739 27:2.1223102 28:2.2742248 29:2.505291 30:2.7756484 31:1.3036219 32:0.82333332 33:0.89110541 34:1.1312388 35:0.59660059 36:1.552999 37:0.93164694 38:0.43234903 39:1.2000839 40:1.6417192 41:-0.14148453 42:1.3446687 43:0.32672819 44:0.02331852 45:1.0072238 46:0.58896172 47:0.5435077 48:0.49696165 49:-0.091609731 50:1.3896114 51:-0.052177176 52:0.12658779 53:0.13868597 54:-0.0587998 55:0.45673558 56:0.47544029 57:0.43585026 58:0.81391078 59:1.1460279 60:-0.025806243 61:0.34804097 62:-0.00013651964 63:0.32066515 64:0.22293821 65:0.31935477 66:0.78251272 67:0.22963789 68:2.0573115 69:2.3686841 70:3.8996267 71:2.0444005 72:2.4858501 73:0.34069842 74:0.72551394 75:6.5634036 76:4.8359013 77:2.1262193 78:3.2561276 79:1.5754648 80:2.595216 81:4.4908881 82:2.4146268 83:1.3512278 84:1.1182851 85:2.8775465 86:0.94621408 87:1.8457578 88:1.2018099 89:2.3502955 90:2.7406087 91:1.6743324 92:0.44080028 93:1.00573 94:0.58309001 95:1.1463361 96:0.41069669 97:2.2144351 98:1.9838992 99:0.52046657 100:0.32891664 101:0.6420452 102:0.029434025 103:0.98560649 104:0.7453301 105:1.3152307 106:0.24205479 107:1.0147121 108:0.19733736 109:0.10472795 110:0.044762697 111:0.70821023 112:1.0975242 113:0.35797179 114:-0.11942224 115:0.18256395 116:0.26938349 117:-0.1540885 118:0.34968516 119:0.52136993 120:0.46147448 121:0.21760981 122:0.41837221 123:0.18992935 124:0.0041905502 125:-0.16504663 126:-0.066197835 127:0.023268893 128:-0.02036324 129:0.28009075 130:-0.36055905 131:5.1643324 132:3.7920594 133:2.5718307 134:2.7684073 135:2.9067686 136:1.3716787 137:5.0847902 138:3.212661 139:0.67861199 140:5.1338072 141:1.2338897 142:0.82538408 143:0.74623966 144:1.5094128 145:1.5803672 146:4.5538349 147:0.39453551 148:0.67788506 149:1.6346701 150:2.2984211 151:3.7408445 152:2.0859346 153:2.1118641 154:3.6744924 155:2.1129663 156:0.90108305 157:5.2092695 158:4.8348384 159:3.0298588 160:1.0908239 161:4.5289974 162:4.3601007 163:2.1095974 164:0.44096282 165:3.8811092 166:1.9625334 167:1.6403546 168:1.3906546 169:3.6552033 170:3.4343517 171:2.3444469 172:0.40223247 173:1.5953492 174:0.4450078 175:1.3856976 176:1.2544472 177:2.5731587 178:2.2437038 179:1.7976512 180:0.36463332 181:1.1485171 182:0.34924778 183:1.6844908 184:1.1146089 185:2.4313958 186:0.98239505 187:0.96082366 188:0.28753564 189:1.7556162 190:0.57581604 191:1.7349313 192:0.71096754 193:2.1290901 194:0.72701579 195:0.81505471 196:2.746629 197:1.3563913 198:2.5692503 199:2.6591783 200:2.5472932 201:3.1503255 202:5.8730159 203:4.8453617 204:8.6764641 205:10.343005 206:7.6680312 207:8.3373451 208:13.9183 209:3.7331963 210:4.4607215 211:7.78684 212:2.2261312 213:3.8765693 214:3.8784561 215:0.8449285 216:1.4343498 217:0.61881429 218:0.60105002 219:1.6248708 220:0.37906778 221:1.8803515 222:0.92386466 223:2.0707672 224:2.8847806 225:2.110209 226:0.91546929 227:2.8389153 228:0.57819462 229:0.066716284 230:0.85650104 231:0.30705303 232:0.2089818 233:0.46807712 234:-0.0336079 235:0.65544033 236:1.4248745 237:0.068529427 238:0.52001029 239:0.60152131 240:0.079995565 241:0.2381545 242:0.12083372 243:-0.07635092 244:0.84350622 245:-0.0069824499 246:0.17182533 247:0.29086861 248:0.025628189 249:0.32127842 250:0.41612354 251:0.55036569 252:0.15496197 253:0.43809959 254:0.15136574 255:0.11144456 256:0.098383084 257:-0.02118523 258:-0.039279662 259:0.320452 260:-0.16271141 #
1.0157645803003958473453849364887 1:1.9784501 2:0.26062992 3:-0.11325658 4:0.83107638 5:1.8929293 6:1.0752426 7:1.0499227 8:0.93515688 9:4.5450897 10:0.41723561 11:-0.028630683 12:0.83994162 13:2.4476748 14:3.3937747 15:1.9727869 16:0.4169378 17:3.6510053 18:3.0304191 19:2.1696715 20:0.6913408 21:8.2950649 22:2.889605 23:1.5480723 24:3.132462 25:8.6797047 26:3.3505373 27:0.50593901 28:1.6199044 29:9.6834717 30:2.8686182 31:0.8278262 32:4.861464 33:3.7114422 34:2.3281703 35:2.8790941 36:2.2821114 37:4.6537395 38:6.8236432 39:1.6499553 40:5.1480093 41:0.51880753 42:2.680645 43:1.2821076 44:2.9480741 45:6.1090145 46:5.6568351 47:0.88249624 48:3.220634 49:4.4484925 50:6.3706656 51:2.5962417 52:5.7604213 53:4.130127 54:1.2796803 55:0.75582266 56:2.5396791 57:3.655514 58:7.0124512 59:4.3020196 60:4.8708777 61:3.1521587 62:1.1714392 63:1.8230394 64:2.6973677 65:4.7645302 66:0.034310874 67:0.47684467 68:0.10698022 69:0.41123906 70:0.14542508 71:-0.28753093 72:-0.17640996 73:0.85180515 74:4.4572787 75:1.3220663 76:0.98460144 77:0.30563796 78:3.695169 79:0.96451592 80:2.2800701 81:0.46185255 82:5.4353156 83:2.2653635 84:1.9067932 85:3.1802235 86:7.3565617 87:0.90093803 88:1.8639497 89:0.32252398 90:5.2162814 91:0.60612118 92:3.5792489 93:3.4911807 94:3.5610375 95:0.19599938 96:0.96197665 97:3.1984854 98:4.4041886 99:1.6725152 100:2.5160558 101:0.53695661 102:7.5892715 103:1.6921833 104:0.43205425 105:5.9374876 106:9.408926 107:5.2397757 108:3.6646936 109:4.7507334 110:3.2842498 111:5.1218019 112:0.37646627 113:7.5363073 114:8.4424305 115:4.3909473 116:1.1954173 117:4.8637176 118:3.071681 119:3.4700944 120:0.18230252 121:4.8700294 122:6.0372858 123:3.9483035 124:1.1666479 125:2.557991 126:5.1603389 127:3.7014968 128:0.53469485 129:3.6983857 130:0.78706986 131:1.7207952 132:0.033286437 133:0.38188502 134:0.16207777 135:1.2588303 136:0.094529659 137:0.48008418 138:0.37935475 139:2.5704508 140:0.7043317 141:0.012864229 142:0.5658583 143:1.5692277 144:0.020874668 145:0.62384421 146:0.92472512 147:0.26313916 148:0.69057685 149:1.131996 150:0.30940035 151:3.905869 152:1.0340419 153:1.0097309 154:0.69856501 155:5.5902328 156:2.3153458 157:0.66458255 158:2.9307132 159:6.3463507 160:0.70753992 161:2.5365961 162:2.5465968 163:7.6471486 164:1.7444518 165:1.4229186 166:0.83479625 167:2.1368692 168:0.846569 169:1.8749437 170:2.0716221 171:2.2410939 172:2.8864908 173:1.2848328 174:1.2268621 175:1.2994319 176:1.1488192 177:1.3226891 178:1.265656 179:1.7436378 180:1.3311337 181:1.8178923 182:2.1651673 183:0.9296912 184:0.90172005 185:2.0721271 186:0.053464837 187:2.083842 188:1.9020804 189:1.7965744 190:1.0015481 191:0.86501175 192:2.2104123 193:2.5049875 194:3.5182488 195:5.9460874 196:-0.24415132 197:1.1918362 198:-0.16870338 199:0.9207688 200:2.5589569 201:1.6397415 202:2.9456923 203:1.6071306 204:8.6492434 205:0.54888558 206:3.2720306 207:1.5000346 208:6.0735021 209:2.1786697 210:0.37542385 211:0.49862266 212:3.4233713 213:1.4553624 214:2.1094444 215:1.7220629 216:4.44029 217:2.1018107 218:0.36594763 219:0.091431998 220:5.9339266 221:2.0663888 222:3.894206 223:2.0775752 224:3.028682 225:1.5463789 226:-0.056834903 227:1.5246764 228:6.1652942 229:1.9083034 230:1.4920665 231:1.2285721 232:4.2437196 233:2.4008555 234:2.4225347 235:3.2087324 236:3.3785565 237:1.6024547 238:2.9393179 239:0.23272425 240:3.5063879 241:1.0829104 242:2.4423125 243:0.87985665 244:1.3711119 245:0.87613255 246:2.0068095 247:0.41525459 248:2.0854797 249:0.87781644 250:2.2883766 251:1.0105227 252:3.1439869 253:2.0044718 254:0.93171573 255:1.7396765 256:2.7030239 257:2.3052554 258:0.42592552 259:3.0179834 260:2.728606 #
-0.021632512102902998196718442613928 1:1.4858712 2:9.3546505 3:7.941699 4:4.0455861 5:1.3820976 6:6.6599956 7:9.1220493 8:4.1361413 9:2.7162244 10:6.791575 11:7.9531426 12:4.1637383 13:1.6758182 14:1.5642195 15:3.3606317 16:3.1469333 17:3.862174 18:4.5966649 19:3.2449343 20:0.72631818 21:1.5217561 22:2.8957548 23:2.0910268 24:1.1279105 25:0.57448834 26:0.13815413 27:-0.14713815 28:0.12006141 29:0.92574733 30:2.5039978 31:2.6340375 32:1.820195 33:1.5265323 34:2.8292029 35:3.5748105 36:4.5969877 37:5.0154166 38:5.492022 39:5.0809274 40:4.979692 41:4.369761 42:3.1176045 43:3.3938215 44:5.4164796 45:7.5187654 46:7.5810003 47:7.2614641 48:7.3606429 49:6.1913447 50:5.4092183 51:5.491621 52:6.3184252 53:5.2951198 54:3.7656767 55:2.4716537 56:1.8535178 57:4.5884056 58:7.2559762 59:8.131403 60:6.6488237 61:4.3955097 62:2.3371363 63:0.57059413 64:0.31451184 65:1.5197697 66:0.74854583 67:8.3121061 68:9.168807 69:4.7307968 70:1.6357359 71:4.2553058 72:3.8174534 73:1.7684221 74:0.9833498 75:1.1878575 76:1.7220002 77:2.585387 78:3.4414983 79:3.7417934 80:2.6717124 81:2.0687938 82:2.182606 83:2.1320677 84:1.5252899 85:1.1094104 86:1.4033585 87:1.5192994 88:2.066113 89:3.2781532 90:3.7661984 91:3.2855268 92:3.2077837 93:4.1450405 94:5.0105848 95:4.3924885 96:2.8468294 97:1.8374573 98:1.5764223 99:0.81401503 100:0.49955249 101:-0.042230207 102:0.72045404 103:1.0129871 104:-0.094149448 105:1.7576376 106:2.9235725 107:3.2503307 108:3.9862838 109:4.2252913 110:3.6770387 111:6.7889223 112:8.4847107 113:7.2929087 114:3.4971337 115:2.3636818 116:3.5445347 117:2.2142429 118:1.6571107 119:6.3029284 120:6.6212111 121:2.014271 122:4.6910009 123:5.8136864 124:2.5410991 125:0.72276527 126:4.3478799 127:6.1498833 128:7.2322159 129:5.0694413 130:5.1134415 131:3.0813267 132:11.850924 133:11.849973 134:10.601102 135:6.730772 136:3.473495 137:1.2576845 138:2.7473311 139:3.431716 140:7.7242937 141:9.4336462 142:8.3706665 143:7.8049355 144:7.7561669 145:8.0287523 146:8.8137388 147:11.244561 148:13.044895 149:11.384889 150:6.3438129 151:1.6607729 152:4.6631703 153:8.3176994 154:10.7042 155:13.147863 156:13.122174 157:11.115085 158:9.2904053 159:7.320847 160:3.9267719 161:1.7479056 162:6.2948632 163:11.132483 164:15.70475 165:16.849602 166:18.04785 167:16.866642 168:13.135056 169:8.4364309 170:3.8609896 171:-0.029990718 172:2.9283211 173:4.8792706 174:6.3230853 175:7.8504977 176:7.6476264 177:6.3538547 178:4.776741 179:2.8815088 180:2.7088625 181:5.1325169 182:7.5498629 183:8.8317614 184:9.0086193 185:7.9103756 186:4.9514542 187:1.8877432 188:2.756516 189:6.4543438 190:10.839328 191:13.942004 192:16.180481 193:15.649788 194:14.162234 195:11.853911 196:11.068535 197:10.636896 198:10.946112 199:8.4863186 200:3.8734682 201:5.6674399 202:2.9173245 203:0.4223685 204:0.27152622 205:1.4065465 206:1.7006047 207:0.8874945 208:0.82199317 209:2.7493389 210:4.1394873 211:4.1274815 212:5.989675 213:7.414031 214:6.1573782 215:3.7940567 216:2.2157187 217:2.3278699 218:4.7295074 219:6.5621295 220:8.6859465 221:9.3064089 222:8.0615187 223:5.8453546 224:6.1235166 225:8.3223228 226:11.55986 227:14.269565 228:15.298125 229:15.6643 230:16.068008 231:16.062042 232:14.547906 233:11.892755 234:9.294322 235:9.4758444 236:12.025306 237:15.234185 238:18.379742 239:18.500965 240:17.27915 241:14.322972 242:12.425259 243:10.71274 244:9.6472654 245:11.278139 246:14.322582 247:18.700632 248:19.42058 249:18.60955 250:15.076056 251:9.9278069 252:6.1200838 253:6.483336 254:8.4153652 255:10.178929 256:11.344919 257:10.868277 258:9.5499039 259:7.9657545 260:5.7300878 #
1.7854241348515882403802379485569 1:2.3356552 2:1.8623091 3:1.7924162 4:2.1798825 5:0.03691249 6:3.1982651 7:3.3279002 8:0.58790439 9:2.52881 10:1.5706199 11:6.0885806 12:1.520335 13:7.2695999 14:3.1264937 15:4.6188583 16:2.4988837 17:5.6677542 18:1.4089339 19:5.421876 20:1.3162154 21:5.7479553 22:1.4640079 23:4.237381 24:3.5773818 25:7.0782237 26:2.6617279 27:8.2936668 28:3.572551 29:5.9768929 30:0.60581326 31:6.6450315 32:3.1334217 33:6.984282 34:2.206033 35:5.6504221 36:4.2274022 37:7.7604003 38:1.9344565 39:10.369477 40:3.9782186 41:5.5679221 42:0.35007441 43:7.3273754 44:4.1255641 45:6.4964375 46:0.33391562 47:6.9095492 48:1.9043036 49:10.034629 50:1.3356245 51:10.971383 52:5.6212974 53:5.5552564 54:5.2902236 55:8.6743107 56:3.5253747 57:7.8885651 58:3.3263013 59:10.914701 60:2.1956344 61:9.0590715 62:4.2315865 63:10.471883 64:7.4720192 65:5.4469814 66:0.93353891 67:0.057183944 68:0.058264565 69:0.25699082 70:0.073273487 71:-0.047028825 72:0.086608559 73:-0.093268976 74:3.8565526 75:1.7896383 76:0.63908839 77:0.8543359 78:2.5528455 79:2.5699127 80:1.9139692 81:0.5234378 82:2.1632504 83:1.1710116 84:3.8154223 85:0.22988079 86:2.267195 87:1.7570497 88:1.8143541 89:1.5668118 90:1.3935038 91:3.2012167 92:2.9933624 93:1.2870115 94:0.8110016 95:0.94355071 96:0.89847267 97:-0.1999993 98:1.0521003 99:1.3744655 100:0.65434355 101:2.2919617 102:1.6368643 103:0.79290873 104:2.2059655 105:1.7360469 106:2.2514977 107:0.65522718 108:0.52967173 109:0.78025186 110:1.5909369 111:1.5407705 112:0.87791777 113:1.8218225 114:1.3466316 115:1.209559 116:1.5920581 117:1.625509 118:1.1754341 119:0.046849672 120:0.28865391 121:0.62803042 122:2.9678133 123:1.2168638 124:2.0076005 125:1.8348982 126:5.1942849 127:1.0194752 128:1.6324559 129:0.45325676 130:7.0327363 131:1.9857548 132:1.3454621 133:1.7387315 134:1.235371 135:1.6626856 136:0.30566269 137:0.42049336 138:0.17608364 139:0.83242846 140:2.7904072 141:1.4727645 142:2.4914773 143:2.8574643 144:1.7486426 145:1.8813213 146:4.3485723 147:5.4378695 148:4.3048434 149:5.3464813 150:1.4296844 151:2.2854018 152:0.7107718 153:3.5947809 154:3.1045697 155:2.0896454 156:1.0988325 157:0.7893765 158:2.5507348 159:3.1311014 160:2.2919867 161:2.9140809 162:3.6269426 163:3.6678903 164:2.1782534 165:0.96954036 166:2.3737063 167:0.93743324 168:4.0689287 169:2.8242617 170:3.2888589 171:2.7571254 172:2.7662771 173:2.8811743 174:0.46974269 175:0.76286888 176:0.95852876 177:0.63613284 178:0.0029492849 179:1.4586585 180:1.3867024 181:1.9860008 182:1.6918628 183:3.8720341 184:2.2636862 185:4.8977957 186:3.5924032 187:3.456449 188:2.5575526 189:0.9216665 190:0.33743465 191:3.7867756 192:1.6488386 193:3.8298206 194:1.9319394 195:6.5202894 196:1.1826167 197:1.0639932 198:1.3971581 199:2.7484398 200:2.4580355 201:0.6004793 202:0.054058693 203:2.3606069 204:2.1231911 205:6.0731692 206:1.9906293 207:1.4619638 208:2.9869568 209:7.6154222 210:1.6387548 211:1.8605273 212:3.0989361 213:2.9318593 214:2.5235522 215:0.32983544 216:1.3968419 217:3.4165699 218:0.80465782 219:2.1278875 220:3.0706637 221:3.7662702 222:4.3148556 223:6.4910007 224:5.0018125 225:4.1197491 226:3.7868979 227:2.0743783 228:4.8512583 229:1.3695643 230:2.7710207 231:0.96134484 232:4.9292407 233:1.0487651 234:6.2975216 235:3.1813445 236:2.5281439 237:4.7189808 238:7.3749156 239:3.0719001 240:2.4604397 241:1.0172563 242:3.13482 243:3.2055342 244:5.9101329 245:3.417701 246:6.5347166 247:4.7825279 248:1.8109998 249:3.9253206 250:8.564167 251:2.7910156 252:3.2363553 253:3.455384 254:6.5242453 255:2.5360606 256:3.423768 257:2.9624426 258:8.368412 259:7.1743784 260:3.458096 #
-0.42845604484540167344874816990341 1:2.2884023 2:0.60867363 3:1.2996879 4:3.3183358 5:2.9001167 6:1.1288079 7:2.6752243 8:1.8661221 9:1.4387131 10:3.9709067 11:1.5792812 12:0.75513774 13:1.3986076 14:3.2825484 15:4.2391872 16:1.8574115 17:2.1465943 18:3.3719816 19:4.2861547 20:2.964355 21:1.804082 22:1.0714149 23:1.4273809 24:7.1333928 25:6.6557784 26:5.4801888 27:3.5305724 28:4.5208511 29:1.5033845 30:2.4513707 31:2.5976601 32:1.6559598 33:3.2768369 34:2.8412066 35:3.3168707 36:8.0986681 37:5.0829482 38:7.3582134 39:4.8910241 40:6.4327059 41:5.2735305 42:9.4005308 43:4.5687952 44:3.0683594 45:1.4912336 46:5.3261967 47:2.8992708 48:1.8616314 49:5.1830978 50:10.200728 51:7.6606741 52:1.5343257 53:12.512261 54:4.1231651 55:1.5743006 56:2.900146 57:5.8541374 58:2.3968127 59:1.0769864 60:1.3629594 61:6.39114 62:11.019304 63:3.0709515 64:4.1828642 65:13.372589 66:0.15742129 67:0.60654086 68:2.6472685 69:1.1119006 70:1.8428376 71:2.837796 72:1.1962047 73:2.5942221 74:3.914062 75:5.1946244 76:3.3703794 77:4.8940673 78:2.1778815 79:1.4289848 80:3.5667596 81:5.3477526 82:3.5272286 83:1.9673023 84:0.78201711 85:2.5601017 86:1.8375888 87:1.0056118 88:0.4705756 89:4.1987133 90:1.5061983 91:1.0164123 92:1.6815612 93:5.4845438 94:2.7961354 95:0.91220713 96:0.80289578 97:4.7038331 98:1.1468357 99:0.72012514 100:7.2940454 101:5.8260746 102:3.5623264 103:4.5548434 104:6.9970813 105:2.0033848 106:2.9464345 107:4.0296755 108:5.972465 109:4.7570605 110:0.7230128 111:1.7517598 112:6.8160515 113:2.6911721 114:2.417881 115:2.0589144 116:4.9194384 117:2.1767902 118:-0.046428811 119:2.5447257 120:2.57514 121:1.785146 122:1.9027895 123:1.7289 124:4.1730518 125:5.2252088 126:2.2957304 127:2.4261501 128:5.0237622 129:3.6151516 130:-0.20221806 131:3.0571778 132:0.75279301 133:0.0055609029 134:-0.10002457 135:1.9320558 136:0.90447396 137:1.1588886 138:1.0538291 139:1.8569204 140:1.2443852 141:1.7865968 142:1.4910553 143:3.6869345 144:0.76823759 145:3.2814174 146:4.0378251 147:1.27808 148:1.1844699 149:2.1112275 150:4.5121346 151:2.0173919 152:1.7848985 153:0.86988366 154:0.66655254 155:4.6803594 156:3.2561319 157:3.1687024 158:2.4323604 159:3.8172669 160:2.7420826 161:2.7640159 162:4.5569592 163:2.3005991 164:4.0616159 165:2.6275024 166:1.8992368 167:3.5486665 168:1.2270314 169:1.1505704 170:2.0940301 171:2.5670693 172:4.0926304 173:4.8258958 174:4.6520033 175:3.2465997 176:1.857044 177:2.9587719 178:2.924176 179:5.2672515 180:0.70001531 181:1.3545272 182:2.9701235 183:6.6987934 184:1.8784977 185:7.2838683 186:5.3341351 187:0.58322299 188:1.2548872 189:5.1206074 190:3.4275968 191:0.73747075 192:3.8721218 193:4.6984954 194:2.3655124 195:7.9700303 196:0.28291664 197:0.87559241 198:2.04791 199:1.3099513 200:5.0945086 201:2.2720168 202:1.3111486 203:2.0797644 204:4.2420139 205:1.4694426 206:0.89899874 207:1.6143165 208:4.324338 209:1.7177329 210:3.7179677 211:3.0134435 212:2.5112307 213:2.3942575 214:3.0223458 215:0.011818827 216:-0.11782324 217:0.02741131 218:1.9334589 219:5.1292157 220:2.7231369 221:1.265501 222:4.2164907 223:4.6696048 224:2.0477517 225:4.5594249 226:1.9873644 227:2.1656654 228:2.6050203 229:2.2281003 230:3.9016757 231:3.7527146 232:2.557893 233:2.0387866 234:3.3559334 235:3.7741961 236:0.86466914 237:5.0865326 238:2.3273292 239:4.0618086 240:1.7305801 241:0.93155414 242:6.0091538 243:6.0353293 244:1.6436329 245:4.9453378 246:4.3513336 247:0.85476506 248:2.7004883 249:1.5648532 250:3.7169805 251:4.0087404 252:5.3866272 253:0.58686322 254:6.5426598 255:5.53373 256:3.8159139 257:3.4210927 258:3.0094504 259:1.5173099 260:1.0973383 #
-0.086941943589366257882922184307972 1:3.8472311 2:0.012510624 3:0.2133771 4:0.063845389 5:2.2573607 6:2.0995221 7:2.9874873 8:3.0262246 9:1.8078651 10:2.4221282 11:4.5801644 12:8.1223812 13:5.6705332 14:0.65530431 15:0.33224615 16:4.1130629 17:3.3518193 18:4.4464574 19:3.5449312 20:7.6979914 21:4.7613959 22:4.8444586 23:3.12851 24:7.0049434 25:2.0881579 26:0.56385845 27:4.4380131 28:7.1101537 29:1.6146147 30:4.7268734 31:4.9111981 32:10.438686 33:2.2473567 34:0.30733371 35:1.8661544 36:0.83147365 37:1.9854611 38:2.4031324 39:5.4776335 40:3.5297048 41:0.32553971 42:4.9876084 43:10.852566 44:5.0222487 45:1.2846688 46:5.5953269 47:5.0609674 48:3.2557921 49:1.5810419 50:0.90554255 51:3.5761025 52:1.6177461 53:1.0511473 54:0.52505583 55:1.2889076 56:0.53090763 57:1.1864874 58:2.3925476 59:3.3876753 60:1.3738807 61:2.1993432 62:2.5209575 63:0.73255378 64:0.44178 65:-0.27367792 66:1.7303118 67:0.43296427 68:0.42909828 69:0.11827011 70:1.0385315 71:1.5159311 72:3.1849174 73:2.6630793 74:2.97278 75:0.70643842 76:1.1151989 77:-0.0086766649 78:4.719944 79:4.5899286 80:3.9188442 81:6.8181777 82:3.1862144 83:0.42450169 84:4.5156107 85:12.270305 86:6.8311591 87:2.2803078 88:3.605988 89:7.9255304 90:3.4420209 91:3.0449283 92:2.7494018 93:13.615009 94:4.5902476 95:1.0082775 96:3.937093 97:10.487332 98:3.1895144 99:7.2446847 100:3.5692301 101:7.8769488 102:0.79804039 103:2.3386364 104:5.8412213 105:2.1928339 106:0.79323387 107:0.94959998 108:1.6618316 109:0.97685313 110:0.56040162 111:2.60111 112:4.9116416 113:1.1516112 114:2.7432411 115:2.2147787 116:2.795465 117:0.21160962 118:0.97137898 119:2.735508 120:2.2674475 121:0.42168021 122:3.9384212 123:2.5779359 124:1.0242118 125:2.6452875 126:5.8836803 127:2.7258253 128:3.596215 129:2.5136023 130:0.46380091 131:2.1020544 132:0.0025455439 133:0.11912374 134:0.58026093 135:1.1460885 136:0.11365827 137:0.62277102 138:1.2478573 139:1.7217748 140:0.79597974 141:1.2682822 142:0.51080883 143:1.8757215 144:0.82805014 145:0.46326223 146:0.90313524 147:0.17663455 148:1.1803257 149:1.2058215 150:3.9247899 151:2.7488074 152:0.93571919 153:1.0150304 154:2.24189 155:1.6609995 156:0.44454393 157:0.70416635 158:1.0441213 159:0.73528653 160:1.6572407 161:5.1402459 162:6.3409591 163:0.42434892 164:0.86543411 165:1.7365634 166:2.2152438 167:3.1229088 168:1.5603327 169:2.3644459 170:2.6657839 171:2.8693843 172:2.2756615 173:2.8226597 174:4.7463503 175:0.67706507 176:0.60619116 177:3.5768561 178:3.6138372 179:-0.065449879 180:1.9585042 181:5.9285841 182:5.2874355 183:3.4624488 184:2.7969303 185:2.3845313 186:3.5177715 187:2.5498908 188:2.6133177 189:3.7312508 190:4.104188 191:2.9003458 192:1.7506169 193:6.2586451 194:1.8093153 195:0.25104988 196:-0.18296179 197:0.055686161 198:0.60226786 199:0.39999437 200:2.3106332 201:-0.013660219 202:0.2462977 203:0.86228532 204:2.1907771 205:1.963673 206:0.90017277 207:1.3791348 208:0.47072899 209:1.2365786 210:0.066249996 211:-0.12918562 212:0.3378866 213:0.11500175 214:1.006345 215:2.0495803 216:1.4659158 217:1.0269431 218:0.27663293 219:4.4422569 220:1.1082314 221:1.3192569 222:0.96135074 223:5.4842544 224:1.0097467 225:0.074512251 226:2.4644344 227:3.2110126 228:1.2935827 229:0.4170388 230:0.20531866 231:3.9962592 232:2.6953871 233:2.1494932 234:4.220521 235:3.0307887 236:2.7127986 237:2.6592596 238:4.5061021 239:0.81885189 240:1.7168453 241:3.6965759 242:3.4001327 243:2.8715513 244:2.5477915 245:2.5645504 246:4.7485671 247:2.7257984 248:2.9564118 249:1.7913102 250:3.6990891 251:2.8213267 252:3.8536234 253:3.0799646 254:3.8554792 255:4.3261957 256:2.6705184 257:1.5808203 258:5.6193719 259:2.6192751 260:5.3999219 #
-1.0002608743481333775093844451476 1:0.89436388 2:0.57026744 3:2.0575116 4:2.1072209 5:1.0252076 6:0.61557299 7:2.6995039 8:0.49989101 9:1.8823569 10:1.7934191 11:1.2547575 12:3.6579514 13:1.1984226 14:3.7294803 15:0.6064536 16:0.53466851 17:0.096500896 18:1.4631908 19:1.3688431 20:2.8111837 21:1.2682956 22:3.0808134 23:1.7369946 24:0.64937598 25:2.0852742 26:0.96157116 27:0.47259364 28:1.3297777 29:0.12826072 30:3.487926 31:1.3302202 32:1.2085644 33:1.4392774 34:0.93245834 35:1.9440701 36:2.2959867 37:1.1777574 38:1.9701525 39:1.6851144 40:1.1524448 41:0.64210707 42:0.41821739 43:1.5858278 44:3.7073636 45:1.9019914 46:2.448909 47:2.2866385 48:0.1606057 49:0.6812281 50:1.2413074 51:2.1024899 52:2.1861024 53:0.6004864 54:2.5221045 55:0.718261 56:1.1160007 57:0.90750182 58:2.5868509 59:1.7405362 60:1.8655409 61:1.3278159 62:2.3631582 63:0.12402871 64:3.2104282 65:-0.27799717 66:-0.21147132 67:0.075086005 68:0.50236619 69:0.32445136 70:-0.16390817 71:0.42054355 72:0.20514899 73:0.074492216 74:-0.13898127 75:0.91395336 76:0.049015462 77:0.90515214 78:0.86324179 79:0.92945337 80:0.95413762 81:0.81357366 82:0.050874215 83:0.72989041 84:2.1131454 85:0.82577747 86:0.30724832 87:1.2067213 88:0.39501742 89:1.090124 90:1.3609847 91:0.62894088 92:0.85367584 93:2.2051582 94:1.5053582 95:1.0102555 96:0.479278 97:0.33365753 98:0.6400606 99:1.9098225 100:2.9107475 101:1.464747 102:3.109834 103:2.4495716 104:1.1510226 105:0.60331082 106:0.42024431 107:0.47207364 108:2.0526319 109:1.7505159 110:2.2759902 111:0.28427643 112:0.4792389 113:0.099270307 114:2.2230306 115:2.9864233 116:0.34661511 117:2.2539685 118:2.1277456 119:3.0482707 120:3.0232496 121:2.3255057 122:1.1032211 123:0.94698167 124:1.7183758 125:3.6823919 126:1.4152904 127:0.47751972 128:0.39082766 129:2.5028274 130:1.100152 131:1.2555817 132:1.9455404 133:1.1144189 134:1.0155177 135:0.49089694 136:1.3411273 137:2.3828568 138:1.0159847 139:1.690289 140:1.1469171 141:0.99941677 142:2.1722591 143:0.042836182 144:0.51097012 145:2.3552921 146:1.947508 147:0.51599848 148:1.5665686 149:1.1111418 150:1.2547492 151:0.54833519 152:2.6950769 153:3.0829422 154:1.1542592 155:1.9809536 156:-0.067422189 157:0.71288055 158:3.4937971 159:2.3701794 160:4.7070193 161:1.2671063 162:3.7189577 163:2.7717657 164:0.915389 165:1.3362279 166:3.1045022 167:2.0846884 168:2.0788453 169:1.2363876 170:2.2237556 171:1.0136918 172:3.4770415 173:4.1639004 174:3.0487537 175:3.9275119 176:2.6102812 177:2.9104545 178:1.8545266 179:1.5384494 180:2.3012228 181:1.8323356 182:0.55634433 183:2.0679224 184:0.9074226 185:2.7936604 186:1.534181 187:2.4969375 188:1.7727569 189:1.0263727 190:1.165826 191:1.9139987 192:3.3746808 193:1.5902259 194:1.6200026 195:1.1120378 196:0.10530123 197:2.0190887 198:2.9608872 199:3.4242327 200:1.4570165 201:0.96116555 202:2.0731981 203:0.2569828 204:0.53198242 205:2.2867901 206:3.1890526 207:1.6687813 208:2.6454258 209:1.4587773 210:2.4783163 211:2.7110898 212:2.6778882 213:1.9956164 214:6.9324112 215:1.3968165 216:1.6041033 217:3.9300976 218:2.0852525 219:3.2073815 220:1.1662308 221:4.6371212 222:1.7981675 223:1.7898993 224:4.2339578 225:1.6973544 226:2.4651401 227:0.39979964 228:0.92974454 229:7.9286137 230:2.8576443 231:4.4623575 232:9.8009758 233:4.4782887 234:2.1083329 235:1.8177061 236:3.3296635 237:4.0647802 238:2.303688 239:2.0215166 240:4.296247 241:2.2530191 242:0.4380362 243:2.8545821 244:1.5686302 245:3.3173909 246:0.79387158 247:0.91830093 248:1.5292151 249:5.7009597 250:0.93992746 251:6.4764137 252:3.3225558 253:1.7076823 254:4.6643019 255:4.0702705 256:2.7404141 257:1.1694937 258:1.5387093 259:0.59220028 260:1.4329627 #
2.8683130373889635933437602943741 1:1.990782 2:0.68701017 3:1.4265711 4:0.67624527 5:0.21364398 6:2.5866842 7:5.2550635 8:1.9870763 9:1.4869448 10:1.6168948 11:2.0507023 12:1.2484688 13:2.5178964 14:0.21524212 15:3.2866693 16:2.1972735 17:0.12328885 18:1.6655598 19:0.73811233 20:3.1705503 21:0.035348054 22:1.5148323 23:0.62166929 24:3.8762619 25:0.19777699 26:1.3373777 27:0.65001655 28:0.45292646 29:1.6236644 30:3.0272005 31:0.93453968 32:3.8359416 33:0.91868448 34:1.3286796 35:0.91377068 36:1.8766038 37:2.0075488 38:1.7903988 39:1.2188812 40:1.1265408 41:0.53427243 42:1.2857208 43:2.8088915 44:0.20875236 45:0.78445673 46:1.9367663 47:1.5709838 48:1.0532509 49:0.78554541 50:1.2657508 51:0.99591106 52:1.0317869 53:0.62317294 54:2.2984257 55:0.012973081 56:1.0056646 57:0.46190107 58:1.2860165 59:1.4027861 60:0.69794679 61:3.6617947 62:1.305688 63:1.885244 64:0.72517025 65:0.85625094 66:0.50117755 67:0.1549342 68:0.49176723 69:0.50113231 70:0.19322506 71:0.50173134 72:2.0717316 73:1.9772103 74:2.7401047 75:1.3903519 76:0.32917592 77:1.6359264 78:1.881488 79:1.4817321 80:0.93826193 81:3.6297369 82:0.25728092 83:0.93433022 84:0.73796004 85:2.4093094 86:2.1596127 87:0.4380241 88:1.4319646 89:1.5996282 90:3.2756338 91:1.8942202 92:0.56779367 93:1.8613068 94:4.1037927 95:2.2430201 96:0.24716215 97:3.4352577 98:3.2087524 99:1.797727 100:0.31684327 101:2.0708413 102:2.6717613 103:1.2179545 104:2.3136764 105:2.5601068 106:0.85806066 107:0.17473294 108:2.1048815 109:1.5305349 110:1.3571289 111:0.63297498 112:0.61048782 113:0.96274024 114:1.3495759 115:-0.0059367451 116:0.19989853 117:1.7933021 118:0.95117718 119:0.9384101 120:1.4816116 121:2.1271908 122:0.32664537 123:0.68223721 124:2.0341089 125:1.2939878 126:1.9314688 127:0.95947099 128:2.889075 129:1.4057751 130:-0.32476041 131:2.3644111 132:0.77770162 133:1.3635311 134:1.3932527 135:4.1792374 136:2.1436529 137:0.450477 138:0.61709839 139:1.3538691 140:2.2658532 141:1.1015296 142:0.60072112 143:0.25884658 144:2.1576934 145:3.9847679 146:3.8377435 147:0.81027079 148:2.448422 149:4.0164018 150:7.2183557 151:1.1343918 152:3.0047975 153:2.0951631 154:3.735903 155:0.20178349 156:1.8121766 157:2.6183286 158:2.6080236 159:2.4928637 160:2.1674905 161:1.7799174 162:1.1392701 163:0.37641883 164:4.0252852 165:2.6143916 166:1.6496884 167:0.57288086 168:1.6708708 169:2.7263677 170:1.8083011 171:0.28711912 172:1.8718266 173:2.2684782 174:1.4937916 175:1.3405777 176:1.1698956 177:1.49713 178:1.0143991 179:0.39751163 180:0.59405041 181:1.7372839 182:-0.031313512 183:0.29465103 184:1.728434 185:0.89860004 186:1.6369678 187:0.92962933 188:1.208539 189:0.43805575 190:0.80172145 191:0.15967397 192:1.0490377 193:1.3340099 194:1.2258896 195:1.7295809 196:-0.23322381 197:1.5746528 198:2.6635721 199:1.2069638 200:4.8517852 201:3.350409 202:3.0143285 203:2.9272099 204:3.7248867 205:3.5453956 206:2.4703388 207:4.936739 208:-0.09173172 209:2.2348404 210:0.76073414 211:1.8023348 212:2.7674768 213:2.3670228 214:2.7609489 215:1.2248493 216:0.73855603 217:1.580561 218:0.68789512 219:2.3106616 220:2.1090236 221:1.3893089 222:0.69544828 223:2.9054997 224:0.48793074 225:1.0471302 226:0.11434936 227:1.2482988 228:0.89149982 229:0.6848532 230:1.216717 231:1.2167429 232:-0.10319456 233:1.228735 234:0.70279896 235:1.5689228 236:1.0307363 237:1.3103811 238:0.86706817 239:0.77211523 240:1.6347705 241:0.51775038 242:0.82387644 243:1.208045 244:0.81951547 245:1.0234606 246:0.79690284 247:0.71476048 248:0.31268889 249:0.21447226 250:1.3085203 251:1.4062918 252:1.6549299 253:0.54746866 254:1.4065043 255:0.62030011 256:0.80232412 257:0.55403244 258:1.1526822 259:2.1103313 260:1.3752366 #
8.2249106132485323428227275144309 1:1.5391734 2:0.042720687 3:0.80381066 4:1.5841368 5:1.1415486 6:2.2423007 7:1.4143587 8:1.5401858 9:1.2848781 10:0.37800398 11:1.2500242 12:3.0080423 13:0.51185477 14:2.121208 15:0.70032763 16:1.4456218 17:-0.16347575 18:0.80058002 19:0.72312164 20:1.27224 21:1.6691211 22:0.32100755 23:1.2797209 24:0.7973693 25:0.75056988 26:0.56150538 27:1.9292634 28:-0.089985631 29:-0.11748742 30:0.67530727 31:1.135196 32:0.43526173 33:0.82636118 34:0.62349045 35:1.7080237 36:0.14392319 37:0.315716 38:1.661018 39:0.39705664 40:2.2864428 41:1.2988811 42:-0.19942985 43:1.150485 44:0.56876123 45:0.26894826 46:0.28354293 47:0.81737715 48:1.8070945 49:0.81594723 50:0.72548062 51:1.4585799 52:1.1228776 53:1.0357844 54:0.72701091 55:1.5802156 56:0.66004771 57:0.22084808 58:0.28215414 59:1.2673652 60:1.7129891 61:0.22985357 62:-0.0096555427 63:0.63357663 64:0.80105209 65:0.55075788 66:0.38266769 67:0.45138127 68:1.6934937 69:1.8554138 70:1.1854116 71:1.9583348 72:1.2480855 73:2.0209143 74:2.4203985 75:1.1595209 76:1.4341786 77:0.47923952 78:1.8635288 79:1.7381994 80:1.5822208 81:0.27340138 82:1.2602351 83:1.2149371 84:1.5739754 85:1.1357117 86:0.77950245 87:-0.085122742 88:2.2849841 89:0.76445073 90:0.33845913 91:0.15451679 92:1.5940299 93:1.0158144 94:0.6390878 95:0.94449198 96:1.5625139 97:0.2013457 98:0.77559388 99:0.96674764 100:0.34066793 101:0.39674085 102:0.5226686 103:1.1317682 104:0.19866033 105:0.16381989 106:0.6276018 107:0.36592421 108:1.1953174 109:-0.19852975 110:0.54750824 111:0.90601921 112:0.46225196 113:0.12525171 114:0.4645198 115:-0.13954119 116:0.14286222 117:0.65107197 118:1.6353096 119:1.3609284 120:2.0825434 121:0.65117043 122:0.4263387 123:0.78011531 124:1.7269186 125:0.68498909 126:1.0440314 127:1.7898161 128:2.312232 129:1.298252 130:2.9445181 131:1.0093145 132:0.76770669 133:0.5846228 134:0.20243511 135:0.55130267 136:0.70836204 137:0.048118886 138:-0.12964171 139:0.72052097 140:0.6473583 141:0.66769916 142:0.71991545 143:0.11430058 144:1.3173161 145:0.51959932 146:0.19143423 147:0.28409791 148:1.6944001 149:0.85731298 150:0.5292629 151:-0.18384942 152:1.989653 153:1.4847019 154:1.0686263 155:0.28469372 156:1.5858232 157:0.8269521 158:0.96329808 159:0.56017768 160:0.25724205 161:1.3152181 162:0.82072419 163:0.96803582 164:2.5170448 165:0.94834203 166:0.32973978 167:-0.0024333214 168:0.71995783 169:0.42971268 170:0.20285769 171:0.70813185 172:-0.052095175 173:0.22069122 174:-0.0033918642 175:0.74856657 176:0.16899833 177:1.3006927 178:-0.094648369 179:0.38653758 180:0.47856057 181:0.12626673 182:0.40019268 183:0.30760407 184:0.647618 185:0.80750155 186:0.29830605 187:0.91918641 188:0.20555855 189:0.091398254 190:-0.083085462 191:-0.08128389 192:0.20364822 193:-0.0049765999 194:0.055797432 195:1.3330176 196:0.51655245 197:2.1738522 198:1.9572219 199:0.67408997 200:1.8774009 201:1.0877252 202:1.747243 203:0.26802054 204:0.082783431 205:0.43090227 206:0.71932435 207:0.43132749 208:0.49316615 209:0.65104562 210:0.42395619 211:0.49856383 212:0.56421 213:0.17664783 214:1.8733399 215:1.2074692 216:0.28922588 217:1.7591097 218:1.1346711 219:0.828251 220:1.7159799 221:0.55471659 222:1.115225 223:0.43253556 224:0.40524518 225:1.5782329 226:0.82884771 227:0.41650796 228:2.5263495 229:1.6889139 230:1.2203573 231:1.4025947 232:0.42582867 233:0.48397046 234:0.52018958 235:1.0765057 236:1.9572212 237:0.88302743 238:0.55531824 239:0.065194331 240:0.4136436 241:0.62137079 242:-0.13952781 243:1.0660444 244:1.3730417 245:0.63336349 246:0.87326235 247:1.1229831 248:0.64086843 249:0.75104666 250:1.8210855 251:1.6501429 252:0.10901424 253:0.77265197 254:-0.16507253 255:0.4144561 256:1.1656713 257:1.8195487 258:0.48424599 259:0.41467309 260:0.63485909 #
-0.036258949268607794380603337458524 1:0.73598504 2:3.2683735 3:5.1469297 4:2.1909325 5:2.6449893 6:5.4774384 7:1.3547405 8:1.1846944 9:1.2357506 10:1.3016177 11:3.006084 12:1.0072771 13:1.8661078 14:1.3866866 15:1.4087765 16:1.9697659 17:-0.013965655 18:3.2184603 19:0.55219698 20:2.9318485 21:1.7418383 22:2.3586144 23:2.3467681 24:0.66866237 25:2.3628707 26:1.4570509 27:4.5258684 28:0.83440083 29:3.7286577 30:3.5566711 31:4.2257471 32:2.7575066 33:3.1992409 34:3.2904441 35:4.4238544 36:3.9156933 37:3.6978822 38:1.8563665 39:4.4373965 40:3.0277157 41:5.1362596 42:2.7357113 43:3.5109737 44:3.2144754 45:4.4244728 46:3.791347 47:3.5992675 48:2.6059015 49:3.0588157 50:2.4792483 51:2.0006714 52:1.2305876 53:1.425018 54:1.5890007 55:0.5075475 56:0.91840827 57:0.46539766 58:0.20822392 59:1.0668895 60:0.29791477 61:1.0216556 62:0.56420279 63:0.9204762 64:0.5144127 65:0.55107766 66:0.10407884 67:6.183054 68:8.4217196 69:6.9574533 70:1.8581482 71:3.7170737 72:1.4332917 73:0.45706877 74:0.69813418 75:2.6093397 76:2.4556525 77:0.99339551 78:1.1647999 79:0.30847067 80:2.0599859 81:0.97454512 82:2.3779674 83:1.6534233 84:4.1902194 85:3.4057772 86:2.9003534 87:4.495235 88:4.6631994 89:4.1663709 90:2.7926774 91:4.53616 92:4.5683203 93:3.3657439 94:3.832613 95:0.57485467 96:3.5292108 97:1.479045 98:3.2675033 99:3.6512029 100:1.2356751 101:2.9166927 102:1.1307172 103:3.5313432 104:1.6578819 105:0.3076638 106:2.8935161 107:0.42215702 108:3.0773716 109:2.0524373 110:2.6011236 111:1.5705913 112:2.1099184 113:1.1641843 114:0.40187982 115:3.3085496 116:2.5746393 117:1.0585142 118:1.2634294 119:2.8612385 120:3.1431417 121:3.3676846 122:1.9582634 123:4.7693458 124:4.8659425 125:3.7148049 126:3.5753806 127:3.3897746 128:5.0538383 129:2.6747429 130:2.0430036 131:4.4951892 132:6.2850533 133:10.950431 134:7.5572782 135:16.892962 136:13.177361 137:18.411118 138:6.2047811 139:13.963157 140:11.103146 141:21.031342 142:7.9518466 143:15.790432 144:9.5279322 145:18.562399 146:7.9181056 147:16.105782 148:12.219266 149:15.500454 150:8.3479862 151:12.183034 152:13.551484 153:13.796647 154:6.1122169 155:3.9143798 156:11.897361 157:10.198043 158:0.61020696 159:1.835031 160:10.211206 161:9.9021854 162:1.9466006 163:6.5603061 164:11.041409 165:11.408659 166:5.3066273 167:6.2265968 168:12.446332 169:13.614225 170:12.933017 171:13.549675 172:12.481795 173:17.751013 174:16.833439 175:16.269768 176:18.801649 177:17.731619 178:22.933798 179:16.687445 180:20.861868 181:13.590544 182:25.053947 183:16.012417 184:18.987879 185:8.2502747 186:20.107866 187:11.860545 188:13.786052 189:2.6380484 190:11.402653 191:6.890121 192:10.661023 193:2.3997896 194:6.7872357 195:2.3947172 196:0.84438461 197:2.7163644 198:4.8011823 199:2.0829101 200:2.5085504 201:5.6043873 202:1.6998335 203:1.2280612 204:2.5951009 205:6.1217937 206:3.7790856 207:2.6237984 208:0.90943944 209:3.7884779 210:0.28150639 211:0.40267631 212:2.315577 213:5.0525036 214:1.1487485 215:1.2646369 216:1.9376744 217:3.9697869 218:1.3060502 219:0.65783173 220:2.8699379 221:4.0358334 222:2.7731433 223:1.0761395 224:4.3648357 225:3.9466927 226:1.397799 227:0.5571779 228:2.1906018 229:4.9711285 230:3.6140873 231:0.2236983 232:0.15243034 233:2.3855159 234:2.7279742 235:2.38851 236:2.0954993 237:3.4814568 238:2.7529025 239:2.0669274 240:2.9878478 241:2.814832 242:0.76104325 243:-0.007775899 244:1.8496001 245:1.5838472 246:1.8240973 247:1.0069773 248:2.0231872 249:2.2631438 250:4.2143774 251:1.9779299 252:2.4204764 253:2.198688 254:3.3169246 255:2.6382182 256:2.3180358 257:1.1881721 258:4.5960526 259:3.1810155 260:3.9726076 #
-0.92923998197119273001476358331274 1:1.9020454 2:-0.027686549 3:-0.21353738 4:0.55259645 5:0.16776848 6:0.46423721 7:3.7875226 8:4.2950735 9:1.2749952 10:2.1042392 11:3.3554468 12:0.2616353 13:0.25528717 14:6.7315578 15:6.035099 16:1.8829985 17:0.95601964 18:3.3527772 19:4.5379071 20:1.1279408 21:3.9640486 22:6.15238 23:1.8980299 24:2.0183284 25:0.73995662 26:1.7128855 27:1.7578366 28:3.7733288 29:5.0474052 30:2.7900066 31:1.0687015 32:0.29091933 33:0.40274036 34:0.61815459 35:2.3730288 36:5.1129804 37:2.4027998 38:2.2830906 39:0.77221113 40:1.2067795 41:2.7625978 42:1.1039046 43:1.6473912 44:3.7373626 45:3.4582481 46:1.4490159 47:0.68498516 48:3.8178065 49:2.7579117 50:2.7821357 51:1.5097407 52:3.701201 53:2.9999979 54:3.097919 55:2.3959203 56:3.7212706 57:4.9475784 58:5.8505855 59:1.375097 60:1.8937083 61:4.0849729 62:2.4035506 63:2.8735497 64:4.4008451 65:7.2737603 66:0.78676665 67:1.5887666 68:0.57005119 69:0.30447426 70:0.19857815 71:2.1225202 72:3.0347433 73:2.7840862 74:0.49255931 75:1.6367633 76:0.55409324 77:1.2832183 78:0.36722282 79:2.4691257 80:1.8034775 81:2.5960565 82:1.1194913 83:2.7563915 84:0.99807221 85:2.1290648 86:2.6453564 87:1.1288676 88:0.95325196 89:0.4716478 90:3.6685536 91:1.9752505 92:0.51176828 93:1.2147912 94:2.0079577 95:1.0961802 96:1.7953926 97:2.1734526 98:2.2671697 99:2.8536956 100:1.4442271 101:4.1199365 102:3.3871312 103:0.555305 104:1.6850156 105:0.19964764 106:0.67676693 107:2.6996222 108:3.5717843 109:7.4275403 110:2.0528457 111:1.7479783 112:1.5875261 113:1.4470812 114:1.7319974 115:5.3851767 116:5.7679529 117:4.4382458 118:2.9804566 119:-0.1205717 120:2.7102499 121:0.81086051 122:4.230927 123:5.3680091 124:4.2429857 125:2.242976 126:0.44814497 127:1.5200691 128:1.6921774 129:3.8896997 130:6.2234893 131:1.6645906 132:0.95531988 133:0.31902149 134:1.723756 135:1.2699618 136:0.48315138 137:1.7881798 138:3.2778466 139:1.0338006 140:1.3822026 141:1.8976892 142:1.6516538 143:0.23946628 144:3.5459666 145:2.4092603 146:0.58807969 147:2.94712 148:5.4856381 149:0.15048987 150:1.6452451 151:4.4644399 152:1.6518183 153:0.91618907 154:0.73000544 155:1.6968998 156:1.2259551 157:2.9540248 158:1.1731967 159:3.7764585 160:2.2451835 161:2.7084293 162:1.9424795 163:4.1108837 164:1.9932309 165:1.437853 166:2.2098122 167:1.7816851 168:3.2762828 169:3.3377733 170:1.4987125 171:1.2504284 172:3.0910103 173:0.79724759 174:1.7557868 175:3.2681489 176:3.8728962 177:1.2459953 178:3.4417005 179:3.9502916 180:3.4230337 181:3.0393441 182:5.8927264 183:2.5178156 184:3.5463707 185:2.1154842 186:3.5634151 187:0.74656731 188:4.7728286 189:6.1541386 190:0.95299292 191:6.3839703 192:4.9164715 193:2.2435274 194:5.6820731 195:2.1236925 196:3.3437417 197:2.0587692 198:0.80611259 199:2.6929436 200:0.18543929 201:0.39262956 202:2.052644 203:-0.033935543 204:0.89991647 205:2.7727139 206:4.1042519 207:3.4375522 208:2.3250194 209:3.4502208 210:0.43179718 211:2.3868349 212:2.2482429 213:2.7612898 214:2.6156015 215:3.5532048 216:3.8311741 217:2.5434732 218:2.6971304 219:3.0507212 220:3.3751273 221:3.2519948 222:3.6549931 223:2.9194305 224:4.6092606 225:4.7106013 226:4.7412391 227:4.2943888 228:4.59303 229:4.6484323 230:3.5958333 231:3.1490076 232:5.6063151 233:4.4118052 234:6.2828312 235:4.4032006 236:3.5477085 237:5.901278 238:3.3255496 239:3.4643812 240:2.3126354 241:3.5441575 242:5.4857893 243:1.7083427 244:4.9359508 245:3.5684898 246:3.9116769 247:3.0889144 248:2.0772493 249:2.6917887 250:3.101099 251:0.95889801 252:1.7005798 253:2.3396134 254:3.7442689 255:3.7285638 256:2.2262535 257:4.4410005 258:3.8279371 259:2.6508977 260:-0.14941002 #
