SVM-light Version V6.02
2 # kernel type
3 # kernel parameter -d 
0.00093103969 # kernel parameter -g 
1 # kernel parameter -s 
1 # kernel parameter -r 
empty# kernel parameter -u 
260 # highest feature index 
13702 # number of training documents 
602 # number of support vectors plus 1 
0.90103853 # threshold b, each following line is a SV (starting with alpha*y)
-4.523756121382835893030005536275 1:0.13203381 2:3.1104882 3:1.7039076 4:0.029247381 5:-0.10277391 6:0.31083125 7:0.3316229 8:0.0075967894 9:0.29354361 10:1.1670684 11:0.22278833 12:0.10383601 13:0.19414103 14:0.71004605 15:0.90019941 16:0.62110621 17:0.59638935 18:0.64183468 19:0.45316178 20:-0.18843669 21:0.22862944 22:0.4145079 23:0.28392315 24:0.144568 25:-0.1117801 26:-0.0051686605 27:0.76308006 28:0.89128208 29:0.51133323 30:0.079848364 31:0.53132695 32:0.45964122 33:0.097128391 34:0.38607705 35:0.36357442 36:0.44228029 37:0.31094074 38:0.19641495 39:0.19079749 40:0.10662679 41:-0.15741315 42:0.4934651 43:0.90367317 44:0.63366985 45:-0.091778226 46:0.31450331 47:0.66784728 48:0.26225573 49:-0.28913364 50:0.15082978 51:0.4258016 52:0.081362188 53:0.29301998 54:0.12222567 55:0.31412226 56:0.062717423 57:-0.076046698 58:0.19177096 59:0.17118354 60:0.1401813 61:0.059395354 62:-0.015137733 63:0.13062271 64:0.29629296 65:0.27720544 66:-0.21213228 67:0.47067934 68:2.0458484 69:2.4139349 70:0.72609079 71:0.97865397 72:0.97858655 73:0.47191048 74:0.46035415 75:1.2412502 76:0.25529879 77:0.40390012 78:0.45141044 79:0.88556385 80:1.1553906 81:0.80139083 82:0.90439218 83:2.5579805 84:2.084192 85:0.57317978 86:1.0595556 87:1.9110535 88:1.1369232 89:-0.035415906 90:1.4875789 91:1.6764058 92:0.97713727 93:1.4807336 94:1.969409 95:2.5722835 96:2.6874816 97:2.5112402 98:1.7728509 99:1.5280732 100:2.0113456 101:1.7744884 102:0.830755 103:0.46248469 104:1.5112741 105:1.1018872 106:0.37325245 107:2.7888238 108:3.4723849 109:2.2017479 110:3.1674733 111:4.1716471 112:2.8133366 113:2.5307062 114:3.0484102 115:2.1808052 116:0.32961822 117:0.49544492 118:1.7673492 119:1.5043889 120:0.29915783 121:2.329457 122:4.0767288 123:3.396719 124:1.8496916 125:2.3720448 126:2.765305 127:1.626277 128:1.3055146 129:1.3168133 130:1.3981317 131:0.72993898 132:2.7128601 133:0.7548936 134:1.3832343 135:1.1076579 136:1.5697436 137:1.3254453 138:0.40393248 139:0.63797539 140:0.25175619 141:1.2528144 142:2.1660659 143:0.72287399 144:1.2111895 145:2.3936775 146:1.2070946 147:0.55739528 148:1.8497906 149:1.5907365 150:-0.087588578 151:2.108768 152:2.7575147 153:2.5384235 154:0.90483314 155:1.1067686 156:3.4217322 157:2.856544 158:1.1164255 159:2.2255042 160:4.3934422 161:4.3053951 162:2.845135 163:2.6871591 164:2.1937864 165:1.2819096 166:2.698854 167:2.4139476 168:1.1840125 169:1.0423484 170:0.96585625 171:0.52005053 172:1.4247539 173:1.9351045 174:2.5021029 175:3.0481873 176:3.1042447 177:1.5770276 178:1.0351839 179:2.2310195 180:1.6404746 181:1.2115372 182:0.78639531 183:0.90879941 184:1.0685887 185:0.0041804081 186:1.965767 187:2.8983734 188:1.9969612 189:1.5227345 190:2.2416883 191:2.5865848 192:2.0551572 193:0.91599089 194:0.84762383 195:0.98186284 196:3.9385026 197:4.459301 198:5.6746593 199:4.5852113 200:1.6577555 201:1.157423 202:0.55197853 203:1.1692008 204:1.1403641 205:1.1114676 206:0.02582388 207:0.1766129 208:0.23649621 209:-0.238893 210:-0.056997281 211:-0.19791722 212:-0.0055232025 213:0.16385604 214:0.25227001 215:0.21991929 216:0.18579538 217:0.082878247 218:-0.034729317 219:-0.10712698 220:0.024985841 221:0.21768245 222:0.39283466 223:-0.091865525 224:0.044710137 225:0.18562709 226:0.27020913 227:0.077203073 228:0.10054924 229:0.14814185 230:-0.2161807 231:-0.16429615 232:-0.14800756 233:-0.19840141 234:0.078165889 235:0.34944314 236:0.19022621 237:0.078180648 238:0.4676362 239:0.507312 240:0.2365406 241:0.03339332 242:-0.031245006 243:-0.20078415 244:0.057352159 245:0.095877692 246:-0.063855581 247:-0.050324619 248:-0.082015522 249:-0.17467077 250:0.047114719 251:0.53994989 252:0.55621779 253:0.24760713 254:-0.185352 255:0.11570928 256:0.28598699 257:0.15981849 258:0.077288389 259:0.16466555 260:0.24605955 #
0.9869343427549922553865258123551 1:2.1106715 2:-0.061316643 3:0.5259831 4:-0.14580904 5:1.5261849 6:1.6858327 7:2.2096038 8:2.7357512 9:3.6712317 10:1.6273782 11:2.4482656 12:2.5507991 13:1.427428 14:2.1005077 15:2.9647734 16:7.4479322 17:5.4817882 18:3.2464054 19:2.2121351 20:0.94010586 21:1.6365541 22:2.0777617 23:2.8416746 24:6.3210325 25:2.0671406 26:0.95009565 27:0.88720584 28:0.5183444 29:1.9240527 30:1.321997 31:1.9155289 32:6.2004981 33:2.9398608 34:1.1193172 35:0.94784439 36:1.6640736 37:2.5473907 38:2.4656615 39:2.9479327 40:2.5311687 41:0.69019568 42:0.63102216 43:0.97790557 44:1.7181923 45:1.1103572 46:1.3370841 47:3.801028 48:1.6549619 49:0.1546796 50:0.85623872 51:1.1508677 52:2.389158 53:0.60127872 54:0.00014454246 55:2.6990404 56:1.1956027 57:0.62812626 58:0.65233779 59:0.98530531 60:2.7132819 61:1.0901778 62:1.6445879 63:2.0732193 64:-0.20425573 65:0.046078604 66:0.45375872 67:0.44358438 68:0.25187963 69:0.50717688 70:0.10653041 71:0.6722374 72:0.88685149 73:1.3512329 74:1.8712667 75:1.7377037 76:1.0562503 77:0.59748149 78:-0.046176083 79:0.80897433 80:0.081875242 81:0.26190522 82:0.093360946 83:-0.13093828 84:0.16963805 85:-0.16275564 86:0.52664858 87:-0.25197655 88:0.57687092 89:2.3944032 90:0.31345403 91:-0.078021757 92:0.082145877 93:0.17744714 94:0.059388392 95:0.69711769 96:0.62974656 97:0.97194707 98:0.096033417 99:0.045281757 100:0.27826205 101:0.045450199 102:-0.23011157 103:0.83422369 104:2.1071591 105:-0.034609023 106:-0.13931321 107:0.56040704 108:0.42954344 109:0.27327773 110:0.077414781 111:0.27533633 112:0.34649903 113:0.47243324 114:-0.0025944868 115:0.19293988 116:1.0163813 117:1.0038636 118:0.27542907 119:1.2613405 120:1.271196 121:0.94779122 122:0.22025469 123:-0.23812109 124:0.32332838 125:0.244488 126:0.30643693 127:1.305407 128:0.93693036 129:0.37765682 130:0.89350736 131:0.46079206 132:-0.15778857 133:-0.11250206 134:-0.053229153 135:0.58900315 136:-0.014294296 137:-0.16527067 138:0.028127456 139:0.93214506 140:0.33046606 141:0.37572107 142:0.086152107 143:0.075695612 144:0.15685108 145:0.43523702 146:1.1737756 147:0.64839858 148:-0.029577641 149:0.10261673 150:0.91794938 151:0.13959299 152:0.082092203 153:0.13106672 154:1.3428785 155:-0.10289767 156:-0.025831416 157:-0.13726856 158:-0.05142929 159:-0.095167421 160:-0.027966177 161:0.24193549 162:0.20698299 163:-0.047752395 164:0.00023938921 165:0.072865136 166:0.43379256 167:-0.042530105 168:0.53656882 169:1.4014961 170:0.3550429 171:0.08699768 172:-0.13245834 173:0.59419411 174:-0.17880264 175:0.59922403 176:0.73856115 177:1.3165452 178:0.097584493 179:0.2137292 180:-0.035287842 181:0.70609862 182:-0.077936642 183:0.52827102 184:1.0101292 185:0.36519441 186:0.16319174 187:-0.1575295 188:0.043964006 189:-0.0017492168 190:-0.15233158 191:0.93936312 192:0.55672908 193:0.13488208 194:-0.11864314 195:-0.24791719 196:0.042990796 197:-0.070822574 198:-0.15525511 199:-0.0068495292 200:0.52114105 201:0.37279809 202:0.23702811 203:-0.23143077 204:-0.18802845 205:0.17253739 206:0.52398968 207:1.4486103 208:1.5807588 209:0.69009393 210:0.7142781 211:0.50710171 212:0.096204415 213:0.12187205 214:0.15591843 215:2.0679793 216:0.98257756 217:0.050036069 218:0.30026418 219:0.99125671 220:0.099166065 221:0.15398088 222:0.90387297 223:2.7511799 224:0.57575995 225:0.025327329 226:0.85665911 227:0.7285713 228:-0.22285819 229:0.068490088 230:-0.0339326 231:0.74774033 232:0.55506253 233:0.16430466 234:0.97482949 235:0.6631636 236:0.04024639 237:0.31115422 238:0.11828068 239:0.020420609 240:0.37478366 241:-0.14978932 242:1.0715209 243:0.26930869 244:0.25287896 245:0.027198948 246:0.14559332 247:0.1887659 248:0.18442515 249:0.77480042 250:0.94934511 251:0.40316603 252:-0.015194921 253:0.31181371 254:0.29620877 255:0.71965092 256:0.28102505 257:0.68508583 258:0.44868332 259:0.43249747 260:-0.12938224 #
-0.061837693068546126240470073298638 1:0.72783935 2:1.166301 3:4.3707643 4:2.0139985 5:0.39473027 6:1.5825937 7:0.19444369 8:0.45219702 9:0.29150778 10:1.0440078 11:0.19249831 12:1.0223361 13:0.93577605 14:0.22588648 15:0.7656455 16:0.71573806 17:0.0015740929 18:2.0667951 19:1.7164948 20:0.89200294 21:1.4241898 22:1.1145053 23:0.47536069 24:0.31271562 25:0.09407673 26:0.27175021 27:0.0022793843 28:0.59031832 29:0.8878389 30:1.3115203 31:-0.025631517 32:1.0835974 33:0.77313596 34:0.33472356 35:0.42844421 36:0.41037011 37:1.2241226 38:0.89189911 39:1.1769607 40:0.063179672 41:0.37862164 42:1.1386192 43:-0.10520861 44:0.47597316 45:0.47932804 46:-0.058965668 47:-0.21604553 48:0.91680592 49:0.32176456 50:1.1206461 51:0.29010877 52:1.0823003 53:0.17752396 54:1.5355932 55:1.3650427 56:0.27898106 57:0.78978509 58:1.2064917 59:-0.043323997 60:0.71802461 61:0.52452713 62:-0.11491604 63:0.27843001 64:0.25463557 65:0.14587353 66:-0.072322085 67:1.6351507 68:4.1197753 69:1.0334133 70:0.45497987 71:2.7988832 72:-0.019641073 73:0.76636517 74:0.017159201 75:1.3254768 76:3.2708387 77:1.3191574 78:0.33616096 79:3.3110933 80:0.703628 81:0.71883863 82:0.039598096 83:0.043106258 84:0.58175594 85:1.2218912 86:3.0945454 87:2.4444578 88:1.6288576 89:0.48031485 90:1.1942765 91:2.0133784 92:1.5934448 93:0.14878923 94:1.9669793 95:0.46244815 96:0.99557984 97:0.83787525 98:1.5609672 99:0.028639471 100:0.43913645 101:0.26268327 102:0.48676738 103:1.178327 104:1.055413 105:0.93385923 106:1.1398398 107:-0.2010054 108:1.3665901 109:1.1177998 110:1.501897 111:2.5954533 112:1.3617435 113:1.0722525 114:1.0978117 115:-0.025828933 116:0.60344803 117:-0.13704847 118:0.88517708 119:0.92945671 120:0.019869946 121:0.51778471 122:1.4150116 123:-0.13848358 124:1.9583172 125:1.2906417 126:0.010576395 127:0.061533768 128:0.036294088 129:0.29647282 130:0.39001694 131:2.8071575 132:1.3517762 133:7.8224692 134:1.7723528 135:5.3787117 136:0.71280044 137:6.3298492 138:0.72351277 139:3.9622648 140:2.6610267 141:2.8383303 142:0.69352275 143:2.40591 144:1.5169967 145:2.6024442 146:1.5676695 147:0.77229208 148:1.6996051 149:1.2123611 150:1.3222367 151:1.5803709 152:1.8586812 153:0.6487751 154:0.6207273 155:0.64135295 156:1.8381933 157:0.22260825 158:1.4679384 159:2.3241138 160:1.284691 161:1.8446813 162:1.1588504 163:1.2175395 164:3.527169 165:1.3594096 166:0.76509559 167:2.3527155 168:1.9517726 169:0.26986971 170:1.7994074 171:0.99704581 172:1.1183951 173:0.22077732 174:0.096054688 175:0.85499328 176:0.37854949 177:0.23904081 178:-0.047016781 179:1.2656205 180:1.1372224 181:0.71639311 182:1.636863 183:0.2729187 184:1.1057402 185:0.86227244 186:1.4726849 187:0.9006964 188:0.7300424 189:0.26977795 190:1.2295382 191:0.37544048 192:0.86731464 193:0.87481385 194:0.59307659 195:-0.15858483 196:0.62191939 197:7.1952057 198:1.5648597 199:5.8266621 200:1.5712543 201:8.3701229 202:1.546201 203:4.2655468 204:1.4210384 205:4.5538673 206:1.6740584 207:2.5485678 208:0.7600652 209:3.3107376 210:2.5831366 211:1.1181625 212:2.0636163 213:0.77898884 214:2.6628048 215:0.72389895 216:0.99686962 217:0.49066648 218:0.37076643 219:0.82903337 220:1.5480343 221:2.6093462 222:2.2586026 223:0.55878943 224:0.45957771 225:0.030495454 226:1.3412707 227:0.80072147 228:2.1690338 229:1.0322213 230:0.59457463 231:0.5409283 232:0.87629431 233:0.1170247 234:1.0065398 235:0.15163001 236:0.077463053 237:0.16744062 238:0.60925466 239:0.84085369 240:0.56680429 241:1.3185146 242:0.31564775 243:0.66522574 244:0.63260031 245:0.43396762 246:0.76783842 247:0.71957803 248:0.54921889 249:0.18592127 250:0.93702286 251:0.44216871 252:1.2306857 253:0.76762432 254:0.041220635 255:1.334015 256:1.0989383 257:0.31640127 258:-0.12890095 259:0.41494468 260:0.35476083 #
8.2249106132485323428227275144309 1:0.49619341 2:0.20981176 3:0.17760827 4:0.17638174 5:0.21743888 6:-0.16571918 7:0.60891312 8:1.9143503 9:0.20862529 10:0.78036779 11:1.0536594 12:2.1116662 13:0.20340897 14:1.4953827 15:0.97547668 16:0.56660503 17:0.23856448 18:0.24930716 19:1.516708 20:0.10493933 21:0.52010888 22:0.70085257 23:2.4108975 24:0.84530276 25:0.41273609 26:-0.015864706 27:0.0017204297 28:0.59008414 29:0.36839926 30:3.0783603 31:0.020657206 32:0.55384868 33:0.97618467 34:0.68197322 35:0.98425502 36:0.45078415 37:2.6283653 38:1.1407374 39:0.68989664 40:0.14793663 41:-0.17507549 42:-0.047156025 43:0.28994268 44:2.8171449 45:1.2130892 46:0.59987658 47:-0.019986119 48:0.42836156 49:0.34782094 50:0.527448 51:1.0202544 52:0.85147297 53:0.092840984 54:0.17603083 55:0.17919253 56:0.66377628 57:0.35730994 58:-0.18918902 59:0.93683267 60:0.11154941 61:0.6130408 62:-0.15685786 63:0.00036892196 64:-0.12823258 65:0.44199243 66:-0.033757072 67:0.45444807 68:1.0404565 69:0.89313883 70:-0.06540589 71:0.63977915 72:1.8117524 73:4.4593034 74:0.91764969 75:1.7823544 76:2.4060333 77:1.2750522 78:0.45507443 79:2.2116535 80:1.1374089 81:0.76084012 82:0.78952521 83:-0.21949276 84:2.2641745 85:0.50004715 86:0.25613701 87:0.29266733 88:2.2845988 89:0.085373148 90:0.1521208 91:0.85406601 92:-0.22664773 93:0.83437687 94:0.69688433 95:0.30511558 96:0.53727633 97:0.12125342 98:0.31523231 99:-0.16814311 100:0.32249811 101:0.47934783 102:2.165751 103:0.75677639 104:0.3680177 105:0.091732144 106:0.47760746 107:0.66889161 108:0.19292602 109:2.140101 110:2.1742997 111:0.97007632 112:0.59331578 113:0.15619239 114:-0.10312039 115:0.35368329 116:0.36314401 117:1.6100136 118:0.011566208 119:-0.075882666 120:0.34543693 121:-0.12085467 122:0.32198197 123:0.066555388 124:-0.096632227 125:-0.068340436 126:0.24604325 127:-0.051980834 128:0.3391985 129:0.354945 130:0.72561145 131:0.52655143 132:-0.12789507 133:0.013125483 134:0.13967252 135:-0.18421064 136:0.50765729 137:0.28755325 138:1.2436173 139:-0.20719905 140:0.44523126 141:0.8462851 142:0.25832635 143:0.28004733 144:-0.1645703 145:0.65500176 146:-0.051709738 147:0.39212304 148:0.50781983 149:0.78493202 150:-0.18276948 151:1.00673 152:0.61291873 153:0.28069705 154:-0.2610963 155:-0.11706767 156:0.57534695 157:0.76231086 158:-0.22542666 159:-0.13268356 160:1.1272103 161:0.65157014 162:-0.1764472 163:0.77642202 164:0.58970058 165:-0.056402519 166:0.58789253 167:0.65933782 168:0.22954425 169:1.6556846 170:0.39147523 171:1.8246888 172:-0.014700783 173:0.55233985 174:-0.19667055 175:0.27068153 176:0.25497007 177:-0.19057333 178:1.337896 179:0.4444271 180:0.27442196 181:0.15672949 182:0.85666317 183:0.35106122 184:0.16820507 185:0.69537187 186:0.33167481 187:0.30057192 188:-0.024313746 189:0.73008507 190:0.12695377 191:-0.004863 192:0.21691175 193:0.31965953 194:1.6557815 195:-0.1724022 196:-0.24526349 197:-0.22880769 198:0.26623884 199:0.96995723 200:1.0579894 201:0.35798612 202:0.26596582 203:0.5495894 204:0.14719224 205:0.16681084 206:0.30743599 207:1.4895922 208:0.024709795 209:0.24618022 210:0.44883564 211:0.1620812 212:-0.22226843 213:0.1788937 214:1.4546099 215:0.13136573 216:0.46288863 217:0.53479975 218:1.0622661 219:0.22264573 220:0.45241648 221:1.3451087 222:0.74395514 223:1.2706407 224:0.69785845 225:1.5839834 226:0.16596855 227:0.21317054 228:0.84842175 229:0.36995426 230:0.21472558 231:0.15592946 232:2.5280812 233:0.33272979 234:0.1289195 235:-0.13623217 236:0.42091891 237:-0.030631959 238:0.19048615 239:1.5897051 240:1.3539023 241:0.70706177 242:0.077168167 243:0.35844514 244:0.21342202 245:0.32436305 246:0.49738514 247:0.16637017 248:0.13792659 249:-0.028561773 250:0.30930719 251:0.21429892 252:-0.024843415 253:0.13626079 254:0.27353358 255:-0.12192938 256:0.14860602 257:-0.14692967 258:0.20995238 259:0.19291356 260:-0.025025383 #
-0.40710490224691542326951321228989 1:4.350698 2:1.9655144 3:2.2988443 4:1.9103705 5:2.0087209 6:0.66102391 7:1.1767744 8:2.21579 9:4.1518841 10:1.9112085 11:1.8898005 12:1.8459086 13:2.9169989 14:4.5383554 15:2.7406018 16:0.63710105 17:1.3017842 18:1.467186 19:2.3581545 20:1.4917028 21:2.2007294 22:2.5411439 23:1.1413999 24:0.96315539 25:1.6579124 26:1.1423953 27:0.67462963 28:0.47610095 29:2.7286873 30:1.593384 31:0.2832126 32:0.98453569 33:0.016261138 34:0.86079329 35:0.36621401 36:1.0120186 37:-0.080760725 38:0.10042387 39:0.25358573 40:1.3117927 41:0.49101865 42:0.42540696 43:0.45704451 44:0.91859269 45:-0.088114917 46:-0.16952021 47:-0.21400255 48:0.98126751 49:0.3730638 50:-0.022652149 51:0.29191187 52:0.11999165 53:0.51129371 54:0.062698454 55:0.4199267 56:0.65983438 57:0.25844836 58:0.42601362 59:0.30277675 60:0.15211694 61:-0.073349684 62:0.33957726 63:0.80365247 64:0.15480398 65:-0.26201358 66:1.2937604 67:2.3096809 68:3.3542686 69:3.9401376 70:8.246954 71:4.8523197 72:1.8379675 73:1.0257379 74:0.27199185 75:2.5214796 76:1.8648599 77:1.0977552 78:2.8100789 79:0.69422895 80:1.7289655 81:3.8503022 82:4.6796885 83:2.7935274 84:4.2512336 85:0.21821545 86:0.89392006 87:2.5013769 88:0.16578774 89:1.5050253 90:-0.30542964 91:1.7469183 92:1.3025948 93:1.0305328 94:1.0491309 95:0.56775153 96:0.24919851 97:0.49520034 98:0.91078854 99:0.60051745 100:0.34015533 101:0.51670706 102:-0.018667657 103:0.21546338 104:0.61734337 105:0.77690828 106:-0.064250268 107:-0.11536018 108:-0.13596401 109:0.21901459 110:0.56588674 111:-0.33927807 112:0.18250711 113:0.67218012 114:0.29762062 115:0.26436001 116:0.037600223 117:0.20022014 118:-0.098608188 119:0.15195684 120:0.30282092 121:0.26548719 122:-0.015071074 123:0.33494413 124:0.49577382 125:-0.074382477 126:-0.18105362 127:0.038685437 128:0.7163434 129:-0.088667549 130:-0.041874982 131:5.3850965 132:1.0020764 133:1.2554324 134:1.5066921 135:0.12566017 136:0.6935131 137:1.5592611 138:2.0465455 139:2.7107062 140:1.7502822 141:3.5222459 142:0.7426576 143:7.831934 144:1.7573087 145:5.1443677 146:4.1757326 147:4.3650327 148:1.7483791 149:4.2610245 150:3.7524726 151:2.8134935 152:3.3888516 153:1.5446379 154:1.776589 155:1.6583574 156:1.3144341 157:1.5877787 158:1.5417529 159:2.5216563 160:1.2395104 161:0.48031804 162:2.8670344 163:0.24730216 164:0.42074677 165:1.176193 166:0.54786617 167:0.60160583 168:0.47486752 169:0.47458801 170:0.97242451 171:0.45258757 172:1.5324287 173:2.6396425 174:0.51558828 175:0.32374847 176:1.3383508 177:0.26194063 178:0.21701638 179:0.22497118 180:-0.05344075 181:1.9056449 182:-0.034710426 183:0.73563129 184:0.22368626 185:0.4662565 186:0.37391609 187:0.29963398 188:0.68871939 189:0.77432889 190:0.89468318 191:-0.018823914 192:0.56475115 193:1.102859 194:0.053040944 195:0.38738489 196:1.6049827 197:0.59958714 198:0.14873731 199:1.6238201 200:2.8743987 201:2.9876506 202:4.5128374 203:4.4963231 204:6.3985887 205:1.1303675 206:8.9578934 207:6.5630813 208:7.8853803 209:3.1322403 210:9.7763186 211:2.8284054 212:2.9347694 213:1.8309443 214:2.8818564 215:1.1838058 216:2.1976321 217:1.7912135 218:1.4763703 219:3.9098344 220:2.7453513 221:1.9724208 222:0.10087781 223:1.9640938 224:0.72159773 225:0.56742239 226:-0.056921154 227:0.28107098 228:0.15711993 229:0.55869406 230:-0.059563667 231:0.52484864 232:0.0004063338 233:0.3757937 234:0.29635009 235:0.4922815 236:0.3382152 237:-0.19531792 238:-0.090281129 239:0.2717973 240:-0.095679149 241:-0.13683391 242:-0.093166485 243:-0.15296559 244:0.043014739 245:-0.11972051 246:0.034753893 247:0.075842977 248:-0.0025085914 249:-0.13078491 250:-0.12859936 251:-0.028170409 252:-0.19189663 253:-0.23674026 254:0.050909102 255:0.04988211 256:-0.029900212 257:0.033992313 258:0.00038735714 259:-0.016657926 260:0.17494613 #
-0.051384545849434776210173936306091 1:1.4858712 2:9.3546505 3:7.941699 4:4.0455861 5:1.3820976 6:6.6599956 7:9.1220493 8:4.1361413 9:2.7162244 10:6.791575 11:7.9531426 12:4.1637383 13:1.6758182 14:1.5642195 15:3.3606317 16:3.1469333 17:3.862174 18:4.5966649 19:3.2449343 20:0.72631818 21:1.5217561 22:2.8957548 23:2.0910268 24:1.1279105 25:0.57448834 26:0.13815413 27:-0.14713815 28:0.12006141 29:0.92574733 30:2.5039978 31:2.6340375 32:1.820195 33:1.5265323 34:2.8292029 35:3.5748105 36:4.5969877 37:5.0154166 38:5.492022 39:5.0809274 40:4.979692 41:4.369761 42:3.1176045 43:3.3938215 44:5.4164796 45:7.5187654 46:7.5810003 47:7.2614641 48:7.3606429 49:6.1913447 50:5.4092183 51:5.491621 52:6.3184252 53:5.2951198 54:3.7656767 55:2.4716537 56:1.8535178 57:4.5884056 58:7.2559762 59:8.131403 60:6.6488237 61:4.3955097 62:2.3371363 63:0.57059413 64:0.31451184 65:1.5197697 66:0.74854583 67:8.3121061 68:9.168807 69:4.7307968 70:1.6357359 71:4.2553058 72:3.8174534 73:1.7684221 74:0.9833498 75:1.1878575 76:1.7220002 77:2.585387 78:3.4414983 79:3.7417934 80:2.6717124 81:2.0687938 82:2.182606 83:2.1320677 84:1.5252899 85:1.1094104 86:1.4033585 87:1.5192994 88:2.066113 89:3.2781532 90:3.7661984 91:3.2855268 92:3.2077837 93:4.1450405 94:5.0105848 95:4.3924885 96:2.8468294 97:1.8374573 98:1.5764223 99:0.81401503 100:0.49955249 101:-0.042230207 102:0.72045404 103:1.0129871 104:-0.094149448 105:1.7576376 106:2.9235725 107:3.2503307 108:3.9862838 109:4.2252913 110:3.6770387 111:6.7889223 112:8.4847107 113:7.2929087 114:3.4971337 115:2.3636818 116:3.5445347 117:2.2142429 118:1.6571107 119:6.3029284 120:6.6212111 121:2.014271 122:4.6910009 123:5.8136864 124:2.5410991 125:0.72276527 126:4.3478799 127:6.1498833 128:7.2322159 129:5.0694413 130:5.1134415 131:3.0813267 132:11.850924 133:11.849973 134:10.601102 135:6.730772 136:3.473495 137:1.2576845 138:2.7473311 139:3.431716 140:7.7242937 141:9.4336462 142:8.3706665 143:7.8049355 144:7.7561669 145:8.0287523 146:8.8137388 147:11.244561 148:13.044895 149:11.384889 150:6.3438129 151:1.6607729 152:4.6631703 153:8.3176994 154:10.7042 155:13.147863 156:13.122174 157:11.115085 158:9.2904053 159:7.320847 160:3.9267719 161:1.7479056 162:6.2948632 163:11.132483 164:15.70475 165:16.849602 166:18.04785 167:16.866642 168:13.135056 169:8.4364309 170:3.8609896 171:-0.029990718 172:2.9283211 173:4.8792706 174:6.3230853 175:7.8504977 176:7.6476264 177:6.3538547 178:4.776741 179:2.8815088 180:2.7088625 181:5.1325169 182:7.5498629 183:8.8317614 184:9.0086193 185:7.9103756 186:4.9514542 187:1.8877432 188:2.756516 189:6.4543438 190:10.839328 191:13.942004 192:16.180481 193:15.649788 194:14.162234 195:11.853911 196:11.068535 197:10.636896 198:10.946112 199:8.4863186 200:3.8734682 201:5.6674399 202:2.9173245 203:0.4223685 204:0.27152622 205:1.4065465 206:1.7006047 207:0.8874945 208:0.82199317 209:2.7493389 210:4.1394873 211:4.1274815 212:5.989675 213:7.414031 214:6.1573782 215:3.7940567 216:2.2157187 217:2.3278699 218:4.7295074 219:6.5621295 220:8.6859465 221:9.3064089 222:8.0615187 223:5.8453546 224:6.1235166 225:8.3223228 226:11.55986 227:14.269565 228:15.298125 229:15.6643 230:16.068008 231:16.062042 232:14.547906 233:11.892755 234:9.294322 235:9.4758444 236:12.025306 237:15.234185 238:18.379742 239:18.500965 240:17.27915 241:14.322972 242:12.425259 243:10.71274 244:9.6472654 245:11.278139 246:14.322582 247:18.700632 248:19.42058 249:18.60955 250:15.076056 251:9.9278069 252:6.1200838 253:6.483336 254:8.4153652 255:10.178929 256:11.344919 257:10.868277 258:9.5499039 259:7.9657545 260:5.7300878 #
4.6201126070541018719950443482958 1:0.64800262 2:3.6877942 3:2.8534029 4:1.7455429 5:0.91530186 6:2.6055522 7:3.766695 8:1.1612654 9:0.50379407 10:1.5875841 11:2.682544 12:1.3694255 13:1.4383241 14:1.1828904 15:1.2150112 16:1.1817857 17:1.1050166 18:1.3931149 19:2.5280375 20:0.76278806 21:0.34727615 22:2.5107577 23:2.6302073 24:1.1769733 25:0.61193627 26:1.0730155 27:0.46436533 28:1.5508491 29:1.5741419 30:0.68388265 31:1.1369958 32:2.6121702 33:2.1387887 34:1.1264011 35:0.010451868 36:0.82493335 37:1.160334 38:1.3363891 39:0.98669416 40:0.86434281 41:0.95502847 42:1.6297272 43:1.4055628 44:0.70439035 45:0.45578206 46:1.4982922 47:0.48492208 48:1.9622821 49:1.6461116 50:0.55277085 51:0.53378356 52:1.5325463 53:0.97636688 54:0.69636798 55:1.9263126 56:1.718021 57:1.3214874 58:2.8040411 59:1.4758797 60:0.96174407 61:3.9977036 62:4.7370739 63:4.2599106 64:2.044806 65:2.3896904 66:-0.16566104 67:0.89988083 68:1.2999527 69:1.3711408 70:0.23857853 71:1.3832049 72:0.66803432 73:0.48876584 74:0.037845593 75:0.16408515 76:1.0760715 77:0.47158998 78:0.81034803 79:1.1306982 80:1.0926958 81:0.97620642 82:1.5969778 83:0.81458306 84:1.0761104 85:0.92491156 86:1.6667432 87:1.2334256 88:1.2134062 89:0.13732719 90:1.2795066 91:0.1066917 92:1.0867866 93:1.4180297 94:0.83747351 95:1.0528113 96:0.48149887 97:2.1141143 98:0.90582317 99:0.32223105 100:0.68345582 101:3.1198742 102:3.0744402 103:-0.020973096 104:0.87603503 105:0.47028658 106:2.7724352 107:2.2855253 108:1.7069827 109:0.25045919 110:1.3870434 111:2.5282452 112:1.0508281 113:0.592408 114:2.4471774 115:0.73299366 116:1.3614577 117:1.2254574 118:3.8543873 119:1.8382078 120:0.93291831 121:2.3757582 122:1.065161 123:0.3757579 124:0.17630054 125:1.2010529 126:4.1550379 127:2.0401268 128:2.0342476 129:1.5738186 130:0.4036051 131:1.8643851 132:3.780128 133:2.7316573 134:0.25202659 135:1.331405 136:2.2781391 137:1.1851054 138:-0.078275092 139:0.40565211 140:1.2683611 141:1.9441112 142:1.5301738 143:0.93824685 144:1.9473859 145:1.1235099 146:2.1704161 147:0.90202606 148:0.12491605 149:1.1834133 150:1.8779655 151:3.418596 152:1.0893499 153:1.1295629 154:2.4481306 155:1.4544159 156:1.4199851 157:2.951545 158:3.0963154 159:0.00053808588 160:3.4559345 161:7.782063 162:5.6585183 163:2.5310011 164:1.7278553 165:2.6122758 166:3.4282091 167:1.2794356 168:1.4416081 169:0.70317757 170:1.9834467 171:3.2639282 172:3.780211 173:2.4638872 174:0.054748882 175:2.2076731 176:2.0407939 177:0.41291764 178:1.4871004 179:0.38439983 180:0.081451252 181:1.4744085 182:0.60872871 183:0.52107972 184:1.2063434 185:1.2541882 186:0.76087582 187:1.2886022 188:2.4282382 189:1.92895 190:0.95278513 191:0.33572841 192:0.91092044 193:1.6888127 194:0.024903554 195:0.58951789 196:14.036618 197:11.641014 198:9.6337337 199:5.8577418 200:2.0994244 201:4.2363501 202:2.7646306 203:1.3592132 204:1.197849 205:3.1314864 206:3.1209707 207:1.9109687 208:1.2487657 209:1.7763376 210:2.9821327 211:2.1889997 212:3.4807792 213:1.9170369 214:3.2723651 215:2.4765143 216:1.2759006 217:0.073147781 218:0.63984835 219:2.7076182 220:1.4763573 221:1.0662801 222:1.5770979 223:1.3216044 224:2.8780508 225:1.2042294 226:3.3287029 227:2.4906442 228:3.1045966 229:2.0577059 230:1.398219 231:0.37341768 232:0.53453606 233:1.3911918 234:0.054633215 235:0.40277982 236:2.4920855 237:0.18669529 238:0.44002455 239:1.9494611 240:1.3560792 241:1.5089692 242:0.28432971 243:2.0797338 244:0.46967861 245:2.0825422 246:1.34102 247:1.7241019 248:1.8637931 249:1.0280814 250:1.8029119 251:0.16593193 252:0.62024885 253:0.470456 254:1.3687012 255:1.3219578 256:1.4971489 257:-0.15641044 258:1.1866474 259:0.20020488 260:3.2312794 #
-4.9549530169166358106735970068257 1:0.62753731 2:-0.2169707 3:0.36060083 4:-0.30335027 5:0.45968568 6:0.6175437 7:0.26324281 8:-0.1151899 9:1.5014609 10:-0.18925461 11:-0.10283706 12:0.28869405 13:-0.096063636 14:-0.067356378 15:-0.11379196 16:0.15813625 17:1.8270609 18:0.69628525 19:0.45262346 20:0.21539338 21:1.4222251 22:0.4048219 23:-0.040093239 24:0.38127825 25:1.3191867 26:0.4525052 27:0.098942064 28:0.50436455 29:0.83445823 30:-0.071981817 31:-0.083609395 32:0.17215714 33:-0.042480629 34:0.39397416 35:0.56586605 36:0.12689425 37:0.00036173227 38:0.051965151 39:0.64026153 40:-0.17849632 41:0.67334205 42:0.50963068 43:0.44733512 44:0.47525063 45:1.6923065 46:0.29708132 47:0.20069405 48:0.68980294 49:1.3356072 50:0.37895843 51:0.83490896 52:-0.039031256 53:1.6831719 54:0.51986796 55:0.31758827 56:1.2218493 57:0.93846536 58:0.11685512 59:0.84329581 60:-0.04998935 61:-0.14587928 62:1.0850202 63:0.32521713 64:0.75517583 65:-0.19652273 66:-0.23609157 67:-0.08569894 68:-0.26118007 69:0.27359167 70:0.20018674 71:-0.041221324 72:-0.073254973 73:0.18808094 74:4.8571529 75:0.66300762 76:0.40339419 77:0.25445458 78:0.72937244 79:-0.20946993 80:0.30342722 81:-0.28993061 82:1.0597807 83:0.073764354 84:0.12413068 85:0.04286791 86:0.94687188 87:0.69093722 88:0.12178974 89:0.68086874 90:2.8627465 91:0.74903184 92:0.17873104 93:0.71573561 94:1.6293188 95:1.0993663 96:0.11648019 97:0.95047438 98:1.697336 99:0.44454363 100:0.38417569 101:-0.16606641 102:0.15123823 103:0.59896463 104:-0.31423131 105:0.17245856 106:0.66643465 107:0.064533196 108:0.42718723 109:0.56021541 110:0.78175277 111:0.27866867 112:0.30408776 113:-0.33170241 114:-0.26204592 115:-0.23735274 116:0.14183909 117:-0.020048548 118:0.66977072 119:0.37376791 120:0.69598919 121:-0.17486173 122:-0.085408442 123:0.016401801 124:0.2045742 125:-0.055668764 126:-0.093187317 127:-0.15753247 128:0.50575405 129:0.086900599 130:-0.30936286 131:0.47950965 132:-0.051394157 133:-0.15171744 134:-0.09761633 135:0.22963822 136:-0.011916975 137:-0.092164651 138:-0.016301667 139:0.44615069 140:0.043721259 141:-0.030752439 142:-0.042820744 143:1.121408 144:0.075089119 145:0.22644748 146:0.59873432 147:0.23523113 148:0.16204295 149:-0.032671969 150:-0.31122074 151:0.47600621 152:0.1855167 153:0.36068749 154:-0.013629768 155:1.2874279 156:-0.15997486 157:-0.0077190828 158:0.5083549 159:0.037269045 160:0.04456472 161:0.40522096 162:0.00184183 163:0.56460589 164:0.14615795 165:0.1786783 166:-0.23031029 167:0.11219599 168:0.019860277 169:-0.14039011 170:0.61130434 171:1.1215736 172:0.63490975 173:0.08089371 174:0.21993022 175:0.51284468 176:0.50855696 177:0.06570287 178:0.48207286 179:0.97272772 180:0.24051687 181:-0.023601905 182:-0.032942418 183:0.28549415 184:0.68293613 185:0.69373471 186:0.95145005 187:1.6912364 188:-0.074356824 189:0.72157741 190:0.28685492 191:0.59320652 192:1.093667 193:0.16816743 194:1.2561773 195:0.016889112 196:-0.10444129 197:-0.13309743 198:0.25849378 199:0.076009877 200:0.90508461 201:0.6783883 202:0.29891625 203:0.08725553 204:0.84641993 205:-0.11382932 206:-0.12651674 207:-0.14452939 208:0.80387783 209:-0.028884791 210:-0.14190032 211:-0.084907755 212:0.42616493 213:-0.13683821 214:-0.17406705 215:-0.26902911 216:0.31244248 217:-0.11598908 218:0.13410453 219:-0.066192843 220:0.46990249 221:0.10833802 222:-0.095204674 223:-0.12179714 224:0.23297618 225:-0.076589875 226:0.017304894 227:0.077619977 228:0.73435593 229:-0.15175527 230:-0.15700462 231:0.18913437 232:0.49851811 233:-0.090033248 234:0.045550965 235:-0.038033873 236:0.46298361 237:0.075769745 238:-0.16435927 239:-0.074708968 240:0.61684299 241:-0.26845863 242:-0.17648476 243:-0.095069624 244:0.46273911 245:-0.093923815 246:-0.0050254185 247:0.23246437 248:-0.11993556 249:-0.1597506 250:-0.023850841 251:-0.071523152 252:0.15876308 253:-0.13651864 254:-0.10361771 255:-0.10090528 256:-0.081495114 257:-0.028364284 258:-0.16258968 259:-0.18432856 260:-0.0096071009 #
8.2249106132485323428227275144309 1:4.7526464 2:0.11482838 3:0.014585526 4:0.83349609 5:0.94386995 6:2.2706883 7:3.4961793 8:3.3759406 9:4.4019966 10:2.5307469 11:1.7489126 12:0.46198797 13:0.7153694 14:2.8619335 15:0.47274297 16:2.9504523 17:3.0788219 18:2.2682498 19:2.2077236 20:1.7435957 21:0.17337868 22:-0.1391286 23:0.28944695 24:4.6484742 25:0.52983963 26:0.85479373 27:0.88728732 28:2.4676509 29:0.53254098 30:1.5382696 31:2.4722431 32:2.0513606 33:0.06103668 34:0.20122948 35:0.4274205 36:0.388154 37:0.1198791 38:0.4227747 39:2.107537 40:0.9926886 41:0.0028091003 42:-0.094617836 43:-0.022079354 44:0.48070106 45:0.49877751 46:0.16239601 47:1.735901 48:0.41329086 49:0.049498282 50:0.45163319 51:0.094628818 52:1.0432435 53:0.22822317 54:0.11005478 55:0.44707805 56:0.8200931 57:-0.18360692 58:0.62164414 59:-0.13077101 60:0.78026062 61:0.794056 62:0.97696126 63:0.31747711 64:0.74007505 65:0.19272912 66:5.4250903 67:-0.052594915 68:0.19090064 69:0.13011497 70:0.97243011 71:2.0531502 72:2.2157593 73:1.3156302 74:0.3590222 75:0.29517344 76:0.13285187 77:0.53728157 78:1.8737646 79:0.7813223 80:0.59533799 81:2.419085 82:1.1405494 83:0.1632873 84:1.0110217 85:1.0069563 86:1.0005125 87:0.60128868 88:0.59756553 89:2.1212931 90:0.57717079 91:0.41524482 92:0.0011072045 93:2.9014459 94:0.78985214 95:0.59321719 96:1.5670903 97:1.9186131 98:0.80651397 99:1.556343 100:1.5150063 101:1.2793179 102:0.46838635 103:0.58000493 104:1.331085 105:0.82083279 106:0.81138575 107:-0.015838714 108:1.0471668 109:0.83008695 110:0.26087821 111:0.54635507 112:0.52812302 113:0.25922552 114:0.75401992 115:-0.20386909 116:1.9810202 117:0.13122173 118:0.32730114 119:1.6063536 120:0.61201012 121:0.8838374 122:1.0082047 123:1.4557662 124:1.2224028 125:0.29228741 126:0.48618704 127:1.6924279 128:0.53056443 129:1.7535404 130:0.10306545 131:0.68139362 132:0.57613438 133:0.31802046 134:0.63444918 135:0.85284412 136:0.20924057 137:0.076186188 138:0.39409769 139:1.4503354 140:1.2058725 141:1.5360152 142:0.90116644 143:-0.28226653 144:0.80849582 145:0.012643187 146:1.0660784 147:0.018187724 148:0.56981736 149:0.28710482 150:0.98401779 151:-0.20915516 152:1.3877394 153:0.13077563 154:1.229917 155:0.19849026 156:0.44117913 157:0.44246739 158:0.92486793 159:0.36280739 160:0.22302806 161:0.89467871 162:0.094063453 163:-0.29771709 164:1.4690431 165:1.2756091 166:0.57166004 167:0.26666868 168:0.15399754 169:0.54126674 170:-0.17621648 171:0.96315724 172:-0.18567553 173:0.46846926 174:-0.17963532 175:-0.20869467 176:0.86327696 177:0.85143751 178:1.607169 179:0.689385 180:0.29757273 181:0.39488554 182:0.66585696 183:1.3903117 184:1.1138868 185:-0.15900962 186:0.58634377 187:0.75068957 188:1.044295 189:0.21335676 190:0.944112 191:0.22870851 192:0.87364459 193:-0.26132572 194:1.1059142 195:0.54700512 196:-0.18769625 197:-0.16655065 198:0.3601265 199:-0.05920326 200:0.034875385 201:0.6775862 202:0.23086612 203:0.39968437 204:0.80123401 205:0.15061237 206:0.91524982 207:0.69168866 208:0.61147237 209:0.72755396 210:0.25578237 211:1.519452 212:0.77835327 213:0.31978348 214:0.66577959 215:1.5701154 216:0.16633917 217:0.55520284 218:0.43875745 219:2.1564586 220:-0.034910817 221:0.80869591 222:0.88076448 223:0.86444271 224:0.23336871 225:-0.042929444 226:0.8188467 227:1.5529878 228:0.094575927 229:0.48285502 230:0.54513454 231:0.22463572 232:-0.18020147 233:-0.08005809 234:1.6811937 235:0.62248641 236:0.21429799 237:0.64166135 238:0.62107301 239:0.0088756476 240:0.40110412 241:0.49886185 242:1.3515197 243:0.26742339 244:0.63924026 245:0.18758076 246:0.64356184 247:-0.1857342 248:0.090372644 249:0.8307566 250:0.58553332 251:0.50737333 252:0.45822999 253:0.68069905 254:0.49012315 255:-0.0014283714 256:0.31435204 257:0.40747616 258:0.23252983 259:0.80769175 260:0.44136095 #
-0.069250497327461663088499221885286 1:1.9926981 2:15.393888 3:17.842733 4:15.308043 5:7.6548209 6:17.303345 7:18.177465 8:10.099875 9:7.8450069 10:17.949535 11:18.233746 12:13.088712 13:12.083911 14:15.657771 15:14.094844 16:10.971692 17:12.648499 18:16.92502 19:13.486731 20:9.929162 21:9.7133694 22:10.437728 23:9.8313494 24:10.527042 25:11.619035 26:11.184249 27:8.2911978 28:6.7136087 29:8.131938 30:8.5987625 31:7.9550266 32:7.9134178 33:8.3930368 34:7.5915756 35:6.3179607 36:6.3677425 37:5.8104944 38:4.3497109 39:2.9885488 40:1.8023826 41:1.9356128 42:2.5821984 43:3.6384718 44:3.5238314 45:2.777416 46:3.2437654 47:2.5035892 48:0.81820381 49:0.6789695 50:2.5361395 51:4.3145795 52:4.3856492 53:3.252238 54:2.141326 55:2.4918373 56:3.0353506 57:3.5133989 58:3.7547612 59:3.8053415 60:2.6546128 61:3.1531658 62:2.805398 63:3.0660701 64:2.0631311 65:-0.14416867 66:-0.14879569 67:1.4340725 68:1.5027204 69:0.87557703 70:0.62598252 71:2.3728366 72:3.1048286 73:0.81771952 74:0.76809102 75:1.9332563 76:1.7860901 77:0.1157897 78:1.5861291 79:1.5375463 80:1.7034229 81:1.0669733 82:0.13041073 83:0.29612255 84:3.0703115 85:2.5045412 86:2.8648744 87:1.1122428 88:0.36820829 89:2.0720081 90:0.66769773 91:1.4936807 92:3.809741 93:2.687892 94:0.55802256 95:0.53621083 96:2.1821084 97:1.4123819 98:1.5410373 99:3.2572997 100:4.2040415 101:-0.072558321 102:0.090034395 103:3.8070347 104:7.3044572 105:4.6713099 106:2.1162944 107:2.9484038 108:4.8046589 109:3.3376353 110:6.3762522 111:6.1033697 112:4.9278216 113:2.6154194 114:5.0603752 115:4.6874166 116:1.5386738 117:4.5602155 118:5.5165238 119:9.801404 120:1.6192998 121:3.3868816 122:2.8710673 123:3.2759616 124:6.6144285 125:6.6630321 126:9.9889879 127:1.6596798 128:4.7493043 129:5.7042871 130:4.9622931 131:0.32085568 132:1.3624325 133:0.65983635 134:-0.096244231 135:0.40135035 136:0.92278445 137:1.0190181 138:0.56486195 139:0.19373417 140:0.66015428 141:0.7870208 142:0.55625707 143:0.20023619 144:0.27168411 145:1.1586008 146:1.3421103 147:0.84224606 148:-0.081414498 149:0.69849753 150:0.86517125 151:1.2005168 152:1.7395731 153:1.6888167 154:0.44071972 155:0.061758645 156:0.94495022 157:0.63763082 158:0.19997935 159:0.91033757 160:1.1646184 161:0.62795758 162:0.69749397 163:0.94143236 164:1.0606134 165:0.62135148 166:0.34417787 167:0.57782048 168:0.78045279 169:0.55521822 170:0.75021809 171:0.92503959 172:0.36191705 173:0.16659345 174:0.58520311 175:0.77662867 176:0.004728076 177:0.80106604 178:0.074462309 179:0.052687105 180:0.3213838 181:0.79695851 182:0.85502672 183:0.62065649 184:0.1481097 185:0.031964786 186:0.15639578 187:0.49999064 188:0.70162046 189:1.1090994 190:0.30572599 191:0.84802508 192:1.093555 193:1.0227089 194:0.2703473 195:-0.12710491 196:1.7316315 197:1.9638056 198:1.7470827 199:1.226473 200:0.52119809 201:1.2288773 202:0.93330801 203:0.2720916 204:-0.13544732 205:-0.12871097 206:0.10196391 207:0.20348513 208:0.16352414 209:-0.030452125 210:0.3900995 211:0.48670623 212:0.5579105 213:0.36795938 214:0.05560445 215:0.34089917 216:0.58195978 217:0.40440756 218:0.12883212 219:0.51812768 220:1.0331892 221:1.1971328 222:1.0389081 223:0.68804389 224:0.63707364 225:0.7587654 226:0.89635789 227:0.70001441 228:0.58385634 229:1.1026196 230:1.6327503 231:1.8010323 232:1.6191847 233:2.1011014 234:2.5123019 235:2.7975945 236:2.7483668 237:2.480185 238:2.2722452 239:1.9052842 240:1.5585073 241:1.5725293 242:1.5383945 243:1.6933694 244:2.0054333 245:2.0936041 246:1.9632576 247:2.0318534 248:2.3211315 249:2.7763643 250:3.0317061 251:3.060178 252:2.955224 253:2.4442813 254:1.949616 255:1.7205148 256:2.0131259 257:1.9791784 258:2.0943289 259:2.7460852 260:3.7407622 #
-3.4915076647498164419403110514395 1:0.045871694 2:1.0771089 3:0.88880503 4:0.58314705 5:0.42992729 6:-0.1199695 7:0.34670737 8:-0.083921202 9:-0.14046621 10:0.20819154 11:0.39400744 12:0.44238719 13:-0.1301844 14:0.2852332 15:0.37173584 16:-0.0044140439 17:0.70334297 18:0.44763348 19:-0.14208657 20:0.48498088 21:0.3377763 22:0.22299558 23:0.75048286 24:0.39703378 25:0.23140788 26:0.48728821 27:0.25304243 28:0.026252385 29:0.50237685 30:0.23077871 31:0.72170711 32:-0.12011594 33:0.40871948 34:0.17318903 35:0.00032688788 36:-0.12385927 37:0.67381549 38:-0.15854187 39:0.328861 40:0.53897524 41:0.4079667 42:0.38051051 43:0.32933044 44:-0.020786257 45:0.0004586766 46:0.40009344 47:1.0911624 48:0.48267365 49:0.072698481 50:0.0209796 51:0.39215469 52:0.13880944 53:0.034885 54:0.50674331 55:0.17256808 56:0.18325779 57:0.86348259 58:0.90701926 59:0.60231847 60:0.3135339 61:0.028116867 62:0.35077146 63:0.18743658 64:-0.15837245 65:0.15076803 66:-0.15933654 67:0.22715376 68:0.41062611 69:0.48392665 70:0.17481001 71:0.12927444 72:0.0028274704 73:0.23705935 74:0.011986678 75:0.412523 76:0.51208872 77:1.0407048 78:-0.14479606 79:0.95723712 80:0.21045338 81:0.79887748 82:1.1292411 83:0.95027435 84:2.2167709 85:2.3614287 86:1.0699376 87:0.17915662 88:1.4855826 89:1.1269687 90:1.6062331 91:1.2810073 92:0.622935 93:0.71280718 94:0.58308208 95:0.011373266 96:0.78545099 97:0.25329527 98:0.16983235 99:1.0108101 100:0.86562264 101:1.1181532 102:1.3389872 103:0.92780977 104:1.3474753 105:1.0979563 106:0.28423944 107:1.5837049 108:0.56078833 109:0.80622238 110:1.0506067 111:1.3355311 112:2.5004268 113:1.1958722 114:0.68582433 115:2.1735113 116:2.1633184 117:1.5192863 118:1.9606113 119:1.2560539 120:1.5146573 121:1.0400326 122:0.63425386 123:0.73045743 124:1.1153234 125:2.0935805 126:1.3110619 127:0.41094655 128:3.0026579 129:2.4686623 130:1.4946201 131:0.79592949 132:1.6549345 133:1.3705945 134:1.1757773 135:1.4759238 136:1.119727 137:0.95122498 138:0.22283882 139:0.39072073 140:1.6721566 141:2.4217274 142:0.87812042 143:1.4343605 144:1.7973382 145:3.5698404 146:1.4227308 147:0.89898533 148:2.0699637 149:0.78949505 150:0.98230672 151:0.40405095 152:1.1020541 153:0.90802306 154:1.6240038 155:2.2593255 156:2.8280301 157:2.828192 158:0.91734654 159:1.7240692 160:2.9128523 161:1.3819063 162:1.3845024 163:0.76190948 164:0.62417358 165:1.1242024 166:1.2858627 167:1.7634623 168:1.017267 169:0.4320446 170:0.5965969 171:1.5430496 172:2.1091425 173:1.5715418 174:0.46846664 175:2.1312399 176:1.6589307 177:0.6189093 178:1.4817498 179:1.2283469 180:0.40135631 181:0.33014831 182:1.9120506 183:2.0684772 184:1.2744856 185:2.5260956 186:0.78338289 187:0.7075181 188:1.6079696 189:1.7339985 190:2.6370158 191:1.1768342 192:1.2861791 193:3.3524387 194:1.9102933 195:-0.071983539 196:-0.18452968 197:1.4370085 198:1.1298041 199:1.8288254 200:0.71442401 201:1.8828238 202:1.5785394 203:1.0564021 204:1.4585623 205:0.91866636 206:0.25147814 207:0.84824091 208:0.46089342 209:0.35396704 210:0.18419556 211:0.65039557 212:0.45860174 213:0.48357129 214:1.54106 215:1.4816439 216:-0.013144773 217:1.1028748 218:1.2706575 219:0.42905846 220:0.15579502 221:0.58630294 222:-0.11118316 223:0.054430857 224:-0.26666006 225:0.22309646 226:0.23103037 227:0.53275764 228:1.0247203 229:0.66621292 230:1.3593923 231:0.49125826 232:1.3519843 233:1.3513436 234:0.80300295 235:0.55129772 236:0.63093644 237:0.22495155 238:0.23223181 239:1.2549893 240:-0.12709589 241:1.4866319 242:0.033802167 243:0.78867084 244:0.55372697 245:1.0361284 246:0.25213149 247:1.0421122 248:0.26149327 249:0.63680738 250:0.36898959 251:0.40251869 252:0.72304803 253:1.6544596 254:0.21816775 255:0.50743032 256:0.56922978 257:0.19440761 258:1.3942645 259:1.1074733 260:0.18934545 #
-0.20786198006684059036430767264392 1:3.6733749 2:1.2065493 3:2.5653365 4:0.79700255 5:1.0651889 6:1.0368435 7:1.6572889 8:1.2968194 9:6.1317496 10:5.6956768 11:3.2558382 12:1.1240293 13:3.4230766 14:1.8707724 15:1.9289632 16:3.1754179 17:3.310123 18:3.0621495 19:2.3910158 20:3.4441485 21:4.6995025 22:6.5343513 23:3.1970532 24:1.1769698 25:2.8378425 26:2.7892277 27:0.10295821 28:3.5467439 29:1.1185282 30:2.4081671 31:0.02870029 32:1.5126306 33:3.2222803 34:0.86007661 35:2.6003096 36:2.5266685 37:1.9885226 38:1.9775633 39:0.52268058 40:0.99407429 41:1.5428418 42:1.8876219 43:1.6684122 44:4.6846471 45:1.5313833 46:1.9053725 47:2.1266203 48:1.3026994 49:2.0297036 50:1.8420849 51:1.581525 52:2.6383176 53:0.47960854 54:0.43379593 55:1.7070546 56:2.3292572 57:0.063265748 58:-0.18334414 59:2.6194212 60:1.5846754 61:0.69796962 62:1.8371052 63:2.9947391 64:1.672586 65:0.65000349 66:1.9731538 67:4.2905555 68:4.1675954 69:1.3742467 70:0.90978861 71:2.037744 72:0.25330573 73:0.17375703 74:2.6178908 75:2.9345653 76:2.0673406 77:0.90044075 78:0.60603291 79:2.5594645 80:0.91942614 81:1.2907845 82:1.5002221 83:2.0247822 84:1.8878558 85:3.2816567 86:4.7998009 87:3.9290137 88:0.71768272 89:1.6962481 90:0.89177805 91:4.0577888 92:1.2381079 93:0.45658463 94:1.7192904 95:1.1514338 96:1.6556461 97:0.78068268 98:1.59578 99:4.7074761 100:2.9740455 101:1.7273614 102:1.8644994 103:4.0636821 104:0.57015443 105:1.5894393 106:0.94150025 107:3.9174118 108:1.6484317 109:0.14900656 110:1.6643834 111:3.2026243 112:2.3423543 113:0.58471346 114:-0.079857819 115:1.9126896 116:1.3108855 117:2.2684674 118:2.044323 119:0.30397117 120:0.47453591 121:2.1575315 122:0.84745455 123:0.17790768 124:1.7011732 125:1.7516758 126:0.27920976 127:1.0960374 128:0.49314249 129:0.97400892 130:2.1489439 131:1.4475176 132:0.62712818 133:0.54689777 134:0.33944023 135:0.52241313 136:0.65325826 137:0.31162193 138:0.35529736 139:0.16290434 140:0.48130551 141:2.2158403 142:0.16476946 143:1.0999266 144:1.7626421 145:0.16007921 146:0.7179597 147:2.1080892 148:-0.034273598 149:1.1359143 150:0.89315224 151:1.0929635 152:0.53246522 153:0.77935243 154:1.3374054 155:1.076875 156:2.8368616 157:1.8230811 158:0.37289053 159:0.39793161 160:1.6206229 161:1.4330305 162:0.92239887 163:1.3614613 164:0.26640043 165:1.0195953 166:0.8810339 167:1.3715603 168:0.87492448 169:1.0296919 170:2.0498359 171:0.87765956 172:1.3167566 173:0.75235659 174:1.1604728 175:0.38312313 176:1.5317435 177:1.566734 178:3.3760083 179:1.7470157 180:1.8090175 181:1.6221747 182:1.5815469 183:2.3000453 184:0.69913453 185:2.3181658 186:4.0759673 187:2.5226007 188:0.80159712 189:-0.19155359 190:2.917444 191:1.7738744 192:2.8315427 193:2.0862653 194:2.1764197 195:0.0264834 196:2.013715 197:1.0288165 198:1.14976 199:4.2508869 200:1.4371135 201:1.4970466 202:0.99145412 203:0.65506971 204:4.2314281 205:1.0080769 206:1.6535006 207:0.13517664 208:2.1463475 209:0.86954904 210:1.2729681 211:1.6507155 212:2.284878 213:1.7015051 214:0.49622801 215:1.2776256 216:4.5862551 217:4.3953757 218:0.9376514 219:0.83394438 220:2.3714619 221:1.6654476 222:0.7106334 223:2.6788478 224:1.7702025 225:1.725016 226:1.7121357 227:2.4764643 228:2.4506636 229:4.3313651 230:3.8417585 231:2.2780647 232:2.9939778 233:3.2867076 234:0.56008637 235:2.2408974 236:2.9183645 237:4.4482441 238:3.0507736 239:2.0056849 240:1.4256002 241:0.67060119 242:1.0546001 243:0.52679288 244:0.62501717 245:1.6127506 246:1.8387156 247:2.4326806 248:1.1763455 249:0.49944299 250:1.6713225 251:1.5312827 252:1.3327044 253:2.3765647 254:1.3442394 255:1.9605538 256:1.1323264 257:2.7824531 258:1.9068855 259:1.6702399 260:3.4894505 #
8.2249106132485323428227275144309 1:4.6009078 2:-0.081632473 3:0.39807716 4:1.1556898 5:0.43187761 6:1.7288252 7:5.4524455 8:0.96806991 9:1.1643556 10:1.4057148 11:1.6311826 12:2.1418855 13:1.4280202 14:3.2270665 15:2.1515176 16:0.27101576 17:0.55576682 18:1.4855123 19:2.4455998 20:1.5632325 21:1.4355808 22:1.01402 23:1.0167748 24:1.1068259 25:1.3407642 26:1.5351639 27:1.2134187 28:0.86578578 29:0.048187725 30:0.51395965 31:-0.19061355 32:1.2241478 33:0.69011414 34:0.78833467 35:0.79669625 36:1.5044283 37:0.24707705 38:0.1474171 39:0.8197009 40:-0.17068258 41:0.068338469 42:1.1035166 43:0.65127724 44:0.96821773 45:1.3348686 46:0.87351739 47:-0.18624909 48:0.10402456 49:0.8016476 50:0.38281953 51:0.417606 52:1.2478552 53:-0.069560491 54:0.070628121 55:0.59329849 56:0.25723392 57:0.68591744 58:1.2173481 59:0.98547786 60:1.3441155 61:1.428623 62:1.1793543 63:0.81662506 64:0.8022356 65:0.90190601 66:5.3405814 67:0.58507568 68:2.5154042 69:2.1246095 70:0.62721455 71:1.3800383 72:2.5580833 73:0.44606975 74:0.48401332 75:3.3354223 76:0.51099569 77:0.78727931 78:2.6141605 79:-0.038324233 80:0.52691436 81:0.69870228 82:0.4307878 83:0.9991079 84:0.71287781 85:1.4326531 86:0.47969693 87:1.1009009 88:1.2119156 89:1.9848211 90:0.88748372 91:0.62964529 92:0.75783235 93:1.2067173 94:0.23627746 95:1.2821034 96:1.3189911 97:0.5352906 98:0.57483834 99:0.2984899 100:0.96857089 101:1.1442274 102:-0.28849021 103:0.61284661 104:0.9945693 105:0.34794065 106:1.5880675 107:1.5528698 108:0.21672796 109:0.66764069 110:0.9230265 111:0.33912247 112:0.56863707 113:-0.15514018 114:0.74902016 115:0.43469849 116:0.57309592 117:0.41398844 118:0.062876545 119:-0.18378289 120:-0.068866082 121:0.33363098 122:-0.23641939 123:0.35516715 124:0.36418429 125:-0.23778841 126:-0.23669103 127:0.11063702 128:-0.13431439 129:0.27006626 130:-0.32190019 131:1.344517 132:0.12637682 133:1.2128495 134:0.64752424 135:0.36339232 136:1.6842014 137:1.3773804 138:0.29728913 139:0.44707122 140:1.1997449 141:0.028797477 142:1.222252 143:2.5412316 144:1.6922268 145:0.26882547 146:1.2428226 147:0.72331542 148:0.72827893 149:1.1124978 150:-0.0039822841 151:1.0514625 152:0.090286218 153:0.8671152 154:0.26306018 155:0.24453685 156:0.59971762 157:0.82186818 158:1.0126194 159:0.57418185 160:0.11686051 161:0.57331353 162:0.39947402 163:1.0199531 164:0.85880798 165:0.0011326618 166:0.084249221 167:1.4176078 168:-0.034679823 169:0.94437653 170:0.26755509 171:-0.14338161 172:0.027445616 173:0.92292082 174:1.5674745 175:1.2055638 176:0.87504911 177:0.56335402 178:0.83782506 179:0.36327809 180:0.3084878 181:0.4982529 182:-0.0097244941 183:-0.01596391 184:0.11093852 185:-0.045221008 186:0.39490327 187:0.14087109 188:0.81076181 189:0.63370425 190:0.58790696 191:1.4381788 192:0.30478057 193:0.4183608 194:0.2372319 195:-0.28255528 196:0.43948597 197:0.73840749 198:0.84971201 199:1.1776943 200:1.4816937 201:0.51643914 202:1.4936719 203:0.68679291 204:1.0117373 205:0.92743766 206:0.76409334 207:0.18933439 208:0.7880035 209:1.0875803 210:0.24764824 211:0.97658932 212:1.851882 213:0.75697106 214:0.46423289 215:0.29275379 216:0.60645652 217:0.37058797 218:0.88366622 219:0.099472351 220:0.22826393 221:0.022619208 222:0.3686071 223:0.0071992395 224:0.12216926 225:0.39127296 226:0.89421159 227:0.49549729 228:0.39302182 229:0.9771598 230:0.71417534 231:0.4139615 232:0.1404995 233:0.24484049 234:0.027129207 235:0.47713745 236:-0.1489353 237:0.40844947 238:0.53496802 239:0.51578569 240:-0.16910969 241:0.25197303 242:0.12379792 243:0.11589642 244:0.47387069 245:0.18633804 246:0.070287965 247:-0.084032744 248:-0.1349429 249:-0.24526611 250:0.28569618 251:0.68260413 252:0.64980227 253:0.52831703 254:0.48634714 255:0.091726698 256:0.45277554 257:0.7518267 258:0.41049781 259:0.23581608 260:0.53355664 #
8.2249106132485323428227275144309 1:-0.30967018 2:-0.14285305 3:-0.2576313 4:-0.19414231 5:-0.18355228 6:-0.12287881 7:-0.21436881 8:-0.29989308 9:-0.31203911 10:-0.2864165 11:-0.19341248 12:-0.22990012 13:-0.24185854 14:-0.27285254 15:-0.22649588 16:-0.23382978 17:-0.16620578 18:-0.22388956 19:-0.13968644 20:-0.2459078 21:-0.26288536 22:-0.24904346 23:-0.30668035 24:-0.30701271 25:-0.15361258 26:-0.22789435 27:-0.19716948 28:-0.32262167 29:-0.22019148 30:-0.28884101 31:-0.28980818 32:-0.29416531 33:-0.28032643 34:-0.3000761 35:-0.28650442 36:-0.29346704 37:-0.28203702 38:-0.329355 39:-0.25083897 40:-0.29370758 41:-0.26866162 42:-0.28063953 43:-0.30252287 44:-0.29188642 45:-0.32528433 46:-0.30676576 47:-0.31694832 48:-0.25922558 49:-0.29930508 50:-0.27168036 51:-0.25346422 52:-0.31071055 53:-0.29240015 54:-0.29803666 55:-0.33882308 56:-0.28755522 57:-0.31969655 58:-0.32889554 59:-0.29015628 60:-0.26075378 61:-0.31191906 62:-0.34338996 63:-0.22720592 64:-0.26359791 65:-0.22997701 66:-0.13823833 67:-0.13857542 68:-0.22243185 69:-0.052880988 70:-0.222804 71:-0.030714544 72:-0.23230496 73:-0.24715541 74:-0.28632045 75:-0.30612281 76:-0.089916267 77:-0.32056993 78:-0.12009126 79:-0.23079683 80:-0.16620705 81:-0.23556055 82:-0.23669179 83:-0.23123053 84:-0.25504699 85:-0.26176882 86:-0.26488462 87:-0.23190996 88:-0.16377102 89:-0.21670704 90:-0.051654037 91:-0.06657666 92:-0.16113095 93:-0.22824973 94:-0.34823614 95:-0.2040797 96:-0.22568616 97:-0.25754514 98:-0.30272216 99:-0.30552414 100:-0.32542461 101:-0.34079731 102:-0.32295823 103:-0.29280844 104:-0.31560352 105:-0.31270775 106:-0.29663697 107:-0.36815834 108:-0.32655245 109:-0.33649492 110:-0.35521534 111:-0.33478749 112:-0.27876192 113:-0.30897775 114:-0.30511436 115:-0.32966667 116:-0.31008086 117:-0.25805467 118:-0.38416287 119:-0.33042634 120:-0.40757763 121:-0.36154431 122:-0.33922997 123:-0.36195463 124:-0.34662655 125:-0.3628948 126:-0.25923228 127:-0.31391639 128:-0.35559437 129:-0.34480059 130:-0.18414423 131:-0.28427842 132:-0.19117738 133:-0.16610511 134:-0.18528236 135:-0.14896709 136:-0.15375648 137:-0.20152168 138:-0.19277996 139:-0.20646231 140:-0.20221847 141:-0.26277566 142:-0.24040292 143:-0.27546564 144:-0.26096401 145:-0.25858736 146:-0.27755204 147:-0.26375517 148:-0.26898938 149:-0.27827328 150:-0.29386023 151:-0.31449828 152:-0.3015404 153:-0.3025918 154:-0.30851823 155:-0.29753679 156:-0.29755393 157:-0.31200418 158:-0.29629648 159:-0.30469352 160:-0.32404578 161:-0.30938974 162:-0.30121043 163:-0.28269222 164:-0.30853674 165:-0.30168134 166:-0.28452295 167:-0.30626389 168:-0.29720807 169:-0.30818468 170:-0.30859202 171:-0.286479 172:-0.28422987 173:-0.29582411 174:-0.29049122 175:-0.29561615 176:-0.28933749 177:-0.27267984 178:-0.24237947 179:-0.26244226 180:-0.29005861 181:-0.2845844 182:-0.25233486 183:-0.2593739 184:-0.27923498 185:-0.24168786 186:-0.27069196 187:-0.27296606 188:-0.28754187 189:-0.288605 190:-0.26923859 191:-0.29034895 192:-0.28981239 193:-0.28215358 194:-0.28525287 195:-0.20472771 196:2.0423481 197:1.086803 198:0.014948921 199:0.27748579 200:-0.14636452 201:-0.28986335 202:-0.19389096 203:-0.19854598 204:-0.24123628 205:-0.22665589 206:-0.25749162 207:-0.28520882 208:-0.27119797 209:-0.17798717 210:-0.23945293 211:-0.2502009 212:-0.25624523 213:-0.27171746 214:-0.28797084 215:-0.30713665 216:-0.2712827 217:-0.24215688 218:-0.28981212 219:-0.27087277 220:-0.2775175 221:-0.28929368 222:-0.29964608 223:-0.28432778 224:-0.23598205 225:-0.24761985 226:-0.27930713 227:-0.26612258 228:-0.26328024 229:-0.26262814 230:-0.28485635 231:-0.28026012 232:-0.28951043 233:-0.27908972 234:-0.2758261 235:-0.23294319 236:-0.26382726 237:-0.26558304 238:-0.27349994 239:-0.26300061 240:-0.26061213 241:-0.26739627 242:-0.24299438 243:-0.23275411 244:-0.24156715 245:-0.21149725 246:-0.25483409 247:-0.2679891 248:-0.23753136 249:-0.23135285 250:-0.23719516 251:-0.2091517 252:-0.21392548 253:-0.22052233 254:-0.21988748 255:-0.21017717 256:-0.22745985 257:-0.25017682 258:-0.25848445 259:-0.24995384 260:-0.25524989 #
8.2249106132485323428227275144309 1:-0.14529037 2:0.13915253 3:0.6761111 4:0.5191099 5:-0.18027864 6:0.44068843 7:0.041972063 8:-0.18717691 9:-0.10195843 10:0.15507671 11:-0.0059889168 12:0.0031607084 13:0.090968996 14:0.054219078 15:-0.32472464 16:-0.28929594 17:-0.093033791 18:-0.09624619 19:-0.066415332 20:-0.13474695 21:0.44425818 22:-0.24009278 23:0.020387514 24:-0.029863479 25:-0.1636041 26:0.18510981 27:0.38394412 28:-0.27918324 29:0.40437144 30:0.10910796 31:0.11583616 32:0.12007399 33:-0.084276974 34:0.18002613 35:0.03779811 36:0.021072939 37:-0.17406482 38:0.37204251 39:-0.020241344 40:-0.10942914 41:0.36960697 42:-0.21792008 43:0.013349917 44:0.10544232 45:-0.026095398 46:0.083641715 47:0.30670726 48:-0.079275377 49:0.2102343 50:0.11694381 51:0.28859684 52:0.36563975 53:-0.12087692 54:-0.20440136 55:-0.017120708 56:0.35593233 57:0.34136108 58:0.11016932 59:0.49031308 60:0.33383352 61:0.58829772 62:0.24615547 63:0.9156304 64:1.124807 65:0.12037468 66:-0.18719099 67:-0.18778995 68:-0.064435892 69:-0.077855825 70:-0.065410592 71:-0.12515862 72:-0.21863817 73:-0.26685175 74:-0.19989499 75:0.20969029 76:-0.052193791 77:0.25648358 78:-0.2392938 79:0.28528485 80:0.58235538 81:0.024865407 82:0.009172881 83:0.37611783 84:0.68743122 85:0.023895958 86:-0.012530353 87:0.060453851 88:-0.13967091 89:0.15331808 90:-0.33263642 91:0.053952381 92:0.49439842 93:0.10222314 94:0.6572907 95:0.10428824 96:0.53507191 97:-0.21808323 98:0.5609256 99:-0.014292435 100:-0.083029114 101:0.0554475 102:0.76064247 103:1.0869713 104:1.1760477 105:0.008065314 106:0.020649377 107:-0.016783262 108:0.30260751 109:0.52809823 110:0.90275723 111:0.15796888 112:0.54948455 113:0.7088964 114:0.79778743 115:1.2009183 116:0.30452487 117:0.26030949 118:1.0065751 119:-0.14940666 120:0.28959331 121:0.082762741 122:0.029758254 123:0.74391252 124:0.19762355 125:-0.10866178 126:0.28388149 127:-0.1662713 128:0.6826995 129:-0.1062139 130:-0.16329111 131:0.43921793 132:0.41841406 133:1.052828 134:1.1335458 135:-0.28076383 136:0.1064478 137:-0.062671192 138:0.50610846 139:-0.013765406 140:1.1831454 141:0.74488837 142:0.71272564 143:0.46492612 144:0.36774069 145:0.43768322 146:0.50940245 147:0.418953 148:-0.080351308 149:0.3495791 150:0.58263439 151:0.10929858 152:0.53979874 153:0.89037603 154:0.57589263 155:1.2501566 156:1.1638788 157:0.89930606 158:1.052533 159:0.88867182 160:1.1248848 161:0.95848602 162:0.49146518 163:1.1350099 164:1.8384867 165:-0.00042689798 166:1.5924759 167:0.90875095 168:1.3268363 169:0.20955518 170:-0.10542203 171:0.11612757 172:0.033654582 173:0.06976337 174:0.20587116 175:0.57616967 176:0.72142971 177:-0.23392832 178:0.14042433 179:0.36496577 180:0.47048262 181:0.9198209 182:0.51745272 183:-0.034395404 184:0.98158878 185:0.61939853 186:0.30231282 187:1.1143911 188:0.069316931 189:0.060752969 190:0.99728543 191:0.46588415 192:1.0011519 193:0.22291225 194:0.06684228 195:0.15031865 196:-0.25725901 197:0.068020128 198:0.33640236 199:0.27621013 200:-0.025361493 201:0.60182649 202:0.19767724 203:0.09963569 204:-0.07190185 205:0.44931799 206:0.69749302 207:0.81627071 208:0.75144565 209:1.0656857 210:1.4569005 211:0.34970945 212:0.32735029 213:0.47869095 214:0.071674086 215:-0.26089713 216:0.74966341 217:-0.20656458 218:0.53239757 219:0.17742427 220:0.68447512 221:0.13602012 222:0.49529797 223:0.22686704 224:0.52431321 225:0.18003003 226:0.66116303 227:-0.13338491 228:-0.091090195 229:0.33951202 230:-0.018958375 231:0.73625648 232:0.54127342 233:0.42207813 234:0.39086401 235:0.39813897 236:-0.055104606 237:0.07339967 238:0.15237275 239:0.1535691 240:-0.11901503 241:-0.13079999 242:0.34311581 243:-0.17075615 244:-0.14857478 245:0.24179792 246:-0.061464962 247:0.3358061 248:0.051140953 249:0.12643696 250:-0.066671632 251:0.32163712 252:0.12733734 253:0.025315141 254:-0.11000928 255:0.19417061 256:-0.037628047 257:0.26725572 258:-0.066822 259:0.022085518 260:-0.15484412 #
8.2249106132485323428227275144309 1:-0.13469857 2:0.76711571 3:0.44601282 4:0.3578054 5:-0.049553316 6:-0.082506567 7:0.01290621 8:-0.30213076 9:-0.22087936 10:-0.24529678 11:0.051093418 12:-0.058025051 13:-0.046381988 14:0.061278891 15:-0.2623505 16:-0.16471012 17:-0.17986163 18:-0.2541267 19:0.028547555 20:-0.12172713 21:0.34842193 22:0.33487937 23:0.10600102 24:-0.0069764163 25:-0.023860348 26:0.086022303 27:0.32914621 28:0.27514967 29:0.16776969 30:0.11365224 31:0.042275898 32:-0.078331202 33:-0.10622012 34:0.18554313 35:0.073132135 36:-0.22834137 37:-0.018371206 38:0.26789248 39:-0.0420225 40:-0.13533457 41:-0.17996028 42:-0.010988805 43:-0.03289935 44:0.084817097 45:0.10704431 46:0.24732576 47:0.43032238 48:0.44765002 49:0.27035415 50:0.60500509 51:0.28891432 52:0.34159842 53:-0.25380033 54:-0.017507624 55:0.19873661 56:0.6171993 57:0.38814175 58:0.66927516 59:0.84363037 60:0.65301144 61:0.61495614 62:0.67132169 63:0.4583855 64:-0.14119872 65:0.31583598 66:-0.16433169 67:-0.17649417 68:-0.082228817 69:0.010439431 70:-0.17849614 71:0.09472359 72:-0.18774177 73:-0.15974705 74:-0.22489968 75:-0.10282605 76:-0.11674531 77:-0.17121589 78:-0.16245927 79:0.48731697 80:-0.028529776 81:0.085010268 82:0.21484798 83:-0.025209788 84:0.21552907 85:0.46747991 86:0.41593456 87:0.038860772 88:0.56802988 89:-0.052552085 90:-0.12127925 91:0.17601597 92:0.89487922 93:0.99409747 94:1.0200337 95:0.46917287 96:-0.085286692 97:0.53118062 98:0.92719585 99:0.89726913 100:1.0800258 101:2.0035172 102:1.498089 103:1.2370758 104:0.040995967 105:0.56264812 106:0.62581462 107:0.76985365 108:0.25532401 109:-0.33229899 110:0.10251196 111:0.35189527 112:0.2865957 113:0.50783813 114:0.93981564 115:0.71701396 116:0.4322201 117:-0.098173507 118:0.013529026 119:0.41828096 120:0.026824862 121:0.34691089 122:0.15380368 123:0.82840919 124:-0.023850454 125:0.54803556 126:0.17035772 127:0.77801687 128:0.049650479 129:0.11444274 130:-0.12129628 131:0.42893413 132:1.3400064 133:0.96223772 134:0.7850458 135:-0.059294179 136:0.44888818 137:0.43157938 138:0.53146338 139:0.55671036 140:0.76789391 141:0.60190302 142:0.31491822 143:0.094876908 144:0.52526456 145:0.82035792 146:0.59052438 147:-0.11189897 148:0.061309367 149:0.30794954 150:0.78734237 151:1.1208943 152:0.99440581 153:1.0206906 154:1.2952361 155:1.3421621 156:1.1434367 157:1.5759727 158:1.2097908 159:1.262651 160:1.8505317 161:0.94431919 162:0.90438062 163:2.1842759 164:1.3739705 165:0.65260762 166:1.0421479 167:0.42582202 168:0.69751638 169:0.31029487 170:0.30142418 171:0.23495331 172:0.25606731 173:0.58632934 174:-0.097577967 175:0.61450285 176:0.72084314 177:-0.067274824 178:-0.10279572 179:0.51294112 180:0.61431253 181:1.0074191 182:-0.024623565 183:0.91731155 184:1.6032985 185:0.076791279 186:0.17078838 187:1.7171865 188:0.87137479 189:0.95711726 190:1.8604609 191:1.0470182 192:2.3056612 193:1.375002 194:0.77367973 195:1.7948929 196:0.14438407 197:0.62507343 198:1.2239676 199:1.024577 200:0.51948106 201:1.0976313 202:0.89915776 203:0.35771737 204:0.28862152 205:0.79432034 206:0.78965986 207:0.60164404 208:0.18506299 209:0.35178068 210:0.46258333 211:0.748914 212:1.4957303 213:1.5801562 214:1.4576426 215:0.99643815 216:0.68731594 217:0.54968905 218:0.50359333 219:0.41008279 220:0.089753702 221:1.0307233 222:1.1978636 223:0.74941778 224:1.0931422 225:0.67661887 226:0.18545924 227:0.45411566 228:0.38098967 229:0.13516277 230:0.60069126 231:1.1728642 232:1.0878121 233:0.54725301 234:0.42891085 235:0.29918104 236:-0.13596548 237:0.32023731 238:-0.077748567 239:0.13236125 240:-0.063400842 241:-0.0018074021 242:0.47625935 243:-0.12474551 244:0.25530949 245:0.23089547 246:-0.14322388 247:-0.15192977 248:0.14139687 249:-0.1624992 250:0.11698078 251:0.59411275 252:0.71279579 253:0.78652501 254:0.6076504 255:0.6663453 256:0.82181126 257:0.37196416 258:0.14689778 259:0.33296657 260:-0.089940056 #
8.1898213226112943630141671746969 1:2.0082195 2:0.054553084 3:-0.011757194 4:-0.21588443 5:0.23913698 6:0.36125839 7:0.47891203 8:0.86503744 9:3.0145314 10:1.2957485 11:-0.14384101 12:0.27969712 13:1.2601395 14:2.1131661 15:1.1086615 16:0.65294975 17:1.0439168 18:0.4986043 19:0.37296012 20:1.4443421 21:0.94376922 22:0.34920162 23:0.011791525 24:1.0284433 25:0.35972017 26:-0.19816387 27:0.041826073 28:1.1233571 29:0.25886211 30:0.31017205 31:0.28664184 32:0.75668842 33:0.36150712 34:0.79111952 35:0.66387057 36:0.33839613 37:0.22886816 38:-0.23886153 39:0.10652032 40:1.5135725 41:0.89274967 42:0.40648004 43:-0.181841 44:0.67008007 45:0.19035169 46:0.26406354 47:0.1123072 48:1.0975919 49:0.053666126 50:0.29382148 51:0.0098715471 52:0.63702774 53:0.084821537 54:0.42075744 55:0.26917958 56:0.51170474 57:-0.037121315 58:0.034560628 59:-0.070039123 60:0.1044523 61:0.12014933 62:0.10999958 63:0.20815451 64:0.1567293 65:-0.24088231 66:0.62888235 67:-0.12963648 68:0.32803366 69:-0.15540917 70:-0.021751471 71:0.86967784 72:0.42270932 73:0.88521725 74:3.8913019 75:1.6887765 76:0.66566855 77:0.032868471 78:0.53793526 79:1.2603782 80:0.3840892 81:0.18805791 82:0.52515429 83:0.52668387 84:0.29662102 85:0.80092698 86:0.63636768 87:-0.36292899 88:0.27452862 89:0.11816077 90:0.45440975 91:0.094581053 92:0.012505038 93:0.74062175 94:0.84298491 95:0.1177749 96:0.21727358 97:0.061609395 98:0.072573364 99:0.87173319 100:1.0229236 101:-0.02846227 102:0.28047705 103:-0.15969741 104:0.28300586 105:0.63177395 106:-0.2466161 107:0.60620385 108:0.15834028 109:0.66130143 110:0.296069 111:0.0013537201 112:0.55386198 113:0.44531479 114:-0.11963642 115:-0.028854949 116:-0.32702541 117:0.071177565 118:0.33639118 119:0.39555752 120:0.5706563 121:0.51682562 122:-0.12489572 123:-0.25989208 124:0.058055062 125:0.0097191529 126:0.17007042 127:0.34924549 128:0.2332734 129:-0.34043726 130:0.10480151 131:1.9599333 132:0.64322096 133:0.94258982 134:0.12227923 135:0.68612236 136:1.051293 137:1.3500311 138:0.42696735 139:0.69004017 140:0.87945253 141:1.6013275 142:1.9271293 143:0.92097807 144:0.78365713 145:0.88909715 146:0.29297519 147:0.26521122 148:0.047933623 149:0.19962727 150:2.0745325 151:1.4576434 152:0.20489636 153:0.36013564 154:1.8905734 155:0.89799058 156:-0.025991941 157:1.5055298 158:1.7568628 159:0.16976857 160:0.31660053 161:1.2739522 162:1.8996705 163:0.79993898 164:2.019835 165:0.76718533 166:1.5027859 167:0.16206734 168:0.42750102 169:0.91465139 170:2.396754 171:1.0628531 172:1.3126811 173:0.31970754 174:1.0784837 175:0.06776461 176:-0.066753067 177:0.87365836 178:0.27576843 179:0.90722191 180:0.63669121 181:0.13840808 182:0.47581929 183:0.14166482 184:0.48498011 185:0.78716254 186:-0.13163979 187:0.14139389 188:1.0484235 189:0.10952101 190:0.26927206 191:0.86561084 192:0.40207443 193:0.20263299 194:0.10160866 195:0.056810256 196:0.40419793 197:-0.090082601 198:-0.079532459 199:1.6673869 200:4.1903267 201:1.8144661 202:1.7692823 203:0.43487346 204:0.80478263 205:0.61032897 206:0.1724502 207:0.57047272 208:0.29454786 209:1.1230148 210:0.3250761 211:0.38087487 212:-0.12748495 213:0.35762551 214:0.21188092 215:1.0726312 216:1.7552829 217:0.64654893 218:0.8845939 219:-0.10098 220:1.326784 221:0.87118214 222:0.45665923 223:0.99185848 224:0.91056794 225:0.48692772 226:0.28775173 227:0.71960896 228:-0.17465557 229:-0.21289802 230:0.65647954 231:-0.066648751 232:0.27359566 233:0.10100135 234:0.61954534 235:0.83379513 236:0.32348478 237:0.23049003 238:-0.071231134 239:0.4851644 240:0.01022359 241:0.0033224332 242:0.53901792 243:0.79823709 244:-0.025508188 245:0.46926296 246:0.36342007 247:0.37374109 248:0.038258057 249:0.449949 250:0.44395551 251:-0.094824113 252:0.41026527 253:0.75469363 254:0.11329476 255:0.10566036 256:0.11841743 257:0.0019611765 258:0.088484131 259:0.097980686 260:-0.172755 #
-0.4149904730527967378073128656979 1:0.75702763 2:1.2775253 3:1.4587361 4:1.435403 5:-0.021989832 6:1.0294719 7:-0.010874927 8:0.59914345 9:0.42426205 10:1.4937291 11:0.41903532 12:0.14740731 13:0.70148581 14:1.8129874 15:0.66171992 16:0.14925225 17:0.7452777 18:1.449175 19:0.12841949 20:0.32198814 21:1.851133 22:0.92426097 23:0.70641011 24:1.8119198 25:1.3262459 26:0.33018875 27:0.34917375 28:0.63062602 29:0.35877526 30:0.21951427 31:0.49340189 32:0.64245975 33:1.7659891 34:1.0199097 35:0.49543041 36:0.50330609 37:1.6316818 38:1.5335977 39:0.042958423 40:0.93457949 41:1.1624113 42:2.0833428 43:1.6737726 44:-0.090453587 45:0.94825351 46:0.38207147 47:0.88918537 48:0.61743009 49:1.8449425 50:2.6367757 51:0.78938192 52:4.0835943 53:2.2335835 54:0.047097586 55:1.1668689 56:1.2158711 57:1.5922626 58:1.2177939 59:0.80358416 60:1.5825205 61:0.83165121 62:0.45636842 63:0.53067029 64:0.47176275 65:0.69675475 66:-0.21787842 67:0.29845765 68:0.63454938 69:0.32430539 70:0.22756699 71:1.2552619 72:1.2680317 73:0.39427009 74:0.54022568 75:2.8945994 76:2.3013484 77:0.92936975 78:0.11391626 79:2.8885176 80:0.35057846 81:1.6681068 82:2.1880598 83:1.8904068 84:3.1945143 85:1.5486804 86:1.1576173 87:2.1147716 88:-0.0068787597 89:2.5667999 90:2.6553175 91:0.46261814 92:0.36900851 93:0.15139456 94:0.87559718 95:2.1667686 96:0.68011379 97:0.059130657 98:1.3072262 99:0.1100619 100:2.2559218 101:2.0425625 102:0.65685463 103:2.2744529 104:1.8753761 105:1.2030178 106:4.7359467 107:3.2514286 108:-0.1794935 109:0.65191633 110:0.71948469 111:2.2723072 112:1.6211174 113:3.9458673 114:3.0682607 115:2.2480597 116:3.3588812 117:0.96364623 118:1.2378732 119:1.785422 120:2.6083894 121:2.1360457 122:1.531514 123:0.93336636 124:0.9401052 125:1.3439476 126:2.5394526 127:1.8589545 128:1.6387184 129:2.0388272 130:1.2166327 131:3.4372566 132:3.6430602 133:2.62149 134:3.6339746 135:2.5962474 136:1.815429 137:1.0966723 138:3.8163238 139:3.268558 140:7.4379449 141:7.9945173 142:7.7789702 143:6.1391354 144:5.1975985 145:5.430037 146:1.5970738 147:1.3882844 148:3.1624565 149:2.9666104 150:3.8696101 151:2.4797995 152:3.0027215 153:4.5469246 154:5.9989543 155:3.2282884 156:7.228621 157:3.6359065 158:3.7338839 159:2.4927835 160:1.5510899 161:2.3817184 162:1.2114404 163:2.4922559 164:6.9910779 165:3.1488326 166:3.4389069 167:6.8586192 168:8.242033 169:0.77154976 170:1.8575304 171:1.3513595 172:4.1931777 173:2.6311908 174:4.8065772 175:4.1213779 176:1.8733181 177:2.256285 178:2.635679 179:3.610894 180:4.3994164 181:3.1163967 182:1.9570949 183:3.0319746 184:3.5895946 185:3.8019986 186:1.8959028 187:2.2475121 188:2.5668964 189:0.23032607 190:4.0888481 191:3.4024935 192:5.4183383 193:1.3447123 194:5.2133317 195:2.1353364 196:1.3074646 197:1.8256387 198:5.3102031 199:3.7487113 200:0.77267104 201:2.2033632 202:2.9220686 203:2.5648756 204:1.652409 205:2.0351734 206:2.538614 207:0.8698296 208:3.5060465 209:1.3711851 210:4.0471687 211:3.1706903 212:2.2283509 213:6.8687773 214:3.6771402 215:3.7547653 216:4.1006765 217:4.8597488 218:1.4405792 219:3.7339578 220:3.3467577 221:0.92238218 222:4.5057917 223:1.0046222 224:4.3775802 225:3.2895129 226:4.5414696 227:1.9682246 228:3.9649372 229:4.0598168 230:1.9688445 231:3.6467469 232:0.72819453 233:2.4162405 234:2.4957418 235:2.3923292 236:2.052175 237:2.6095207 238:1.2074826 239:2.2582855 240:1.5369935 241:2.010052 242:1.8888278 243:1.610378 244:0.9603219 245:1.4263927 246:1.0283923 247:1.0883987 248:1.910779 249:3.1272633 250:1.3846571 251:1.1042122 252:0.18930948 253:2.4919705 254:2.7780266 255:2.1073818 256:1.2903696 257:2.2570481 258:1.7703006 259:2.9278078 260:0.96129811 #
2.9010866083935260562043367826845 1:2.2857096 2:0.079143688 3:0.011916947 4:0.7019431 5:0.41255894 6:0.035512526 7:2.8933885 8:0.89752245 9:3.0163863 10:0.30084786 11:1.3655256 12:0.63311571 13:0.41139895 14:2.2225502 15:0.10910503 16:0.7691527 17:0.92958081 18:0.47555789 19:0.014607769 20:1.0006471 21:2.2420909 22:0.59435618 23:0.85241234 24:0.61477375 25:2.3756742 26:0.13029121 27:0.97318858 28:1.0495046 29:2.2520297 30:2.3851943 31:0.41736424 32:2.4502506 33:2.2122972 34:0.88997185 35:0.57278556 36:0.484198 37:0.64484209 38:1.2180862 39:1.1030908 40:1.6948634 41:1.7926382 42:0.51178604 43:0.14311092 44:-0.091706499 45:-0.012387075 46:0.75115168 47:0.45583698 48:0.89669335 49:0.38062683 50:-0.094526462 51:-0.18067878 52:0.61777192 53:0.85795712 54:-0.19914643 55:1.1166421 56:0.91101128 57:0.33486846 58:0.14039892 59:0.019739859 60:0.11953319 61:0.59605628 62:0.22361495 63:0.53135711 64:0.24855785 65:0.66090542 66:0.91275477 67:0.36237085 68:0.41345912 69:1.2759547 70:0.2780191 71:0.071094915 72:1.4677101 73:0.51528019 74:3.028537 75:1.1171623 76:1.0247002 77:0.10463795 78:0.81768543 79:2.1520882 80:-0.27693036 81:0.88410288 82:0.68286413 83:-0.33822984 84:-0.10114104 85:-0.0094210263 86:1.4906522 87:0.42153212 88:0.015116251 89:0.33309394 90:0.68679619 91:-0.25055134 92:0.73255372 93:0.25640285 94:1.2075367 95:1.3716874 96:-0.15128754 97:1.0461456 98:0.46804518 99:0.80272841 100:0.74248427 101:0.56291872 102:0.44073445 103:0.72140092 104:0.32980874 105:0.14531736 106:0.64475 107:0.17592768 108:0.072383977 109:0.20185584 110:-0.13175035 111:0.11394925 112:0.42315936 113:0.41369182 114:0.18091919 115:-0.20626456 116:-0.06379018 117:0.30688697 118:0.16328059 119:0.30314371 120:0.83635604 121:0.81005144 122:0.21720836 123:0.26145601 124:0.068149082 125:0.090411492 126:0.24098167 127:0.083703756 128:0.3599669 129:0.40127826 130:0.53202558 131:2.3452938 132:1.0436294 133:0.88174915 134:0.73036402 135:0.42250106 136:0.33863494 137:4.3531485 138:1.2585301 139:0.53592026 140:0.95564604 141:0.98094136 142:0.71654266 143:2.2431133 144:1.0747347 145:2.7300026 146:0.13638419 147:5.6885438 148:2.1762636 149:0.97393048 150:2.0625029 151:0.3739782 152:2.0682654 153:3.8198731 154:2.609288 155:0.68058932 156:3.4913282 157:0.93848401 158:0.27226356 159:3.5474997 160:1.5895927 161:3.8446765 162:0.78680158 163:1.2262002 164:0.356778 165:1.616549 166:2.1354365 167:0.069373682 168:1.4080071 169:0.27988756 170:1.2852769 171:0.39711976 172:2.1728344 173:2.6355157 174:0.21330614 175:2.0276601 176:0.65559727 177:0.78533876 178:0.1270417 179:0.42699489 180:0.87122846 181:0.73619753 182:0.15312174 183:0.54461497 184:1.5527247 185:0.41203368 186:1.6808752 187:1.8656057 188:0.34568843 189:0.8302716 190:1.7362082 191:1.3325485 192:1.1764711 193:1.6957878 194:1.5668879 195:0.97595918 196:-0.076103903 197:-0.13549237 198:-0.022296498 199:4.4358983 200:3.3788266 201:2.5436242 202:0.75112182 203:2.6857548 204:1.6446185 205:4.5356021 206:2.4934125 207:0.47156647 208:1.2050897 209:2.6644883 210:0.88627642 211:0.86570275 212:0.78897387 213:0.8956151 214:0.60365868 215:0.39089906 216:0.090084091 217:0.59840149 218:0.42388013 219:1.2739679 220:1.1509334 221:1.6390475 222:0.78211248 223:0.22244309 224:0.46726632 225:-0.029374469 226:-0.018586215 227:0.89584994 228:1.7042056 229:0.21832454 230:0.62348485 231:2.1161096 232:0.36225763 233:1.0263871 234:1.4361461 235:0.19990355 236:0.086272389 237:0.27654803 238:0.8677488 239:0.16456147 240:-0.13061608 241:0.58505529 242:0.40355223 243:0.39294246 244:0.53019297 245:0.019121436 246:0.32105064 247:0.17644361 248:0.54766816 249:0.55569619 250:1.0414553 251:1.0578791 252:0.32344556 253:0.47799888 254:0.54620516 255:0.40025774 256:0.95612156 257:0.066839755 258:0.55824119 259:0.67204863 260:0.013615947 #
1.8425722914957787246237330691656 1:1.9891903 2:0.22824147 3:0.25995848 4:0.093941249 5:-0.00083005067 6:0.43322179 7:1.2541991 8:5.5050702 9:1.0911958 10:1.0165579 11:0.9866364 12:0.30243769 13:-0.15143609 14:3.3716834 15:6.2162151 16:3.0769391 17:2.0860898 18:3.0374761 19:3.7854803 20:0.3710402 21:5.1834364 22:5.2643685 23:6.0029364 24:1.264951 25:2.5789065 26:3.6073012 27:1.4494619 28:5.0372639 29:2.3529007 30:5.3362126 31:2.1695712 32:3.9645104 33:4.7819815 34:1.5775666 35:3.6541822 36:1.6146352 37:4.9114814 38:4.2777443 39:4.087431 40:5.3288803 41:0.66650707 42:2.2974555 43:4.2128425 44:3.2863383 45:4.6169896 46:4.2631969 47:5.7896862 48:1.1688541 49:2.7525244 50:3.0363514 51:0.8722623 52:4.7616 53:1.7149632 54:7.2462168 55:1.1845635 56:4.2377834 57:0.66571724 58:2.6442144 59:5.335248 60:2.437921 61:6.4514928 62:4.4209437 63:4.5309968 64:3.9485199 65:1.9462593 66:0.82541311 67:1.0790459 68:0.65587717 69:0.081800081 70:0.41468057 71:0.20158406 72:1.1648055 73:4.3179054 74:0.4699533 75:0.26296327 76:0.5979706 77:0.63474399 78:0.99291599 79:2.9633045 80:4.5625062 81:2.2448132 82:0.52046996 83:1.1520489 84:0.64817429 85:0.77188063 86:3.6521263 87:3.4670186 88:3.4176311 89:-0.20502175 90:1.0152316 91:1.7676123 92:1.8578944 93:2.6460953 94:1.909876 95:1.4588643 96:0.53277808 97:1.2674124 98:0.39991635 99:1.4371686 100:0.90168774 101:3.3957269 102:5.2982416 103:1.0183718 104:1.4526244 105:0.26915491 106:1.028939 107:0.87880147 108:1.5441531 109:8.0756016 110:3.1563642 111:0.95986885 112:-0.053617463 113:1.5673862 114:1.1095855 115:2.0297959 116:5.482482 117:5.3188829 118:0.7832405 119:1.3279592 120:1.246279 121:1.8401102 122:4.5689611 123:1.4400895 124:3.4208589 125:1.7563516 126:1.9668802 127:1.2374582 128:2.1086833 129:1.8954357 130:3.9530442 131:0.71531624 132:0.097917929 133:-0.064907722 134:-0.052336145 135:0.16053762 136:0.57504219 137:0.7567122 138:2.4024394 139:0.28151351 140:0.66302776 141:0.26414302 142:0.25728327 143:-0.043047693 144:1.6146216 145:2.907181 146:1.1538374 147:0.23962615 148:0.65246135 149:1.9306333 150:0.065518916 151:3.4520984 152:2.8338726 153:1.05937 154:0.30772629 155:1.5221695 156:2.7705846 157:0.070259191 158:3.0145233 159:0.94405073 160:1.3730422 161:0.54122484 162:2.2122478 163:2.0472515 164:-0.23814951 165:2.1491902 166:1.3095721 167:1.2108592 168:1.5152109 169:2.8374734 170:2.2701168 171:0.31300277 172:2.0167902 173:0.34807375 174:0.34162715 175:2.0612214 176:4.4490671 177:1.4590619 178:1.4728645 179:1.3428037 180:0.067993015 181:0.22300673 182:2.230593 183:5.0130682 184:0.88105875 185:1.3085642 186:1.4337565 187:1.0417098 188:0.92332232 189:3.454262 190:4.0663047 191:0.87366068 192:1.1218785 193:2.701164 194:3.2017272 195:2.6151187 196:-0.16195369 197:0.25374362 198:0.31184855 199:0.77198303 200:0.88175488 201:1.2470051 202:0.54352027 203:1.7660201 204:-0.1970005 205:0.21096481 206:0.90740806 207:1.1217121 208:1.109243 209:2.2167132 210:6.2387772 211:2.1476829 212:0.5180434 213:1.0777756 214:1.3960335 215:1.2526933 216:2.9599874 217:4.2594833 218:3.9242506 219:1.0758468 220:0.23459342 221:2.7941644 222:1.1704265 223:3.5015619 224:1.8787502 225:1.9974508 226:0.90848279 227:2.2420006 228:2.565423 229:0.12126449 230:4.6909266 231:0.014372359 232:3.2326586 233:0.66164678 234:2.2424068 235:1.1024857 236:0.90644562 237:4.37711 238:3.1838398 239:3.5415061 240:0.32604659 241:2.1054783 242:2.761441 243:2.0660312 244:3.4728806 245:3.4346786 246:1.924523 247:1.5386031 248:1.925624 249:3.6413107 250:4.1016603 251:2.6617002 252:3.6943939 253:1.2031008 254:3.1261582 255:1.2002655 256:3.2965381 257:4.2781239 258:0.30591434 259:4.4732723 260:0.96745431 #
-1.2852354759532313988046325903269 1:0.7143237 2:-0.11426038 3:1.5301586 4:0.45060018 5:0.28666326 6:2.007355 7:0.29105797 8:0.82749665 9:-0.11848239 10:0.18036632 11:0.050309703 12:0.070875674 13:0.18788746 14:1.4283552 15:1.1492947 16:0.93268132 17:1.9247406 18:0.87263745 19:0.5279156 20:1.0443434 21:0.13927057 22:-0.070405923 23:-0.086757272 24:0.47397786 25:2.1190596 26:1.3176789 27:1.0537641 28:0.12999056 29:0.12591484 30:1.5478643 31:0.12845886 32:2.6402292 33:2.0120206 34:0.41824159 35:0.50735289 36:0.14577788 37:1.8722662 38:0.34399223 39:0.9745695 40:1.386752 41:1.7763534 42:0.91834682 43:1.0044949 44:0.32835659 45:0.39521483 46:0.65046704 47:0.72628391 48:1.3914665 49:0.73230922 50:0.066923976 51:0.82083583 52:1.0807134 53:0.58458835 54:0.26692265 55:1.4016087 56:2.1254604 57:0.32672751 58:-0.2227487 59:1.4822521 60:0.1958877 61:0.46104434 62:1.5313311 63:-0.048428334 64:1.7438973 65:0.66559368 66:-0.16692998 67:0.28351745 68:-0.0023394553 69:0.38574016 70:0.044315096 71:0.24277446 72:1.0877367 73:0.088850491 74:3.9348276 75:2.2553747 76:2.2104938 77:0.55437338 78:0.92252237 79:1.8180615 80:0.023180017 81:0.97585285 82:1.3242511 83:0.97695887 84:0.56629378 85:0.457544 86:4.019639 87:0.7903356 88:0.72678882 89:2.2924473 90:1.1251067 91:1.3412005 92:-0.098446451 93:0.76308632 94:0.27808389 95:1.8314384 96:-0.20751585 97:0.57813531 98:3.3673651 99:0.24567737 100:2.2870095 101:0.44997609 102:0.18681 103:0.9329229 104:1.0204834 105:1.2278707 106:2.3934045 107:1.0554019 108:0.15097767 109:0.51148558 110:1.2375287 111:0.63977218 112:0.58788139 113:1.8114374 114:1.3917812 115:1.2872669 116:-0.12048794 117:1.3641961 118:0.72179157 119:-0.097212546 120:-0.021414785 121:1.3114619 122:0.21771944 123:0.11610139 124:0.24131724 125:0.21017461 126:0.42641342 127:1.3489943 128:0.96625048 129:0.32027856 130:0.72882199 131:1.2991366 132:1.2251884 133:0.19768293 134:1.5188754 135:0.78014094 136:1.9616678 137:2.287816 138:1.8951598 139:0.5349431 140:2.1133339 141:1.2495835 142:-0.14269152 143:1.0617031 144:0.2748366 145:2.6172531 146:1.1926324 147:0.59266073 148:3.1535251 149:-0.01536914 150:0.89370447 151:1.796767 152:1.0320059 153:0.9404856 154:1.5558418 155:0.60957789 156:1.4129176 157:0.65175533 158:1.0796958 159:2.0436742 160:1.8131657 161:1.1621671 162:-0.03629313 163:1.3000375 164:0.1833972 165:2.1915932 166:0.081267722 167:0.17647251 168:1.919558 169:0.11735225 170:1.2848201 171:1.4787424 172:0.24956472 173:1.2740871 174:0.47161087 175:0.70902181 176:0.86917818 177:0.85326213 178:0.19603957 179:1.2639471 180:0.73377401 181:1.4129115 182:0.9527297 183:0.22400822 184:0.66978568 185:0.82166517 186:0.14735983 187:0.50280291 188:1.0024173 189:1.2376325 190:0.7745505 191:1.532487 192:0.89508814 193:1.1111057 194:1.5177736 195:-0.18022105 196:1.8497335 197:4.2866998 198:7.1981335 199:3.0449851 200:4.5441756 201:0.67113763 202:0.76946771 203:3.4589143 204:0.23538558 205:1.719153 206:3.6956596 207:0.94170952 208:3.0562146 209:2.1620722 210:0.68185544 211:1.289203 212:3.3386693 213:1.166752 214:4.435492 215:0.92121792 216:4.0647907 217:1.8638554 218:2.2883239 219:0.61826795 220:4.0043545 221:1.3660856 222:3.121249 223:2.5908141 224:1.7214361 225:2.9120107 226:2.1599884 227:3.4344258 228:3.2692933 229:3.3468912 230:0.3281602 231:0.68706936 232:1.3593414 233:1.1521459 234:0.93371379 235:0.82459772 236:2.2049041 237:0.21463908 238:1.2919681 239:0.7127229 240:1.6317338 241:0.15087658 242:0.57962376 243:1.2710098 244:0.54114258 245:0.17446004 246:0.92778832 247:1.0390481 248:0.2577551 249:1.7563506 250:0.081915312 251:1.7021563 252:0.74588847 253:0.72449028 254:0.30152452 255:0.66260427 256:0.37651625 257:0.37785479 258:0.069148116 259:0.41730106 260:1.0629053 #
-0.057414779993010089942373497251538 1:2.382654 2:0.062423814 3:2.266839 4:1.5268188 5:4.0946851 6:1.2847505 7:1.1313496 8:1.4965647 9:3.3991878 10:2.6075068 11:0.76186037 12:1.7812265 13:1.0928278 14:5.135489 15:3.1651876 16:0.97998035 17:5.450541 18:3.2155635 19:2.8196528 20:2.4078994 21:8.4440727 22:1.2873712 23:1.6599095 24:1.3087645 25:7.578373 26:1.5212735 27:5.0854225 28:4.9368267 29:9.0058088 30:3.6107082 31:1.7934798 32:2.669543 33:5.0867105 34:6.9354477 35:3.7885802 36:4.237474 37:6.2500668 38:2.4607086 39:0.87693089 40:2.2160766 41:12.73497 42:7.2918429 43:-0.25015956 44:4.7910571 45:12.414578 46:7.8963432 47:3.2981567 48:9.362216 49:12.631103 50:0.49729007 51:4.979774 52:4.6737857 53:13.204922 54:3.0993066 55:5.7069001 56:9.2425528 57:10.772186 58:6.5372257 59:1.8805376 60:8.5391874 61:8.8339167 62:8.3471127 63:6.6097441 64:6.2036471 65:4.9624581 66:-0.056561202 67:0.29571447 68:0.79194814 69:0.31925833 70:1.2261109 71:0.12644795 72:0.045320842 73:0.65302366 74:4.1424975 75:1.7057977 76:0.20788918 77:0.8630417 78:4.9003816 79:2.2108452 80:1.8929546 81:0.10765461 82:8.4367237 83:6.5028052 84:0.74868393 85:2.4462283 86:5.2199001 87:3.6330047 88:1.578643 89:3.5422955 90:1.6631184 91:5.1138296 92:0.7437768 93:2.217433 94:6.1695709 95:2.6336496 96:1.9042926 97:2.8564529 98:4.9226561 99:2.4016435 100:3.1793232 101:1.1410094 102:4.2214289 103:3.2498522 104:1.4857733 105:1.5688462 106:4.8056955 107:0.42539534 108:0.73232764 109:0.91618401 110:4.1305852 111:4.4579649 112:0.22166398 113:1.2030327 114:5.6168308 115:2.487443 116:1.2965547 117:3.3955748 118:1.4061944 119:5.3268361 120:0.46562266 121:2.0876305 122:0.93989521 123:8.3173456 124:3.0030689 125:3.5413961 126:4.1528339 127:3.1492891 128:3.5699048 129:2.7800241 130:2.757189 131:3.3513646 132:1.0798167 133:-0.029483438 134:0.58480364 135:0.7767626 136:-0.20165625 137:0.71565318 138:0.3706339 139:3.1430876 140:0.13948537 141:1.0203792 142:2.4385591 143:5.619432 144:0.9270978 145:1.1753455 146:0.39517862 147:2.9687164 148:0.73819917 149:0.76338392 150:2.4895425 151:3.1236033 152:1.387517 153:0.14879085 154:0.70316589 155:3.3654275 156:0.99066722 157:5.3276172 158:1.7724893 159:3.7026691 160:3.1032882 161:3.1019094 162:1.6979597 163:6.8458476 164:3.1829176 165:1.8401744 166:3.7564139 167:4.2186875 168:7.5068126 169:2.8776195 170:2.0837371 171:3.5663722 172:1.6516221 173:1.3699987 174:2.9717841 175:3.976723 176:3.5891385 177:1.3051647 178:1.9568009 179:4.8064513 180:3.4003282 181:1.9494663 182:3.0265272 183:5.0681925 184:5.6948647 185:3.8477466 186:2.8366764 187:5.559926 188:2.7814481 189:3.4494829 190:2.2493308 191:4.5008473 192:6.5154862 193:1.4924688 194:2.3730412 195:6.2231741 196:-0.18593125 197:0.36193919 198:0.10330439 199:0.60671121 200:3.1393745 201:2.0439987 202:0.36712939 203:1.7129611 204:2.9318352 205:3.5115683 206:3.1216464 207:1.3678422 208:1.4574661 209:0.29765946 210:2.9483709 211:0.97165388 212:4.7238054 213:4.6132255 214:1.8366967 215:1.7976094 216:1.8083963 217:4.7664733 218:0.4884766 219:1.9736332 220:10.496879 221:4.9997554 222:2.6335378 223:2.7981048 224:7.8327756 225:5.3761106 226:2.977354 227:3.6779754 228:9.2617331 229:4.8760934 230:4.6366343 231:2.1452255 232:3.8848455 233:8.9780483 234:3.8363049 235:1.6163692 236:6.9606733 237:4.4116406 238:4.0572362 239:0.28455314 240:3.0456059 241:5.1509919 242:4.0621243 243:1.2670372 244:3.8656549 245:3.5687344 246:1.3336117 247:1.7725327 248:1.7295787 249:2.8310089 250:4.5873156 251:1.5124739 252:2.1763592 253:2.8100052 254:1.4519786 255:1.8489071 256:0.96154577 257:2.8200157 258:0.44530746 259:3.0560184 260:1.5494517 #
-0.18744419954859403709690468531335 1:1.9234431 2:2.5710115 3:3.0306365 4:2.9863784 5:1.3285811 6:2.6362967 7:1.7203082 8:0.43246153 9:0.0050186929 10:0.76800734 11:1.5595562 12:0.81823266 13:1.4177289 14:2.5228748 15:1.1920021 16:0.47501308 17:0.35547373 18:0.84655631 19:1.4146318 20:0.73538387 21:2.0414622 22:3.0609162 23:2.2958632 24:1.3666134 25:0.92060339 26:2.3204079 27:1.866814 28:1.4542502 29:1.4758369 30:2.3329897 31:0.7591328 32:0.59341371 33:1.2627931 34:2.1931057 35:2.4551904 36:1.7184111 37:0.77800798 38:1.6486973 39:2.5743001 40:2.12866 41:0.36875036 42:2.351346 43:3.0517316 44:1.7263013 45:4.7853394 46:4.3186903 47:1.0440876 48:3.1501296 49:2.8870473 50:1.4969424 51:1.6622505 52:4.0732045 53:3.3909743 54:3.2526681 55:4.0239563 56:5.1251755 57:5.3988008 58:2.8449185 59:1.8874561 60:1.5410281 61:0.44202954 62:1.4960319 63:3.903713 64:4.8295712 65:6.3694396 66:0.54999894 67:1.2867815 68:1.6384531 69:1.0790277 70:0.19522189 71:0.2310147 72:0.53823638 73:0.31687641 74:0.42456242 75:1.7954962 76:2.6978531 77:1.4595358 78:2.7925198 79:3.538552 80:4.8710322 81:2.2768457 82:1.7209942 83:1.2519207 84:0.72757041 85:3.2029383 86:3.9653282 87:5.2929568 88:3.0796683 89:1.7520214 90:4.878273 91:5.9494114 92:3.5999613 93:1.9045463 94:3.9635637 95:3.9545088 96:2.5650177 97:1.2599732 98:1.1556566 99:-0.26064536 100:0.30801404 101:2.8572562 102:5.2399859 103:3.4120054 104:3.3968127 105:1.2092251 106:2.0380569 107:0.43225336 108:0.95364052 109:2.0625403 110:2.5262942 111:3.0650418 112:5.0332069 113:1.7946035 114:-0.12163896 115:0.3298229 116:4.0619941 117:4.372407 118:2.3885472 119:4.0467167 120:3.8659067 121:4.2374105 122:7.3231297 123:8.3318491 124:8.349247 125:8.0727863 126:10.909099 127:10.449314 128:4.4439421 129:1.0180573 130:-0.30208158 131:3.0506389 132:8.6787786 133:7.4885197 134:7.2555699 135:8.2254534 136:8.8776722 137:5.901166 138:3.0503275 139:1.7285943 140:4.6655078 141:4.5158405 142:3.2730279 143:4.4398208 144:7.053926 145:8.2266273 146:5.0965133 147:3.8132532 148:4.7255483 149:5.3212137 150:5.7885971 151:4.4129295 152:6.3653626 153:8.1296225 154:6.5893631 155:6.2706604 156:8.0082264 157:6.1618538 158:3.4557204 159:2.9039998 160:1.645731 161:2.4002414 162:3.2364683 163:4.7447605 164:5.4761405 165:3.8914268 166:5.1839657 167:3.449662 168:2.7761886 169:4.6457219 170:3.777437 171:3.4385655 172:3.8358858 173:5.3442621 174:6.1404171 175:6.1600742 176:2.9930518 177:3.9385965 178:5.8516021 179:4.6423311 180:1.9247686 181:3.0300438 182:3.80568 183:4.4777122 184:5.3654604 185:5.3181505 186:8.1398554 187:10.734324 188:12.621568 189:11.938371 190:9.4245958 191:8.5307922 192:8.2859325 193:5.1614418 194:2.2823379 195:2.7226839 196:3.6988318 197:3.0499287 198:2.1289599 199:2.4139743 200:1.2810084 201:3.1660655 202:3.7900531 203:4.1185355 204:3.2686117 205:4.8348575 206:5.5653248 207:5.9654307 208:5.6458235 209:6.0335917 210:4.4216018 211:2.9618871 212:3.3181775 213:3.2811928 214:3.4469121 215:2.2414894 216:4.8586359 217:5.7651386 218:5.1470714 219:4.2928362 220:4.4553699 221:4.5598297 222:5.2232552 223:6.6793456 224:5.5926652 225:4.8620715 226:5.6675844 227:6.8181987 228:5.0934043 229:2.088686 230:0.39859849 231:2.6972959 232:2.4548094 233:1.5772263 234:-0.017805064 235:0.58853292 236:1.3319026 237:3.3956382 238:5.5267892 239:5.4937654 240:6.8005071 241:7.8602018 242:9.2357359 243:8.0182009 244:7.9597902 245:7.4146829 246:6.8785915 247:4.7212696 248:4.5503969 249:4.5264511 250:2.752558 251:4.0703444 252:3.524061 253:2.7102296 254:2.6249206 255:3.3293107 256:2.1260517 257:1.2346762 258:3.0424006 259:2.1428044 260:3.4188511 #
-2.3276295397472983594866491330322 1:1.4367095 2:-0.10848035 3:0.17641306 4:0.73687965 5:0.17063202 6:0.4941487 7:1.891317 8:2.7374933 9:2.216579 10:1.8252017 11:2.148849 12:1.0432597 13:0.44640753 14:1.6784298 15:0.98975986 16:1.4254894 17:0.78831011 18:0.62525868 19:1.2723722 20:4.7817054 21:0.049549453 22:1.7979763 23:0.45064178 24:1.2067188 25:0.13393943 26:1.4929171 27:0.84802192 28:2.4346931 29:0.97715545 30:0.81607741 31:3.9778552 32:0.23954935 33:0.86096883 34:2.3714266 35:2.806006 36:2.9494193 37:2.3321848 38:2.2053666 39:3.4093177 40:-0.00063197879 41:0.73329967 42:2.0206182 43:3.910809 44:0.42528594 45:2.2088022 46:2.4011464 47:1.9320536 48:0.48503909 49:1.1734518 50:1.3565056 51:1.5697651 52:1.2097225 53:0.48697293 54:0.67641348 55:0.87121969 56:1.4943317 57:0.76712698 58:2.1586988 59:2.145834 60:1.1130452 61:1.0135444 62:0.99028337 63:2.1081316 64:1.3087786 65:1.3646921 66:-0.088362068 67:0.75178182 68:1.1193596 69:0.82041329 70:0.63593191 71:0.68537116 72:2.8241405 73:3.1015143 74:1.9097755 75:1.547642 76:0.69878387 77:0.94882882 78:1.7458713 79:1.5087986 80:0.51549357 81:0.71917063 82:0.34666857 83:1.2489524 84:1.009612 85:2.1555409 86:1.4420748 87:1.3580455 88:1.7823761 89:3.5449731 90:1.7916561 91:1.998297 92:0.73206699 93:1.2315615 94:1.1364114 95:-0.0720101 96:1.4496698 97:0.61980772 98:1.3389499 99:1.4587882 100:1.9162455 101:0.51933956 102:0.6513654 103:1.040612 104:1.064571 105:0.32055667 106:1.4698738 107:0.84895086 108:2.1739252 109:0.20930673 110:0.41507778 111:1.5032424 112:1.9387594 113:0.30861303 114:1.0247015 115:0.82259369 116:-0.14277788 117:0.73554808 118:0.9655928 119:1.7427766 120:0.83694935 121:1.147449 122:1.4327455 123:0.83197808 124:1.0054102 125:0.30578339 126:1.1009699 127:0.94617748 128:1.1472459 129:1.3239095 130:1.516027 131:1.2325573 132:0.19554482 133:0.54173362 134:-0.020006221 135:1.0026417 136:1.1840376 137:1.0761503 138:0.58099711 139:0.11368535 140:0.99040914 141:1.0356786 142:2.1174834 143:0.23997019 144:0.38133311 145:1.3131447 146:2.4793186 147:0.7080915 148:1.0135541 149:0.56663197 150:1.9912301 151:0.89234829 152:1.9483467 153:2.0765817 154:1.2026062 155:0.54389763 156:1.1887594 157:1.5087903 158:0.12231049 159:0.26159534 160:1.7903653 161:1.8102139 162:0.54636621 163:0.91974849 164:0.56382906 165:0.3096112 166:0.52549559 167:-0.010850316 168:1.7062609 169:1.4654247 170:0.66168696 171:0.85404307 172:0.39376214 173:0.2862204 174:0.26885849 175:0.69120675 176:0.90204108 177:0.59552407 178:1.1882571 179:0.51586449 180:0.43574211 181:0.91344231 182:0.59991723 183:0.56271529 184:0.72585964 185:1.1986862 186:1.638875 187:0.0073763598 188:0.65045851 189:1.1450256 190:1.1569221 191:1.3677341 192:-0.031400532 193:1.9716655 194:1.6829427 195:2.0437062 196:0.33043295 197:0.49180159 198:0.94229883 199:-0.16506229 200:2.0601337 201:1.9436784 202:0.33290282 203:2.2248211 204:1.3514684 205:1.3003992 206:0.045868397 207:1.4551216 208:0.41250685 209:1.2179878 210:0.32922867 211:2.2927167 212:-0.013332707 213:1.1200991 214:-0.15615657 215:1.995977 216:0.98025608 217:1.3296008 218:0.96698141 219:0.055570833 220:0.43826473 221:0.15163377 222:0.86008859 223:2.2498002 224:0.37202719 225:0.33083701 226:4.2139378 227:0.55907965 228:0.70156676 229:0.47220021 230:1.6360892 231:2.3631167 232:0.76776266 233:2.2586019 234:4.0019064 235:0.72509468 236:1.345927 237:0.42823938 238:2.5996075 239:0.99605495 240:0.89963651 241:2.3957212 242:1.9432253 243:0.92913216 244:0.97212112 245:1.8794986 246:0.45708448 247:0.8154279 248:0.1689297 249:0.891909 250:2.5384152 251:0.2432076 252:0.54808545 253:1.1915063 254:1.3671203 255:0.82556081 256:2.947365 257:0.14251943 258:1.2707815 259:1.0971944 260:2.9496782 #
3.1317854805233791282148558821063 1:1.7998492 2:-0.1973682 3:0.86380154 4:1.8848199 5:6.4240832 6:1.6413723 7:1.3443495 8:2.4578297 9:2.3916788 10:1.6242281 11:3.7290835 12:4.0746012 13:5.3171234 14:2.0624602 15:0.42096928 16:1.3292813 17:2.1055691 18:3.7705913 19:0.95817417 20:1.8812401 21:1.251232 22:3.4166791 23:1.4164393 24:0.41475308 25:0.62768084 26:0.1399551 27:1.6556364 28:1.5348245 29:1.3980378 30:0.92137295 31:0.40066183 32:0.44241905 33:0.1304938 34:2.6561592 35:0.067980386 36:1.0514598 37:-0.093654744 38:0.034608174 39:0.81777459 40:1.5588508 41:1.0608606 42:0.86066002 43:0.35036582 44:0.60542184 45:0.49619919 46:0.77165061 47:0.38048241 48:0.43639845 49:-0.067381978 50:0.0049567856 51:0.088770941 52:1.4275072 53:0.2529617 54:1.4075761 55:0.6484127 56:0.53073812 57:0.74453712 58:0.29909596 59:1.5799834 60:1.1719512 61:0.3244409 62:0.40358785 63:0.011083547 64:-0.25227377 65:0.68278843 66:0.25711551 67:0.80268025 68:1.0100486 69:1.3864689 70:1.6583207 71:2.4294467 72:2.4670825 73:0.90724474 74:5.8907914 75:3.4207323 76:1.3455338 77:0.84291857 78:3.3826385 79:1.1633531 80:0.91308361 81:2.0583389 82:1.4817845 83:1.2979633 84:1.8873811 85:2.7923057 86:2.6720347 87:1.0110824 88:4.1837373 89:1.3349061 90:2.8724182 91:1.1521691 92:0.64410686 93:3.2624209 94:2.8623977 95:3.0829496 96:0.76661599 97:1.6491102 98:1.6543818 99:3.5875983 100:0.31107563 101:1.311298 102:2.5574026 103:2.2850804 104:1.1466026 105:0.50169557 106:0.38000891 107:-0.059361156 108:0.95226055 109:0.3344444 110:-0.11261675 111:0.81997937 112:1.0137782 113:0.68970579 114:0.098894462 115:1.9581442 116:0.6832301 117:1.4358765 118:0.7279492 119:0.54520267 120:0.51402569 121:1.5419352 122:-0.16878599 123:0.77508146 124:0.85890615 125:0.64617139 126:1.4511839 127:1.4298697 128:1.1961645 129:0.15387236 130:1.1510752 131:3.0080788 132:1.5005237 133:0.77977508 134:1.6207411 135:1.5032728 136:0.6561808 137:1.320482 138:1.0882903 139:1.8723857 140:0.096743718 141:2.1749649 142:0.96050197 143:5.3409867 144:2.1242065 145:1.509214 146:1.4992911 147:0.61471015 148:2.1019647 149:2.543632 150:1.3878299 151:2.4206369 152:1.546819 153:0.4534542 154:3.3204007 155:4.0600157 156:0.2280208 157:1.3011239 158:1.4031043 159:1.2907699 160:2.3292785 161:0.33032402 162:3.4774952 163:3.646652 164:0.73473334 165:1.8776188 166:1.978969 167:1.9884452 168:0.5471254 169:3.2188172 170:0.88891584 171:1.1353694 172:0.22827409 173:0.35671303 174:1.0389216 175:0.98716271 176:2.2088315 177:0.58126599 178:0.97775662 179:0.46460634 180:1.3218685 181:1.9431595 182:0.57059407 183:0.98006201 184:0.3828828 185:1.6559616 186:0.70557845 187:0.13826889 188:0.096968487 189:0.61787277 190:0.057586566 191:0.20655143 192:2.189677 193:1.5610563 194:0.62422061 195:-0.040996883 196:1.989951 197:-0.014933254 198:3.337918 199:2.4728055 200:4.431222 201:2.9555469 202:1.0340464 203:2.6063995 204:3.3004692 205:3.3743875 206:1.9896626 207:0.28086838 208:3.115607 209:3.3023362 210:0.47393644 211:1.665562 212:0.20219016 213:1.2770498 214:2.0110378 215:0.17093281 216:-0.17291974 217:2.9012887 218:0.920219 219:1.6503983 220:2.1118848 221:0.39882007 222:1.1704917 223:1.5278039 224:1.4054518 225:0.21547239 226:0.84440321 227:-0.020229951 228:0.17434199 229:0.37518069 230:2.5367527 231:1.9419197 232:2.0327566 233:1.3959247 234:0.7324478 235:1.9793662 236:0.62941813 237:1.2511411 238:0.86293107 239:0.53701288 240:0.65413952 241:0.039862368 242:0.98060858 243:0.52489346 244:0.45537227 245:0.31730431 246:0.61753452 247:1.002573 248:0.33760554 249:0.52918267 250:0.1027646 251:0.77582723 252:0.53466147 253:0.18677145 254:0.30139658 255:-0.145925 256:0.37400866 257:0.13174796 258:0.50068468 259:0.31940335 260:1.3030446 #
8.2249106132485323428227275144309 1:-0.063923597 2:1.6900885 3:1.8546996 4:0.82530189 5:0.080258973 6:0.6123566 7:0.09880513 8:-0.096621253 9:-0.090063311 10:-0.093017623 11:-0.20427419 12:0.12555723 13:0.32184166 14:0.34265652 15:0.30039567 16:0.024917241 17:-0.013588503 18:-0.049398046 19:0.14660774 20:0.24662685 21:0.35237128 22:0.35786369 23:0.42930341 24:0.44686595 25:0.30690825 26:0.20119135 27:-0.021202834 28:0.1926851 29:0.54530859 30:0.51554501 31:0.25885895 32:0.30752653 33:0.46228686 34:0.46239248 35:0.34515017 36:0.20148791 37:0.26596299 38:0.40076953 39:0.43161181 40:0.33208761 41:0.16396998 42:0.11565173 43:0.10809503 44:0.00057471532 45:-0.041901756 46:0.046985369 47:0.18325472 48:0.14272045 49:-0.045220591 50:-0.17783764 51:-0.078354374 52:-0.033546053 53:-0.014091481 54:-0.1445843 55:-0.10885302 56:-0.19534054 57:-0.19115838 58:-0.15259241 59:-0.086579792 60:-0.080859527 61:-0.095497251 62:-0.13012351 63:-0.24742098 64:-0.19830413 65:-0.23661111 66:-0.1041623 67:0.1571247 68:0.34255064 69:0.050799668 70:-0.00080570841 71:0.45954788 72:0.39622411 73:0.061643519 74:-0.063703597 75:0.35022953 76:0.53838575 77:0.17883995 78:-0.015040359 79:0.13269463 80:0.067984127 81:-0.11204636 82:-0.0026163063 83:0.23924874 84:0.66048032 85:0.88397259 86:0.94562775 87:0.95614636 88:0.87168729 89:0.77101803 90:0.74184614 91:0.45628321 92:0.2296277 93:0.56206852 94:0.61257362 95:0.1104626 96:-0.22758925 97:-0.25585204 98:-0.16602148 99:-0.14977635 100:-0.19213009 101:-0.1450161 102:-0.13738321 103:-0.13007942 104:-0.24328461 105:-0.083329722 106:0.044685297 107:-0.0088980114 108:0.044470746 109:-0.043276917 110:-0.18527147 111:-0.28839129 112:-0.19398153 113:-0.025660519 114:-0.010680727 115:-0.08947444 116:-0.080528803 117:0.0057672528 118:-0.067900516 119:-0.10130446 120:-0.13859278 121:-0.020997237 122:0.033322267 123:0.064154126 124:-0.12969398 125:-0.31599414 126:-0.20851736 127:-0.15013713 128:-0.17596954 129:-0.11348671 130:-0.019221473 131:-0.17017247 132:0.23314829 133:0.15117471 134:-0.097315498 135:-0.17253739 136:0.012398194 137:-0.085783184 138:-0.20501727 139:-0.17876312 140:-0.087216683 141:-0.16798973 142:-0.18650362 143:-0.26628348 144:-0.13136348 145:-0.073111832 146:-0.13593437 147:-0.17670226 148:-0.19372682 149:-0.22494744 150:-0.14911193 151:0.0039421334 152:0.028147833 153:-0.070439517 154:-0.26120842 155:-0.22607313 156:-0.1243908 157:-0.10511687 158:-0.10652345 159:-0.058320537 160:-0.16239506 161:-0.30429935 162:-0.19581971 163:-0.13239972 164:-0.14601077 165:-0.19598134 166:-0.20955136 167:-0.12561323 168:-0.11516284 169:-0.14113964 170:-0.16973031 171:-0.1526719 172:-0.16754575 173:-0.18018329 174:-0.22358681 175:-0.21332121 176:-0.21414244 177:-0.19833755 178:-0.20510802 179:-0.2134551 180:-0.22562045 181:-0.15975069 182:-0.1638667 183:-0.1540634 184:-0.1422276 185:-0.16924171 186:-0.12645903 187:-0.10554284 188:-0.094229348 189:-0.081644483 190:-0.1217931 191:-0.18426299 192:-0.21785451 193:-0.24692233 194:-0.26467448 195:-0.26900381 196:0.061424062 197:3.0373218 198:1.2001129 199:1.2854468 200:-0.065385461 201:0.33220798 202:0.047530066 203:-0.23634233 204:-0.0139892 205:0.16534126 206:0.078207575 207:-0.067881696 208:-0.10822197 209:-0.19201408 210:-0.089539483 211:-0.02667181 212:-0.040911946 213:-0.14603241 214:-0.28654256 215:-0.28092301 216:-0.28649884 217:-0.23074901 218:-0.1756496 219:-0.23835145 220:-0.19471988 221:-0.094049595 222:-0.030410683 223:-0.12410866 224:-0.19371232 225:-0.17961556 226:-0.16628733 227:-0.15353112 228:-0.16164215 229:-0.17178726 230:-0.19487758 231:-0.20088427 232:-0.14760396 233:-0.12042768 234:-0.024901671 235:-0.03435231 236:-0.097446069 237:-0.153185 238:-0.22702412 239:-0.21997572 240:-0.22413984 241:-0.23333415 242:-0.18319383 243:-0.082289465 244:-0.0061304448 245:-0.046807677 246:-0.12157434 247:-0.12619056 248:-0.10635055 249:-0.083347283 250:-0.094232395 251:-0.1116128 252:-0.1456344 253:-0.16431597 254:-0.19818683 255:-0.18733104 256:-0.2044684 257:-0.20805345 258:-0.20604964 259:-0.25671926 260:-0.19669165 #
