SVM-light Version V6.02
2 # kernel type
3 # kernel parameter -d 
0.00093103969 # kernel parameter -g 
1 # kernel parameter -s 
1 # kernel parameter -r 
empty# kernel parameter -u 
260 # highest feature index 
13702 # number of training documents 
595 # number of support vectors plus 1 
-0.30061828 # threshold b, each following line is a SV (starting with alpha*y)
1.9967040491336844887371171353152 1:0.091800362 2:1.2049011 3:1.5316328 4:1.5989996 5:-0.1295065 6:0.14960539 7:0.74048251 8:0.17311208 9:0.077407315 10:0.90307599 11:0.16555607 12:0.39905056 13:-0.0083866995 14:0.26660833 15:0.16098504 16:0.49466825 17:0.13685374 18:1.0684184 19:1.1381204 20:0.16730714 21:0.95742208 22:1.0568087 23:0.35687116 24:0.88665164 25:0.91595942 26:1.0246474 27:1.4024488 28:0.6973244 29:0.67077404 30:0.72936755 31:-0.18448353 32:0.50976986 33:0.3288815 34:0.5990541 35:0.19609778 36:0.9537341 37:0.62152928 38:0.11944619 39:0.71025687 40:0.56989777 41:-0.12650564 42:0.23018731 43:0.66167045 44:-0.078301229 45:0.84830928 46:0.91319162 47:0.4405545 48:1.3478892 49:0.71101266 50:0.11157575 51:0.67169809 52:0.81755334 53:0.7726891 54:1.2963227 55:0.51117939 56:0.97125685 57:0.84409177 58:0.53443533 59:0.94179094 60:0.65097809 61:-0.015602023 62:0.62024552 63:0.53266752 64:0.40516239 65:0.22950999 66:-0.20404017 67:0.17410764 68:0.058874376 69:0.18221807 70:-0.11177555 71:0.10608645 72:-0.11447341 73:-0.15378521 74:-0.23032421 75:0.20350997 76:0.093393371 77:0.4434939 78:0.34687638 79:-0.17133737 80:0.18288244 81:0.0172591 82:-0.011295842 83:0.018312681 84:0.90724301 85:0.31024942 86:0.58417737 87:0.67490083 88:0.038569298 89:0.5546748 90:0.23505308 91:0.067418434 92:-0.066987559 93:0.26438609 94:0.57110107 95:0.14460973 96:0.55571294 97:0.3337687 98:0.21046743 99:1.0442858 100:-0.021910964 101:1.0624319 102:0.90071446 103:0.40454698 104:-0.12085506 105:0.26738194 106:0.72753865 107:0.82657778 108:0.33392948 109:0.072320335 110:-0.17058349 111:0.31411508 112:0.44891083 113:0.12722589 114:0.23241608 115:0.26375347 116:0.32907826 117:-0.18224868 118:0.16453348 119:0.099625193 120:-0.20653512 121:0.052639261 122:0.42779812 123:0.68498582 124:0.22681715 125:0.32879776 126:0.63977534 127:0.033006087 128:0.38337865 129:0.30592921 130:0.47601619 131:0.39781469 132:1.0437136 133:1.2067155 134:1.2155691 135:0.51233602 136:1.1582929 137:1.2312731 138:0.41057152 139:0.50016189 140:0.73669749 141:0.011138224 142:0.36949751 143:0.043755673 144:0.62688392 145:0.77575237 146:0.39447826 147:0.015906064 148:0.57673103 149:0.16846348 150:-0.083676219 151:-0.28596288 152:0.40170756 153:-0.11359975 154:1.0154753 155:0.4003731 156:0.52874035 157:0.10125417 158:0.58319241 159:0.44197524 160:1.3316725 161:1.085008 162:0.093146555 163:0.96369576 164:0.91602564 165:0.48169672 166:0.26658341 167:0.12799229 168:0.18574096 169:0.31627429 170:-0.11501747 171:0.22027384 172:0.086147189 173:0.023893619 174:0.10653491 175:0.10872643 176:0.47988564 177:0.39511514 178:0.67039764 179:0.14935839 180:0.73284161 181:0.46254465 182:0.41216594 183:0.5424546 184:0.13905251 185:0.54924107 186:0.1094173 187:0.61608201 188:0.39547098 189:0.15042363 190:0.5006991 191:0.18086374 192:0.37070873 193:0.46160373 194:0.4151457 195:1.0771019 196:2.0844774 197:3.2298379 198:3.1555607 199:2.0798233 200:0.97695148 201:1.3582622 202:0.62258047 203:0.2412179 204:0.6335324 205:1.3603172 206:0.87850702 207:0.90555584 208:0.3907603 209:0.5884831 210:0.67717487 211:0.38624713 212:0.66894776 213:0.47601259 214:0.28933188 215:0.19113764 216:0.39325961 217:0.087485157 218:0.20386429 219:-0.042520594 220:0.068627492 221:0.050376732 222:0.0048354305 223:0.29924467 224:0.22096224 225:0.060572129 226:0.056615882 227:0.7568323 228:0.99355918 229:1.2272627 230:0.72864211 231:0.90250212 232:0.58577126 233:0.62922686 234:-0.16399282 235:0.8428368 236:0.56318998 237:1.0039306 238:0.78347617 239:0.089602515 240:0.41546851 241:-0.11299979 242:0.088391177 243:0.66125894 244:0.037596542 245:0.88770974 246:0.99651551 247:0.20936818 248:0.81294888 249:0.81619507 250:-0.17074674 251:0.59128964 252:0.60782367 253:0.28803161 254:0.62402719 255:0.14833514 256:0.1533315 257:0.269676 258:1.2658389 259:0.33444709 260:1.2911991 #
-0.2261517026318625445124865791513 1:2.3574681 2:0.38554668 3:0.43928942 4:1.0737503 5:3.6421113 6:2.7904069 7:1.481935 8:1.0460191 9:2.3198669 10:3.1033738 11:1.1603668 12:0.4782699 13:0.28222069 14:2.5678124 15:1.6087508 16:1.3875244 17:2.5991859 18:6.8163142 19:1.4634995 20:1.9594806 21:1.4399647 22:7.4463911 23:2.4296122 24:0.89742875 25:2.6419048 26:10.069828 27:0.92577666 28:1.985446 29:1.1372135 30:6.3708611 31:4.0005002 32:0.60326219 33:3.8130674 34:3.9619341 35:6.275897 36:0.87513536 37:1.8075116 38:4.4392776 39:8.5464497 40:6.1835904 41:4.7379069 42:0.44121632 43:5.3503551 44:4.6479893 45:5.6046095 46:1.6993725 47:7.4442649 48:4.1811275 49:2.6164598 50:4.8554912 51:12.047668 52:3.3015056 53:3.3031023 54:3.2793317 55:8.9721603 56:4.2998457 57:4.9007936 58:5.5303206 59:6.1637001 60:7.3121824 61:5.5344405 62:4.7767773 63:1.4341111 64:5.9903045 65:5.9985213 66:-0.1819693 67:0.68470073 68:0.05403525 69:1.2777141 70:2.2169724 71:0.3463957 72:2.5976396 73:0.68916881 74:3.5609527 75:5.9028983 76:3.9605091 77:1.685528 78:5.404778 79:6.5563202 80:1.5517913 81:0.84367239 82:4.1427855 83:13.939952 84:1.3409882 85:2.6350939 86:2.1811733 87:7.2343349 88:2.1117218 89:0.45482627 90:1.5314411 91:2.0913978 92:2.7103357 93:3.4183028 94:1.2768774 95:7.9744558 96:4.9288063 97:5.5711269 98:1.0867522 99:6.1521821 100:3.9322722 101:2.495146 102:3.4108584 103:1.7433133 104:3.6702838 105:1.7575485 106:3.3779755 107:1.6254125 108:6.7602282 109:0.18766396 110:2.3186297 111:1.5350875 112:5.3586812 113:2.4026127 114:0.47575936 115:0.49492654 116:7.6056819 117:3.2275651 118:1.7293112 119:2.9638994 120:1.0369434 121:4.723227 122:0.20150301 123:1.3965174 124:0.41074118 125:1.5858335 126:-0.13188627 127:1.9063351 128:-0.03058674 129:-0.020070981 130:2.7668602 131:3.4098718 132:0.12823108 133:0.28989014 134:0.33562449 135:0.75968152 136:0.58052802 137:1.1462394 138:-0.13726042 139:2.3451619 140:1.1688272 141:0.8227272 142:0.6849224 143:3.2698531 144:5.3598547 145:1.6907854 146:2.0990002 147:2.1610646 148:3.8472705 149:0.20889997 150:1.5891942 151:1.3410813 152:3.9858308 153:2.5378714 154:0.90019608 155:2.3652031 156:5.495482 157:1.7066116 158:1.8554244 159:1.1978927 160:2.7206535 161:2.8739789 162:0.64718121 163:0.55068707 164:1.428985 165:3.799449 166:0.078962296 167:3.4521186 168:2.3888843 169:3.3192008 170:2.858253 171:1.747805 172:3.4364455 173:5.6595087 174:2.5826805 175:1.0008289 176:1.0065216 177:8.8475428 178:0.66892475 179:2.5658317 180:0.14163114 181:4.9687238 182:1.2991588 183:1.1491227 184:1.5950167 185:2.4538677 186:0.78648984 187:2.7387686 188:1.5808853 189:4.318151 190:5.112236 191:1.8168947 192:1.8664194 193:0.79673266 194:6.6869893 195:4.8374405 196:-0.19296664 197:0.75364393 198:0.46435145 199:0.67595953 200:4.3849082 201:1.7816209 202:0.69183093 203:1.0107774 204:2.9140682 205:3.045949 206:2.1498206 207:1.4786634 208:1.4264873 209:5.494072 210:2.1097703 211:2.135278 212:2.5703273 213:7.2415719 214:1.6061249 215:0.75830144 216:4.1846032 217:2.4959197 218:3.4451199 219:4.3052254 220:6.192668 221:8.3396654 222:2.4004161 223:2.6462214 224:2.5577164 225:11.395881 226:9.300045 227:6.5393596 228:1.3952678 229:8.0426455 230:7.2592931 231:1.1344458 232:6.7423477 233:2.2577763 234:5.826335 235:1.7821156 236:6.5326524 237:2.9427924 238:12.951062 239:0.60740089 240:1.0486952 241:0.88676143 242:6.7822266 243:3.8137522 244:1.9113017 245:3.08442 246:5.3729091 247:5.4651856 248:0.055342298 249:2.79649 250:4.8052273 251:3.546706 252:2.5844653 253:1.8744503 254:4.8108258 255:6.5083108 256:2.6350121 257:2.8459947 258:1.5457349 259:2.8671403 260:4.7439566 #
-0.054170797992199211379205081584587 1:2.4706566 2:1.6421226 3:2.0790167 4:0.82231641 5:3.2436316 6:0.94152319 7:3.6624236 8:0.4080832 9:3.1581016 10:1.4954685 11:-0.060894702 12:0.72139895 13:0.94874585 14:1.9050603 15:2.4694285 16:0.23204169 17:3.8227489 18:4.2598844 19:0.016098499 20:3.6235819 21:0.81032979 22:4.7917223 23:1.6394497 24:1.7966479 25:5.0341139 26:7.0067592 27:4.7684269 28:5.3914914 29:2.6721888 30:5.6882348 31:3.0976624 32:3.9624965 33:3.4689074 34:1.4728087 35:5.8373022 36:7.3397083 37:0.57967317 38:3.9645755 39:2.9661269 40:1.5562977 41:6.5161319 42:2.8333445 43:4.909389 44:6.4643536 45:5.8214154 46:1.5822519 47:1.2567137 48:1.99348 49:5.7823739 50:2.3194299 51:3.4971197 52:8.0465803 53:6.0983205 54:0.83390075 55:1.4801493 56:5.1676254 57:6.3583865 58:2.5991032 59:2.5829484 60:7.5282197 61:3.274075 62:3.0603704 63:7.1617122 64:5.9608674 65:2.0331004 66:0.020108406 67:0.20777391 68:0.07371366 69:1.1359203 70:1.8516096 71:0.79072267 72:0.3844766 73:0.75944972 74:4.7558117 75:1.4191854 76:1.4383231 77:2.2465856 78:8.4714355 79:5.3131609 80:2.7455215 81:2.3015065 82:8.4001837 83:5.1852522 84:8.1726494 85:2.7495294 86:6.0411158 87:1.3303438 88:2.3447595 89:1.0446672 90:2.8364363 91:2.7331166 92:4.499155 93:7.5271392 94:4.9802899 95:3.7311227 96:1.6007613 97:6.5548449 98:3.6120358 99:4.0410337 100:4.6873498 101:7.4435787 102:1.9263588 103:3.0230961 104:2.6877754 105:8.0392122 106:2.0634944 107:3.5035973 108:2.2895527 109:8.187829 110:3.81358 111:2.1789734 112:4.9605842 113:9.6785793 114:3.452019 115:1.0232347 116:6.5386729 117:10.197642 118:3.5805395 119:2.7930639 120:3.94539 121:5.0802255 122:4.1444526 123:0.79321498 124:1.7413821 125:3.7561781 126:8.630249 127:3.8954098 128:0.28641507 129:5.5230355 130:9.1767206 131:3.4018524 132:0.35863197 133:1.2366387 134:0.2936531 135:1.6977012 136:0.97384983 137:0.29332408 138:1.584944 139:2.3600881 140:0.99486023 141:1.7045085 142:1.2353687 143:4.7557244 144:3.2458251 145:1.667379 146:0.33106625 147:0.99900681 148:1.5022739 149:-0.077744022 150:0.45484146 151:2.9165857 152:4.2106628 153:3.7016957 154:1.8599983 155:2.3392813 156:0.65612179 157:2.1207421 158:2.474246 159:4.3876467 160:3.8881366 161:1.8592186 162:5.5642161 163:3.1019118 164:2.2941296 165:1.7848963 166:1.0151126 167:1.6438054 168:3.8277514 169:3.6923697 170:2.111491 171:1.8240477 172:2.9096122 173:2.8119705 174:5.403698 175:2.9293499 176:2.9670901 177:1.1563654 178:2.211668 179:5.3579178 180:1.9613149 181:3.5110617 182:0.5456447 183:1.2290388 184:4.2063823 185:0.73040074 186:0.81340086 187:1.2722276 188:3.7325206 189:2.430897 190:2.325542 191:5.6031971 192:4.9891582 193:0.58002537 194:2.7451258 195:6.4536109 196:-0.091025792 197:0.35164127 198:1.5915567 199:1.3890749 200:4.6075468 201:0.32939172 202:1.2285414 203:1.4427673 204:3.9031649 205:0.81047595 206:0.28337482 207:1.4499619 208:4.2501254 209:4.2921562 210:4.1805706 211:4.1745157 212:4.4568014 213:4.65976 214:4.5762563 215:4.6623592 216:6.0680337 217:7.4590659 218:5.3236656 219:6.5349145 220:6.0948925 221:6.1203499 222:5.3846803 223:7.5943933 224:1.7827594 225:5.8614721 226:2.7583954 227:10.637913 228:5.8537431 229:1.9816171 230:6.8947268 231:8.7574959 232:1.0287209 233:4.3804979 234:8.1872311 235:4.6656823 236:1.8160187 237:1.0385793 238:3.7793233 239:6.1189957 240:6.0044179 241:2.8067393 242:3.7882571 243:4.7138791 244:1.5387634 245:1.7334417 246:6.7953587 247:4.0281615 248:6.6700411 249:3.6092479 250:4.443996 251:7.5141139 252:-0.036258381 253:0.76036894 254:3.8042364 255:2.9821918 256:3.4680073 257:2.7894268 258:5.9898095 259:4.3427887 260:5.8539677 #
1.6206940791062263151900424418272 1:0.31806588 2:3.63061 3:2.4688542 4:2.202333 5:1.2310983 6:1.2296413 7:0.63913172 8:-0.22554258 9:0.49768916 10:0.43576229 11:1.8877257 12:1.1696368 13:1.1839072 14:2.2897749 15:2.3335342 16:1.2516102 17:1.1313788 18:0.77542132 19:1.7017771 20:1.5060325 21:1.4667611 22:1.4096329 23:1.3167683 24:0.99561864 25:2.1264551 26:2.9041975 27:2.0022254 28:1.1049378 29:1.0828422 30:2.047452 31:1.1887403 32:0.41604266 33:0.98201501 34:2.1740532 35:1.4005713 36:1.2658465 37:0.79522675 38:1.053025 39:0.71030974 40:0.075982779 41:0.46050107 42:0.27315059 43:0.64298916 44:1.7767411 45:2.3255086 46:1.904802 47:2.0426247 48:2.3794301 49:1.134598 50:1.3974938 51:0.87401521 52:1.4550835 53:2.0598836 54:1.0165598 55:1.8491948 56:0.71181887 57:0.82033628 58:1.4632685 59:0.95544726 60:1.0908293 61:1.8319151 62:0.19051245 63:0.28885448 64:0.36861631 65:0.86434174 66:-0.22536992 67:0.42086905 68:1.9393054 69:2.5309174 70:1.5603234 71:4.5183101 72:3.7136838 73:1.5711466 74:1.0761262 75:2.3586018 76:1.3290569 77:0.90165883 78:2.0842917 79:3.992687 80:2.5356078 81:1.2767547 82:1.1810623 83:1.8116007 84:2.4914775 85:1.8705696 86:2.4938972 87:3.1598637 88:2.5896912 89:1.120849 90:0.78721446 91:1.9552206 92:2.8311348 93:2.454154 94:2.0953364 95:2.8832409 96:4.8487859 97:4.8979068 98:3.2306652 99:3.2466986 100:4.4045105 101:3.0443845 102:1.3234783 103:1.5823495 104:2.3200355 105:1.6752852 106:3.8143499 107:5.1114106 108:5.2549844 109:4.3831367 110:1.6139233 111:0.62735796 112:1.0768421 113:1.149191 114:0.16384068 115:1.228037 116:0.71404183 117:0.90402192 118:0.84652323 119:1.3651363 120:1.6842749 121:0.65283924 122:1.3528228 123:2.2769036 124:2.4927495 125:1.8941439 126:0.61698657 127:2.0776634 128:3.3397169 129:4.1333156 130:2.6880155 131:2.3119433 132:6.88906 133:4.6899443 134:4.5108671 135:1.8763924 136:2.2473485 137:3.8037121 138:2.1434667 139:3.9846778 140:7.296452 141:1.523311 142:0.76677698 143:3.5970562 144:5.6369624 145:2.3143227 146:3.6041579 147:1.4890748 148:1.4576601 149:0.98041546 150:3.0090914 151:1.5048643 152:5.6274028 153:3.6510189 154:4.1217437 155:3.0108018 156:2.5256312 157:2.6830134 158:4.7747307 159:3.9804585 160:2.1488526 161:2.880321 162:5.2052765 163:3.820931 164:0.7160933 165:3.1016428 166:4.2277589 167:3.6202972 168:1.1474682 169:3.5372558 170:3.7560284 171:2.9357224 172:0.81426257 173:3.9523344 174:4.2266812 175:3.2201281 176:1.6945671 177:3.3858135 178:3.9096825 179:3.1964109 180:2.1073654 181:2.7709746 182:3.1667001 183:2.865778 184:1.6350173 185:1.3894632 186:0.83444762 187:0.47558388 188:2.2491708 189:4.9364691 190:4.7262073 191:2.2587082 192:3.2481296 193:5.7654114 194:6.0884771 195:3.8132684 196:7.4411049 197:5.5682926 198:2.8946109 199:3.0847392 200:1.8654107 201:2.0366464 202:1.7595489 203:3.0387926 204:2.0505579 205:1.911797 206:3.846926 207:1.6497687 208:0.6411615 209:2.0408468 210:1.5596881 211:0.53627348 212:0.70054054 213:0.83823878 214:2.1573207 215:1.1246476 216:1.0233999 217:0.89166534 218:1.5764686 219:2.1129336 220:0.92201334 221:3.0010576 222:0.88286436 223:1.1826931 224:0.38113096 225:1.0784996 226:2.2495377 227:2.5068686 228:4.1920824 229:5.8800435 230:5.0014977 231:3.9300013 232:3.3909097 233:2.3976815 234:0.96589708 235:1.2697178 236:1.4459413 237:2.0284109 238:3.1678979 239:4.0304246 240:4.5210528 241:3.6221299 242:3.0879982 243:2.8157804 244:2.2792199 245:0.96105945 246:2.1813917 247:2.7031043 248:2.8725302 249:3.8136737 250:3.2718439 251:1.3110135 252:0.53229982 253:0.78907156 254:2.8591201 255:3.5589345 256:2.3648682 257:2.4045413 258:3.2002754 259:2.9982579 260:0.71198326 #
-0.037782461898642330511144393767609 1:2.3054395 2:0.46730542 3:0.75226504 4:0.93805909 5:4.4972167 6:0.31157127 7:0.54870623 8:0.84907025 9:3.1279097 10:0.81922859 11:0.5995903 12:0.26059163 13:1.5311233 14:1.0281614 15:0.23796235 16:0.13199551 17:4.8725662 18:1.5708705 19:2.0872986 20:0.58620387 21:7.1166229 22:2.7902493 23:2.5560458 24:3.2234786 25:7.9456859 26:1.1701607 27:2.9768531 28:1.904953 29:6.8566089 30:1.610368 31:1.5978225 32:4.4198284 33:3.8875835 34:0.46276316 35:2.7704027 36:4.7009435 37:10.574251 38:1.288589 39:3.8203526 40:8.0474234 41:7.4479837 42:2.5543885 43:-0.056197058 44:2.7506344 45:6.5421538 46:4.2464008 47:3.0519667 48:4.9822369 49:2.9175754 50:3.8709302 51:4.4917955 52:8.9227514 53:6.1938782 54:4.1718369 55:4.7618384 56:5.9944353 57:3.8271203 58:8.9161606 59:1.3275324 60:10.791359 61:4.2684488 62:6.8053851 63:4.5188165 64:6.8714037 65:6.9885545 66:-0.099766888 67:-0.1092077 68:0.24891047 69:-0.087477207 70:1.563345 71:0.013939282 72:0.18824302 73:0.62109458 74:4.1868782 75:0.97453314 76:1.3566024 77:1.0263587 78:7.7796516 79:0.14401539 80:1.0796099 81:2.0698245 82:10.430131 83:2.8744862 84:0.84727371 85:2.2005882 86:3.8271084 87:1.2977931 88:-0.00029601916 89:2.2039044 90:5.7672534 91:2.1785941 92:2.4892006 93:2.6555486 94:6.6486006 95:0.77670109 96:2.9601114 97:2.2739418 98:2.196851 99:0.66414505 100:1.8893391 101:2.2841578 102:1.1611093 103:1.3451225 104:3.6197839 105:4.5710859 106:5.6168985 107:-0.11077279 108:4.9484797 109:5.9372268 110:3.039587 111:0.44911686 112:3.9689624 113:8.1682405 114:2.1617913 115:2.5979784 116:1.7053964 117:7.325984 118:2.9702353 119:1.9022923 120:3.0353374 121:8.2997494 122:4.5117092 123:3.6792488 124:2.6754336 125:7.6546645 126:1.4501367 127:3.7125533 128:2.4302325 129:7.6058154 130:2.8467317 131:3.0499306 132:0.2621541 133:0.30178344 134:0.039154965 135:0.18891758 136:0.007471872 137:0.20816939 138:0.3577989 139:2.7383311 140:0.83437973 141:0.1988516 142:0.75913537 143:6.7292414 144:0.049734112 145:1.1606343 146:0.078739412 147:5.2503767 148:0.66938037 149:0.69235629 150:1.2689896 151:4.3426151 152:0.42967448 153:-0.17347328 154:3.9232407 155:4.825757 156:0.97570771 157:3.1977024 158:1.1203341 159:5.9471641 160:0.37180987 161:2.624052 162:1.6537803 163:3.5218413 164:0.98113829 165:1.1995653 166:2.293155 167:2.4242568 168:0.11635459 169:2.1260662 170:0.60006249 171:0.4911783 172:1.2702558 173:0.55289787 174:1.6515065 175:6.9404268 176:1.9045302 177:1.5576787 178:1.3903371 179:4.2324305 180:1.7245103 181:1.082129 182:2.897049 183:2.4127676 184:1.3369884 185:4.3611674 186:1.9088088 187:4.0746374 188:1.1944181 189:4.5823989 190:3.8034549 191:4.3141136 192:3.5017693 193:2.4692619 194:2.8241687 195:5.6866651 196:0.49594203 197:0.66811275 198:0.90703529 199:0.11102127 200:4.3452325 201:0.59239036 202:-0.096456081 203:1.1580343 204:4.6089635 205:3.3392158 206:0.51875997 207:1.3361698 208:7.5588717 209:2.0392184 210:0.47793093 211:1.8945292 212:7.0242352 213:2.0869031 214:0.76637769 215:1.6320242 216:10.75731 217:0.2358375 218:0.89076298 219:3.5924799 220:4.5140638 221:4.7898693 222:1.9675024 223:4.3756204 224:9.3244171 225:6.9141431 226:5.3893185 227:3.9836078 228:0.44911754 229:4.6796885 230:0.71661675 231:0.30131358 232:5.7074647 233:2.9418039 234:3.94485 235:8.0991297 236:11.584251 237:5.7696719 238:4.4763451 239:6.382772 240:9.1235819 241:6.3823404 242:5.5512018 243:9.2493715 244:5.8127179 245:3.6951172 246:5.3818989 247:6.9242258 248:3.3603978 249:2.7320654 250:7.8122272 251:7.7107339 252:3.1265745 253:2.6268878 254:8.2320423 255:4.9072018 256:1.9626979 257:5.2601557 258:6.6396503 259:5.9631257 260:2.4040394 #
-0.067220983293399885760699419279263 1:2.4080722 2:0.16871421 3:2.8082936 4:2.899852 5:1.2783061 6:1.4692585 7:4.0469899 8:6.8057775 9:1.0488992 10:2.5508785 11:1.80066 12:2.6477633 13:-0.072020322 14:-0.26060215 15:1.7748841 16:2.6348314 17:2.0092762 18:1.4765657 19:1.8481431 20:1.3887711 21:0.087569796 22:2.6225271 23:3.9210584 24:1.919158 25:1.8824227 26:7.0294466 27:2.155153 28:0.78767395 29:0.90751833 30:7.2428923 31:0.71096349 32:3.3788745 33:12.053477 34:1.232354 35:1.2854959 36:3.8323429 37:7.9889288 38:3.1009398 39:0.98401457 40:5.6925712 41:6.1232395 42:5.8647461 43:6.2559848 44:9.9511633 45:3.5623689 46:3.6864445 47:2.8464303 48:5.1774774 49:3.7294958 50:4.8353705 51:10.36388 52:1.7978647 53:1.2227478 54:0.3599079 55:3.145268 56:5.8034468 57:0.3289268 58:2.7421029 59:3.4568524 60:2.032793 61:1.4079406 62:5.0912237 63:3.8392804 64:1.6476923 65:8.2833929 66:0.10334191 67:0.94482499 68:0.30080581 69:1.9626204 70:0.7535277 71:0.055821639 72:0.89367718 73:5.9236255 74:0.71987236 75:4.0275941 76:6.7239032 77:8.0059996 78:3.980937 79:0.37803081 80:6.613029 81:3.6929131 82:3.3938615 83:3.6063898 84:8.4525509 85:3.3704789 86:2.6276248 87:8.1314611 88:6.9442792 89:3.3206921 90:1.0138724 91:7.2358866 92:8.6605034 93:2.0775621 94:7.3300114 95:13.766687 96:2.476016 97:1.1491697 98:13.012106 99:10.128261 100:2.3642566 101:6.1808696 102:9.55861 103:2.9028401 104:-0.27736464 105:7.7063427 106:3.0820682 107:2.2272201 108:2.0242727 109:7.082099 110:1.7685953 111:1.5030023 112:7.0102448 113:3.5199368 114:2.0027604 115:1.1286186 116:6.1779594 117:1.8147323 118:1.4464853 119:6.3951287 120:4.6995564 121:4.3106084 122:1.5018444 123:1.3763388 124:2.7591016 125:1.4546678 126:1.0199391 127:4.5260291 128:2.7387953 129:0.91523796 130:2.3565443 131:2.5778251 132:-0.14779025 133:-0.098170675 134:-0.23741205 135:0.68385243 136:0.34663141 137:0.7240631 138:2.4263651 139:0.33026063 140:0.59724355 141:0.46440819 142:1.0803401 143:0.73086303 144:0.71405804 145:2.6709793 146:0.89312631 147:0.94562918 148:1.4364946 149:5.8473134 150:1.9057674 151:0.91021919 152:4.5001106 153:5.3911166 154:1.479071 155:0.86913341 156:2.6682544 157:1.8486414 158:1.3725439 159:3.2223001 160:3.1151774 161:0.61139172 162:2.0133245 163:4.6772537 164:2.1677196 165:0.76266104 166:2.2562466 167:4.1411133 168:2.059638 169:2.7608261 170:3.9464669 171:1.2056396 172:2.0092232 173:1.2926712 174:4.1685328 175:3.0358739 176:1.9254147 177:4.0505438 178:0.68897021 179:1.898572 180:1.1983285 181:3.667511 182:2.3455095 183:1.1204511 184:1.7690995 185:3.2398531 186:1.0177011 187:1.156523 188:4.126132 189:2.9683492 190:0.73735023 191:2.5560164 192:3.645185 193:3.3213019 194:2.1805873 195:8.0398455 196:-0.18161079 197:0.069295712 198:0.021666534 199:1.0662673 200:1.2006342 201:0.60807407 202:1.1687282 203:4.1938696 204:0.31975442 205:0.45604026 206:1.8925018 207:6.5217643 208:0.78665835 209:4.2107949 210:5.8836102 211:3.2227504 212:2.3669651 213:4.4382105 214:0.5292756 215:1.8942153 216:2.4413047 217:4.2671413 218:4.5752807 219:0.16255863 220:-0.027687185 221:3.4283743 222:3.7005968 223:3.5010788 224:4.8531651 225:10.083653 226:1.8618847 227:2.4626033 228:4.5216761 229:3.1328576 230:1.0620074 231:1.5424378 232:1.9398174 233:2.1148417 234:1.4803748 235:0.69014317 236:4.0738206 237:2.4373159 238:2.973376 239:2.1402664 240:2.898834 241:3.6547117 242:1.8141379 243:1.4454899 244:4.7298932 245:2.6722412 246:6.6136146 247:4.1149459 248:0.7124843 249:4.6888528 250:4.0519199 251:3.9442823 252:4.6234713 253:4.9835391 254:2.7448483 255:2.039324 256:4.8444009 257:1.1950866 258:3.1818664 259:6.0322456 260:4.3768845 #
-0.50876106360548578599889424367575 1:1.9648314 2:0.24554548 3:1.358717 4:-0.14884415 5:1.9635397 6:3.4870965 7:1.7340801 8:1.2713572 9:1.4811085 10:0.46639171 11:-0.10861517 12:2.1938145 13:1.1099125 14:0.73369128 15:0.50816029 16:3.4814653 17:0.8950277 18:0.84144902 19:2.1578033 20:4.3635516 21:3.9597831 22:0.99884254 23:0.49532759 24:3.9597728 25:2.6755657 26:1.2347227 27:3.2426181 28:0.078064881 29:1.8813422 30:3.7052336 31:2.4354241 32:1.4152939 33:1.0891935 34:1.0214394 35:1.0587629 36:1.6000293 37:5.3454947 38:1.894685 39:1.4601938 40:1.8544393 41:1.7410892 42:1.4677685 43:1.0419317 44:2.6532485 45:2.1693673 46:2.3591514 47:2.7115543 48:3.3273387 49:2.9525917 50:0.55710679 51:4.4887037 52:2.4935896 53:4.9799905 54:1.7428027 55:3.3861203 56:2.1096382 57:0.86449385 58:3.9274063 59:0.079234727 60:2.0971019 61:4.1189179 62:2.4753742 63:0.80041486 64:2.3519309 65:0.75386661 66:-0.175225 67:1.0813787 68:2.5246494 69:2.0754528 70:0.79681635 71:0.78525603 72:1.1343945 73:2.9003153 74:3.5261476 75:3.1580694 76:3.1632237 77:3.6117713 78:2.6299989 79:3.0857069 80:2.1011083 81:5.6117325 82:1.7612079 83:0.82728869 84:1.2119079 85:2.8593638 86:3.9318943 87:0.52297914 88:-0.13548468 89:2.9969618 90:2.610625 91:2.7779522 92:5.2714968 93:6.3750277 94:0.72975737 95:1.6799561 96:2.3151488 97:5.1469927 98:1.5535901 99:0.42002255 100:5.8309259 101:1.4198364 102:1.4087019 103:1.4955945 104:7.9078445 105:2.2268038 106:2.0676317 107:0.70412445 108:2.6146822 109:2.3331928 110:1.1862396 111:2.5753272 112:3.5681221 113:3.0458899 114:0.63224566 115:1.4909813 116:1.9632502 117:2.4758468 118:0.36334762 119:1.0099254 120:1.3321809 121:1.0640851 122:0.28482744 123:1.729123 124:2.4617498 125:2.3696542 126:0.82658911 127:0.78751987 128:3.7659707 129:0.47963375 130:0.59644985 131:2.2361956 132:-0.15661134 133:0.61311275 134:0.98721439 135:1.7719823 136:1.2602724 137:0.74949068 138:1.3300531 139:2.8219385 140:2.2208369 141:1.546018 142:3.1786513 143:2.5705764 144:1.8273214 145:1.0971552 146:2.4767263 147:0.61091363 148:1.2790805 149:0.52369481 150:2.8927567 151:1.6603839 152:2.6140697 153:0.055797394 154:2.9751515 155:0.71000141 156:0.65580279 157:0.54641575 158:4.5035195 159:0.38616228 160:1.6835916 161:1.2045388 162:1.927887 163:0.65689069 164:1.5256858 165:1.2182587 166:4.4852881 167:1.9950842 168:1.3652272 169:3.7701545 170:1.1337391 171:0.7505343 172:2.0597913 173:0.95821005 174:3.5520089 175:0.51975954 176:2.0954015 177:4.3411222 178:1.0637743 179:2.2503388 180:1.2202839 181:1.0115242 182:3.4938905 183:1.543795 184:2.7660878 185:0.97731113 186:0.38956395 187:1.5812899 188:1.9644914 189:1.9313488 190:3.4277902 191:1.3628269 192:0.20639387 193:1.7463803 194:2.5163245 195:0.34806642 196:0.70341945 197:0.95695364 198:1.72405 199:2.0165639 200:2.1940241 201:3.0322697 202:1.5556235 203:2.5849419 204:4.0991707 205:2.1779587 206:1.5229104 207:1.3468872 208:0.67123961 209:3.4378016 210:1.8833935 211:4.5025926 212:2.9633989 213:2.6527991 214:1.1299639 215:3.9511383 216:2.8289886 217:0.57579809 218:2.8143044 219:5.1278682 220:2.8490798 221:1.0745686 222:2.8419626 223:3.9310355 224:0.86079615 225:0.46653742 226:2.0672491 227:6.6627269 228:2.2395706 229:1.4217348 230:1.1636661 231:4.8709059 232:1.2888478 233:2.9972792 234:2.9254715 235:2.8241756 236:3.2551937 237:0.61804312 238:4.3058138 239:1.1790104 240:3.028825 241:2.1253352 242:6.4388552 243:2.2057047 244:1.6049273 245:1.6055322 246:4.8722053 247:2.2525718 248:1.4444053 249:2.5072708 250:4.0350308 251:3.3719223 252:1.3603324 253:3.857826 254:5.7421288 255:6.1936893 256:3.7295003 257:3.3249891 258:2.0672724 259:0.83630115 260:2.5412621 #
8.2249106132485323428227275144309 1:0.79454845 2:3.5788167 3:0.2538957 4:2.4273801 5:0.46601206 6:2.923429 7:1.9811928 8:0.50513232 9:0.25633228 10:0.068930209 11:0.10292628 12:0.060125459 13:1.2843934 14:0.88233417 15:0.19624749 16:0.61610597 17:0.67548823 18:1.4700826 19:1.1338477 20:0.65336764 21:1.4533017 22:0.77192324 23:0.87675965 24:1.0402676 25:0.29194704 26:-0.18632488 27:1.2156208 28:1.2918929 29:0.63871706 30:0.036300167 31:0.28256163 32:0.4656558 33:0.090457752 34:1.1818984 35:1.234144 36:0.57592553 37:0.61367154 38:0.17172368 39:2.0239036 40:1.2214941 41:1.2233037 42:0.6919046 43:0.21402991 44:0.70106971 45:0.32555491 46:0.60122925 47:0.15758653 48:-0.20975044 49:-0.091701567 50:0.64251989 51:0.084446616 52:0.72030121 53:0.50348246 54:0.31706756 55:0.076734304 56:0.63237405 57:0.53206265 58:0.63962334 59:0.91889042 60:0.60791713 61:-0.1469354 62:-0.15360327 63:0.43031809 64:0.2722531 65:0.24865493 66:-0.24152566 67:1.2797577 68:2.9047892 69:2.6027174 70:0.83013362 71:2.5623095 72:3.6483819 73:2.2063792 74:1.0476457 75:2.2895184 76:0.98824269 77:-0.054273393 78:0.77049303 79:2.9515233 80:1.2986673 81:1.0005448 82:0.29409295 83:0.34253642 84:0.82183081 85:-0.012865649 86:-0.15240107 87:0.71590078 88:0.48751643 89:0.31952485 90:0.41390571 91:0.77511466 92:-0.047849916 93:0.53144121 94:0.92916107 95:0.13056986 96:0.43757531 97:0.083720662 98:1.3371063 99:1.4910975 100:1.2841284 101:0.21585386 102:0.78650123 103:0.74417406 104:0.30250388 105:0.51143306 106:0.449572 107:-0.22974172 108:0.23182249 109:0.1293263 110:0.83826137 111:0.35087803 112:0.11904462 113:0.41385353 114:0.33928496 115:0.32242501 116:0.0013332376 117:0.55253625 118:0.035453368 119:0.32840559 120:0.64057404 121:0.010894442 122:0.064053886 123:-0.11965931 124:0.50260866 125:-0.24102807 126:-0.059441373 127:0.13329418 128:-0.35299808 129:0.87546992 130:0.68053782 131:1.9120669 132:3.4857457 133:3.5584149 134:4.5131106 135:3.5864882 136:4.7007313 137:3.3313589 138:3.4805555 139:1.7132355 140:1.2687252 141:2.2104154 142:0.87998807 143:1.3214164 144:1.0300498 145:1.240973 146:2.6743755 147:3.023567 148:1.625664 149:0.71203214 150:1.506407 151:1.6584747 152:2.1649537 153:0.45449457 154:0.69452053 155:0.60760862 156:1.2804434 157:1.2221918 158:0.99175143 159:2.0194337 160:2.370441 161:0.86838585 162:1.3850306 163:2.1517196 164:0.42405167 165:2.0862231 166:1.6919843 167:0.0046145907 168:0.22130238 169:0.7198047 170:1.8996098 171:0.66421759 172:0.88496268 173:0.07965108 174:1.8004078 175:0.15311328 176:1.1558011 177:1.4483079 178:1.1841736 179:1.0218654 180:0.79138482 181:0.52508938 182:0.82142663 183:0.45758665 184:0.23445784 185:0.70679486 186:0.25160971 187:0.62880808 188:0.52741146 189:0.428745 190:1.2134929 191:0.21784638 192:0.96160132 193:-0.10691594 194:1.0894383 195:0.51809931 196:3.3477223 197:3.5085666 198:6.5077529 199:4.2954264 200:0.98134404 201:4.4331508 202:3.4134631 203:2.4510746 204:3.1564121 205:4.2141275 206:2.8805263 207:2.2791567 208:0.37004197 209:1.7916794 210:0.7565062 211:0.35197219 212:0.89736181 213:0.53060532 214:2.3504701 215:0.38547826 216:0.86224365 217:1.1368629 218:0.43851957 219:0.49854609 220:0.99974781 221:0.46583903 222:-0.20025708 223:1.9034886 224:1.233287 225:1.9413997 226:0.84014285 227:-0.008423104 228:0.43164599 229:0.29104763 230:2.626204 231:1.9934205 232:0.40551451 233:0.5584777 234:1.820963 235:0.62479931 236:-0.080064975 237:1.0578617 238:0.72078711 239:1.4479432 240:0.72102708 241:0.32182586 242:0.71723473 243:0.78829044 244:1.2588279 245:0.62429821 246:0.79979187 247:0.68384528 248:0.38094342 249:0.049841672 250:0.94112045 251:0.64273661 252:0.61273146 253:0.13299112 254:0.76660764 255:0.59386712 256:0.29507276 257:0.72125071 258:0.12784266 259:0.80471081 260:0.26753864 #
-8.2249106132485323428227275144309 1:-0.16516182 2:0.042352937 3:-0.21741752 4:0.17157909 5:0.040964365 6:-0.089232638 7:0.25422579 8:-0.13869378 9:-0.13126755 10:-0.060304668 11:-0.23067428 12:-0.24618107 13:0.15596835 14:-0.050036777 15:-0.16735105 16:-0.14993416 17:-0.022887923 18:-0.047338348 19:-0.10163319 20:0.065585189 21:-0.011240846 22:-0.24612688 23:-0.23005554 24:-0.19321042 25:-0.21319267 26:0.026790079 27:-0.19228213 28:-0.055380601 29:-0.059192527 30:0.07674361 31:0.14249945 32:0.027902924 33:0.053344507 34:0.18915421 35:0.090597995 36:0.067298397 37:0.27731818 38:0.16821431 39:0.21335647 40:0.59556216 41:0.13484649 42:-0.13078266 43:-0.029350329 44:0.050875623 45:-0.021329001 46:0.045642182 47:-0.057765402 48:-0.022829596 49:-0.19798465 50:-0.16168402 51:-0.1587868 52:0.063221432 53:0.076569259 54:-0.0076036593 55:0.29382876 56:-0.038643315 57:0.20442592 58:0.45063388 59:0.14351878 60:0.2199515 61:0.23480126 62:0.044885159 63:0.52220303 64:0.35731605 65:-0.084871724 66:-0.21762332 67:0.34318882 68:0.91657251 69:0.51569217 70:0.23517124 71:1.095739 72:0.55657113 73:0.015600073 74:-0.07913518 75:0.10173776 76:0.45674595 77:0.16807413 78:-0.066728458 79:-0.19710989 80:0.026117891 81:-0.20286812 82:-0.25784665 83:0.59493524 84:0.35023066 85:0.13476503 86:0.3196246 87:-0.047981378 88:-0.096965604 89:0.37571448 90:-0.29771608 91:-0.27711445 92:0.16326666 93:0.95303965 94:-0.29528624 95:0.22471224 96:0.39731029 97:-0.066163711 98:0.20785242 99:-0.068213105 100:-0.097291574 101:0.079652682 102:-0.17361411 103:0.77240556 104:0.38589764 105:-0.33204961 106:0.23428948 107:0.44150865 108:0.34419087 109:0.54011542 110:0.67563099 111:0.27487591 112:0.38795906 113:0.098906226 114:0.60607064 115:-0.026701776 116:0.47691867 117:0.3186048 118:0.034431983 119:-0.12187272 120:-0.19503976 121:-0.17963877 122:-0.11820016 123:-0.23324554 124:-0.30824715 125:0.11198739 126:0.10041128 127:0.47818571 128:-0.14504248 129:-0.064282894 130:0.0076372856 131:0.37616581 132:0.66959262 133:0.76057231 134:1.3244075 135:1.1540776 136:1.0653775 137:1.2405521 138:1.0668572 139:0.77588117 140:0.9369809 141:0.10855882 142:0.41635963 143:0.67041498 144:0.37963361 145:-0.22000349 146:-0.13321477 147:0.10674782 148:-0.15803851 149:-0.042397015 150:0.17670214 151:-0.057172067 152:0.55159235 153:1.132923 154:0.15731163 155:-0.10392115 156:0.82027739 157:0.99118769 158:0.26607135 159:0.10389947 160:0.17439951 161:-0.069946721 162:0.19936572 163:0.14857981 164:-0.027097309 165:-0.0036030854 166:0.11875248 167:0.29211667 168:0.16393447 169:0.84320456 170:0.56383443 171:0.23970029 172:0.41794392 173:0.47433031 174:-0.16861272 175:0.19817919 176:0.4580898 177:0.32248473 178:0.73588985 179:-0.16991831 180:0.69026667 181:-0.26197767 182:0.35354728 183:-0.080159329 184:-0.092989549 185:0.0090014199 186:-0.022904584 187:0.38088092 188:0.19140474 189:-0.17714407 190:0.17543954 191:-0.0031038024 192:-0.16012244 193:-0.12877662 194:0.088383503 195:-0.2276146 196:0.17448783 197:-0.15105416 198:0.34896678 199:0.24734321 200:0.012192985 201:0.45991322 202:0.12800382 203:0.17793782 204:0.456743 205:0.29788712 206:-0.035065986 207:0.39178732 208:0.091370173 209:-0.073673628 210:0.39492953 211:0.2543129 212:0.047220755 213:0.12727764 214:0.030267535 215:-0.24387513 216:-0.123186 217:0.088510863 218:-0.29169798 219:-0.14886397 220:-0.038618535 221:0.27133566 222:0.12457068 223:-0.014474541 224:0.087333009 225:0.12403817 226:-0.11669453 227:0.026491145 228:-0.020454988 229:-0.053235397 230:0.24987683 231:0.32263321 232:0.03035792 233:-0.11904836 234:-0.23337765 235:-0.13652894 236:0.14555332 237:0.39238784 238:-0.048222136 239:0.59600294 240:0.3266176 241:-0.012617506 242:0.14573188 243:0.033686921 244:0.020387877 245:0.15254068 246:-0.14139691 247:-0.031348348 248:0.089175813 249:-0.11133927 250:-0.17238364 251:-0.2197383 252:0.14212495 253:0.19062489 254:-0.085619181 255:0.21522632 256:0.13381834 257:-0.19604918 258:0.030932527 259:0.15958032 260:-0.15947856 #
-8.2249106132485323428227275144309 1:-0.27104548 2:-0.29250002 3:-0.0028163171 4:0.026329858 5:-0.15522383 6:-0.21946888 7:-0.14015287 8:-0.28221995 9:-0.2782867 10:-0.13602285 11:-0.1918284 12:-0.20692609 13:-0.16973802 14:-0.25049111 15:-0.13782583 16:-0.26161146 17:-0.2675139 18:-0.30555487 19:-0.25489238 20:-0.19889213 21:-0.10939641 22:-0.24741426 23:-0.13470085 24:-0.25501075 25:-0.13170004 26:-0.050207555 27:-0.093433008 28:-0.041236825 29:0.053965528 30:-0.1696838 31:-0.0091867913 32:-0.043972705 33:-0.2615422 34:-0.18143003 35:-0.05837797 36:-0.30175611 37:-0.03174587 38:-0.29664791 39:-0.14717606 40:-0.11966921 41:-0.28658536 42:-0.007173419 43:-0.17758273 44:-0.2194497 45:-0.25076425 46:-0.12818113 47:-0.1502793 48:-0.21717829 49:-0.060457565 50:-0.1079564 51:-0.08779595 52:-0.18620907 53:0.039835207 54:-0.20605646 55:-0.056018025 56:-0.19150575 57:-0.098252878 58:-0.2275819 59:-0.10540435 60:-0.090669639 61:-0.30836317 62:0.0051472057 63:-0.25516087 64:-0.052204534 65:-0.24629351 66:-0.18651515 67:-0.11578734 68:-0.039642669 69:-0.14216016 70:-0.12620123 71:0.049405362 72:0.063509949 73:-0.25643161 74:-0.25207031 75:0.013262275 76:-0.013651049 77:-0.1790572 78:-0.076596305 79:-0.27540374 80:-0.27807981 81:-0.016316241 82:-0.15874116 83:0.2689667 84:0.32699388 85:-0.23549494 86:0.41326484 87:-0.0077930507 88:0.43582237 89:-0.052850205 90:0.55043137 91:0.25010327 92:-0.2212413 93:0.15418984 94:0.21967331 95:0.19520389 96:0.1665208 97:0.16911741 98:0.27868488 99:0.082536809 100:-0.1190762 101:0.28517464 102:0.18491234 103:-0.24892482 104:-0.10076011 105:0.35416582 106:-0.3037436 107:-0.042057108 108:-0.025266835 109:-0.0539288 110:0.006220445 111:0.41029429 112:-0.16400747 113:-0.025303906 114:-0.30775288 115:0.028689779 116:-0.31598473 117:0.016891457 118:0.14209832 119:-0.09138412 120:0.055274233 121:-0.13945161 122:0.34887183 123:-0.035686661 124:0.53334278 125:0.10565279 126:0.027705202 127:0.37469429 128:0.28079489 129:0.28795901 130:-0.1998515 131:0.26042795 132:0.082147785 133:0.32800362 134:0.8685689 135:0.16089568 136:-0.0089733256 137:0.25321576 138:0.42475742 139:-0.18682042 140:-0.1779004 141:0.26650363 142:0.40766716 143:-0.031691685 144:0.38634562 145:0.63301957 146:0.16749163 147:0.12683518 148:0.79947525 149:0.28196776 150:0.060729172 151:0.064053923 152:0.4546091 153:0.63894039 154:0.053755816 155:0.17574912 156:0.092602596 157:0.28855738 158:-0.093491033 159:0.28999007 160:0.32478964 161:0.45179087 162:0.26868623 163:0.3540059 164:0.43190843 165:0.6660887 166:0.090408772 167:0.61572051 168:-0.077371888 169:0.22474337 170:0.28701982 171:-0.13446286 172:0.19846562 173:-0.1860439 174:0.37567455 175:0.064813986 176:-0.032519463 177:0.11108875 178:-0.16196917 179:-0.10119073 180:-0.038663682 181:-0.038806703 182:-0.10472738 183:-0.12394844 184:-0.056519832 185:-0.034172248 186:-0.011754054 187:0.18121742 188:-0.036600053 189:0.086503103 190:-0.039422281 191:0.14424546 192:0.18995011 193:-0.15056916 194:0.28784263 195:-0.21602395 196:0.58492762 197:0.26738214 198:0.54339504 199:-0.12342035 200:-0.22852817 201:-0.090916604 202:0.06112526 203:-0.30070624 204:-0.096299455 205:-0.2131231 206:0.26954746 207:0.012309659 208:-0.15541494 209:0.14477763 210:0.16362427 211:-0.1800738 212:-0.014443432 213:-0.11761706 214:-0.26723421 215:-0.09016782 216:-0.13093819 217:-0.17257567 218:0.021850083 219:-0.076939978 220:-0.18665148 221:-0.06742239 222:0.074510626 223:0.040222783 224:-0.0066117235 225:-0.1041479 226:-0.21562587 227:-0.13190468 228:-0.20969407 229:-0.032577448 230:-0.10339419 231:-0.074423037 232:-0.19668059 233:-0.013900205 234:-0.072118975 235:-0.11770949 236:-0.14100347 237:-0.2154395 238:-0.07975056 239:-0.19175841 240:-0.19007675 241:-0.13247965 242:-0.14734311 243:-0.17090742 244:0.10823682 245:-0.10469822 246:-0.14525862 247:-0.078488298 248:-0.14694345 249:-0.095910542 250:-0.16157962 251:-0.064540133 252:-0.15624072 253:-0.10544267 254:-0.095536508 255:0.01660206 256:0.028114529 257:-0.17443845 258:-0.042961784 259:-0.041332133 260:-0.17645335 #
-8.2249106132485323428227275144309 1:0.55886447 2:4.2419462 3:0.73890471 4:2.5587523 5:0.33611465 6:1.2231441 7:1.978717 8:0.077197678 9:-0.17526975 10:0.3840825 11:0.8859517 12:0.49259159 13:0.1053025 14:0.20794161 15:-0.29038423 16:0.24091627 17:0.092721708 18:0.95624793 19:0.38998577 20:0.45367289 21:0.74338162 22:0.7095992 23:0.78848612 24:0.52317458 25:0.42790461 26:0.82878107 27:0.3833535 28:0.19853561 29:0.36266702 30:0.32998636 31:0.20275867 32:0.25298885 33:0.21796364 34:0.059272122 35:0.18636249 36:0.01790667 37:0.095992491 38:-0.047726925 39:-0.27435398 40:0.14493561 41:0.26086596 42:0.19692609 43:-0.052722771 44:-0.067519642 45:0.0090383952 46:-0.08364933 47:-0.022196295 48:0.21717183 49:0.38178885 50:0.10967632 51:-0.14574526 52:-0.016432008 53:-0.080546014 54:0.16537945 55:0.16855974 56:0.18260244 57:0.39338222 58:0.40270856 59:0.16626143 60:-0.009913994 61:-0.088091351 62:0.17902267 63:0.030959241 64:0.16060549 65:-0.081152461 66:-0.03083574 67:1.6797115 68:1.1188828 69:0.86072463 70:0.99380314 71:1.6052195 72:0.22048041 73:0.76022071 74:0.34092897 75:1.4032503 76:2.5128937 77:0.62030071 78:0.28659657 79:0.19734089 80:0.31401712 81:0.3662712 82:0.66998154 83:0.049614362 84:0.064965144 85:0.17820476 86:0.81021678 87:0.55572093 88:-0.068706371 89:0.34477916 90:0.51474082 91:0.32074615 92:0.064260721 93:-0.17007221 94:0.20263234 95:-0.09445551 96:-0.0055015218 97:0.15281068 98:-0.17380659 99:-0.02307955 100:0.09795545 101:-0.066788971 102:0.40503034 103:0.53014934 104:0.32969981 105:-0.090726078 106:-0.025397496 107:-0.21268693 108:-0.037893288 109:0.30786154 110:0.35807544 111:0.077746384 112:0.080636546 113:0.073169529 114:0.11612862 115:0.010341185 116:0.24557 117:0.060626958 118:-0.031169143 119:0.071681857 120:-0.001269512 121:-0.17963457 122:0.0050128587 123:0.14770101 124:0.11654229 125:-0.28564554 126:0.12420594 127:0.19440086 128:0.28230271 129:0.12916028 130:0.29376701 131:0.62678427 132:1.3847594 133:1.3252885 134:2.3079972 135:0.45062342 136:1.4476012 137:1.9823133 138:0.37817973 139:1.1435566 140:2.1343336 141:0.75119615 142:1.7828119 143:1.1378354 144:0.21678169 145:0.58744186 146:0.45186162 147:0.37830225 148:0.95278829 149:1.5535446 150:1.2183933 151:1.1178955 152:1.5779104 153:1.2949195 154:0.53793365 155:0.55919379 156:0.24255672 157:0.82259065 158:1.2161765 159:0.53753644 160:0.79323155 161:0.55531627 162:0.22686064 163:0.5499512 164:0.28181982 165:0.16879617 166:0.42079028 167:0.66918927 168:0.85278863 169:0.32978672 170:0.26789686 171:0.10274727 172:-0.058857415 173:-0.036594719 174:0.26664492 175:0.535541 176:0.40634152 177:0.47901377 178:0.91308391 179:0.54294121 180:-0.18039864 181:0.1225338 182:-0.094990604 183:-0.20882703 184:-0.054191086 185:0.182511 186:0.10495639 187:-0.20953485 188:-0.016667679 189:-0.076305121 190:0.016987117 191:0.0098590376 192:0.039784472 193:0.20429344 194:-0.016998254 195:-0.18260488 196:0.68103474 197:0.63801974 198:0.83327365 199:1.8411492 200:0.49319956 201:0.52919668 202:1.2614287 203:0.29388103 204:0.78349453 205:0.87290478 206:0.26805508 207:0.4864006 208:-0.061768807 209:-0.11651167 210:-0.036426559 211:0.15698388 212:0.31291786 213:0.80157787 214:1.0759951 215:0.51507771 216:0.56620306 217:0.85617977 218:0.53109443 219:0.51232415 220:0.63071889 221:0.42732018 222:0.81996208 223:1.0089878 224:0.8687799 225:0.15925877 226:-0.071429253 227:-0.024473282 228:-0.23535757 229:0.040475436 230:0.45707366 231:0.14787737 232:-0.063845769 233:-0.11395258 234:-0.015392723 235:0.046095457 236:-0.034461103 237:0.13373028 238:0.19633675 239:0.2405159 240:0.20827578 241:0.028299047 242:-0.027468372 243:0.01901439 244:0.044336889 245:-0.20415071 246:-0.21465977 247:-0.22536083 248:-0.071028538 249:-0.097571395 250:-0.071196318 251:-0.15180868 252:-0.19556317 253:-0.045904074 254:-0.073061861 255:-0.049960714 256:-0.020049328 257:-0.21096511 258:-0.2232645 259:-0.22078501 260:-0.12124249 #
0.52199566158517596292654161516111 1:1.4090551 2:13.726702 3:16.10865 4:13.195722 5:5.1260138 6:9.2478533 7:6.8586149 8:2.6743715 9:2.5145326 10:8.9669847 11:11.683526 12:8.9126797 13:8.7025661 14:13.295118 15:12.315275 16:8.4584322 17:8.3817644 18:7.2929678 19:2.4473114 20:2.4874103 21:5.0656424 22:7.2064881 23:7.7935824 24:8.2443066 25:10.150475 26:11.311462 27:10.523215 28:9.7098932 29:9.3481789 30:9.4601154 31:7.4796977 32:7.1644783 33:5.8519435 34:4.3536353 35:3.2621543 36:4.3548288 37:5.5439534 38:7.2440305 39:8.7687836 40:10.510533 41:10.481708 42:9.2122355 43:8.4536915 44:7.8113475 45:7.139318 46:5.3195047 47:3.2291579 48:3.7273791 49:5.4501081 50:7.3738999 51:8.9041166 52:10.585944 53:11.189317 54:11.534091 55:10.285452 56:8.2277308 57:7.4862938 58:7.9372487 59:9.0544271 60:8.786437 61:9.1252689 62:10.529508 63:10.837152 64:10.189157 65:3.9746609 66:0.1427357 67:4.0267792 68:5.4563694 69:3.7831414 70:1.7221146 71:5.4200568 72:6.7505617 73:2.7103543 74:2.1803122 75:7.6287379 76:9.0146847 77:4.8175979 78:4.1490493 79:3.8774388 80:2.8759108 81:3.1155219 82:4.460371 83:7.1603131 84:8.5260563 85:8.4309645 86:10.537105 87:11.254733 88:10.823774 89:10.29998 90:11.291814 91:10.195926 92:7.3317237 93:5.9013996 94:6.1173625 95:6.2745442 96:5.2870369 97:5.0677328 98:5.130794 99:5.8764448 100:6.459722 101:7.3803573 102:7.1926618 103:7.453517 104:6.4442992 105:5.3015833 106:5.8288321 107:5.38202 108:5.7892709 109:6.9591808 110:6.5108433 111:7.1936612 112:6.1496534 113:7.5297303 114:7.8679738 115:7.8548789 116:8.3628616 117:8.2583218 118:7.8345208 119:5.7222948 120:5.6945558 121:8.4566145 122:9.8790731 123:10.046935 124:12.48637 125:10.46245 126:9.0765753 127:9.2588835 128:7.1649199 129:4.8973365 130:1.2736735 131:1.9679013 132:8.2953396 133:9.3475723 134:9.0484047 135:6.5355315 136:5.3629327 137:2.6432807 138:1.2238157 139:2.419781 140:5.8564854 141:7.2258697 142:6.5755606 143:5.8637433 144:4.9135561 145:2.2255123 146:0.60864425 147:3.4221401 148:6.9493403 149:9.4610186 150:9.8642578 151:12.186328 152:12.24722 153:11.005258 154:8.4743805 155:6.469861 156:5.2224493 157:5.3081694 158:6.7323947 159:8.3079739 160:9.3461418 161:8.9843206 162:8.4728813 163:7.3537707 164:6.3702984 165:4.546484 166:3.5255601 167:2.5499253 168:2.5051975 169:2.7406013 170:2.8600698 171:2.5036006 172:2.0736859 173:2.6659951 174:3.2198601 175:4.081924 176:5.1978345 177:7.1947761 178:9.5516701 179:11.632616 180:11.975328 181:11.89543 182:11.31666 183:10.848338 184:10.6145 185:10.513332 186:10.688247 187:11.30876 188:12.052211 189:12.692619 190:11.74545 191:10.729758 192:9.8128529 193:7.6259732 194:5.0423951 195:1.633544 196:0.81192982 197:1.2158043 198:2.3982766 199:3.213882 200:2.3923059 201:6.1662998 202:6.8572974 203:5.364749 204:4.8353214 205:7.1335735 206:6.6445794 207:4.3919702 208:3.9464757 209:4.9152889 210:5.5680928 211:5.4239683 212:7.9431667 213:11.181338 214:12.29216 215:11.241074 216:12.854739 217:13.35884 218:11.759292 219:10.520588 220:10.994412 221:10.825217 222:10.955591 223:10.860821 224:11.501749 225:12.362884 226:13.874231 227:14.597269 228:14.513487 229:14.650373 230:14.769818 231:14.878984 232:14.673312 233:14.427209 234:14.167737 235:15.296321 236:15.580683 237:14.909945 238:15.180978 239:14.834999 240:15.144254 241:14.554752 242:15.139735 243:16.111597 244:15.643409 245:14.853456 246:14.005213 247:14.327715 248:13.046331 249:12.559166 250:11.654444 251:10.333899 252:8.6630573 253:7.8436284 254:7.5854082 255:7.9857798 256:8.5550642 257:8.9647923 258:8.9068375 259:8.9800558 260:3.2230349 #
0.35275358436776793613631753032678 1:1.2843684 2:1.924155 3:2.7668083 4:3.1089513 5:1.2572477 6:1.7747548 7:2.4874322 8:0.051212527 9:0.44498488 10:0.59207529 11:0.46673748 12:0.89385617 13:0.04799369 14:1.0850282 15:1.1472356 16:-0.010903704 17:1.4437926 18:1.7960309 19:1.2916397 20:3.6237624 21:3.1204088 22:1.6839671 23:1.4103079 24:1.9402916 25:0.47238758 26:1.4752791 27:-0.0011258163 28:0.94077212 29:2.6104794 30:3.5484416 31:1.0119208 32:1.5822743 33:1.4404267 34:2.6459475 35:1.3335394 36:1.2510756 37:3.1249747 38:0.74576664 39:1.1103703 40:2.16399 41:0.48433465 42:1.8474243 43:0.28881326 44:2.9807007 45:0.058783036 46:3.240798 47:0.94707257 48:2.7222128 49:1.0130296 50:3.0871456 51:2.2901175 52:0.7590012 53:2.4999783 54:0.88260829 55:1.2077118 56:1.2536987 57:0.3852579 58:0.29134026 59:0.86607391 60:0.41683728 61:0.46888503 62:0.94879061 63:1.3093406 64:0.86889118 65:-0.24259089 66:-0.1674456 67:0.1030107 68:1.2245506 69:2.0994093 70:1.2375908 71:4.5501928 72:6.4063482 73:0.83898515 74:2.2334607 75:4.9370508 76:4.3959813 77:2.4334159 78:0.27282351 79:4.3772664 80:1.9791716 81:2.9616489 82:4.000145 83:1.358727 84:6.4216003 85:3.3585434 86:3.8719854 87:3.9946103 88:3.5456614 89:0.1164229 90:2.6767335 91:8.5608778 92:6.0404983 93:2.2410688 94:2.2986386 95:1.2292441 96:0.49664316 97:5.2412324 98:7.0846362 99:4.6694961 100:0.63141173 101:2.2356627 102:4.1432242 103:2.8841221 104:1.5990859 105:2.4614592 106:4.0715179 107:5.4212794 108:2.1528862 109:8.3888817 110:3.6659436 111:1.8209472 112:1.3610317 113:2.858429 114:1.1786176 115:2.7372465 116:2.1099784 117:3.8240199 118:4.1670694 119:3.4311311 120:5.3371167 121:1.7174515 122:3.8805666 123:2.3411422 124:1.2077907 125:4.4473133 126:2.504986 127:3.1520607 128:1.4761587 129:3.7090273 130:1.1147671 131:4.4134183 132:3.6400065 133:1.5533644 134:6.56567 135:5.0138044 136:4.1045752 137:1.7794054 138:1.7754701 139:0.38164517 140:7.7622867 141:4.930706 142:1.1021601 143:6.0138359 144:4.7830358 145:5.4347019 146:7.4649115 147:10.162005 148:9.3127871 149:4.1837854 150:5.0009918 151:6.6285949 152:7.2378974 153:2.4171395 154:5.1512671 155:8.7673616 156:1.9418291 157:1.9318335 158:1.3166884 159:7.1306124 160:8.273941 161:5.4974384 162:3.2172301 163:2.9342451 164:10.974311 165:9.1338453 166:2.4249759 167:4.2748961 168:6.7240849 169:9.348175 170:6.2462225 171:7.3937469 172:1.6237763 173:5.3474393 174:3.2800593 175:2.2694187 176:6.1379051 177:4.5959849 178:7.4240165 179:3.1470082 180:1.3662404 181:6.1756077 182:1.1142962 183:4.0961561 184:5.752676 185:4.7584662 186:5.6131535 187:4.3108473 188:2.1962993 189:5.6208301 190:4.1687007 191:2.5683153 192:6.3289962 193:2.4767499 194:4.6200829 195:7.8820701 196:5.6211343 197:5.6641679 198:2.7722673 199:5.4971933 200:3.7025273 201:0.72337502 202:1.0425109 203:4.7790508 204:2.0049295 205:1.6657143 206:1.911018 207:0.23434879 208:2.3271127 209:3.3266115 210:3.7931786 211:2.3281269 212:1.852344 213:3.3735435 214:0.39507842 215:1.5005132 216:3.6477773 217:3.0091918 218:5.3917913 219:6.6601067 220:5.9958038 221:3.9326019 222:6.2553906 223:1.5963149 224:4.5233464 225:2.9580035 226:1.2389758 227:3.461832 228:2.9151931 229:0.96986336 230:-0.023390444 231:0.87559259 232:1.5190995 233:1.0029929 234:0.814668 235:1.3485414 236:6.7236218 237:3.8679338 238:2.4655991 239:3.1374595 240:3.2661867 241:3.2036312 242:0.8431105 243:2.7845378 244:0.52491486 245:1.9919213 246:0.71206409 247:2.150872 248:0.775765 249:0.8429696 250:1.4890448 251:2.4111722 252:1.1263208 253:0.5116291 254:0.24826153 255:1.6875812 256:0.98048002 257:0.016959714 258:0.45758492 259:1.9486674 260:2.015419 #
0.73140869046591927560285739673418 1:0.93972069 2:0.93803453 3:6.4076047 4:1.7120006 5:0.62932587 6:3.2116263 7:2.9528501 8:0.69805455 9:0.7561062 10:1.62883 11:2.1403599 12:4.5317183 13:1.6835476 14:6.97545 15:4.1171236 16:2.8783965 17:4.7576404 18:2.8425145 19:6.0319238 20:1.3799776 21:3.4871662 22:1.234095 23:4.4820833 24:1.1606243 25:5.3170848 26:4.0574317 27:5.9387007 28:6.0588436 29:5.5381966 30:6.3752489 31:2.5144033 32:5.5191646 33:3.4229367 34:3.720371 35:2.1653798 36:3.6866119 37:1.6962383 38:4.8761349 39:3.4830298 40:4.8600931 41:5.3762445 42:5.3158875 43:7.4850111 44:5.1428013 45:6.9881606 46:3.731163 47:4.5933638 48:1.1563779 49:5.1131773 50:0.60104311 51:4.3655357 52:3.9075894 53:5.1322193 54:6.1787472 55:4.5339446 56:5.7766924 57:2.9434781 58:7.9205356 59:3.0554402 60:7.4893932 61:3.3190281 62:4.112792 63:4.3816624 64:3.1191063 65:3.3258369 66:-0.065304935 67:2.1829574 68:1.6942527 69:2.6831784 70:0.33134037 71:4.7010975 72:1.7951292 73:1.2913558 74:0.6231091 75:2.0813305 76:3.5614684 77:2.5155821 78:3.9153385 79:7.056982 80:5.7970567 81:2.3191535 82:5.375814 83:1.5050391 84:3.8222668 85:1.6444288 86:3.2332346 87:3.0213866 88:4.9005675 89:2.719722 90:6.5864482 91:7.9132276 92:9.239831 93:9.1189756 94:9.7824936 95:5.8697629 96:6.8219914 97:6.2831678 98:3.7815926 99:6.1929131 100:3.6908967 101:4.6762023 102:3.930124 103:8.4039507 104:4.5760446 105:5.9610376 106:7.455224 107:6.578691 108:9.2976284 109:4.9918718 110:9.5252171 111:2.7973554 112:5.0877528 113:1.6882393 114:3.6096196 115:3.7379036 116:4.3292418 117:6.2834072 118:7.4696035 119:5.7425904 120:10.84545 121:6.1690407 122:7.2028465 123:7.6813655 124:5.468761 125:8.2628384 126:2.9747217 127:5.9935288 128:4.3357587 129:5.7481899 130:4.4489527 131:3.1474814 132:1.9216303 133:8.6916676 134:6.1463308 135:3.1595345 136:9.6095295 137:1.9403656 138:5.8253179 139:1.1223123 140:4.8089318 141:2.2680514 142:4.1003146 143:1.5692858 144:2.2924294 145:5.4662614 146:0.38710254 147:4.0673003 148:6.8136435 149:4.3651214 150:6.6299272 151:4.0754409 152:1.3930401 153:9.7753916 154:0.72298265 155:10.086637 156:4.1265311 157:7.0568919 158:10.301911 159:7.6300979 160:8.0159445 161:7.197052 162:3.8079367 163:6.4902387 164:8.069108 165:3.8621829 166:4.9695191 167:8.6828079 168:1.3079267 169:9.61024 170:3.8959825 171:5.5205417 172:7.1480846 173:2.1533194 174:8.4023943 175:2.0191839 176:5.3600278 177:7.0278587 178:1.6803638 179:6.7300248 180:4.1113725 181:4.378552 182:5.9294887 183:9.0968428 184:5.3318906 185:12.680941 186:8.1993914 187:5.2956595 188:9.1412201 189:5.7832799 190:7.2506003 191:6.3827863 192:3.8246386 193:7.6438894 194:7.3512278 195:3.0001535 196:8.3542414 197:5.104023 198:4.631115 199:5.3871756 200:2.1666858 201:4.0393362 202:4.2138352 203:3.6345453 204:5.0970974 205:5.0530977 206:7.7420883 207:5.7220459 208:1.2160618 209:3.2820666 210:3.9818966 211:1.0251535 212:4.4978123 213:3.979903 214:1.6031194 215:3.3162746 216:2.2860529 217:5.9166875 218:3.0625398 219:0.47540146 220:4.2487478 221:6.0621319 222:3.4421213 223:5.1053624 224:3.2488184 225:1.6734704 226:1.9616429 227:2.9492123 228:1.3678298 229:1.665148 230:0.40478316 231:6.5183473 232:4.8710213 233:3.4528351 234:5.5220346 235:3.7940352 236:2.8375142 237:3.0969677 238:3.5649681 239:0.58650857 240:4.1971574 241:2.2439635 242:1.1236856 243:0.67536914 244:4.0796518 245:3.771606 246:3.9401333 247:5.8697805 248:2.2553606 249:3.0496695 250:3.5257738 251:3.7456589 252:3.2868564 253:2.5732872 254:2.3132362 255:2.7835207 256:2.8308623 257:4.2492442 258:4.0520077 259:4.4148216 260:3.6712892 #
-0.36090772263221143623113107423706 1:2.7133725 2:0.52031887 3:0.56153995 4:2.3807063 5:0.94421762 6:3.3577392 7:3.2831702 8:4.4835911 9:2.8199422 10:2.8509095 11:1.1341288 12:3.9631572 13:0.77393049 14:0.78336054 15:1.7330004 16:4.6736059 17:1.6623622 18:2.6849897 19:1.7571377 20:0.88624305 21:0.92261243 22:2.4494591 23:3.1065598 24:2.870028 25:2.5140009 26:-0.086081177 27:2.7190914 28:1.1369867 29:1.7588255 30:2.2780738 31:1.3496675 32:1.7473527 33:2.5021076 34:0.47140196 35:-0.048213355 36:1.6835583 37:1.7070245 38:0.59963614 39:2.8348818 40:1.6090821 41:0.69091749 42:2.7136402 43:1.058238 44:0.57094121 45:1.502849 46:2.2760508 47:1.3126096 48:0.95461869 49:0.92765778 50:1.9374168 51:0.55407768 52:1.5461133 53:1.700961 54:1.3184003 55:0.0080448398 56:1.7946343 57:3.4625313 58:2.1057689 59:1.0420911 60:0.97480804 61:0.07350105 62:0.070572048 63:1.0466551 64:0.32837301 65:0.91985637 66:0.76377022 67:1.2355638 68:0.40184587 69:0.98377627 70:0.6446979 71:0.75066346 72:2.3334844 73:0.56885618 74:0.60767239 75:-0.08575812 76:0.95907974 77:3.5664821 78:0.43934491 79:0.33634332 80:0.1058481 81:4.7828012 82:0.47418988 83:0.41382915 84:2.1510224 85:3.4935174 86:2.6685338 87:3.5995622 88:1.8382698 89:3.4632938 90:2.2172103 91:1.9028234 92:2.7418425 93:1.1111662 94:1.3634715 95:0.62624097 96:0.079126164 97:0.47849247 98:0.75466239 99:1.6692766 100:-0.17423214 101:0.36374402 102:0.93130267 103:2.3284869 104:3.5545304 105:1.9316299 106:2.1661747 107:1.1266257 108:0.36739248 109:1.4546031 110:0.72138876 111:1.944643 112:2.3711758 113:0.84961987 114:0.89559305 115:1.8542093 116:2.0077121 117:2.2576444 118:1.7118006 119:3.3004739 120:2.1538379 121:2.583087 122:1.5672657 123:1.2137989 124:2.6970468 125:1.4559574 126:2.2352855 127:2.4301827 128:2.8257153 129:1.6995227 130:0.02162138 131:3.5715508 132:1.1813171 133:0.80408555 134:0.050585069 135:2.4500844 136:1.3481163 137:1.2348008 138:1.465752 139:1.9505301 140:2.5474041 141:0.58536094 142:6.2694235 143:0.955015 144:1.9074947 145:3.8324115 146:5.7596512 147:2.466574 148:1.8374567 149:7.3593817 150:4.7013679 151:3.2878122 152:3.8140783 153:2.4355104 154:5.0036988 155:1.6462864 156:2.7697854 157:-0.11673712 158:1.0999192 159:2.4103024 160:2.0302773 161:2.0384076 162:1.3600659 163:1.4043415 164:2.8487399 165:1.2514549 166:1.3756386 167:2.154062 168:3.2367253 169:3.004055 170:1.2802896 171:1.355091 172:1.6724498 173:1.5110294 174:0.3011443 175:2.2544816 176:2.1937196 177:0.032869279 178:0.023416027 179:1.2923477 180:0.53804129 181:1.4264464 182:0.018887151 183:0.6741277 184:0.13438094 185:1.1584145 186:1.2921128 187:1.6726189 188:1.9027681 189:0.60208338 190:2.00334 191:1.1754344 192:1.4179105 193:0.51895201 194:1.4555345 195:0.75680357 196:0.20153391 197:1.7271212 198:1.2274408 199:1.0205817 200:1.6155828 201:3.3864346 202:4.1570024 203:8.8545408 204:5.2588992 205:2.0203686 206:0.7812885 207:3.1580782 208:2.2042992 209:0.94070709 210:4.5532808 211:2.7551496 212:2.4326997 213:0.48001546 214:4.0773168 215:1.284964 216:0.55351466 217:2.8300526 218:4.004106 219:1.6730161 220:2.1319089 221:1.6490552 222:2.3627181 223:2.4458067 224:0.7376827 225:0.22042891 226:0.44718111 227:2.3822958 228:2.2589092 229:2.0792706 230:1.8933085 231:0.30039242 232:0.69080728 233:0.60922998 234:1.1887286 235:3.4040091 236:0.82340765 237:1.9107028 238:0.28596947 239:2.2075515 240:0.15873645 241:1.850022 242:2.2538612 243:-0.050803058 244:1.6735317 245:1.0404342 246:1.595486 247:1.1493384 248:1.7833911 249:2.3154483 250:0.77290046 251:1.8089826 252:1.1361085 253:0.91243958 254:0.10642909 255:1.1780971 256:0.10978851 257:0.24503736 258:1.8937671 259:0.70369315 260:0.63515282 #
-1.1843189936644618054373268023483 1:3.3131542 2:2.9400856 3:1.8106444 4:4.341794 5:1.320388 6:4.8801003 7:0.64858651 8:1.9949589 9:1.2804923 10:0.61302358 11:2.6068683 12:5.8715792 13:9.9852257 14:8.5495901 15:1.1725423 16:2.6603909 17:1.9528567 18:6.8911362 19:2.1456909 20:3.7287512 21:1.2494006 22:2.6218596 23:5.7605834 24:5.5199571 25:4.5562124 26:3.3948581 27:1.1396803 28:1.9124533 29:3.1632867 30:3.5773568 31:0.79201466 32:5.4917951 33:4.5311046 34:4.3185363 35:4.9704742 36:1.4106296 37:1.871027 38:2.5819008 39:1.0883238 40:2.4611292 41:2.7697155 42:4.1611438 43:3.8042905 44:4.9498663 45:3.4187512 46:5.6635242 47:1.5352882 48:0.245343 49:3.0741065 50:3.6044226 51:3.0144672 52:1.2997975 53:0.44921753 54:1.3009576 55:6.756772 56:4.3753467 57:4.6637597 58:1.7342957 59:1.2587172 60:4.621244 61:1.2978667 62:3.3815818 63:6.0176034 64:1.1817064 65:0.62811261 66:1.5399805 67:1.3634965 68:1.6307138 69:2.8339787 70:0.36738265 71:2.2538707 72:4.469532 73:1.493922 74:0.66374892 75:4.1396956 76:2.0630331 77:3.9137025 78:6.7448235 79:5.3112788 80:1.2523894 81:1.7985113 82:3.3915868 83:4.4827662 84:4.8972073 85:4.4122992 86:1.6457251 87:0.27549401 88:1.7327634 89:2.8422303 90:2.7019572 91:5.0426006 92:4.2840676 93:6.5212455 94:8.7789736 95:7.0570579 96:7.7942424 97:0.65734786 98:4.4138517 99:3.4596274 100:2.0300734 101:6.7732701 102:6.7430906 103:4.7542596 104:2.4425383 105:3.1816792 106:4.4057465 107:4.1221089 108:6.7260752 109:3.63972 110:5.0142193 111:0.80082726 112:4.1634226 113:0.60395068 114:7.3196239 115:7.0026107 116:3.1763549 117:2.0587561 118:3.5026948 119:3.7324567 120:7.0018201 121:7.3931007 122:8.3425474 123:1.5460523 124:4.7632194 125:4.0813069 126:2.2386508 127:3.0317101 128:9.1002398 129:4.857451 130:5.9842925 131:4.7700381 132:5.0128646 133:1.4928409 134:0.61410373 135:2.1887488 136:0.92028362 137:5.1478553 138:4.2969165 139:1.2970588 140:5.9548969 141:5.3499942 142:1.2172594 143:6.2297072 144:3.1084857 145:4.01336 146:7.1319122 147:5.9751768 148:2.1179643 149:4.05934 150:1.7558573 151:7.5768781 152:4.0543485 153:4.2632513 154:2.1642299 155:1.9322839 156:5.9470577 157:2.7276962 158:3.3179791 159:6.3889661 160:2.8358693 161:2.4109952 162:3.1348906 163:8.9983387 164:0.39277196 165:4.7692995 166:4.3117723 167:3.8956347 168:0.083531059 169:5.0073352 170:7.6876464 171:5.3141737 172:11.335413 173:6.1056833 174:4.0579481 175:5.0714474 176:5.4723053 177:2.9561038 178:7.4690747 179:2.1040947 180:5.0877323 181:4.2058501 182:4.1041651 183:3.2046518 184:8.9057188 185:3.4939075 186:3.4546692 187:4.1446338 188:6.0724649 189:4.8177643 190:2.4798145 191:1.3396615 192:2.0181723 193:1.3167913 194:-0.01889205 195:0.60811609 196:12.613787 197:9.4638367 198:3.8032694 199:3.9958823 200:2.5462997 201:5.5979447 202:1.959745 203:1.3856657 204:3.9603226 205:2.0506446 206:1.4077283 207:4.3819194 208:0.96188629 209:2.0007329 210:7.141243 211:2.9004791 212:0.28943065 213:1.0688765 214:1.8905803 215:1.9707428 216:1.211179 217:3.2456653 218:0.49834421 219:7.4014497 220:8.1922016 221:6.2889528 222:7.9542618 223:8.7392349 224:4.9259267 225:3.1571884 226:1.089029 227:4.7564912 228:2.0032871 229:6.242733 230:5.2615004 231:9.8776751 232:8.7852793 233:5.5949311 234:4.2611189 235:2.5961802 236:2.4022229 237:1.9980174 238:4.206315 239:1.4923109 240:6.1304832 241:2.3446505 242:3.9817543 243:0.99129051 244:3.8473151 245:2.0706975 246:4.3137088 247:3.8561585 248:6.5013037 249:3.9560845 250:3.5023835 251:3.8967597 252:4.3011608 253:3.7697153 254:6.3516049 255:4.0721154 256:7.6361952 257:3.9184427 258:5.1416435 259:4.3889422 260:12.536662 #
-3.497519868374557194812268789974 1:1.6319484 2:0.56513876 3:0.40847284 4:1.0764576 5:1.9916499 6:0.63724369 7:1.0660083 8:0.091855757 9:1.8193161 10:1.0286913 11:0.67376369 12:0.74907196 13:1.6411591 14:0.69729853 15:1.3816117 16:-0.0064662155 17:1.6858245 18:0.85118192 19:0.66943789 20:0.23056646 21:2.5277293 22:0.10806873 23:0.60000181 24:0.61497986 25:1.6396073 26:0.88157713 27:1.0382998 28:0.95057595 29:0.69808161 30:1.3345393 31:0.74344307 32:0.34399098 33:1.7726705 34:0.44259045 35:1.9519378 36:-0.073731184 37:1.4283594 38:0.68266726 39:0.59784096 40:0.41123652 41:2.1683445 42:-0.17448537 43:0.14129479 44:0.56093472 45:0.66289473 46:0.012993201 47:0.21469896 48:0.13779132 49:0.35090092 50:-0.053729359 51:0.13779943 52:0.01790496 53:0.22931176 54:-0.023072027 55:0.085244216 56:-0.10050245 57:0.15428478 58:0.031606093 59:0.13348563 60:0.085751846 61:0.099014066 62:0.052416157 63:-0.14791237 64:0.16916499 65:0.30392128 66:0.41775537 67:1.3842504 68:1.0184611 69:3.5252259 70:2.1881611 71:0.72276771 72:1.8374633 73:0.5722881 74:3.9361491 75:2.8684163 76:-0.086649224 77:2.9306023 78:2.1002347 79:3.1122744 80:0.71594501 81:0.77443218 82:2.7900298 83:2.5556293 84:0.17501904 85:1.9313483 86:0.65200406 87:1.6340585 88:0.048040405 89:1.5072681 90:1.5896183 91:2.6669888 92:1.826885 93:0.45200455 94:0.65522736 95:0.97082585 96:0.090894617 97:0.47180688 98:0.99333984 99:2.1866484 100:0.81113636 101:2.0293286 102:0.27883682 103:1.8119426 104:1.1422244 105:1.699946 106:2.7937288 107:3.02086 108:1.4856418 109:2.465148 110:1.0168697 111:2.4369452 112:0.77940041 113:3.3419538 114:1.3295134 115:1.2931921 116:0.79957318 117:0.21612564 118:1.6377668 119:3.9204004 120:0.67951924 121:0.9072026 122:0.86411005 123:1.063325 124:1.3486952 125:0.75391674 126:1.5051588 127:1.318156 128:0.53783041 129:1.5711912 130:0.86036688 131:2.0961368 132:2.3018792 133:1.935186 134:1.0700797 135:1.5684958 136:2.2303479 137:2.6580071 138:4.6353035 139:3.2366815 140:2.5204387 141:3.0360134 142:2.5450251 143:4.0612426 144:3.616879 145:2.9421041 146:3.2294774 147:2.6412365 148:2.5426621 149:2.1776087 150:2.5305514 151:3.3679707 152:1.533885 153:0.69987416 154:1.0307183 155:1.082454 156:3.8337009 157:2.7512615 158:2.9506617 159:1.449154 160:2.7121553 161:0.43687984 162:1.4972255 163:0.15532348 164:0.077488378 165:1.6350585 166:1.8862119 167:0.14055201 168:2.416575 169:1.067513 170:1.4287871 171:0.7826938 172:0.33737114 173:1.4212946 174:0.4359667 175:1.6613941 176:2.3168812 177:1.721375 178:0.080772072 179:0.60729337 180:1.8995595 181:-0.082488775 182:1.1529588 183:1.2632165 184:0.34112385 185:1.7394427 186:1.0334092 187:2.0507302 188:0.86047846 189:0.89196652 190:-0.05740327 191:0.59390092 192:1.4497559 193:0.46729648 194:1.2839936 195:1.742483 196:1.1644197 197:-0.059762053 198:1.2542289 199:0.56645858 200:1.4683688 201:1.1739697 202:1.8982172 203:1.0464303 204:1.8400908 205:0.6874361 206:1.678375 207:-0.096307859 208:1.168736 209:1.0399845 210:0.85460651 211:0.67431444 212:0.079826862 213:0.48380703 214:1.4800543 215:0.62435538 216:-0.14189631 217:0.73171306 218:1.0210977 219:0.37777627 220:0.620179 221:0.26618361 222:0.02173225 223:1.1110427 224:1.4367715 225:0.13321672 226:1.2560358 227:0.51569235 228:1.085904 229:1.3172534 230:2.2775548 231:1.0775014 232:0.91645283 233:1.1512871 234:0.63295263 235:0.58271819 236:2.0360706 237:1.0106978 238:1.1887257 239:0.89014298 240:0.51139003 241:0.86519283 242:0.3053782 243:0.52181751 244:0.82646567 245:0.72770274 246:1.1305201 247:0.26051268 248:0.23860887 249:0.407812 250:0.18577798 251:0.14735265 252:0.40755874 253:0.24416249 254:0.14042559 255:0.36785272 256:0.86385709 257:0.54581165 258:0.14039533 259:0.053307042 260:0.27985436 #
0.28167793145555125589041267630819 1:0.89436388 2:0.57026744 3:2.0575116 4:2.1072209 5:1.0252076 6:0.61557299 7:2.6995039 8:0.49989101 9:1.8823569 10:1.7934191 11:1.2547575 12:3.6579514 13:1.1984226 14:3.7294803 15:0.6064536 16:0.53466851 17:0.096500896 18:1.4631908 19:1.3688431 20:2.8111837 21:1.2682956 22:3.0808134 23:1.7369946 24:0.64937598 25:2.0852742 26:0.96157116 27:0.47259364 28:1.3297777 29:0.12826072 30:3.487926 31:1.3302202 32:1.2085644 33:1.4392774 34:0.93245834 35:1.9440701 36:2.2959867 37:1.1777574 38:1.9701525 39:1.6851144 40:1.1524448 41:0.64210707 42:0.41821739 43:1.5858278 44:3.7073636 45:1.9019914 46:2.448909 47:2.2866385 48:0.1606057 49:0.6812281 50:1.2413074 51:2.1024899 52:2.1861024 53:0.6004864 54:2.5221045 55:0.718261 56:1.1160007 57:0.90750182 58:2.5868509 59:1.7405362 60:1.8655409 61:1.3278159 62:2.3631582 63:0.12402871 64:3.2104282 65:-0.27799717 66:-0.21147132 67:0.075086005 68:0.50236619 69:0.32445136 70:-0.16390817 71:0.42054355 72:0.20514899 73:0.074492216 74:-0.13898127 75:0.91395336 76:0.049015462 77:0.90515214 78:0.86324179 79:0.92945337 80:0.95413762 81:0.81357366 82:0.050874215 83:0.72989041 84:2.1131454 85:0.82577747 86:0.30724832 87:1.2067213 88:0.39501742 89:1.090124 90:1.3609847 91:0.62894088 92:0.85367584 93:2.2051582 94:1.5053582 95:1.0102555 96:0.479278 97:0.33365753 98:0.6400606 99:1.9098225 100:2.9107475 101:1.464747 102:3.109834 103:2.4495716 104:1.1510226 105:0.60331082 106:0.42024431 107:0.47207364 108:2.0526319 109:1.7505159 110:2.2759902 111:0.28427643 112:0.4792389 113:0.099270307 114:2.2230306 115:2.9864233 116:0.34661511 117:2.2539685 118:2.1277456 119:3.0482707 120:3.0232496 121:2.3255057 122:1.1032211 123:0.94698167 124:1.7183758 125:3.6823919 126:1.4152904 127:0.47751972 128:0.39082766 129:2.5028274 130:1.100152 131:1.2555817 132:1.9455404 133:1.1144189 134:1.0155177 135:0.49089694 136:1.3411273 137:2.3828568 138:1.0159847 139:1.690289 140:1.1469171 141:0.99941677 142:2.1722591 143:0.042836182 144:0.51097012 145:2.3552921 146:1.947508 147:0.51599848 148:1.5665686 149:1.1111418 150:1.2547492 151:0.54833519 152:2.6950769 153:3.0829422 154:1.1542592 155:1.9809536 156:-0.067422189 157:0.71288055 158:3.4937971 159:2.3701794 160:4.7070193 161:1.2671063 162:3.7189577 163:2.7717657 164:0.915389 165:1.3362279 166:3.1045022 167:2.0846884 168:2.0788453 169:1.2363876 170:2.2237556 171:1.0136918 172:3.4770415 173:4.1639004 174:3.0487537 175:3.9275119 176:2.6102812 177:2.9104545 178:1.8545266 179:1.5384494 180:2.3012228 181:1.8323356 182:0.55634433 183:2.0679224 184:0.9074226 185:2.7936604 186:1.534181 187:2.4969375 188:1.7727569 189:1.0263727 190:1.165826 191:1.9139987 192:3.3746808 193:1.5902259 194:1.6200026 195:1.1120378 196:0.10530123 197:2.0190887 198:2.9608872 199:3.4242327 200:1.4570165 201:0.96116555 202:2.0731981 203:0.2569828 204:0.53198242 205:2.2867901 206:3.1890526 207:1.6687813 208:2.6454258 209:1.4587773 210:2.4783163 211:2.7110898 212:2.6778882 213:1.9956164 214:6.9324112 215:1.3968165 216:1.6041033 217:3.9300976 218:2.0852525 219:3.2073815 220:1.1662308 221:4.6371212 222:1.7981675 223:1.7898993 224:4.2339578 225:1.6973544 226:2.4651401 227:0.39979964 228:0.92974454 229:7.9286137 230:2.8576443 231:4.4623575 232:9.8009758 233:4.4782887 234:2.1083329 235:1.8177061 236:3.3296635 237:4.0647802 238:2.303688 239:2.0215166 240:4.296247 241:2.2530191 242:0.4380362 243:2.8545821 244:1.5686302 245:3.3173909 246:0.79387158 247:0.91830093 248:1.5292151 249:5.7009597 250:0.93992746 251:6.4764137 252:3.3225558 253:1.7076823 254:4.6643019 255:4.0702705 256:2.7404141 257:1.1694937 258:1.5387093 259:0.59220028 260:1.4329627 #
0.43281751625557318696735364937922 1:0.48402479 2:6.5924592 3:6.2024555 4:3.4029009 5:1.0054016 6:2.6099184 7:2.9197896 8:1.3825171 9:0.83184665 10:2.8380268 11:3.5389731 12:2.1135507 13:1.3392618 14:1.9534835 15:2.5246983 16:2.3461101 17:2.7814906 18:2.6546304 19:1.5662166 20:1.5260906 21:2.3414197 22:2.8316476 23:2.0322139 24:0.85175258 25:0.92747736 26:2.039309 27:2.4171395 28:2.2043564 29:1.3335627 30:-0.025616592 31:0.75182825 32:0.81024206 33:0.63553101 34:2.2057307 35:2.8630569 36:3.159322 37:3.8167374 38:4.5928483 39:4.703681 40:4.9029722 41:4.6647968 42:3.6203079 43:2.7562332 44:2.2429235 45:1.8957633 46:1.0147136 47:0.48186329 48:0.50358135 49:0.70501125 50:0.89144278 51:1.12466 52:1.7507042 53:2.2825258 54:2.9991879 55:3.4344378 56:3.1766274 57:2.6499805 58:2.1474485 59:2.1949356 60:2.4936161 61:2.7677586 62:2.8091002 63:2.4424357 64:2.0411289 65:0.63058317 66:0.091156706 67:2.5944581 68:2.6995721 69:0.92309093 70:0.1367494 71:0.82798994 72:0.81947029 73:0.27061415 74:0.18670481 75:0.87809771 76:0.32904571 77:0.72817326 78:1.7939651 79:3.1821725 80:2.1267517 81:0.97717786 82:0.67518097 83:0.93563533 84:1.7008709 85:2.2367859 86:2.6776965 87:1.7013208 88:0.31907883 89:0.62999022 90:1.459762 91:1.6141331 92:1.1951299 93:1.2243367 94:2.1423051 95:3.3317509 96:4.0438561 97:4.2848787 98:3.7585208 99:2.8278992 100:2.0921435 101:2.3766253 102:2.5470479 103:1.7844009 104:0.49033546 105:1.3346969 106:2.4149053 107:2.0064197 108:0.62695706 109:0.040183362 110:0.11562525 111:2.0761771 112:4.8274112 113:6.7315202 114:6.8120489 115:5.9509211 116:4.6359515 117:3.5701296 118:2.6846714 119:1.6541147 120:1.2436851 121:1.2949681 122:2.1442354 123:3.062535 124:3.9556062 125:3.6319175 126:2.8502591 127:1.6592302 128:0.91260678 129:0.85996068 130:0.52280301 131:0.99952197 132:4.4123588 133:3.3950648 134:1.4065311 135:0.0299979 136:0.58961189 137:2.1270854 138:2.4175701 139:1.9537016 140:3.1156301 141:3.5248272 142:2.6676219 143:2.0793793 144:3.1780579 145:3.7912374 146:3.5957859 147:4.1219778 148:3.6884589 149:1.915953 150:1.9634398 151:3.7978151 152:4.3494821 153:3.8067338 154:3.0543301 155:3.1757035 156:3.8235259 157:4.2548547 158:4.3228536 159:4.1590915 160:4.0230265 161:4.1025724 162:4.8376093 163:5.6685076 164:6.5465336 165:6.5168099 166:7.0929871 167:7.2735214 168:6.9459686 169:6.349287 170:6.0615687 171:5.769702 172:5.4374175 173:5.4189267 174:5.5702071 175:5.7464023 176:4.5080881 177:2.5952017 178:0.87833571 179:0.26437995 180:0.7808345 181:2.6177421 182:4.2262955 183:4.9755788 184:4.8728704 185:4.3724484 186:4.4869795 187:5.3778834 188:6.1136136 189:6.642024 190:6.0675554 191:4.8710284 192:4.2097831 193:3.7536538 194:3.336266 195:0.33659232 196:2.3156247 197:1.6705111 198:0.42763647 199:1.0457839 200:1.0587984 201:2.2786739 202:1.0115968 203:0.4578667 204:0.68776816 205:0.51105988 206:0.64067274 207:1.1664674 208:1.0820261 209:0.34298217 210:1.1311283 211:1.3342431 212:1.5237712 213:1.2610127 214:0.72905791 215:1.1524055 216:2.071099 217:2.0405846 218:0.79448432 219:0.37120655 220:1.3463093 221:1.3669502 222:0.43832636 223:0.00083803647 224:0.363902 225:0.035952818 226:0.045645658 227:-0.11210568 228:0.9056673 229:2.5302546 230:3.4808857 231:2.9936779 232:1.5967885 233:1.02334 234:1.5838221 235:2.848408 236:3.5841479 237:2.7939634 238:1.7498024 239:2.2454185 240:2.2250023 241:1.1917583 242:1.2628249 243:1.1141047 244:1.9179592 245:3.8952003 246:4.5750537 247:3.9541166 248:2.7497725 249:2.2873287 250:1.1603218 251:0.90125602 252:1.2228723 253:0.29009834 254:0.69882268 255:1.536346 256:1.4511847 257:1.6075578 258:2.1754389 259:2.2460089 260:1.9018643 #
2.9524920723676992828643506072694 1:-0.11473548 2:0.29209679 3:0.61409897 4:0.33582416 5:0.2075569 6:1.2819729 7:-0.063284323 8:-0.094383508 9:-0.14539403 10:1.0107657 11:0.10263032 12:0.030903557 13:0.40458804 14:0.41609487 15:0.35948035 16:-0.0036582272 17:0.82877487 18:0.74140841 19:0.4426277 20:0.32616919 21:0.6061331 22:0.74929857 23:0.14606047 24:0.043698117 25:0.089753002 26:0.33729661 27:0.027369682 28:-0.085412286 29:0.3042953 30:0.13115723 31:0.035538305 32:0.24410377 33:0.15647024 34:0.25355411 35:-0.25449499 36:0.030746087 37:-0.053915016 38:0.27049789 39:0.06251841 40:-0.10740378 41:0.25025481 42:-0.16638011 43:0.043940522 44:0.046827886 45:-0.032754011 46:0.16614102 47:-0.057648066 48:-0.14768638 49:-0.0068042804 50:-0.049907558 51:0.19805443 52:0.23461175 53:0.11783093 54:-0.13358784 55:-0.079494961 56:-0.14241831 57:0.028891753 58:0.040051989 59:0.26253754 60:0.226623 61:0.029254602 62:0.094884954 63:0.044648476 64:0.068112083 65:0.0054109488 66:-0.1800499 67:-0.13386977 68:-0.20795485 69:-0.086900033 70:-0.073577657 71:-0.15292323 72:-0.20363884 73:-0.22794861 74:-0.15694696 75:0.070992105 76:-0.079123214 77:-0.14661829 78:-0.030260962 79:0.13843772 80:0.16655572 81:-0.20099509 82:-0.32057557 83:0.41786894 84:0.20630436 85:-0.17701921 86:0.46443677 87:0.14228761 88:0.86036444 89:0.20113389 90:-0.026036458 91:0.2059712 92:0.39593172 93:0.096157171 94:0.88705945 95:0.73528039 96:0.069816746 97:-0.010409203 98:0.31600943 99:2.0700331 100:1.0505883 101:0.39236447 102:0.9188484 103:0.8505469 104:1.8548038 105:0.75814545 106:0.029100141 107:0.21462895 108:1.0695909 109:1.1101158 110:0.18287422 111:1.2193085 112:0.72684777 113:1.4433635 114:0.96901113 115:1.0201423 116:1.2210996 117:1.7721238 118:1.6972797 119:0.39928931 120:0.79121351 121:1.8770386 122:0.95991188 123:0.47935227 124:0.37253082 125:0.24075229 126:0.26460961 127:1.2079219 128:-0.054907136 129:0.37283108 130:1.3604014 131:0.11080619 132:0.52237958 133:0.40887845 134:0.40956452 135:0.34572071 136:1.0706806 137:-0.13074483 138:0.45956001 139:0.19629456 140:1.2443062 141:0.72580278 142:-0.064507253 143:0.7565887 144:0.224279 145:0.56269288 146:0.047209863 147:1.3563769 148:1.1432185 149:0.59688133 150:0.43917134 151:0.36125326 152:1.3124743 153:0.40369096 154:-0.058990307 155:-0.0056233611 156:1.1853746 157:0.89257133 158:0.057724938 159:0.17481831 160:0.22705564 161:0.95688331 162:0.78782022 163:1.0132306 164:0.70504516 165:0.66042966 166:0.45259163 167:0.02733914 168:0.60207319 169:-0.12383655 170:1.2072413 171:0.90855312 172:1.1111244 173:1.5916204 174:0.43823573 175:1.2242647 176:0.92030329 177:1.73508 178:1.3868451 179:0.46781567 180:1.6071292 181:0.6696803 182:-0.05833742 183:0.53803641 184:0.3470709 185:0.87644887 186:0.064551651 187:0.19565825 188:0.11197756 189:0.48351029 190:0.088611521 191:0.46052495 192:0.25874877 193:1.2819349 194:1.3096719 195:0.58374327 196:0.016949084 197:-0.039349597 198:0.12415422 199:0.44331259 200:0.066265784 201:0.88372719 202:0.51568019 203:-0.10801981 204:-0.060678605 205:0.21251146 206:0.26618743 207:0.49096099 208:0.33682355 209:0.066150337 210:0.306151 211:0.10270049 212:0.49937233 213:-0.20481838 214:0.30207708 215:0.29438919 216:0.5752666 217:0.28937906 218:-0.13827664 219:-0.15776315 220:0.39765993 221:0.57635236 222:0.036255352 223:0.80817461 224:0.53420895 225:0.36848992 226:0.2057295 227:0.65849763 228:0.81470639 229:0.88882923 230:1.0458115 231:0.67108738 232:0.46215141 233:0.94744545 234:0.10807827 235:0.12750198 236:0.42282829 237:0.49172321 238:-0.19375996 239:0.16807124 240:0.36592719 241:0.72552347 242:0.58813858 243:0.25648203 244:0.79609072 245:0.0047159782 246:0.84018105 247:-0.046970926 248:0.99082953 249:1.4875082 250:0.9085747 251:1.4039123 252:0.14746083 253:1.5322418 254:0.8385154 255:0.11872525 256:1.146589 257:0.12129041 258:0.53518194 259:0.011306572 260:0.56194746 #
1.6751314847717453382358598901192 1:0.65738904 2:2.5130336 3:0.84125525 4:1.6096437 5:1.0566341 6:1.8836486 7:3.6934302 8:1.1216315 9:0.73898327 10:0.6481027 11:0.89243567 12:0.30023387 13:0.33810362 14:-0.041973606 15:2.0216203 16:1.2069659 17:0.39540675 18:1.8413808 19:0.59457541 20:-0.12142152 21:0.62813628 22:0.58249772 23:1.2502576 24:0.65580672 25:0.32151002 26:0.94359875 27:2.3315642 28:1.3407124 29:1.6119999 30:1.2356669 31:1.3465842 32:0.76055175 33:2.3730659 34:0.94854873 35:1.5435967 36:1.7383137 37:1.7073451 38:1.1395359 39:1.6349483 40:1.9217013 41:0.94708216 42:1.518334 43:2.8457069 44:1.7689586 45:1.6492867 46:-0.15966965 47:2.0498843 48:1.2615398 49:1.1417075 50:1.7659413 51:1.9124957 52:1.0834718 53:0.70734531 54:0.13987011 55:-0.11800506 56:1.0351906 57:2.3581765 58:2.9366674 59:2.1018426 60:2.0980046 61:0.45764583 62:0.60445696 63:0.25428236 64:0.11623847 65:-0.088374391 66:-0.18881787 67:0.910303 68:2.1314723 69:0.50560552 70:0.68349373 71:0.45371664 72:1.1247125 73:1.1216007 74:0.34331191 75:2.1656575 76:1.9159997 77:0.80389607 78:1.2666144 79:2.4127507 80:1.5373707 81:1.3804706 82:0.44976324 83:2.3400121 84:2.2305706 85:0.73150605 86:1.468477 87:2.3161812 88:0.93045187 89:0.81460661 90:1.5496403 91:5.8991241 92:2.5098746 93:2.2996476 94:4.4434581 95:1.0003918 96:2.2488093 97:0.97396362 98:2.386765 99:4.6160526 100:3.4209888 101:2.944288 102:4.0709887 103:1.1854907 104:0.26468164 105:2.2869914 106:4.4681706 107:1.9102681 108:1.0986264 109:1.3411226 110:3.2940707 111:2.2691486 112:1.8687409 113:3.5837419 114:3.2451403 115:0.22252971 116:0.2100787 117:-0.33846673 118:2.1326516 119:3.495481 120:4.4344087 121:3.2484884 122:2.6463356 123:0.5907771 124:1.5531188 125:1.5867208 126:2.194932 127:3.730607 128:4.7113824 129:3.8718865 130:0.58132708 131:2.9044106 132:3.3201938 133:0.98587453 134:3.7905531 135:4.3240733 136:3.1170857 137:4.1932883 138:5.471827 139:2.5979254 140:2.0590091 141:2.5603218 142:2.9140217 143:3.4931974 144:3.3654864 145:0.64043158 146:2.2161829 147:2.4722121 148:4.4828591 149:3.1589298 150:2.8784397 151:1.5778211 152:2.9057951 153:4.0766015 154:5.9623575 155:4.1129403 156:4.5115848 157:5.4500976 158:2.7556815 159:3.3212087 160:5.6009922 161:5.2237191 162:3.830198 163:5.1134429 164:2.8219111 165:1.5606257 166:0.55888915 167:4.4762383 168:1.4915005 169:2.052525 170:3.6387715 171:2.2299552 172:2.3116531 173:1.4027033 174:0.90888309 175:0.69468462 176:5.9751153 177:5.7163796 178:3.0940795 179:2.3716953 180:1.8214929 181:2.8328102 182:2.1708863 183:4.0939083 184:5.5034943 185:2.8215725 186:1.264432 187:2.6621172 188:2.5120246 189:3.2535789 190:4.2567992 191:2.3980711 192:0.040847171 193:3.7484307 194:3.2982886 195:0.23079367 196:5.2942572 197:5.5974088 198:7.7407975 199:7.744709 200:7.5969796 201:4.8469539 202:6.4720693 203:6.1369348 204:3.3334491 205:4.8675108 206:8.7745485 207:1.9249432 208:1.8299165 209:3.9715765 210:5.0840044 211:3.0556157 212:2.9530528 213:5.2012424 214:1.7637566 215:1.9939296 216:3.1806111 217:3.7794673 218:4.2026129 219:3.6259692 220:3.3584826 221:3.8611836 222:5.0710616 223:3.9193797 224:2.6683247 225:3.659904 226:2.5940673 227:1.3793588 228:1.5742792 229:1.3430811 230:0.85884809 231:0.27187523 232:0.52505064 233:1.3283851 234:2.0178561 235:1.9328684 236:1.768214 237:2.2180345 238:3.1568561 239:2.4547424 240:1.3236855 241:1.4235138 242:1.2074484 243:0.73142385 244:0.43553939 245:1.5745317 246:1.4919089 247:1.9068455 248:2.1044798 249:1.6102797 250:2.2015922 251:2.8800619 252:2.6416783 253:2.5971217 254:2.0567608 255:1.5512105 256:0.87944996 257:1.043983 258:1.6705344 259:1.55887 260:0.08160907 #
1.1176823172810239626073780527804 1:0.81560004 2:5.3241811 3:3.9749565 4:0.84398437 5:1.7212902 6:4.5105228 7:3.2841799 8:0.38692403 9:0.51958126 10:1.1673774 11:0.63244313 12:1.4820731 13:1.76179 14:1.4514506 15:1.0770364 16:0.93827295 17:0.81989753 18:2.395885 19:3.2148466 20:2.5836244 21:1.5227367 22:1.3280426 23:2.2230761 24:1.4653468 25:0.73256445 26:0.0095643755 27:1.9385175 28:1.2481493 29:1.0107954 30:2.8316681 31:2.7126482 32:1.4361818 33:0.38844812 34:1.7003602 35:2.2393575 36:2.1606331 37:0.84121853 38:1.1752915 39:0.65901744 40:0.13730958 41:0.82005072 42:1.7982494 43:0.01917449 44:1.798569 45:2.7677913 46:1.5326558 47:0.84744573 48:1.2920761 49:3.0363753 50:2.7683022 51:1.2580178 52:0.91712511 53:2.5758548 54:2.7942953 55:0.14578335 56:2.4000607 57:4.1566272 58:3.3369045 59:0.76982516 60:3.3386734 61:5.7001362 62:5.3558187 63:3.1001987 64:0.27103156 65:2.1724734 66:-0.22054885 67:0.86437386 68:2.5196342 69:1.8377563 70:0.94681203 71:3.1094735 72:2.9764245 73:1.1729962 74:0.45760965 75:2.6037459 76:2.5793743 77:2.3422775 78:2.7782848 79:2.0136182 80:0.76119387 81:0.74031192 82:2.0333717 83:2.7754703 84:2.655169 85:1.3924558 86:1.3574524 87:1.2549011 88:0.75590932 89:2.2691371 90:3.4720054 91:1.7428343 92:2.5208852 93:4.7613935 94:2.9197104 95:5.201498 96:4.1665258 97:0.07984715 98:2.0117369 99:5.3944802 100:4.1833167 101:1.679117 102:1.6608731 103:3.8286707 104:1.8580109 105:1.9919102 106:1.3136134 107:4.8191943 108:4.1157303 109:3.5019572 110:7.1275587 111:4.2169204 112:2.5902438 113:1.7271718 114:2.4282632 115:2.6641941 116:3.0879583 117:0.22397456 118:5.8224177 119:2.4280961 120:5.3781586 121:2.9440122 122:2.2428796 123:0.69311368 124:3.6101146 125:3.1964738 126:0.42939597 127:1.9382091 128:2.5304892 129:1.0299351 130:2.9234889 131:2.278038 132:6.0834651 133:3.7907796 134:2.159272 135:5.003654 136:7.2597437 137:3.9353807 138:1.9730809 139:0.57063276 140:2.8966935 141:1.7193407 142:1.4840512 143:1.9914454 144:0.60315681 145:1.9996393 146:1.0558474 147:5.3687663 148:2.9738824 149:3.0062306 150:1.1894579 151:4.9458933 152:6.0230951 153:2.7656891 154:2.5322633 155:1.9104855 156:0.25236014 157:2.194514 158:0.75366127 159:2.6900425 160:3.0250301 161:4.1856565 162:3.2813604 163:0.9188897 164:1.4750074 165:0.18425728 166:0.81345367 167:2.909461 168:0.83541101 169:0.33235997 170:0.19713828 171:1.98373 172:0.22847113 173:0.85264248 174:0.31759569 175:0.45554763 176:0.84001184 177:1.9696853 178:0.66048956 179:2.4261549 180:0.53334367 181:0.94741243 182:1.6139611 183:1.9600716 184:0.70786905 185:2.1824164 186:1.9537607 187:0.48567972 188:1.1703871 189:0.660806 190:1.3123584 191:0.63528204 192:1.5547142 193:0.11312024 194:2.832828 195:1.3755264 196:2.6487577 197:6.59479 198:7.122447 199:4.4633293 200:3.2914553 201:4.699605 202:5.1731095 203:4.4126849 204:3.019902 205:2.4197967 206:2.1111679 207:2.1000202 208:1.2982886 209:0.0042705517 210:1.4148803 211:1.9305609 212:1.4761738 213:1.5320305 214:0.58337367 215:1.510987 216:1.2185324 217:0.44763318 218:2.2201209 219:3.3244412 220:3.3430843 221:3.2642422 222:2.8754764 223:1.8203892 224:2.444921 225:2.2030885 226:1.7924129 227:5.3845882 228:5.789012 229:5.359004 230:3.8351488 231:-0.022199282 232:1.6394566 233:1.674624 234:2.3667266 235:0.20735291 236:1.0840189 237:3.6130185 238:0.7281884 239:1.0807076 240:2.3792689 241:1.305351 242:0.88267791 243:3.6008465 244:3.8227654 245:3.5260022 246:0.90545362 247:2.2975745 248:4.2529459 249:4.5159726 250:2.8969994 251:3.3363979 252:3.2680287 253:3.5152001 254:0.20117915 255:2.5110724 256:3.2139416 257:2.3694496 258:0.48906422 259:2.1325288 260:0.21943638 #
2.8867302695435932413658974837745 1:3.0587587 2:10.22321 3:5.9015346 4:2.3219984 5:1.6322294 6:1.8861827 7:2.5743845 8:0.90014362 9:0.18150465 10:1.9304801 11:0.87432235 12:1.3525088 13:1.1149821 14:0.41149953 15:0.64552486 16:0.40152755 17:0.71587825 18:2.6463563 19:1.2011473 20:0.28288436 21:0.91210109 22:0.18621156 23:1.7429719 24:0.88621646 25:0.41420165 26:0.19478874 27:0.74016482 28:1.6372817 29:-0.24987938 30:0.40304634 31:-0.16727176 32:0.68216443 33:1.3864653 34:0.72232813 35:1.8767084 36:0.34992447 37:0.96358943 38:0.39374352 39:2.6038959 40:2.0943313 41:0.80925137 42:0.21781 43:1.2664055 44:1.1700526 45:2.0462718 46:0.65052813 47:0.59045488 48:0.98264503 49:0.4760972 50:1.8429414 51:3.0538492 52:2.0892837 53:2.2278421 54:1.860324 55:0.41353288 56:1.6433082 57:0.60915011 58:1.9004172 59:2.5164139 60:1.0715095 61:1.9814087 62:0.58804202 63:1.1909788 64:1.0172111 65:1.7957027 66:3.0254207 67:15.988738 68:6.3443747 69:1.2158847 70:0.73030746 71:0.72145998 72:2.0092602 73:0.38338768 74:0.83365482 75:0.53734505 76:1.6145089 77:1.0781798 78:0.61660129 79:0.7736429 80:0.097821921 81:0.71227574 82:0.59674299 83:0.031202715 84:0.39015046 85:0.59645283 86:0.51876545 87:0.70848519 88:0.51792896 89:0.094347484 90:0.41640142 91:-0.19103605 92:0.049322866 93:0.88390583 94:0.84762627 95:1.4456112 96:1.828998 97:0.75677943 98:0.63702536 99:1.1801851 100:1.0791804 101:1.0220675 102:1.6764711 103:1.5205325 104:2.2618802 105:1.9959941 106:2.1818218 107:1.0837762 108:-0.19216698 109:1.6470882 110:1.1508695 111:1.5750498 112:0.55905271 113:0.51977092 114:0.65061176 115:1.3420113 116:1.635604 117:1.2918912 118:0.04600912 119:0.069993414 120:0.79771018 121:0.96610296 122:2.3938963 123:0.72128153 124:1.2915336 125:1.9547669 126:0.39980701 127:1.7069753 128:-0.24632084 129:0.61018634 130:0.62866765 131:-0.20029199 132:-0.16417813 133:-0.17837168 134:-0.15366396 135:-0.2261226 136:-0.1839495 137:-0.16950673 138:-0.25125244 139:-0.2106653 140:-0.18795557 141:-0.21596695 142:-0.21886282 143:-0.18506542 144:-0.10529891 145:-0.22336003 146:-0.25936288 147:-0.25158024 148:-0.16974674 149:-0.24258912 150:-0.23499627 151:-0.30835789 152:-0.23935921 153:-0.18515524 154:-0.19828691 155:-0.19949891 156:-0.24298961 157:-0.1390769 158:-0.10598063 159:-0.086971559 160:-0.23168144 161:-0.25536832 162:-0.26992199 163:-0.26338527 164:-0.25982103 165:-0.23794508 166:-0.18592402 167:-0.14727072 168:-0.12039295 169:-0.15864857 170:-0.14506213 171:-0.25919813 172:-0.21243443 173:-0.24902152 174:-0.22318618 175:-0.15163198 176:-0.27729934 177:-0.24726075 178:-0.28360274 179:-0.22861785 180:-0.14570913 181:-0.15604627 182:-0.12903954 183:-0.23294643 184:-0.24793412 185:-0.21100388 186:-0.22498399 187:-0.17373241 188:-0.14432943 189:-0.21374859 190:-0.26141006 191:-0.11436913 192:-0.24920091 193:-0.23615545 194:-0.20437162 195:-0.26022902 196:-0.058004182 197:-0.22492068 198:-0.14432728 199:-0.23920926 200:-0.26288244 201:-0.092797339 202:-0.013856845 203:-0.17617142 204:-0.18752904 205:-0.26490349 206:-0.20865571 207:-0.29150963 208:-0.16764587 209:-0.19004816 210:-0.20197764 211:-0.24802297 212:-0.26592636 213:-0.25507194 214:-0.22793473 215:-0.28991872 216:-0.26365137 217:-0.23891892 218:-0.26785326 219:-0.23079854 220:-0.21364877 221:-0.21263666 222:-0.25395465 223:-0.23932426 224:-0.23797664 225:-0.23433925 226:-0.28393018 227:-0.25417274 228:-0.21654782 229:-0.20051089 230:-0.16774872 231:-0.19294709 232:-0.14329749 233:-0.11308888 234:-0.16320685 235:-0.17084025 236:-0.15096365 237:-0.19957601 238:-0.24477908 239:-0.2674928 240:-0.22075449 241:-0.24156916 242:-0.16340373 243:-0.11040606 244:-0.1242557 245:-0.15395971 246:-0.18244022 247:-0.12737328 248:-0.22936952 249:-0.11819056 250:-0.19639203 251:-0.09535858 252:-0.08674179 253:-0.13403292 254:-0.11315887 255:-0.15864362 256:-0.15507209 257:-0.23633413 258:-0.20608026 259:-0.10024723 260:-0.18363442 #
1.6062585413983263560311343098874 1:1.4980359 2:4.3547888 3:7.3059111 4:1.3325698 5:1.0437392 6:1.0499773 7:2.0220139 8:-0.18561612 9:0.53879011 10:1.7733896 11:1.7588828 12:1.4767103 13:1.8176574 14:4.5697193 15:3.0480044 16:3.7258983 17:3.2067125 18:4.2071228 19:2.6818218 20:2.2589538 21:1.5774831 22:0.51330811 23:-0.045282647 24:2.2924807 25:2.1209829 26:3.6166072 27:0.64582008 28:1.7972587 29:3.1698098 30:2.7270029 31:4.078907 32:2.0641489 33:0.6103406 34:1.5008963 35:0.19862156 36:2.4812376 37:1.8104506 38:1.9627036 39:1.1124965 40:1.4470836 41:2.2430148 42:0.73346305 43:3.7062809 44:0.80674708 45:2.2031863 46:1.0542469 47:1.9234077 48:0.40062916 49:1.4327738 50:1.2669048 51:1.7251235 52:0.95331478 53:0.8598507 54:0.53775167 55:2.4336312 56:2.5600893 57:2.0587935 58:2.0379415 59:0.10182352 60:1.0740769 61:0.64364088 62:0.95672631 63:0.44276854 64:1.0519899 65:0.5505631 66:-0.19979821 67:1.0100586 68:4.2209382 69:1.2311095 70:1.7682431 71:4.6189046 72:5.5604019 73:0.12002318 74:2.7885828 75:1.928959 76:4.7657857 77:2.2109654 78:3.319061 79:4.6595874 80:4.2452507 81:1.9409821 82:2.9614036 83:4.7469344 84:0.67754728 85:0.51322263 86:2.596595 87:1.4974871 88:3.20877 89:3.0869498 90:2.0958018 91:7.2789035 92:1.8397197 93:2.1095273 94:1.702633 95:2.2727823 96:1.9028602 97:2.4979336 98:1.466005 99:3.1475763 100:0.44441071 101:0.3546899 102:-0.041510563 103:2.1642418 104:2.9436359 105:3.0720105 106:1.4166852 107:0.79633367 108:1.0603417 109:0.26623762 110:1.0340255 111:0.23087522 112:0.44463572 113:0.62925595 114:1.1980014 115:-0.088843845 116:1.8859025 117:2.3166511 118:0.89608002 119:1.8361068 120:0.7257092 121:0.36914566 122:1.922309 123:1.2588891 124:1.1715548 125:2.5892179 126:1.5622597 127:2.3535647 128:0.30407017 129:1.8928158 130:1.1049535 131:3.7842388 132:1.7412775 133:9.2696848 134:3.6197517 135:1.7601161 136:5.8906875 137:5.4935646 138:4.4970694 139:2.4923618 140:1.9988011 141:2.4155531 142:1.1736982 143:2.7528298 144:5.750071 145:3.3131258 146:5.5592446 147:3.39748 148:1.8788598 149:3.675596 150:5.5816994 151:5.4460707 152:1.4265536 153:0.98715806 154:2.0735979 155:6.6366916 156:4.9729958 157:6.7892561 158:1.1250079 159:3.8746107 160:1.6793092 161:6.7625365 162:4.2372465 163:4.0098801 164:0.94318539 165:7.2326303 166:3.025604 167:7.5813494 168:2.9785562 169:6.9827876 170:3.7050076 171:5.5381994 172:4.2248006 173:3.7611532 174:4.1464944 175:2.3884406 176:2.0721939 177:1.3698919 178:3.0326376 179:4.2457533 180:6.016139 181:4.4613872 182:3.8331754 183:2.6931727 184:0.92958927 185:2.321028 186:1.3346938 187:0.71546286 188:1.5273061 189:1.2899222 190:1.999965 191:1.7593585 192:2.8458395 193:2.4853563 194:0.28128946 195:4.4330368 196:3.5326624 197:6.5534825 198:7.2081833 199:4.6402664 200:4.0664668 201:3.5083599 202:0.85353082 203:2.8541727 204:3.9639313 205:1.5594052 206:3.4999716 207:4.9660168 208:2.66927 209:0.90357208 210:6.0782471 211:3.4759982 212:5.5372868 213:3.9653633 214:5.8111348 215:1.9853678 216:7.962604 217:5.9924879 218:5.8337011 219:4.4740849 220:7.7997732 221:5.1011095 222:5.2491074 223:4.0819516 224:4.8743181 225:3.1941447 226:4.3743043 227:6.9404483 228:3.0296443 229:3.4135244 230:1.761685 231:4.2484307 232:6.4975796 233:6.4852037 234:5.7911601 235:3.7625473 236:1.8147818 237:4.1503863 238:4.0643172 239:2.0934162 240:1.6928598 241:5.8629446 242:3.685497 243:5.563715 244:1.7212842 245:2.7882383 246:1.6959788 247:0.20700081 248:1.0270883 249:1.3680192 250:3.0095801 251:0.13533592 252:2.354156 253:0.84289449 254:2.1733193 255:2.5131915 256:2.7288563 257:2.5366685 258:0.88844752 259:0.77215606 260:3.3668578 #
5.0203133337981613593115071125794 1:-0.22195816 2:0.22276527 3:-0.30143031 4:-0.10844892 5:-0.088929012 6:-0.13871588 7:-0.065490603 8:-0.25847405 9:-0.25452536 10:-0.05341924 11:0.081724226 12:-0.12958455 13:-0.22133315 14:-0.26663151 15:-0.055643193 16:-0.18031278 17:-0.28678936 18:-0.16123344 19:-0.26422131 20:-0.075798392 21:0.029519213 22:-0.055107415 23:-0.0022370822 24:-0.21402298 25:-0.25613934 26:-0.10869604 27:0.028233267 28:0.034701206 29:0.12915732 30:-0.012134413 31:-0.11526684 32:0.15026543 33:-0.12348363 34:-0.23302211 35:0.067413665 36:0.16569291 37:0.14023979 38:-0.034636464 39:0.13544469 40:-0.15565138 41:-0.079295211 42:0.11887765 43:0.27433991 44:-0.077924326 45:0.25681224 46:-0.020922419 47:0.0066598225 48:-0.23187584 49:-0.18062498 50:-0.18947773 51:-0.18037966 52:-0.086385824 53:-0.21377324 54:-0.05954057 55:-0.095470391 56:-0.079072192 57:-0.095196515 58:0.11018714 59:-0.12325479 60:0.098390989 61:0.069860674 62:-0.13433933 63:-0.10862913 64:-0.089499749 65:0.45417538 66:-0.18427108 67:-0.1205098 68:0.066073425 69:0.0096398592 70:-0.080531485 71:-0.10310308 72:-0.24172294 73:-0.30153516 74:-0.24011861 75:-0.078269936 76:-0.11081223 77:-0.03761844 78:0.066895559 79:0.096619926 80:-0.25252438 81:-0.10896155 82:-0.1192425 83:-0.011555025 84:-0.11967374 85:-0.10207304 86:-0.15423663 87:-0.088711575 88:-0.041092832 89:-0.07436043 90:-0.072010681 91:-0.31281462 92:0.21079791 93:0.21015805 94:0.060514618 95:0.1343967 96:-0.20830084 97:-0.20184138 98:0.058053784 99:0.13234934 100:0.1116617 101:0.2562778 102:0.2350959 103:0.23913592 104:0.17163892 105:-0.18896098 106:-0.25182226 107:-0.19762634 108:-0.23902357 109:-0.068314217 110:0.045730613 111:-0.10638953 112:-0.1484834 113:-0.10023011 114:-0.15199868 115:-0.26156223 116:-0.26802495 117:-0.17591265 118:-0.36730701 119:-0.1868706 120:-0.32910088 121:-0.31609491 122:-0.28465772 123:-0.31720406 124:-0.24335426 125:-0.26561573 126:-0.38219389 127:-0.22806236 128:-0.19933812 129:-0.2630845 130:0.10713715 131:-0.045501024 132:0.25584739 133:0.05680478 134:-0.16591258 135:-0.041734952 136:-0.039302025 137:-0.060238812 138:0.018409651 139:-0.16982533 140:-0.084982648 141:-0.095782168 142:-0.010400428 143:-0.073392265 144:-0.10831091 145:-0.19259457 146:-0.10660486 147:-0.16036153 148:0.03173295 149:0.020204728 150:-0.10265437 151:0.034761112 152:0.037150986 153:-0.12042734 154:-0.014758616 155:-0.086460523 156:-0.13360998 157:-0.051437028 158:-0.17706518 159:0.24608576 160:0.20604946 161:-0.10726447 162:-0.071334086 163:-0.071688652 164:-0.016132979 165:0.079490021 166:0.20998868 167:-0.020713309 168:0.014825618 169:-0.032200627 170:-0.054870881 171:-0.15008169 172:-0.10957756 173:-0.092632204 174:-0.18576598 175:-0.091784842 176:-0.12793727 177:0.079189897 178:0.001829832 179:0.051394548 180:0.12619604 181:-0.051918417 182:-0.12098724 183:-0.21043438 184:-0.098920941 185:-0.15378244 186:-0.13341926 187:-0.25036868 188:-0.061489251 189:-0.066296913 190:0.066720828 191:0.07738246 192:-0.19352072 193:-0.12509777 194:-0.20494065 195:-0.056496862 196:0.025652893 197:0.56837857 198:0.44330919 199:0.2549679 200:-0.1717044 201:0.19263503 202:-0.015902748 203:-0.069274232 204:-0.10431497 205:0.12924041 206:-0.25632238 207:-0.16727985 208:-0.112219 209:0.13512413 210:0.2339652 211:0.09697891 212:-0.22326958 213:-0.27091092 214:0.25266328 215:0.059517644 216:0.31952938 217:0.27029976 218:-0.10187274 219:0.059736077 220:-0.14609548 221:0.3425979 222:-0.00044750259 223:0.23348252 224:-0.019690083 225:0.22461447 226:0.12224848 227:-0.22096133 228:-0.060045004 229:0.27650073 230:0.25171015 231:0.24090531 232:0.10799441 233:0.3280102 234:-0.048851784 235:0.06761916 236:-0.17220539 237:-0.21084218 238:-0.26423389 239:0.010306667 240:-0.03617008 241:-0.11440792 242:-0.22890113 243:-0.13899121 244:-0.24703228 245:-0.15537828 246:-0.11892292 247:-0.14544059 248:-0.052883387 249:-0.12646399 250:-0.14079086 251:-0.2100679 252:-0.13455249 253:-0.12707579 254:-0.12713294 255:-0.092380084 256:-0.18391368 257:-0.05658431 258:-0.031221874 259:-0.15361272 260:-0.23669538 #
5.38999885816834289897769849631 1:-0.22406089 2:-0.13470145 3:-0.16760358 4:0.021539481 5:-0.02762815 6:-0.060673665 7:-0.075180657 8:-0.1347539 9:-0.18935926 10:-0.084266968 11:-0.071154967 12:-0.11246657 13:-0.14832658 14:-0.25163054 15:0.010100003 16:-0.17063487 17:-0.26746029 18:-0.055475257 19:-0.062812231 20:-0.27988887 21:-0.20813695 22:-0.26625854 23:-0.19751941 24:-0.095685109 25:-0.22996993 26:-0.14400996 27:-0.30084279 28:-0.048042957 29:0.044338986 30:-0.19327934 31:-0.16209544 32:-0.02686354 33:-0.14984292 34:-0.048952766 35:0.034625478 36:-0.22434227 37:-0.15858327 38:0.060141172 39:-0.0035571766 40:-0.17157836 41:-0.024412034 42:-0.068013132 43:-0.13626535 44:0.05534875 45:-0.25822848 46:-0.055483021 47:-0.026882777 48:-0.19633619 49:-0.27586579 50:0.10486072 51:-0.16903283 52:-0.04498595 53:-0.026525309 54:-0.037801474 55:-0.066511236 56:-0.20145506 57:0.046910424 58:-0.27288064 59:-0.0088538639 60:-0.22397767 61:-0.21677002 62:-0.15207581 63:-0.16309687 64:-0.22116333 65:0.089806788 66:-0.00058392534 67:-0.16002516 68:0.074030936 69:-0.040583801 70:-0.18169726 71:-0.24961801 72:-0.059073158 73:-0.25034311 74:-0.22958344 75:0.0092877718 76:-0.34247592 77:-0.037504874 78:0.044362936 79:0.10342095 80:0.60135537 81:-0.12983786 82:0.27148116 83:-0.12696446 84:0.45455286 85:0.23943001 86:0.24969393 87:0.10313834 88:-0.040338606 89:0.24268393 90:0.18173882 91:-0.17060994 92:0.44525513 93:-0.099224575 94:-0.11502711 95:-0.37157115 96:-0.032918073 97:-0.12284287 98:-0.072834782 99:0.019723715 100:0.0047048959 101:-0.25438741 102:-0.17253336 103:-0.018054947 104:-0.2158947 105:0.0043697432 106:-0.090984307 107:0.086588688 108:0.070986703 109:-0.11576573 110:-0.27598259 111:-0.3150925 112:-0.24410529 113:0.0041055628 114:-0.077496961 115:-0.19766246 116:-0.18601798 117:-0.2387953 118:-0.086608812 119:-0.30328006 120:-0.22880575 121:-0.28522313 122:-0.3362 123:-0.30620593 124:-0.24485528 125:-0.32513991 126:-0.36529854 127:-0.30497128 128:-0.0019692366 129:-0.20728511 130:0.18356225 131:-0.061552785 132:-0.0051744287 133:0.26978934 134:0.25403079 135:0.065714143 136:0.11558745 137:0.27695736 138:0.16939417 139:0.17622098 140:0.43661615 141:0.1597776 142:0.31320226 143:0.27112532 144:0.25847334 145:0.36238322 146:0.1821529 147:0.085296154 148:0.52068913 149:0.17037982 150:0.30537391 151:0.18149887 152:0.38026869 153:0.25674808 154:0.28191048 155:-0.039360687 156:0.18307446 157:0.012011079 158:-0.080279373 159:0.11663585 160:0.23684549 161:0.5522877 162:0.49051422 163:0.021515602 164:-0.019166773 165:0.27845442 166:-0.034556277 167:-0.068255916 168:0.18351753 169:0.12005534 170:-0.1721635 171:0.073389314 172:0.081744753 173:-0.1633236 174:0.16026233 175:-0.22029348 176:-0.22056694 177:-0.089284882 178:0.10414574 179:-0.068644144 180:-0.038554903 181:-0.15299776 182:-0.08024136 183:-0.13764822 184:-0.16009937 185:-0.21646397 186:-0.11918831 187:-0.081080161 188:-0.16891989 189:-0.11297984 190:-0.26182872 191:-0.14804786 192:-0.24924809 193:-0.19298889 194:-0.15704374 195:-0.087472141 196:0.093827941 197:0.015201951 198:0.058137212 199:-0.1829692 200:-0.1239083 201:-0.18812811 202:-0.2683059 203:-0.018117204 204:-0.11772575 205:-0.11479154 206:-0.03960707 207:-0.17694256 208:-0.11222218 209:-0.093611114 210:-0.16064338 211:-0.18023595 212:-0.087835953 213:-0.057599254 214:-0.21102566 215:-0.23941755 216:-0.23333986 217:-0.22467902 218:-0.14779885 219:-0.080121614 220:-0.0048629586 221:-0.2459192 222:-0.18924364 223:0.10174259 224:-0.21361697 225:-0.18336532 226:-0.028392972 227:-0.11165579 228:-0.039533757 229:0.025406232 230:0.1589748 231:-0.078056358 232:-0.17226778 233:-0.18156339 234:-0.086553313 235:-0.12391134 236:-0.14464657 237:-0.21606943 238:-0.04917613 239:-0.03413076 240:-0.10011769 241:-0.19198079 242:0.0016382337 243:-0.10034425 244:-0.10034776 245:-0.0060930294 246:-0.19934501 247:-0.16427001 248:-0.083680063 249:-0.15246952 250:-0.0081236204 251:-0.070735902 252:0.055801857 253:-0.068983957 254:-0.062189672 255:-0.048809435 256:-0.22435635 257:-0.185534 258:-0.12650391 259:-0.11015122 260:-0.1931663 #
