SVM-light Version V6.02
2 # kernel type
3 # kernel parameter -d 
0.00093103969 # kernel parameter -g 
1 # kernel parameter -s 
1 # kernel parameter -r 
empty# kernel parameter -u 
260 # highest feature index 
13702 # number of training documents 
724 # number of support vectors plus 1 
0.61733585 # threshold b, each following line is a SV (starting with alpha*y)
-1.2730541693631451938273357882281 1:4.7832026 2:-0.071322821 3:0.088373743 4:0.52707255 5:0.35692257 6:0.92799199 7:1.4963923 8:2.4109569 9:4.4042106 10:2.9381411 11:3.0464826 12:0.94023043 13:2.3141294 14:1.0782911 15:3.567198 16:5.1698251 17:2.0562477 18:0.70332122 19:0.70542586 20:0.44346699 21:0.41113281 22:0.94772273 23:0.54004496 24:4.1324959 25:0.52179438 26:-0.019637061 27:0.17730014 28:1.1355717 29:0.91373086 30:0.47461224 31:1.0834117 32:3.8198884 33:0.8441059 34:0.50409001 35:0.26859054 36:0.43316308 37:1.0771179 38:1.1807665 39:2.372004 40:0.90082514 41:0.30914107 42:0.048219278 43:0.7412281 44:0.29797506 45:0.88567966 46:0.69399768 47:2.6196704 48:0.6353249 49:0.34864393 50:0.39807019 51:0.59967446 52:0.45558605 53:0.33168212 54:0.071746528 55:0.49793315 56:0.60865498 57:-0.17731324 58:0.015322372 59:0.42535844 60:1.2488328 61:0.062926129 62:0.25266472 63:0.1852361 64:-0.12842008 65:-0.018645281 66:5.5408511 67:0.74294758 68:0.9452672 69:1.1549916 70:0.66714078 71:0.40199238 72:0.52572006 73:0.62706345 74:0.77689749 75:0.38351896 76:0.4094134 77:0.44940475 78:1.7285674 79:0.66773111 80:1.4652196 81:3.5194519 82:2.0615349 83:0.13236699 84:0.1385392 85:0.56374711 86:0.83718312 87:0.26733151 88:0.40917039 89:3.8090873 90:0.38655332 91:-0.024624804 92:0.069396511 93:2.5358555 94:0.77508575 95:1.1999606 96:0.97871643 97:3.0157597 98:0.63176304 99:-0.17635818 100:-0.23541716 101:1.0316315 102:1.2005584 103:1.110422 104:1.4635603 105:1.5657042 106:0.73884928 107:-0.034943633 108:0.14159678 109:0.65034759 110:0.25424927 111:0.44553912 112:1.3020377 113:0.57332766 114:-0.12886067 115:0.043165304 116:0.33718917 117:1.2796564 118:1.1521891 119:-0.26987219 120:1.9310843 121:0.99278712 122:0.37364957 123:-0.032466743 124:0.97628504 125:1.2043877 126:1.6095198 127:1.2967266 128:1.6496516 129:0.50791836 130:-0.29754445 131:0.62189877 132:0.16490015 133:0.047115091 134:0.017280569 135:0.55457401 136:0.55702746 137:0.28629911 138:0.90441912 139:0.99769652 140:0.34296572 141:0.061043341 142:-0.086524986 143:0.060413264 144:0.34502417 145:0.18250988 146:0.00073709316 147:0.28513443 148:-0.17640333 149:0.44501406 150:0.72071105 151:-0.17636833 152:-0.17086893 153:0.037499469 154:2.6831515 155:-0.10519245 156:0.38036296 157:-0.033443216 158:0.61782384 159:-0.054098044 160:0.85037118 161:1.0451397 162:1.2647243 163:-0.10799 164:0.63258338 165:0.94856733 166:0.28227589 167:-0.094422303 168:0.69083464 169:0.20860948 170:0.33206552 171:0.42467365 172:-0.010764651 173:1.9586859 174:0.013891528 175:0.2756688 176:0.17392947 177:0.56064731 178:0.20422745 179:0.23534055 180:0.22274341 181:1.3203146 182:0.49443105 183:0.29952839 184:0.51623476 185:1.1339931 186:1.0264177 187:0.1228452 188:0.79456323 189:0.70538938 190:0.48709363 191:0.35712326 192:-0.031142997 193:0.57624662 194:1.0872387 195:0.024034126 196:-0.068433613 197:-0.22061618 198:-0.040541764 199:-0.05071532 200:-0.050519738 201:0.32625186 202:0.03006424 203:0.47118908 204:0.72514904 205:0.050804473 206:0.037138123 207:0.72532296 208:0.95477879 209:0.69025666 210:0.49850032 211:1.4119463 212:0.26544309 213:-0.10271031 214:-0.20417297 215:1.6001813 216:0.42657295 217:-0.10617932 218:0.25300157 219:2.0746086 220:0.41003239 221:-0.16173647 222:0.4387548 223:2.0953026 224:0.24683538 225:0.51562721 226:0.77743816 227:1.3948947 228:0.22066909 229:0.44121134 230:0.29092243 231:-0.048965506 232:0.435904 233:0.9399147 234:1.5332351 235:0.82022756 236:-0.13597566 237:-0.18150401 238:0.60482222 239:0.34841433 240:-0.1385362 241:0.27769193 242:1.6852831 243:0.56286269 244:-0.16940837 245:-0.1329881 246:0.78661627 247:0.75159091 248:0.19237061 249:-0.22806638 250:1.6822748 251:0.44355431 252:-0.066843413 253:0.024855748 254:0.83739847 255:1.0897441 256:1.031922 257:0.75954694 258:0.66038162 259:0.41453099 260:-0.014502293 #
0.41785014542645032564749385528557 1:2.6768842 2:0.27767473 3:0.17223255 4:0.88537723 5:0.30834892 6:1.9942009 7:0.79153073 8:2.7260301 9:2.8722961 10:1.8864638 11:1.660313 12:2.1877916 13:1.8497422 14:0.44813651 15:1.2264863 16:1.7434982 17:0.7896381 18:1.0183065 19:1.1930526 20:0.14140095 21:0.73064363 22:0.086128935 23:1.0773056 24:1.9065207 25:1.0405428 26:1.7236589 27:3.0425766 28:2.5390897 29:0.92529207 30:2.3162997 31:3.05742 32:0.98677981 33:3.1861885 34:1.3701015 35:1.1386517 36:1.6346898 37:1.0031749 38:0.45771995 39:5.1899695 40:1.7908044 41:0.5960297 42:2.7346954 43:4.1450558 44:1.6808805 45:2.4982746 46:6.5770302 47:7.5573001 48:3.6519072 49:4.2919455 50:9.1216927 51:3.3576202 52:1.3030748 53:3.9087727 54:8.2793417 55:3.5971661 56:4.1071649 57:3.4892194 58:5.2794619 59:3.4964135 60:-0.044203047 61:2.4235311 62:5.1942539 63:6.5722661 64:0.89831924 65:2.3959906 66:0.50951988 67:1.2145034 68:1.8494042 69:1.690926 70:0.88702363 71:0.94898057 72:1.6514597 73:1.8874094 74:2.0776958 75:2.2361209 76:3.3971972 77:5.6042976 78:3.2495489 79:1.398042 80:1.076759 81:5.7000637 82:0.96494156 83:0.31747043 84:0.84285748 85:6.2662592 86:0.088931486 87:0.69435459 88:0.63835555 89:4.4570045 90:1.0697678 91:1.5463562 92:1.2446874 93:3.5486057 94:0.48185536 95:0.81597114 96:2.8223734 97:1.7544922 98:0.55084616 99:-0.27808776 100:3.7660074 101:0.88756734 102:0.1232131 103:0.10970518 104:3.2866135 105:1.2541945 106:0.99318367 107:1.8759563 108:2.2131522 109:1.0622321 110:0.56494874 111:1.0980743 112:-0.06724827 113:0.4996213 114:0.72979593 115:1.3643101 116:0.9300338 117:0.35433006 118:0.91723925 119:1.2522718 120:0.43964332 121:0.99794155 122:0.19391303 123:1.5522479 124:0.67558181 125:1.3883682 126:0.80843717 127:3.1944854 128:-0.13504049 129:1.3259834 130:0.23782128 131:2.0888569 132:0.025848605 133:-0.19588666 134:0.038538765 135:1.8737651 136:0.55686432 137:0.86293799 138:2.1667418 139:2.9134665 140:1.7236165 141:1.0926749 142:4.0455046 143:1.95261 144:0.99127018 145:0.67371279 146:3.5176053 147:0.74282885 148:0.18395853 149:0.86184752 150:2.2987847 151:0.67757863 152:0.45608562 153:-0.028711179 154:1.0801197 155:0.47874716 156:0.64649183 157:0.69147706 158:1.3638728 159:0.14353445 160:0.3323119 161:1.9612775 162:1.0679055 163:0.50133526 164:0.23814502 165:2.75723 166:0.29835719 167:-0.061158005 168:-0.16729783 169:-0.14348127 170:1.1398933 171:0.31761581 172:1.142172 173:1.5279213 174:0.84610295 175:0.69135267 176:0.63779181 177:0.48237652 178:-0.14043124 179:0.62136835 180:0.9904629 181:1.4589707 182:0.84710193 183:2.2296829 184:4.7043667 185:1.7264857 186:0.34311941 187:1.7214962 188:4.4450393 189:0.49433455 190:2.0742252 191:2.3216598 192:4.8855066 193:1.2145759 194:2.4569325 195:0.82633334 196:-0.068013914 197:-0.0041003358 198:-0.21380638 199:1.0631163 200:3.1862104 201:1.8790634 202:1.2223215 203:1.7408944 204:0.68819851 205:0.083488755 206:0.52400017 207:2.3087921 208:0.97520959 209:0.16515329 210:0.074546352 211:1.1108531 212:0.19764373 213:0.049778383 214:0.37851837 215:3.950274 216:0.54549742 217:0.53411084 218:0.89429832 219:1.6619751 220:0.0002009506 221:-0.11742444 222:0.14651585 223:0.33968559 224:0.54031056 225:0.088667326 226:0.0016752696 227:-0.012863689 228:0.6272912 229:0.58308429 230:2.6719279 231:0.90041488 232:0.31713003 233:0.79654759 234:1.1797727 235:0.20857762 236:1.3040953 237:2.1630476 238:1.7843431 239:0.98975164 240:0.9924745 241:0.8101353 242:1.1422288 243:0.50931609 244:0.39941067 245:0.084750481 246:0.81501544 247:0.50606769 248:0.83045292 249:1.8268069 250:0.7054593 251:2.1739681 252:1.2180532 253:0.62884277 254:0.59150124 255:0.55084902 256:0.93377292 257:0.59153563 258:1.6119137 259:1.6909515 260:2.0796299 #
-3.8412230289711244424211145087611 1:-0.0083405394 2:0.78560776 3:0.45540944 4:0.28791273 5:-0.086600073 6:0.10560228 7:0.55362171 8:-0.17063688 9:-0.18525811 10:0.23440282 11:-0.094404042 12:0.085232221 13:0.1494419 14:-0.017588105 15:0.038158916 16:-0.12450713 17:0.19295974 18:0.62557989 19:0.40676114 20:0.07417807 21:0.020240413 22:-0.031483319 23:0.052686639 24:0.074974403 25:0.19218165 26:-0.25276518 27:0.10015322 28:-0.28872979 29:-0.22513238 30:0.17041723 31:-0.30001885 32:0.31857041 33:0.27923504 34:-0.078815609 35:-0.021681644 36:-0.12743068 37:-0.080366515 38:0.21914105 39:0.26451546 40:0.16428846 41:0.5054276 42:-0.16143075 43:0.33598301 44:0.12394126 45:0.24947374 46:0.42543653 47:-0.021087784 48:0.24971679 49:0.29036617 50:0.16465551 51:0.089144148 52:-0.036929492 53:0.092521884 54:-0.081399731 55:-0.16481088 56:0.43681064 57:-0.16491941 58:0.14342801 59:1.0489619 60:0.34605977 61:0.046172116 62:0.43411863 63:-0.15367378 64:0.3798483 65:1.4986519 66:-0.16617619 67:0.20767388 68:0.26704797 69:-0.080019824 70:-0.16762136 71:-0.09701781 72:0.42243364 73:0.13032632 74:-0.025649872 75:-0.029068027 76:0.27648336 77:0.23701273 78:0.044867318 79:1.3460529 80:0.52108264 81:-0.23399837 82:0.19041277 83:0.46224079 84:-0.25237706 85:0.53854305 86:0.79010952 87:-0.0011869294 88:0.50043982 89:0.4298833 90:0.24098398 91:0.51691908 92:0.8938123 93:0.10369001 94:0.21667095 95:0.57229328 96:0.51673609 97:0.16623536 98:0.6489166 99:0.13320689 100:0.063916773 101:0.19125642 102:-0.14652309 103:-0.16724578 104:0.62029779 105:0.38974646 106:-0.042944763 107:0.54685354 108:0.047077991 109:5.3425694e-05 110:0.31243739 111:0.63433403 112:0.20681743 113:-0.016929537 114:0.10894218 115:-0.15062168 116:0.33357757 117:0.3540566 118:0.0020835593 119:0.28322917 120:0.3376281 121:0.1125887 122:0.82760268 123:0.22203648 124:0.88259023 125:-0.10320499 126:0.29853049 127:0.25975186 128:0.99709517 129:0.1518013 130:1.4574164 131:-0.15605301 132:0.13687676 133:0.21329433 134:0.29698491 135:0.19219708 136:0.4144083 137:0.50857782 138:0.26377276 139:0.21107182 140:0.20168798 141:0.32333192 142:0.22525018 143:0.20477352 144:0.16662902 145:0.17768709 146:-0.090293288 147:0.045831311 148:0.077368468 149:0.053378742 150:-0.015550724 151:0.14084099 152:-0.017294522 153:0.12952664 154:0.083133437 155:0.26487157 156:0.32593778 157:0.45445612 158:0.39991176 159:0.43669525 160:0.36653543 161:0.43718177 162:0.42783514 163:0.45948774 164:0.2107574 165:0.282217 166:0.11574719 167:0.14042456 168:-0.037008397 169:-0.061964549 170:-0.1661507 171:-0.21267207 172:-0.18340653 173:-0.048633229 174:-0.10506055 175:0.068144761 176:-0.10709625 177:-0.20817618 178:-0.22807856 179:-0.18211848 180:-0.021891823 181:-0.15479594 182:0.028935192 183:0.22023205 184:0.32897714 185:0.52161294 186:0.54963672 187:0.40196675 188:0.42756063 189:0.58829343 190:0.29292968 191:0.40730417 192:0.27296481 193:-0.15844169 194:0.0065836497 195:-0.20299312 196:3.6942043 197:0.30931064 198:0.12719679 199:0.12447835 200:-0.034475245 201:0.3737658 202:0.46809483 203:0.29175273 204:0.27572107 205:0.65136725 206:0.64860094 207:0.45101103 208:0.47791281 209:0.63929546 210:0.54870093 211:0.32280651 212:0.33562192 213:0.39173898 214:0.30152792 215:0.12875544 216:0.11786941 217:0.054373581 218:-0.0020414831 219:-0.043058023 220:-0.034616906 221:-0.033240732 222:-0.073795006 223:-0.11435205 224:-0.13133003 225:-0.11074848 226:-0.13144623 227:-0.048269141 228:0.051690124 229:0.13662666 230:0.23116601 231:0.33902994 232:0.42872521 233:0.5093776 234:0.52205169 235:0.55490631 236:0.5628075 237:0.51817393 238:0.56739867 239:0.49636143 240:0.34772483 241:0.20688497 242:0.097586118 243:-0.016659295 244:-0.069949761 245:-0.11482398 246:-0.045387652 247:0.086978331 248:0.20558158 249:0.27726272 250:0.37640649 251:0.44247416 252:0.3929942 253:0.35674155 254:0.35245961 255:0.26441002 256:0.23182875 257:0.14239548 258:-0.004320805 259:-0.051897395 260:-0.14005128 #
0.29246458770354366585308980575064 1:4.3273025 2:0.16170603 3:0.72145689 4:0.56366873 5:0.4197073 6:-0.34872752 7:-0.22280377 8:1.143007 9:1.7457523 10:1.7779226 11:0.56555927 12:1.302388 13:2.6875734 14:3.2182529 15:1.3992929 16:1.7292805 17:1.5185589 18:0.48526606 19:0.58232856 20:1.0902019 21:1.8409299 22:2.499877 23:6.0940218 24:4.1809158 25:1.5145488 26:0.33344603 27:5.5476012 28:3.0348258 29:1.1391257 30:1.4582392 31:2.0210376 32:1.6197402 33:0.32992983 34:2.2976677 35:1.8085175 36:0.52616161 37:0.7999329 38:0.29110932 39:0.48120251 40:-0.0046187621 41:0.015736923 42:0.72528172 43:0.47861126 44:2.5760252 45:0.6256659 46:2.2539155 47:0.96537262 48:1.3186647 49:0.40323079 50:-0.0047765328 51:0.31961387 52:0.39411095 53:1.2533361 54:1.0117636 55:0.34424549 56:0.54697502 57:0.53754801 58:1.6556611 59:2.4525058 60:1.3575802 61:1.9377406 62:0.61486995 63:0.17008713 64:0.67505687 65:0.33718961 66:4.7090864 67:0.84348112 68:1.3311805 69:0.68354404 70:0.75733948 71:2.207803 72:1.7179894 73:2.6445401 74:1.8439463 75:2.2122829 76:1.5215974 77:1.3234555 78:1.5402203 79:1.7717468 80:1.221431 81:3.4183519 82:1.14974 83:0.4740878 84:-0.091527753 85:3.5358326 86:1.4096601 87:0.52086735 88:0.86844599 89:1.3517683 90:0.84386975 91:1.0263318 92:1.5963022 93:0.11254814 94:0.21186355 95:0.12491422 96:1.65306 97:0.14732412 98:0.23857081 99:1.1403433 100:1.4846185 101:0.51019067 102:0.021883782 103:0.50380659 104:0.72254789 105:1.8053789 106:2.010828 107:4.1533356 108:0.70486838 109:0.74003017 110:1.3154384 111:1.2712191 112:0.81858164 113:0.20729156 114:0.87302685 115:2.4464378 116:1.5534899 117:1.1425728 118:1.7255088 119:0.61935127 120:1.3018719 121:0.50773692 122:1.4821701 123:1.8637991 124:1.5659689 125:1.5871422 126:3.3805618 127:0.87636286 128:0.79982978 129:1.6689924 130:0.11788221 131:1.500204 132:0.33367625 133:0.15174939 134:0.65091473 135:1.724908 136:0.35672498 137:0.059259471 138:0.099599466 139:1.5740628 140:1.2903899 141:0.88163251 142:1.5214374 143:0.40799439 144:0.38545156 145:0.77607799 146:3.4984746 147:0.5286389 148:0.082409009 149:1.7880615 150:2.9607499 151:0.90372562 152:0.73195952 153:0.40404558 154:0.29966861 155:0.41216245 156:0.68317628 157:1.6288719 158:1.2237004 159:0.38217071 160:0.49550566 161:3.8600962 162:0.038049176 163:0.8124283 164:1.9213959 165:2.538893 166:1.2778777 167:-0.053074408 168:0.6254071 169:1.6663396 170:-0.032847129 171:0.10785507 172:1.3119885 173:1.2722423 174:0.68143761 175:0.84749001 176:-0.04853747 177:1.2119486 178:1.1257734 179:-0.030190332 180:2.5702546 181:0.47829041 182:0.6162889 183:0.31138429 184:1.285745 185:0.77273005 186:0.27578512 187:0.09436217 188:0.37290683 189:0.48700196 190:0.89260709 191:0.79165739 192:0.35657465 193:1.2614584 194:0.57348299 195:0.50783843 196:0.58557361 197:0.139616 198:0.32529637 199:0.39477691 200:1.4999524 201:0.6440165 202:0.3128252 203:0.73752528 204:0.083830714 205:-0.23875912 206:0.32457983 207:0.66483784 208:-0.024434596 209:0.17523 210:0.10293464 211:0.29288432 212:0.45211399 213:0.83060056 214:0.049901117 215:2.9804749 216:0.90018708 217:0.092606299 218:0.79961497 219:1.1466914 220:1.4517369 221:0.6544807 222:0.031029202 223:0.8161009 224:0.29449561 225:0.85297257 226:1.2442946 227:0.1991158 228:0.5279519 229:0.19723427 230:0.81071889 231:0.90402454 232:0.036940809 233:0.50088614 234:0.24882869 235:0.038385727 236:0.88350552 237:0.24959506 238:0.23398864 239:0.12068425 240:0.11383676 241:0.14816639 242:0.21138036 243:0.9002474 244:0.98371196 245:-0.036995109 246:0.4438529 247:0.30387831 248:0.085828543 249:0.41580889 250:0.1564634 251:-0.072139367 252:1.3836331 253:0.41954905 254:0.55815345 255:0.28319043 256:0.5386489 257:1.2128068 258:0.98027676 259:0.11653421 260:0.72195721 #
-4.348779309634851486521256447304 1:-0.2473098 2:0.67845845 3:0.78758591 4:0.78007615 5:0.23521321 6:0.69979757 7:0.53981739 8:0.055561557 9:-0.050673217 10:0.084981099 11:-0.15072583 12:-0.16377051 13:-0.18607186 14:-0.20216252 15:-0.10961416 16:-0.066409908 17:-0.020663114 18:0.064780883 19:0.0013530361 20:0.013674439 21:0.18038376 22:0.14860889 23:0.11403124 24:0.18152545 25:0.15652984 26:0.10991986 27:0.099265017 28:0.041579496 29:0.050841946 30:0.075946108 31:0.03328418 32:0.10846672 33:0.14788178 34:0.1313803 35:0.14705089 36:0.21268685 37:0.2185434 38:0.33762723 39:0.38634166 40:0.47521898 41:0.51711524 42:0.38079807 43:0.37369955 44:0.44654974 45:0.38643286 46:0.33803251 47:0.317431 48:0.21774572 49:0.19156261 50:0.16952462 51:0.15886906 52:0.27662995 53:0.24964863 54:0.25993237 55:0.34043396 56:0.28163663 57:0.3170543 58:0.43754041 59:0.46426061 60:0.47755593 61:0.51212454 62:0.48953834 63:0.5010345 64:0.5643248 65:0.15595575 66:-0.24213763 67:-0.1749199 68:-0.27050367 69:-0.26937497 70:-0.22128613 71:-0.32745814 72:-0.31763968 73:-0.27177751 74:-0.26805064 75:-0.22365397 76:-0.16933504 77:-0.16501559 78:-0.15262887 79:-0.010675972 80:-0.044784814 81:-0.068821259 82:-0.01707432 83:0.064153165 84:-0.047751553 85:-0.021884136 86:0.068430386 87:-0.058051169 88:-0.11921481 89:-0.12027013 90:-0.14536366 91:-0.1422717 92:-0.088189065 93:-0.1308208 94:-0.12894 95:-0.057690717 96:-0.046524849 97:-0.12096773 98:-0.047950432 99:0.044869848 100:0.09544266 101:0.010013948 102:0.066915974 103:0.11843245 104:0.13274215 105:0.12239037 106:0.034749135 107:-0.045676753 108:-0.07389269 109:-0.027194917 110:0.18324959 111:0.09719798 112:0.20950583 113:0.097086646 114:-0.11308265 115:0.037203081 116:-0.024949839 117:0.014336267 118:0.073315799 119:-0.31745282 120:-0.067536749 121:0.015496611 122:0.052577306 123:0.40321064 124:0.28452674 125:0.5163942 126:0.78763443 127:1.1341205 128:1.3047845 129:1.0464503 130:0.85308135 131:-0.092753366 132:0.71866769 133:0.84618068 134:0.95617163 135:0.80240041 136:0.99781138 137:0.89608169 138:0.48294854 139:0.22539389 140:0.2311371 141:-0.049499199 142:-0.082223773 143:0.074453093 144:0.40892279 145:0.59063494 146:0.65362644 147:0.97790211 148:1.2529273 149:1.2605721 150:1.1264466 151:1.2831753 152:1.2331834 153:1.278668 154:1.1829823 155:1.0683898 156:0.91445768 157:0.62779552 158:0.28254893 159:0.046930969 160:-0.058543161 161:-0.15119232 162:-0.13645484 163:-0.12269069 164:0.11796774 165:0.18423773 166:0.25353214 167:0.48859966 168:0.52044564 169:0.48085985 170:0.60344046 171:0.69953245 172:0.69728714 173:0.6987893 174:0.42591745 175:0.34047285 176:0.3902773 177:0.38141647 178:0.35037845 179:0.38463071 180:0.2680591 181:0.046533901 182:-0.065205991 183:-0.15780067 184:-0.13041218 185:0.0018560247 186:0.015308925 187:0.10964913 188:0.13216481 189:0.04732741 190:0.00068774109 191:0.0055768006 192:0.020602331 193:0.13435358 194:0.14401601 195:-0.11078665 196:-0.12346991 197:-0.090593733 198:-0.087114535 199:-0.090966828 200:-0.14234167 201:0.20617342 202:0.36498445 203:0.32709503 204:0.33852279 205:0.7938118 206:0.93789721 207:0.72249639 208:0.87165129 209:1.2480628 210:1.1032498 211:0.72009778 212:0.87177634 213:1.0716432 214:0.9611457 215:0.74789661 216:0.8148638 217:0.78285205 218:0.67961323 219:0.56067955 220:0.5607233 221:0.51525402 222:0.47196534 223:0.30045289 224:0.11658949 225:-0.054156788 226:-0.1621377 227:-0.068714395 228:0.14639062 229:0.33091787 230:0.47465521 231:0.50183743 232:0.55915445 233:0.52312064 234:0.39228413 235:0.31742051 236:0.1887621 237:0.042476285 238:-0.076731354 239:-0.10501658 240:-0.043456718 241:-0.076752551 242:-0.029040571 243:0.036334421 244:-0.0039729532 245:-0.019448634 246:-0.079836428 247:0.10218203 248:0.19583075 249:0.36037734 250:0.5721547 251:0.69892651 252:0.7217505 253:0.76987708 254:0.78599435 255:0.81095248 256:0.76152122 257:0.69333982 258:0.49485105 259:0.53389955 260:0.35156021 #
4.6301252916423853989158487820532 1:5.3564944 2:0.97737688 3:1.5286338 4:2.2986362 5:0.98230803 6:3.6140571 7:7.832819 8:0.59300065 9:0.23687071 10:0.7867052 11:5.566144 12:3.2778637 13:2.3353274 14:7.2357874 15:1.3279002 16:1.3593241 17:2.8108001 18:2.4132919 19:0.06697762 20:2.9679635 21:4.8712516 22:2.9619691 23:1.8351947 24:0.46737671 25:0.72302431 26:0.82223326 27:1.6959493 28:1.6014084 29:0.63637632 30:1.4475323 31:-0.056482643 32:0.39379975 33:1.0277137 34:-0.0072569228 35:0.29343009 36:0.2669616 37:0.5647257 38:-0.053293936 39:0.556732 40:1.370153 41:0.89615124 42:-0.047617227 43:1.1737624 44:0.53114969 45:0.46239841 46:0.082937725 47:1.4819946 48:0.72027296 49:1.0864856 50:0.32364711 51:0.32986599 52:0.083487444 53:0.15617888 54:0.80520195 55:-0.10814381 56:-0.14835155 57:0.1814682 58:0.19353603 59:0.27108008 60:0.4496308 61:0.14524536 62:0.47610903 63:0.13184538 64:0.27931792 65:0.21286148 66:9.0340385 67:4.7701874 68:2.4299352 69:1.8145003 70:1.0331993 71:3.0043042 72:3.1421022 73:0.6415931 74:0.68102354 75:2.2327526 76:2.5049317 77:1.4746203 78:2.0820792 79:6.4684625 80:2.0215836 81:3.1852026 82:2.7015185 83:3.4632108 84:3.3590693 85:1.9071325 86:4.8044 87:0.84586895 88:1.8048433 89:3.0925343 90:1.2285659 91:3.3329141 92:3.3716354 93:0.87082142 94:0.75994253 95:3.6876137 96:1.4486675 97:0.82623267 98:3.5792208 99:3.1418014 100:0.17582677 101:0.50242728 102:0.9987033 103:1.3542769 104:1.3660531 105:1.0822611 106:2.2475421 107:0.36546734 108:1.9546009 109:1.4548496 110:1.272751 111:1.7895103 112:0.72910452 113:0.18349704 114:0.58663231 115:0.97706383 116:0.88595456 117:0.62797207 118:1.0373855 119:2.0873196 120:0.45005366 121:0.25533399 122:0.1890706 123:0.27646366 124:0.72342521 125:0.14473629 126:0.39179248 127:0.64726496 128:0.23908554 129:0.094931692 130:1.7853469 131:1.8027682 132:2.4702997 133:3.0515282 134:4.4337249 135:1.9387319 136:2.8739591 137:2.3042564 138:2.1228578 139:1.2831473 140:1.8252223 141:2.7877946 142:0.5993169 143:0.53922057 144:1.0210328 145:2.2008073 146:1.7261441 147:1.3652948 148:3.8685982 149:2.6112044 150:2.259491 151:1.9140973 152:1.3246962 153:1.3729963 154:2.9893246 155:0.22879155 156:0.92115915 157:2.520221 158:0.93181092 159:2.1724198 160:1.6234285 161:-0.039693117 162:1.2458996 163:0.84916931 164:1.9585341 165:0.70493037 166:0.53805512 167:2.7870069 168:1.2363547 169:1.2526313 170:1.299823 171:2.3647437 172:1.7285314 173:2.1722124 174:1.6119567 175:0.88781399 176:1.8421334 177:1.6403739 178:0.45918477 179:1.2975949 180:0.66360509 181:0.60481763 182:0.062455494 183:0.59314948 184:0.72715425 185:0.62520897 186:0.77724928 187:0.62297684 188:0.2045002 189:1.3474236 190:0.58365035 191:1.8266516 192:1.2587521 193:2.7280731 194:0.93193978 195:1.8878384 196:3.2711072 197:2.7506778 198:2.6262224 199:5.4479222 200:0.85457808 201:0.93595797 202:2.5496616 203:1.6395167 204:0.45607334 205:1.3458754 206:1.0988171 207:0.66282755 208:0.95126367 209:0.21641912 210:1.1447878 211:0.63101882 212:0.77635092 213:1.558399 214:1.4334191 215:1.0189898 216:0.83584613 217:0.55909169 218:0.33663729 219:0.34163931 220:0.66869843 221:0.47705474 222:1.7181674 223:0.96106684 224:1.0120494 225:0.66983056 226:0.2822639 227:1.5228528 228:1.9651135 229:1.4946104 230:0.29552737 231:0.17324129 232:0.87907153 233:0.61198294 234:0.15556443 235:1.8106114 236:-0.033119261 237:1.2120985 238:0.67653555 239:0.86539501 240:1.8185085 241:1.1977546 242:0.30805323 243:0.90006381 244:-0.12988244 245:0.95494157 246:-0.075128503 247:0.70694321 248:0.51742905 249:0.67976451 250:0.77317613 251:0.3115896 252:0.32067209 253:0.56698281 254:0.57862675 255:0.53244448 256:0.74441963 257:0.047413394 258:0.62134981 259:0.77307636 260:1.9500353 #
2.4587385425543288874905556440353 1:1.6195107 2:0.20291704 3:1.1688422 4:0.4525128 5:1.8994833 6:0.34544215 7:1.6468821 8:1.0149761 9:2.7696979 10:2.6551247 11:1.3438072 12:0.80056477 13:1.174685 14:0.67075825 15:-0.31417227 16:1.5791488 17:0.74106455 18:0.65230346 19:0.023089621 20:1.6958754 21:0.74222565 22:0.41931897 23:-0.12950911 24:0.55659223 25:1.0199406 26:-0.25719407 27:0.42191774 28:3.1468163 29:0.13948287 30:-0.21036008 31:1.1924889 32:4.2961287 33:1.0660033 34:1.4275347 35:0.37652415 36:3.143332 37:1.9132432 38:0.80057681 39:2.6278212 40:3.3890307 41:0.659904 42:1.5338457 43:2.1524878 44:2.6859145 45:1.8504152 46:2.0129244 47:3.4831314 48:2.2706373 49:0.48500496 50:2.8246713 51:1.1601853 52:1.3471144 53:1.1367069 54:1.021476 55:4.5450225 56:1.4797937 57:1.3881136 58:0.70767391 59:0.1700656 60:0.75686407 61:0.64659125 62:1.1468424 63:3.0537009 64:3.5542171 65:2.4223442 66:-0.13923351 67:0.43914777 68:-0.11001115 69:0.52599227 70:-0.062910758 71:0.37934029 72:1.0708337 73:1.239913 74:4.6369128 75:3.2860265 76:2.4177895 77:1.4145315 78:1.4447801 79:1.0253735 80:1.1863011 81:2.7912698 82:5.3128457 83:1.9437457 84:0.55464941 85:4.0725522 86:3.8328152 87:2.6657751 88:0.42279047 89:3.2895048 90:1.8806567 91:2.8107619 92:1.9169397 93:0.37974676 94:1.0404575 95:2.0617497 96:1.1523664 97:2.7489533 98:1.019546 99:1.3948511 100:0.12699485 101:2.3965578 102:2.2060974 103:0.39806944 104:2.473444 105:0.84104478 106:0.12223253 107:1.2699721 108:1.2593982 109:2.935262 110:3.2116475 111:0.98166323 112:1.5922369 113:2.6530852 114:0.46051133 115:1.0774244 116:4.6730514 117:0.97214442 118:3.1684737 119:1.5426364 120:2.1485679 121:2.3501711 122:1.2600901 123:0.6730907 124:2.069083 125:0.98675674 126:2.8671615 127:0.11333305 128:1.175958 129:-0.16007082 130:2.2754912 131:1.6105011 132:0.18181424 133:0.49334359 134:-0.0056462423 135:1.3400785 136:0.42162576 137:0.6406973 138:0.90310735 139:2.0129938 140:-0.27370977 141:0.28208259 142:1.3100581 143:2.8817179 144:1.4794967 145:0.37705031 146:1.2196919 147:1.2669209 148:0.74556327 149:0.73075247 150:3.1373053 151:1.1154667 152:0.20451215 153:0.9300667 154:2.49248 155:0.31282577 156:0.22769578 157:0.44998771 158:1.0231007 159:0.27019209 160:0.98865086 161:1.5805995 162:1.7165524 163:1.1125181 164:0.6395418 165:0.53577715 166:0.51817548 167:1.9742223 168:0.90899587 169:1.1082731 170:0.65097868 171:1.2386495 172:1.7294083 173:0.4717707 174:1.271171 175:0.024961062 176:1.5989984 177:3.7582178 178:0.54298347 179:0.98230153 180:1.8635684 181:0.96202767 182:-0.0040141628 183:1.2116765 184:1.3228012 185:0.80278903 186:0.65695488 187:0.59307754 188:0.33598018 189:2.9826679 190:2.7518082 191:1.3511932 192:1.1626278 193:1.6543398 194:0.1048701 195:2.0463905 196:-0.04877165 197:0.11217126 198:0.49874479 199:1.8864357 200:3.4313083 201:0.084450975 202:1.3468306 203:1.5467184 204:1.3006506 205:1.9009731 206:1.4191346 207:1.077162 208:3.0216269 209:3.9241288 210:1.4680253 211:3.270021 212:4.0721278 213:2.3170037 214:0.33264747 215:2.9440832 216:1.3255947 217:1.7258239 218:1.2257531 219:4.5724444 220:0.50034338 221:0.52080107 222:1.0690546 223:0.84425014 224:0.78610432 225:0.82420588 226:0.86818391 227:1.4027092 228:2.3106282 229:2.164232 230:0.40769613 231:0.02609534 232:-0.23418342 233:0.40299121 234:2.8488505 235:4.2758842 236:2.5405402 237:1.5972461 238:1.3982341 239:0.79585612 240:0.50342876 241:0.48158917 242:2.2445173 243:0.85297954 244:1.1174979 245:0.52308816 246:2.5568149 247:0.25507441 248:0.52251995 249:0.26548883 250:1.2598033 251:0.91621357 252:0.84911066 253:0.56180656 254:1.6901951 255:0.68520057 256:0.97584927 257:1.4868025 258:0.57933575 259:1.7116221 260:0.77054513 #
-0.18376298730812345993967937829439 1:2.6313598 2:7.1964598 3:8.6565485 4:9.3095474 5:4.8630981 6:12.363106 7:11.545757 8:4.2579522 9:3.3798254 10:5.7412324 11:3.0335178 12:1.0438844 13:2.8579867 14:4.549037 15:2.3600402 16:0.86812055 17:2.8204422 18:4.7094703 19:3.9202037 20:1.4313508 21:0.31656703 22:2.9400988 23:2.1053493 24:1.6455758 25:0.75242549 26:1.1666985 27:1.4477813 28:1.1884196 29:1.2437507 30:1.5629864 31:3.0627539 32:3.8844578 33:4.1742754 34:2.5368314 35:0.98610657 36:4.124084 37:7.2399869 38:8.1246576 39:6.6092839 40:2.2820675 41:0.92660046 42:4.9129367 43:6.6185784 44:7.506753 45:7.2610302 46:6.1789203 47:3.6805611 48:2.6347435 49:3.9325061 50:6.6401334 51:6.0408044 52:5.3994203 53:0.93749845 54:2.2553809 55:2.744607 56:1.9533052 57:2.8966727 58:4.7921948 59:6.0165524 60:5.2742772 61:2.6221235 62:1.7878562 63:1.6211412 64:0.65960419 65:0.97047848 66:2.2293336 67:16.57514 68:15.13255 69:4.9042773 70:0.68223113 71:3.0235043 72:1.8254234 73:0.33401549 74:0.5160886 75:4.8589015 76:6.178309 77:4.0772686 78:2.3097456 79:1.1667734 80:3.5815582 81:3.9083376 82:5.8031282 83:7.2948914 84:3.2140939 85:1.6723987 86:3.767211 87:4.2525334 88:4.4726214 89:3.8419385 90:2.2766201 91:1.4648936 92:0.82705498 93:4.0531778 94:6.8042359 95:6.943119 96:4.2866244 97:2.3584602 98:4.5630341 99:8.3170195 100:8.7474604 101:8.6413507 102:5.0349975 103:1.132584 104:2.2332652 105:5.0311275 106:5.6124806 107:5.3262448 108:3.357286 109:0.80531877 110:2.0665259 111:5.3630657 112:6.7201114 113:6.5734324 114:3.9547474 115:1.8343807 116:3.4269609 117:3.2477434 118:3.442245 119:2.5835826 120:4.2511158 121:5.7406521 122:5.2273288 123:3.9189916 124:0.62279326 125:2.9466925 126:6.5472903 127:4.7921295 128:4.4832993 129:3.7677331 130:2.0743344 131:6.9608169 132:26.075233 133:25.564554 134:20.044228 135:14.435122 136:19.610746 137:21.471577 138:15.13356 139:9.4993963 140:9.9883776 141:9.6315622 142:12.120252 143:16.649948 144:21.802891 145:18.423258 146:9.9113693 147:1.5478679 148:8.7022762 149:14.524342 150:13.644205 151:12.913871 152:9.4622669 153:6.6660218 154:3.2625587 155:2.5699482 156:5.9459696 157:7.6252031 158:7.6637602 159:8.3798065 160:9.5836201 161:8.557621 162:6.4813623 163:7.9187908 164:12.350541 165:12.930957 166:9.4934454 167:3.2260275 168:11.285639 169:18.342113 170:19.967949 171:15.035195 172:5.3989143 173:4.8232393 174:11.302303 175:13.747909 176:11.815638 177:8.5312109 178:3.6780775 179:3.9484713 180:11.03193 181:16.692282 182:17.729021 183:14.366012 184:7.0589604 185:6.322361 186:11.438679 187:13.276157 188:10.969567 189:7.9038882 190:6.4999657 191:6.3170648 192:4.8243575 193:1.5971867 194:0.06618268 195:0.58115369 196:16.877783 197:14.465366 198:12.098897 199:6.78791 200:3.0309315 201:8.0231056 202:9.2124472 203:7.2514715 204:6.6347923 205:10.263062 206:10.073853 207:6.8485246 208:5.3538928 209:3.9011111 210:1.8113327 211:0.68469369 212:1.0440853 213:3.7801175 214:6.4536748 215:7.3077312 216:9.0317163 217:9.4077463 218:8.2530346 219:7.4700799 220:7.6405678 221:6.9994335 222:6.3874526 223:6.3340387 224:6.9862819 225:7.1296439 226:6.2354445 227:3.6117408 228:1.6402036 229:4.2772784 230:6.4411778 231:6.422833 232:3.7011924 233:0.10030276 234:2.7479181 235:4.8827724 236:5.121994 237:4.2114849 238:3.9109459 239:4.1536517 240:3.6926055 241:2.1355519 242:0.90012121 243:1.5994644 244:1.9522729 245:1.3008151 246:0.89602554 247:2.5368345 248:3.1940556 249:2.772414 250:1.1639353 251:2.3642097 252:4.2260542 253:5.0312533 254:4.6435003 255:3.5798726 256:2.3803089 257:1.570889 258:1.3336914 259:1.7609719 260:2.9760313 #
-1.2291435482796273515049279012601 1:2.2291586 2:2.469367 3:1.8282084 4:4.0286016 5:1.8835945 6:5.4779277 7:2.335741 8:3.2278991 9:1.5185241 10:1.1174288 11:1.959769 12:3.436986 13:1.9895915 14:2.1944954 15:3.5289278 16:2.0280457 17:3.3996112 18:4.4077077 19:7.2461567 20:0.20206381 21:2.6157165 22:1.5948535 23:2.0360103 24:0.53017139 25:2.826098 26:0.97703749 27:1.6228533 28:0.67836708 29:1.8961608 30:1.3326697 31:2.2926569 32:2.3621094 33:0.82750857 34:2.365267 35:2.9273307 36:3.6517751 37:0.15045963 38:2.4650338 39:1.8139828 40:0.091208227 41:2.9064732 42:2.1016099 43:3.4785919 44:0.87803423 45:4.1728048 46:1.7064166 47:2.0417955 48:1.0336064 49:2.133841 50:3.9899664 51:0.97265661 52:3.0782802 53:1.0423785 54:-0.022691341 55:0.92624325 56:0.47376406 57:2.8468614 58:1.7639364 59:2.9021332 60:0.67335838 61:2.0219123 62:3.0069897 63:0.66169643 64:2.0936699 65:0.98162401 66:0.42815191 67:0.063937813 68:1.2318114 69:0.53343815 70:1.4302021 71:4.7733965 72:6.409935 73:1.8696343 74:1.3743185 75:3.8482032 76:4.623065 77:4.2957788 78:5.4925122 79:0.85331893 80:2.846096 81:2.7500474 82:3.3022079 83:0.25645059 84:4.1010227 85:1.0847392 86:2.1032977 87:5.9232244 88:1.6035922 89:0.97265452 90:1.7528379 91:3.2231171 92:4.6510539 93:2.9949515 94:3.3850384 95:4.0882459 96:4.7179804 97:5.5122557 98:3.2065821 99:7.5566115 100:8.1233778 101:5.7193151 102:2.7078114 103:4.0847044 104:5.013865 105:5.8042145 106:5.6982527 107:5.6741524 108:6.7371936 109:4.2408934 110:3.446995 111:4.5795727 112:5.3749681 113:7.4679756 114:2.5066681 115:4.1071725 116:5.769021 117:5.0133395 118:7.7605762 119:6.505425 120:7.4255986 121:4.9776773 122:4.3177633 123:10.766908 124:7.1057162 125:7.379715 126:7.0122533 127:8.1355762 128:5.2153182 129:7.8876376 130:1.1238364 131:0.5907672 132:0.48101214 133:0.65419072 134:0.91281354 135:1.4220581 136:1.5121025 137:1.4387121 138:1.6540042 139:1.1855609 140:1.4535642 141:1.116271 142:1.2634079 143:1.6026349 144:1.7076253 145:1.4474157 146:0.78402823 147:0.42327958 148:0.50964302 149:0.65501606 150:0.82301086 151:1.154711 152:1.6149549 153:0.78605038 154:0.5565173 155:1.6673478 156:1.3033153 157:1.3421059 158:1.8068151 159:2.464462 160:2.0581694 161:1.6279341 162:2.0603991 163:2.1359663 164:3.0440946 165:3.0504324 166:2.9235349 167:3.1196947 168:2.6923857 169:2.9170129 170:2.7128773 171:3.1049812 172:3.3018401 173:2.944211 174:3.2605422 175:1.5933666 176:2.7748866 177:3.5653975 178:3.3029797 179:3.3764086 180:2.8233693 181:3.381273 182:2.5532484 183:2.0155029 184:3.509572 185:3.6465018 186:3.6380386 187:4.2513018 188:4.0397816 189:3.789248 190:2.7481799 191:3.7944143 192:3.4375017 193:4.8820114 194:4.2832875 195:4.3263526 196:2.8946481 197:0.23333304 198:0.53538144 199:0.70889944 200:-0.15793204 201:-0.20858857 202:0.52368653 203:0.35274437 204:-0.08366634 205:-0.065265134 206:-0.038782522 207:0.16041489 208:0.13690406 209:0.048972588 210:0.44898152 211:0.060183708 212:0.33309564 213:1.052096 214:0.25111192 215:0.2780759 216:0.098701 217:0.11514283 218:0.31618795 219:0.19576856 220:0.42811039 221:0.44371518 222:0.13582376 223:-0.1165868 224:-0.09332376 225:0.099703513 226:0.32294574 227:0.065648198 228:-0.12937441 229:0.25685492 230:0.5234288 231:0.73273432 232:0.23071931 233:0.65032983 234:0.12751999 235:0.14086188 236:0.77863681 237:0.79950124 238:0.97795475 239:0.58818436 240:0.9253338 241:0.49163699 242:0.60799032 243:0.54289335 244:0.85762149 245:1.0000893 246:0.80837911 247:1.2769326 248:0.68213433 249:0.82589042 250:0.32483247 251:0.22229622 252:1.0312263 253:0.67695975 254:0.54656094 255:0.33408037 256:0.093520805 257:0.51466656 258:0.20587757 259:0.78215533 260:0.42549878 #
-0.28959638072934762442756095879304 1:2.3540027 2:0.15624106 3:0.8574025 4:0.77136165 5:0.65479672 6:0.82268345 7:2.0285437 8:0.48872581 9:6.6511679 10:4.2146883 11:1.3875021 12:2.7881944 13:6.5430307 14:2.1538403 15:1.5484761 16:1.7564706 17:2.4730129 18:3.1322618 19:1.4326233 20:2.8203037 21:7.3825526 22:8.0269432 23:0.32308823 24:4.11833 25:11.56713 26:4.9536281 27:2.1341062 28:3.3877423 29:4.561655 30:9.8394394 31:1.3598946 32:7.0367665 33:6.9947052 34:8.8018694 35:3.9830937 36:6.4696651 37:0.60405862 38:3.277822 39:2.2212808 40:4.3589535 41:2.4573755 42:7.6901402 43:3.0983171 44:4.4349356 45:5.4142137 46:7.4052353 47:3.5780575 48:5.0172281 49:2.5989583 50:4.277585 51:3.2198758 52:6.0667768 53:7.5644407 54:12.111222 55:9.5917225 56:5.8251925 57:4.194891 58:6.7252254 59:7.0923276 60:3.8278055 61:4.4865952 62:6.8166785 63:11.690943 64:2.5048132 65:9.5657978 66:0.61569649 67:0.029955432 68:0.83540666 69:0.47279185 70:0.53716534 71:-0.2916384 72:-0.074217297 73:0.38456935 74:4.0327291 75:0.76525736 76:0.35669228 77:0.54246217 78:4.84304 79:0.90503043 80:0.0099312849 81:0.35583147 82:2.7545505 83:2.2478516 84:1.6229841 85:0.5525043 86:4.7885456 87:2.7556176 88:1.1166204 89:1.9555525 90:1.4666691 91:2.8709128 92:1.7847217 93:3.6637471 94:5.5118699 95:1.0022753 96:0.94339234 97:2.011225 98:2.8015223 99:7.9496694 100:1.8102283 101:9.5943975 102:8.5130138 103:5.0183983 104:2.9547985 105:4.4344831 106:4.5431623 107:12.360403 108:3.4672151 109:10.50596 110:4.3769641 111:6.3704572 112:2.9666951 113:5.2453327 114:4.6111026 115:8.3267965 116:3.0489998 117:3.9382365 118:2.4855053 119:2.486423 120:3.5242281 121:7.1751008 122:6.5314164 123:3.9364629 124:2.4682336 125:4.7910666 126:2.6246831 127:5.1461778 128:5.1846662 129:8.2089987 130:6.0609593 131:1.9746879 132:0.51034778 133:-0.10371965 134:0.11728792 135:2.1661773 136:0.022751916 137:0.46499175 138:-0.082404993 139:3.1684847 140:1.1781542 141:0.89655077 142:0.85131192 143:2.5769856 144:1.4516264 145:0.19173715 146:1.277527 147:1.7052044 148:1.9021959 149:0.44833347 150:2.147193 151:2.2087982 152:2.5511959 153:1.2279288 154:2.3794675 155:5.0577502 156:1.5752246 157:2.0304956 158:0.9463945 159:2.910579 160:4.2370529 161:2.0505755 162:4.7853813 163:6.13659 164:3.9513402 165:1.8045218 166:1.2903023 167:2.1952744 168:2.2212601 169:1.2047074 170:2.5515273 171:1.9500018 172:2.225467 173:2.6311464 174:0.67405325 175:1.6034323 176:5.6248646 177:0.18219244 178:3.2193046 179:1.5603237 180:3.5771794 181:2.93103 182:2.052804 183:2.6566153 184:4.1366243 185:0.34142444 186:1.0928428 187:0.91399866 188:4.9416485 189:3.22142 190:0.84547585 191:4.1438379 192:1.7573251 193:2.7257481 194:3.8685617 195:-0.023253474 196:0.47141752 197:0.28152826 198:0.052457824 199:0.80610484 200:2.9154959 201:0.16958036 202:0.33327791 203:1.1773707 204:6.7702317 205:1.8574593 206:0.38754052 207:0.71605676 208:8.1323318 209:2.0166845 210:0.80700684 211:0.65263671 212:3.6415846 213:1.179077 214:0.81268215 215:2.6966364 216:6.5937304 217:4.0675464 218:-0.17051598 219:1.5509528 220:2.4663849 221:3.4222186 222:0.42104843 223:2.2132032 224:3.1447449 225:2.6833971 226:2.4336915 227:2.2188818 228:2.4566183 229:4.1421089 230:1.7566417 231:4.3383307 232:1.4917806 233:2.77455 234:2.0746784 235:2.2610168 236:3.3328187 237:3.2088876 238:0.46222091 239:2.010015 240:1.8661852 241:1.7759191 242:0.68388402 243:0.91133678 244:0.50243467 245:0.29174408 246:1.4847758 247:0.95709419 248:0.54814833 249:2.1307862 250:0.35209405 251:1.7428501 252:0.99946827 253:4.7691174 254:3.3584852 255:1.2043904 256:2.8226955 257:2.3218329 258:4.1861901 259:4.1291008 260:3.476666 #
-1.2635589935694748753292060428066 1:1.8494484 2:0.079693422 3:1.0739112 4:0.49520713 5:0.69884276 6:0.077133872 7:0.31096622 8:0.11565652 9:3.4428134 10:2.1372399 11:1.1263012 12:1.0992042 13:3.6845696 14:0.91195768 15:0.3471024 16:0.18399592 17:3.763684 18:1.8539213 19:1.4867878 20:0.28606939 21:10.732071 22:2.2630424 23:2.0966458 24:0.7792151 25:8.9717016 26:2.4118392 27:0.75811958 28:2.4676182 29:10.142215 30:2.6492412 31:4.0934744 32:1.7814047 33:6.4762473 34:1.4927965 35:3.2837057 36:1.3640671 37:-0.12365465 38:1.8013818 39:2.602313 40:3.6109087 41:3.4056449 42:0.98432243 43:2.1189582 44:2.5313852 45:8.2059393 46:1.9855082 47:3.5131779 48:3.0832078 49:5.275578 50:2.8893771 51:1.972151 52:1.8518955 53:9.2570496 54:3.9935679 55:6.0727735 56:0.49911797 57:4.7289686 58:3.3102708 59:0.3691048 60:1.0199809 61:4.9432859 62:1.5877681 63:4.297019 64:1.6281273 65:7.4010992 66:0.075552486 67:0.39678448 68:0.69745672 69:0.26159498 70:0.2630457 71:0.35281315 72:0.38070589 73:-0.080937162 74:3.9094293 75:0.70352721 76:0.958233 77:1.0497531 78:3.9171691 79:1.4416678 80:0.42377269 81:0.64018363 82:3.0408375 83:0.88672245 84:0.44393557 85:0.84332716 86:7.4558177 87:0.90081596 88:1.2878211 89:1.0960469 90:4.1471019 91:1.9957979 92:0.69351602 93:1.1414773 94:4.2242184 95:0.71466219 96:0.30469048 97:0.50643432 98:2.5345123 99:1.102158 100:1.1103418 101:0.73734289 102:4.4778295 103:0.53678137 104:0.49207777 105:0.24703926 106:7.575738 107:3.5696383 108:2.0692232 109:0.56481868 110:1.7847936 111:0.86032361 112:0.9905805 113:1.6689855 114:6.1414199 115:1.968926 116:-0.03989365 117:1.5444661 118:1.5460141 119:3.3114619 120:0.089413419 121:1.927762 122:6.3517337 123:0.95484251 124:3.5235586 125:1.4987131 126:6.6066732 127:0.32464206 128:2.5898488 129:0.69893372 130:4.95469 131:1.6549952 132:-0.0245068 133:0.29138112 134:0.56610686 135:1.3036523 136:0.84113353 137:0.24194555 138:0.42185494 139:2.3576391 140:0.97963125 141:0.64023656 142:0.70147151 143:1.0077852 144:0.77097237 145:0.6082046 146:0.66457665 147:0.029607896 148:0.11995462 149:0.72827494 150:1.1704382 151:4.3497219 152:1.0023241 153:0.49067259 154:0.37128466 155:3.5232563 156:1.4600803 157:1.3443811 158:1.8107955 159:2.9250615 160:1.4746248 161:0.70842612 162:1.1083479 163:5.4630876 164:1.2070595 165:1.5891827 166:1.2157012 167:1.3321456 168:1.1993346 169:1.1060708 170:0.91509449 171:3.9179196 172:1.8449776 173:2.4063118 174:1.858622 175:2.5925152 176:0.77384472 177:0.204696 178:0.60060912 179:3.8613625 180:2.1887739 181:1.3169202 182:0.81900001 183:1.9864013 184:0.89537805 185:1.852963 186:0.26816636 187:0.7366631 188:2.5590482 189:-0.19174151 190:0.4217923 191:3.2384143 192:2.2799718 193:0.013882236 194:2.3389564 195:0.31360942 196:0.2558077 197:0.91220689 198:0.779571 199:0.5033384 200:2.1333046 201:0.99078476 202:1.5330514 203:0.98826313 204:6.8803892 205:1.5474509 206:-0.110794 207:0.87617201 208:8.8106899 209:1.9024945 210:0.81132215 211:0.90933919 212:2.4505551 213:0.038276386 214:1.2477117 215:0.59013873 216:5.8618879 217:1.0962596 218:1.4252313 219:0.46347654 220:5.505146 221:1.6450633 222:0.44238907 223:0.28382149 224:3.2830873 225:2.4539125 226:1.3198202 227:0.33369368 228:4.5295215 229:0.16125818 230:1.1976688 231:0.30738643 232:2.4259679 233:1.4271938 234:1.1489233 235:0.7956897 236:0.30863059 237:0.2387946 238:1.1393573 239:0.89009762 240:2.1424608 241:1.0973297 242:1.0945894 243:0.013397768 244:3.3690581 245:1.4764719 246:1.4577655 247:1.4005326 248:2.8467004 249:1.3707783 250:0.72249693 251:1.2114273 252:3.7926352 253:1.56872 254:0.69277579 255:-0.22934745 256:1.5978758 257:0.136621 258:1.1066353 259:1.5785681 260:3.0473382 #
8.2249106132485323428227275144309 1:-0.16516182 2:0.042352937 3:-0.21741752 4:0.17157909 5:0.040964365 6:-0.089232638 7:0.25422579 8:-0.13869378 9:-0.13126755 10:-0.060304668 11:-0.23067428 12:-0.24618107 13:0.15596835 14:-0.050036777 15:-0.16735105 16:-0.14993416 17:-0.022887923 18:-0.047338348 19:-0.10163319 20:0.065585189 21:-0.011240846 22:-0.24612688 23:-0.23005554 24:-0.19321042 25:-0.21319267 26:0.026790079 27:-0.19228213 28:-0.055380601 29:-0.059192527 30:0.07674361 31:0.14249945 32:0.027902924 33:0.053344507 34:0.18915421 35:0.090597995 36:0.067298397 37:0.27731818 38:0.16821431 39:0.21335647 40:0.59556216 41:0.13484649 42:-0.13078266 43:-0.029350329 44:0.050875623 45:-0.021329001 46:0.045642182 47:-0.057765402 48:-0.022829596 49:-0.19798465 50:-0.16168402 51:-0.1587868 52:0.063221432 53:0.076569259 54:-0.0076036593 55:0.29382876 56:-0.038643315 57:0.20442592 58:0.45063388 59:0.14351878 60:0.2199515 61:0.23480126 62:0.044885159 63:0.52220303 64:0.35731605 65:-0.084871724 66:-0.21762332 67:0.34318882 68:0.91657251 69:0.51569217 70:0.23517124 71:1.095739 72:0.55657113 73:0.015600073 74:-0.07913518 75:0.10173776 76:0.45674595 77:0.16807413 78:-0.066728458 79:-0.19710989 80:0.026117891 81:-0.20286812 82:-0.25784665 83:0.59493524 84:0.35023066 85:0.13476503 86:0.3196246 87:-0.047981378 88:-0.096965604 89:0.37571448 90:-0.29771608 91:-0.27711445 92:0.16326666 93:0.95303965 94:-0.29528624 95:0.22471224 96:0.39731029 97:-0.066163711 98:0.20785242 99:-0.068213105 100:-0.097291574 101:0.079652682 102:-0.17361411 103:0.77240556 104:0.38589764 105:-0.33204961 106:0.23428948 107:0.44150865 108:0.34419087 109:0.54011542 110:0.67563099 111:0.27487591 112:0.38795906 113:0.098906226 114:0.60607064 115:-0.026701776 116:0.47691867 117:0.3186048 118:0.034431983 119:-0.12187272 120:-0.19503976 121:-0.17963877 122:-0.11820016 123:-0.23324554 124:-0.30824715 125:0.11198739 126:0.10041128 127:0.47818571 128:-0.14504248 129:-0.064282894 130:0.0076372856 131:0.37616581 132:0.66959262 133:0.76057231 134:1.3244075 135:1.1540776 136:1.0653775 137:1.2405521 138:1.0668572 139:0.77588117 140:0.9369809 141:0.10855882 142:0.41635963 143:0.67041498 144:0.37963361 145:-0.22000349 146:-0.13321477 147:0.10674782 148:-0.15803851 149:-0.042397015 150:0.17670214 151:-0.057172067 152:0.55159235 153:1.132923 154:0.15731163 155:-0.10392115 156:0.82027739 157:0.99118769 158:0.26607135 159:0.10389947 160:0.17439951 161:-0.069946721 162:0.19936572 163:0.14857981 164:-0.027097309 165:-0.0036030854 166:0.11875248 167:0.29211667 168:0.16393447 169:0.84320456 170:0.56383443 171:0.23970029 172:0.41794392 173:0.47433031 174:-0.16861272 175:0.19817919 176:0.4580898 177:0.32248473 178:0.73588985 179:-0.16991831 180:0.69026667 181:-0.26197767 182:0.35354728 183:-0.080159329 184:-0.092989549 185:0.0090014199 186:-0.022904584 187:0.38088092 188:0.19140474 189:-0.17714407 190:0.17543954 191:-0.0031038024 192:-0.16012244 193:-0.12877662 194:0.088383503 195:-0.2276146 196:0.17448783 197:-0.15105416 198:0.34896678 199:0.24734321 200:0.012192985 201:0.45991322 202:0.12800382 203:0.17793782 204:0.456743 205:0.29788712 206:-0.035065986 207:0.39178732 208:0.091370173 209:-0.073673628 210:0.39492953 211:0.2543129 212:0.047220755 213:0.12727764 214:0.030267535 215:-0.24387513 216:-0.123186 217:0.088510863 218:-0.29169798 219:-0.14886397 220:-0.038618535 221:0.27133566 222:0.12457068 223:-0.014474541 224:0.087333009 225:0.12403817 226:-0.11669453 227:0.026491145 228:-0.020454988 229:-0.053235397 230:0.24987683 231:0.32263321 232:0.03035792 233:-0.11904836 234:-0.23337765 235:-0.13652894 236:0.14555332 237:0.39238784 238:-0.048222136 239:0.59600294 240:0.3266176 241:-0.012617506 242:0.14573188 243:0.033686921 244:0.020387877 245:0.15254068 246:-0.14139691 247:-0.031348348 248:0.089175813 249:-0.11133927 250:-0.17238364 251:-0.2197383 252:0.14212495 253:0.19062489 254:-0.085619181 255:0.21522632 256:0.13381834 257:-0.19604918 258:0.030932527 259:0.15958032 260:-0.15947856 #
8.2249106132485323428227275144309 1:-0.27104548 2:-0.29250002 3:-0.0028163171 4:0.026329858 5:-0.15522383 6:-0.21946888 7:-0.14015287 8:-0.28221995 9:-0.2782867 10:-0.13602285 11:-0.1918284 12:-0.20692609 13:-0.16973802 14:-0.25049111 15:-0.13782583 16:-0.26161146 17:-0.2675139 18:-0.30555487 19:-0.25489238 20:-0.19889213 21:-0.10939641 22:-0.24741426 23:-0.13470085 24:-0.25501075 25:-0.13170004 26:-0.050207555 27:-0.093433008 28:-0.041236825 29:0.053965528 30:-0.1696838 31:-0.0091867913 32:-0.043972705 33:-0.2615422 34:-0.18143003 35:-0.05837797 36:-0.30175611 37:-0.03174587 38:-0.29664791 39:-0.14717606 40:-0.11966921 41:-0.28658536 42:-0.007173419 43:-0.17758273 44:-0.2194497 45:-0.25076425 46:-0.12818113 47:-0.1502793 48:-0.21717829 49:-0.060457565 50:-0.1079564 51:-0.08779595 52:-0.18620907 53:0.039835207 54:-0.20605646 55:-0.056018025 56:-0.19150575 57:-0.098252878 58:-0.2275819 59:-0.10540435 60:-0.090669639 61:-0.30836317 62:0.0051472057 63:-0.25516087 64:-0.052204534 65:-0.24629351 66:-0.18651515 67:-0.11578734 68:-0.039642669 69:-0.14216016 70:-0.12620123 71:0.049405362 72:0.063509949 73:-0.25643161 74:-0.25207031 75:0.013262275 76:-0.013651049 77:-0.1790572 78:-0.076596305 79:-0.27540374 80:-0.27807981 81:-0.016316241 82:-0.15874116 83:0.2689667 84:0.32699388 85:-0.23549494 86:0.41326484 87:-0.0077930507 88:0.43582237 89:-0.052850205 90:0.55043137 91:0.25010327 92:-0.2212413 93:0.15418984 94:0.21967331 95:0.19520389 96:0.1665208 97:0.16911741 98:0.27868488 99:0.082536809 100:-0.1190762 101:0.28517464 102:0.18491234 103:-0.24892482 104:-0.10076011 105:0.35416582 106:-0.3037436 107:-0.042057108 108:-0.025266835 109:-0.0539288 110:0.006220445 111:0.41029429 112:-0.16400747 113:-0.025303906 114:-0.30775288 115:0.028689779 116:-0.31598473 117:0.016891457 118:0.14209832 119:-0.09138412 120:0.055274233 121:-0.13945161 122:0.34887183 123:-0.035686661 124:0.53334278 125:0.10565279 126:0.027705202 127:0.37469429 128:0.28079489 129:0.28795901 130:-0.1998515 131:0.26042795 132:0.082147785 133:0.32800362 134:0.8685689 135:0.16089568 136:-0.0089733256 137:0.25321576 138:0.42475742 139:-0.18682042 140:-0.1779004 141:0.26650363 142:0.40766716 143:-0.031691685 144:0.38634562 145:0.63301957 146:0.16749163 147:0.12683518 148:0.79947525 149:0.28196776 150:0.060729172 151:0.064053923 152:0.4546091 153:0.63894039 154:0.053755816 155:0.17574912 156:0.092602596 157:0.28855738 158:-0.093491033 159:0.28999007 160:0.32478964 161:0.45179087 162:0.26868623 163:0.3540059 164:0.43190843 165:0.6660887 166:0.090408772 167:0.61572051 168:-0.077371888 169:0.22474337 170:0.28701982 171:-0.13446286 172:0.19846562 173:-0.1860439 174:0.37567455 175:0.064813986 176:-0.032519463 177:0.11108875 178:-0.16196917 179:-0.10119073 180:-0.038663682 181:-0.038806703 182:-0.10472738 183:-0.12394844 184:-0.056519832 185:-0.034172248 186:-0.011754054 187:0.18121742 188:-0.036600053 189:0.086503103 190:-0.039422281 191:0.14424546 192:0.18995011 193:-0.15056916 194:0.28784263 195:-0.21602395 196:0.58492762 197:0.26738214 198:0.54339504 199:-0.12342035 200:-0.22852817 201:-0.090916604 202:0.06112526 203:-0.30070624 204:-0.096299455 205:-0.2131231 206:0.26954746 207:0.012309659 208:-0.15541494 209:0.14477763 210:0.16362427 211:-0.1800738 212:-0.014443432 213:-0.11761706 214:-0.26723421 215:-0.09016782 216:-0.13093819 217:-0.17257567 218:0.021850083 219:-0.076939978 220:-0.18665148 221:-0.06742239 222:0.074510626 223:0.040222783 224:-0.0066117235 225:-0.1041479 226:-0.21562587 227:-0.13190468 228:-0.20969407 229:-0.032577448 230:-0.10339419 231:-0.074423037 232:-0.19668059 233:-0.013900205 234:-0.072118975 235:-0.11770949 236:-0.14100347 237:-0.2154395 238:-0.07975056 239:-0.19175841 240:-0.19007675 241:-0.13247965 242:-0.14734311 243:-0.17090742 244:0.10823682 245:-0.10469822 246:-0.14525862 247:-0.078488298 248:-0.14694345 249:-0.095910542 250:-0.16157962 251:-0.064540133 252:-0.15624072 253:-0.10544267 254:-0.095536508 255:0.01660206 256:0.028114529 257:-0.17443845 258:-0.042961784 259:-0.041332133 260:-0.17645335 #
8.2249106132485323428227275144309 1:0.55886447 2:4.2419462 3:0.73890471 4:2.5587523 5:0.33611465 6:1.2231441 7:1.978717 8:0.077197678 9:-0.17526975 10:0.3840825 11:0.8859517 12:0.49259159 13:0.1053025 14:0.20794161 15:-0.29038423 16:0.24091627 17:0.092721708 18:0.95624793 19:0.38998577 20:0.45367289 21:0.74338162 22:0.7095992 23:0.78848612 24:0.52317458 25:0.42790461 26:0.82878107 27:0.3833535 28:0.19853561 29:0.36266702 30:0.32998636 31:0.20275867 32:0.25298885 33:0.21796364 34:0.059272122 35:0.18636249 36:0.01790667 37:0.095992491 38:-0.047726925 39:-0.27435398 40:0.14493561 41:0.26086596 42:0.19692609 43:-0.052722771 44:-0.067519642 45:0.0090383952 46:-0.08364933 47:-0.022196295 48:0.21717183 49:0.38178885 50:0.10967632 51:-0.14574526 52:-0.016432008 53:-0.080546014 54:0.16537945 55:0.16855974 56:0.18260244 57:0.39338222 58:0.40270856 59:0.16626143 60:-0.009913994 61:-0.088091351 62:0.17902267 63:0.030959241 64:0.16060549 65:-0.081152461 66:-0.03083574 67:1.6797115 68:1.1188828 69:0.86072463 70:0.99380314 71:1.6052195 72:0.22048041 73:0.76022071 74:0.34092897 75:1.4032503 76:2.5128937 77:0.62030071 78:0.28659657 79:0.19734089 80:0.31401712 81:0.3662712 82:0.66998154 83:0.049614362 84:0.064965144 85:0.17820476 86:0.81021678 87:0.55572093 88:-0.068706371 89:0.34477916 90:0.51474082 91:0.32074615 92:0.064260721 93:-0.17007221 94:0.20263234 95:-0.09445551 96:-0.0055015218 97:0.15281068 98:-0.17380659 99:-0.02307955 100:0.09795545 101:-0.066788971 102:0.40503034 103:0.53014934 104:0.32969981 105:-0.090726078 106:-0.025397496 107:-0.21268693 108:-0.037893288 109:0.30786154 110:0.35807544 111:0.077746384 112:0.080636546 113:0.073169529 114:0.11612862 115:0.010341185 116:0.24557 117:0.060626958 118:-0.031169143 119:0.071681857 120:-0.001269512 121:-0.17963457 122:0.0050128587 123:0.14770101 124:0.11654229 125:-0.28564554 126:0.12420594 127:0.19440086 128:0.28230271 129:0.12916028 130:0.29376701 131:0.62678427 132:1.3847594 133:1.3252885 134:2.3079972 135:0.45062342 136:1.4476012 137:1.9823133 138:0.37817973 139:1.1435566 140:2.1343336 141:0.75119615 142:1.7828119 143:1.1378354 144:0.21678169 145:0.58744186 146:0.45186162 147:0.37830225 148:0.95278829 149:1.5535446 150:1.2183933 151:1.1178955 152:1.5779104 153:1.2949195 154:0.53793365 155:0.55919379 156:0.24255672 157:0.82259065 158:1.2161765 159:0.53753644 160:0.79323155 161:0.55531627 162:0.22686064 163:0.5499512 164:0.28181982 165:0.16879617 166:0.42079028 167:0.66918927 168:0.85278863 169:0.32978672 170:0.26789686 171:0.10274727 172:-0.058857415 173:-0.036594719 174:0.26664492 175:0.535541 176:0.40634152 177:0.47901377 178:0.91308391 179:0.54294121 180:-0.18039864 181:0.1225338 182:-0.094990604 183:-0.20882703 184:-0.054191086 185:0.182511 186:0.10495639 187:-0.20953485 188:-0.016667679 189:-0.076305121 190:0.016987117 191:0.0098590376 192:0.039784472 193:0.20429344 194:-0.016998254 195:-0.18260488 196:0.68103474 197:0.63801974 198:0.83327365 199:1.8411492 200:0.49319956 201:0.52919668 202:1.2614287 203:0.29388103 204:0.78349453 205:0.87290478 206:0.26805508 207:0.4864006 208:-0.061768807 209:-0.11651167 210:-0.036426559 211:0.15698388 212:0.31291786 213:0.80157787 214:1.0759951 215:0.51507771 216:0.56620306 217:0.85617977 218:0.53109443 219:0.51232415 220:0.63071889 221:0.42732018 222:0.81996208 223:1.0089878 224:0.8687799 225:0.15925877 226:-0.071429253 227:-0.024473282 228:-0.23535757 229:0.040475436 230:0.45707366 231:0.14787737 232:-0.063845769 233:-0.11395258 234:-0.015392723 235:0.046095457 236:-0.034461103 237:0.13373028 238:0.19633675 239:0.2405159 240:0.20827578 241:0.028299047 242:-0.027468372 243:0.01901439 244:0.044336889 245:-0.20415071 246:-0.21465977 247:-0.22536083 248:-0.071028538 249:-0.097571395 250:-0.071196318 251:-0.15180868 252:-0.19556317 253:-0.045904074 254:-0.073061861 255:-0.049960714 256:-0.020049328 257:-0.21096511 258:-0.2232645 259:-0.22078501 260:-0.12124249 #
-2.8002189793259484318355134746525 1:0.092487842 2:2.9954579 3:1.3495435 4:0.4645355 5:0.13246247 6:0.051012542 7:0.48490706 8:0.017097531 9:-0.25002488 10:0.4614538 11:0.45704588 12:0.26469743 13:0.85230678 14:1.2120256 15:0.51793242 16:0.25476968 17:0.37977827 18:0.52020514 19:0.55099887 20:0.52549142 21:0.60723913 22:1.0401706 23:1.3384285 24:1.0172483 25:0.84094203 26:1.5140264 27:1.2171338 28:0.22331622 29:0.26658088 30:0.47142431 31:0.35886607 32:0.36645144 33:0.89059341 34:1.2156301 35:0.66578907 36:0.028893543 37:0.27406654 38:0.71022129 39:0.56602269 40:0.38057753 41:0.81514674 42:0.74504697 43:0.12432804 44:0.095843367 45:0.61845648 46:0.72578108 47:0.65081465 48:0.57421398 49:0.22768074 50:0.067795523 51:0.60200864 52:1.1684995 53:0.93022048 54:0.32159752 55:-0.17345008 56:-0.0055782646 57:0.20677315 58:0.027490851 59:0.38875699 60:0.80895847 61:0.68757093 62:0.14602676 63:0.89159667 64:1.703943 65:1.4961988 66:-0.13307191 67:-0.046683319 68:0.3395488 69:0.42183793 70:0.1291032 71:0.66083533 72:0.72311169 73:0.17604011 74:-0.016198067 75:0.31450385 76:0.16299681 77:-0.20104973 78:0.018487267 79:0.46277544 80:0.64805359 81:0.46353805 82:0.38790575 83:0.44389293 84:0.48747271 85:0.10472756 86:0.37634781 87:0.65881544 88:1.021639 89:1.3784894 90:1.5654364 91:1.5207769 92:1.6002448 93:1.9361397 94:1.5287738 95:0.91495997 96:0.64176607 97:0.049193803 98:-0.18005422 99:0.20245305 100:0.25013804 101:-0.12337852 102:0.069589257 103:-0.069111362 104:0.26074836 105:0.38864297 106:0.02480966 107:0.5367974 108:0.27093497 109:-0.15788014 110:0.36094892 111:0.80307311 112:0.42379132 113:-0.15111256 114:0.057740875 115:-0.22154731 116:0.052327316 117:0.17383523 118:1.1335524 119:1.1769102 120:0.70552212 121:0.77592283 122:0.36903334 123:-0.020975273 124:0.16064329 125:0.24106587 126:0.74850821 127:0.13465263 128:0.13188271 129:0.79780912 130:-0.1319949 131:0.3892161 132:2.3691201 133:2.1122348 134:1.7822088 135:1.5539427 136:1.9852767 137:1.4265714 138:0.54023045 139:0.14769579 140:0.44398716 141:0.3397139 142:0.49300262 143:0.82943958 144:0.78374749 145:0.36954546 146:0.14878738 147:0.3878299 148:0.76616168 149:0.88178706 150:0.49194571 151:0.38183916 152:0.093546405 153:0.030327357 154:-0.057617094 155:0.97007918 156:1.5660757 157:1.3349807 158:1.3603365 159:1.3227711 160:1.1107665 161:0.7921297 162:0.97145849 163:0.92947614 164:0.54819053 165:0.51903939 166:1.1293126 167:1.4389659 168:0.88761294 169:0.44482318 170:0.22973855 171:0.31425476 172:0.057163805 173:0.12462675 174:0.56972873 175:0.69422376 176:0.95734859 177:1.108308 178:1.1526303 179:0.92207813 180:0.73420221 181:0.17220184 182:0.51055282 183:1.3205339 184:1.2634206 185:1.06128 186:1.0392352 187:0.75248575 188:0.41245949 189:0.59835184 190:0.67909241 191:0.2227672 192:0.11715214 193:0.4773384 194:0.99753636 195:1.1130991 196:5.0781393 197:4.1484184 198:2.6946459 199:1.825686 200:1.2335011 201:2.2472951 202:1.5685353 203:0.50433034 204:0.2669276 205:2.4973855 206:3.1918442 207:2.1524229 208:2.58266 209:3.782567 210:2.6636126 211:1.2524594 212:1.6944977 213:1.5794675 214:0.75733286 215:1.6265713 216:2.1663878 217:1.3560747 218:0.58586466 219:1.4124658 220:2.4063094 221:2.9729924 222:3.1663003 223:2.6390476 224:1.8502929 225:1.2707856 226:1.2150992 227:1.3841777 228:1.3628987 229:1.0291137 230:0.70025265 231:0.60370827 232:0.43585646 233:0.16855457 234:-0.026295271 235:1.0113275 236:1.6083562 237:0.86195606 238:-0.026885739 239:0.76186675 240:0.399396 241:0.3888703 242:0.83665162 243:0.75390613 244:0.10414128 245:0.85227156 246:1.2422967 247:0.86295331 248:0.39036828 249:1.1902333 250:1.4521823 251:0.87580585 252:0.61465824 253:0.8710978 254:0.96580762 255:1.4087664 256:2.3124278 257:2.8076298 258:2.3615768 259:1.2381684 260:-0.064574175 #
0.27303883467937262174984880402917 1:2.2355356 2:0.29895312 3:2.3206127 4:2.2825091 5:0.7986542 6:1.4016528 7:3.6229751 8:6.5108223 9:1.2798361 10:1.8224375 11:1.725826 12:2.9118109 13:1.5313414 14:1.9457366 15:4.0886836 16:3.1562643 17:1.5678655 18:2.2803533 19:4.7142906 20:0.65186989 21:0.58549923 22:1.3206593 23:4.733192 24:2.4821684 25:2.7539701 26:6.0338163 27:0.84005749 28:3.0078685 29:2.115999 30:3.1124048 31:3.9324808 32:4.4878469 33:1.6583961 34:12.027535 35:4.1301794 36:1.7858801 37:7.5036635 38:10.206845 39:2.4764159 40:2.9826064 41:8.4594784 42:4.0300026 43:2.8046117 44:4.4290085 45:10.134367 46:-0.22240426 47:0.75779217 48:4.7981148 49:1.7233537 50:2.9576514 51:1.2986847 52:7.7138238 53:4.4562278 54:2.3573658 55:5.3890581 56:2.468848 57:3.8026567 58:2.6800165 59:4.3999395 60:2.207943 61:3.408428 62:5.2593808 63:5.1278915 64:5.1783724 65:4.4147353 66:-0.032179669 67:0.41524529 68:0.6133908 69:1.0091197 70:0.62029994 71:1.1440885 72:2.2182505 73:4.7975702 74:1.5219175 75:1.1731237 76:1.6467488 77:8.5954838 78:1.4770013 79:1.8747332 80:3.1702125 81:5.0378952 82:0.996943 83:2.376678 84:8.8363142 85:3.7072804 86:2.2638717 87:2.751277 88:7.7107058 89:1.2316792 90:1.3543216 91:3.5303671 92:3.734482 93:0.53136575 94:1.4355853 95:11.038545 96:4.58392 97:2.2778413 98:3.4563091 99:13.795691 100:4.649436 101:1.6380897 102:5.3115239 103:11.871326 104:2.4375706 105:1.2761877 106:4.974689 107:6.5627985 108:1.6753312 109:3.3807082 110:7.8661294 111:1.8236297 112:3.7552054 113:2.6493211 114:6.7489409 115:0.24453175 116:1.0852739 117:8.1407976 118:3.9190059 119:0.9332608 120:3.0931072 121:4.207191 122:0.74351144 123:1.105392 124:1.0983049 125:4.0411825 126:0.87523204 127:1.2263938 128:1.6396015 129:1.2487346 130:1.3411641 131:2.3867965 132:0.1550059 133:-0.1624264 134:0.72200269 135:0.21871066 136:0.73198581 137:0.53404754 138:1.5591228 139:0.1519054 140:0.36101049 141:1.1482096 142:3.4839754 143:0.16601898 144:0.093321629 145:2.0542531 146:1.4552659 147:0.99404103 148:-0.0092817647 149:5.2215919 150:0.3071509 151:0.65979224 152:1.9324601 153:6.6904955 154:0.41777185 155:0.85350871 156:1.2228781 157:3.1934309 158:0.28937593 159:1.38969 160:5.1350045 161:2.4657767 162:0.91824579 163:2.9474676 164:3.2980065 165:0.60355067 166:0.43478402 167:0.73357141 168:0.90388995 169:0.44053662 170:0.50789136 171:0.60031348 172:0.27957967 173:1.0997114 174:2.4030998 175:2.7138186 176:2.477402 177:1.4628634 178:1.2956495 179:0.94670832 180:0.017621556 181:1.8679322 182:2.4932802 183:2.3757732 184:2.2638934 185:0.42152897 186:3.168879 187:2.3679636 188:2.7205682 189:2.4096339 190:4.2364812 191:0.19739693 192:2.5921624 193:5.5965052 194:3.1968915 195:2.0870357 196:-0.11991786 197:0.38637349 198:0.23608029 199:0.65834683 200:1.3437183 201:0.90409762 202:0.7819137 203:3.7190812 204:0.85024971 205:0.21859336 206:-0.075196683 207:5.8518209 208:1.5285649 209:2.1191845 210:3.0210609 211:3.3161237 212:0.80187458 213:1.096419 214:3.3461072 215:2.463129 216:2.0004704 217:5.9583364 218:3.2149634 219:1.046499 220:4.5493612 221:7.0195298 222:1.0170059 223:1.0275135 224:3.4414632 225:9.4269781 226:2.8295195 227:0.89803272 228:1.773946 229:6.4191236 230:1.7175033 231:1.2187519 232:5.9656997 233:5.8975277 234:2.583169 235:2.3358755 236:2.3365078 237:1.0495309 238:1.6239429 239:3.2166307 240:2.5561678 241:1.1578295 242:2.7762041 243:5.9461365 244:3.637459 245:3.9389997 246:4.4653783 247:2.1444285 248:3.0797031 249:4.813087 250:4.3545685 251:5.9951415 252:0.50737864 253:4.8493333 254:1.7146673 255:6.0782852 256:0.6608668 257:3.5461206 258:8.9474049 259:1.8177246 260:0.92617577 #
-3.1866001015597316126104487921111 1:1.7335552 2:0.12629664 3:0.31994027 4:0.19018112 5:0.016823379 6:0.36020198 7:0.81610912 8:2.102318 9:2.1011803 10:1.5008228 11:1.0411034 12:0.94099694 13:0.067335315 14:1.284814 15:0.737454 16:1.2765661 17:-0.2011821 18:0.76194173 19:0.64437288 20:1.1339645 21:1.3177922 22:0.094342552 23:0.95568758 24:1.5075009 25:0.63762975 26:0.89642429 27:0.21653092 28:0.8619315 29:0.61608654 30:0.32646918 31:0.45924363 32:1.3222307 33:1.606728 34:1.2115752 35:1.2268895 36:0.10044517 37:1.1647243 38:0.22461863 39:1.8127832 40:0.088508621 41:0.49388924 42:0.40982062 43:0.38962564 44:0.40314376 45:0.79386234 46:-0.22002834 47:0.71446103 48:0.3408393 49:0.50375789 50:0.89856261 51:0.37168905 52:0.40647691 53:0.13960457 54:0.43459201 55:-0.17159988 56:0.4838922 57:0.25672403 58:0.52790016 59:0.8514992 60:0.40169945 61:0.19191556 62:0.25608054 63:-0.23570803 64:0.27712759 65:0.8953265 66:0.39023021 67:0.16573991 68:0.4266085 69:0.43740702 70:0.2535699 71:0.10064007 72:1.2855684 73:2.5754421 74:3.6990983 75:3.3636971 76:2.9726634 77:1.0337752 78:1.1061143 79:2.7306259 80:1.6235915 81:0.60479182 82:0.16890387 83:0.96663719 84:0.20300657 85:1.3142475 86:2.1505542 87:0.18254697 88:0.51621985 89:1.263085 90:0.97944099 91:0.66356176 92:-0.22226788 93:-0.063012652 94:1.1680131 95:0.150686 96:-0.21523353 97:1.6874385 98:1.8172352 99:2.1570766 100:1.9379959 101:1.1982764 102:1.1226479 103:0.61323237 104:0.8711834 105:0.60236377 106:0.329142 107:1.0449387 108:1.537644 109:0.89725274 110:1.438251 111:1.0643541 112:1.0289438 113:0.79256153 114:0.41578326 115:0.71795899 116:1.2900945 117:0.80064595 118:0.90590119 119:0.70324874 120:0.93761247 121:1.0245228 122:0.8168332 123:0.43733954 124:0.94610995 125:0.57022256 126:0.55033273 127:0.23914054 128:-0.01404536 129:0.12048405 130:0.56920886 131:2.2183151 132:0.25857762 133:0.36480311 134:1.1746107 135:0.37998462 136:1.1302866 137:1.3149041 138:0.71660239 139:0.67551243 140:3.3109398 141:0.91812825 142:1.5006647 143:2.0066679 144:0.1571229 145:0.87498498 146:2.9367104 147:2.6737344 148:1.8049113 149:0.73009253 150:1.4759313 151:1.4095821 152:1.4527504 153:0.52595961 154:2.0868547 155:0.55229247 156:-0.0026735291 157:1.5099655 158:0.39178193 159:0.45413572 160:1.1416802 161:1.9457688 162:0.53368825 163:0.69914198 164:0.81397128 165:0.28772542 166:-0.081971891 167:0.5783596 168:1.4975663 169:0.53379744 170:1.8107541 171:1.5320559 172:0.92834598 173:2.0443499 174:1.5324481 175:1.5158832 176:2.4448299 177:2.3941061 178:0.77673328 179:0.92790985 180:0.47424117 181:0.12196186 182:0.11308605 183:0.75974208 184:1.5892619 185:0.5380339 186:1.17744 187:0.96021074 188:0.9791401 189:0.92566472 190:0.49171633 191:0.48996511 192:0.5633257 193:-0.14467376 194:0.44022813 195:0.228929 196:-0.22573127 197:0.42280531 198:1.1871761 199:0.6534481 200:3.4403343 201:3.5191648 202:0.26935148 203:0.88465077 204:1.2431928 205:1.9382249 206:1.2936765 207:0.24426165 208:0.66546404 209:0.71117973 210:0.0021888576 211:0.2642329 212:0.52607942 213:0.48759553 214:0.85934556 215:0.5666284 216:-0.14182869 217:1.0727496 218:-0.072643444 219:0.94645017 220:0.089357413 221:1.0716016 222:0.1855769 223:0.39329055 224:0.59162259 225:0.47439206 226:0.52724499 227:1.0550649 228:0.41797867 229:0.14092076 230:1.0628128 231:-0.23562539 232:0.53419161 233:0.76675147 234:1.4646504 235:-0.036938839 236:0.799784 237:0.98844624 238:0.23737527 239:0.33026782 240:0.37853068 241:0.2270828 242:0.74480194 243:-0.09529493 244:-0.10440251 245:0.28509891 246:0.08586894 247:0.029870907 248:0.57139158 249:0.44167832 250:0.37129003 251:0.32630655 252:0.18410832 253:0.26530844 254:0.70772696 255:-0.055471409 256:0.26728675 257:-0.06066576 258:0.61561185 259:0.16152754 260:-0.13810958 #
1.4840099028592990126895756475278 1:3.2295208 2:-0.0086276382 3:0.17940567 4:0.13972017 5:0.7978369 6:0.68308347 7:1.5344456 8:2.6572483 9:1.2471416 10:1.3828386 11:0.62964445 12:1.2792515 13:2.2392998 14:1.9462026 15:2.8789489 16:1.95424 17:0.97834349 18:2.9239891 19:5.8217278 20:5.1980524 21:2.5161767 22:0.41545993 23:3.8700256 24:1.5459633 25:1.7239321 26:1.2689898 27:5.2154737 28:0.14357777 29:1.5127746 30:0.49296713 31:2.2446067 32:1.0651604 33:1.7005867 34:2.1886737 35:2.4336901 36:1.1720449 37:1.7122862 38:2.7467449 39:0.60415846 40:1.9032216 41:1.1787833 42:3.796531 43:0.99974626 44:1.2415128 45:2.040648 46:1.2687033 47:0.15044887 48:0.29978979 49:3.274534 50:1.268707 51:0.5175643 52:0.95407975 53:1.6017725 54:1.4517796 55:1.3720939 56:0.82762325 57:1.4311576 58:1.8860979 59:0.8444072 60:0.83333713 61:0.86020142 62:1.183486 63:0.98870629 64:1.974323 65:0.010768648 66:2.1289389 67:0.071621858 68:0.50436306 69:1.0294435 70:1.0557332 71:0.95850211 72:0.89975148 73:1.5446588 74:0.18718693 75:0.78733361 76:0.27268231 77:2.4284384 78:1.1017444 79:0.20737989 80:0.45274061 81:2.7533538 82:-0.069346108 83:0.65708899 84:2.7399662 85:3.7122009 86:1.5589942 87:0.46373782 88:3.1732965 89:1.6332256 90:1.3718158 91:0.91406208 92:4.1137643 93:1.4373794 94:0.79259676 95:1.3678557 96:0.49062857 97:1.9946966 98:1.1129935 99:2.7308547 100:1.1349303 101:1.5218877 102:2.0355904 103:3.5786457 104:0.23625571 105:-0.13765772 106:0.7933358 107:1.5018437 108:0.46374798 109:1.224346 110:-0.008126243 111:1.479997 112:-0.28337228 113:0.85987806 114:0.62744671 115:0.31246909 116:0.092705131 117:1.332144 118:1.0204216 119:0.47959319 120:1.866703 121:-0.020261673 122:0.97497016 123:0.35126165 124:2.0858674 125:0.27823308 126:0.69485927 127:1.7122613 128:-0.16453561 129:0.60774583 130:-0.10449999 131:0.90939432 132:0.055358373 133:0.040067479 134:0.11953235 135:0.78840017 136:0.045698661 137:-0.015229863 138:0.46881753 139:0.52478486 140:0.74384177 141:0.63432008 142:1.6552664 143:0.37838206 144:0.23930675 145:0.088536136 146:0.9719739 147:0.23445384 148:0.41577014 149:1.3454318 150:1.4385092 151:0.49507454 152:-0.13583477 153:0.3585366 154:0.16499493 155:0.9798618 156:1.0713373 157:1.2550088 158:0.29106089 159:1.2289113 160:1.7783996 161:1.7426759 162:0.40163085 163:0.21667001 164:0.48628771 165:1.5390999 166:1.1438735 167:0.2336674 168:0.10167859 169:1.1840721 170:1.0720228 171:0.75920326 172:0.49899459 173:0.48697665 174:-0.18407914 175:1.5724511 176:0.99080098 177:0.29997429 178:1.0925373 179:1.1950383 180:0.41642559 181:0.6629234 182:0.2500034 183:0.5769521 184:1.0972505 185:1.640427 186:0.4165116 187:1.8217318 188:0.69019383 189:1.9333375 190:-0.12408015 191:1.3367708 192:0.46436301 193:1.0071198 194:1.0647042 195:-0.19625653 196:1.1433014 197:1.4361039 198:1.2551957 199:2.2044466 200:2.7866058 201:0.8814435 202:1.6210257 203:2.594023 204:1.5273803 205:1.3352578 206:-0.1196913 207:3.075479 208:1.1588621 209:0.025041761 210:1.2595978 211:0.79312444 212:0.48573378 213:0.35536981 214:3.4874225 215:2.1425772 216:0.82246673 217:0.46534052 218:2.6456215 219:1.2910522 220:0.44357851 221:1.0710155 222:4.6587887 223:1.092501 224:0.16252215 225:0.22571668 226:2.698108 227:1.597821 228:0.049360596 229:2.649863 230:1.2646871 231:1.3522733 232:0.13301069 233:2.3490872 234:0.86859316 235:1.192809 236:0.7981832 237:1.7717278 238:0.51975316 239:0.73443073 240:2.2372668 241:0.71761036 242:0.74758971 243:0.47941172 244:1.3479127 245:0.43596318 246:0.88044721 247:1.2374846 248:2.092021 249:0.47250482 250:1.8501081 251:0.94422001 252:2.3289063 253:0.65545857 254:0.65799624 255:2.0147614 256:0.83855689 257:0.90502524 258:0.59494197 259:0.17449656 260:-0.22223304 #
-1.2681149190891696232341701033874 1:2.0403378 2:1.1656985 3:3.0609524 4:1.6569386 5:0.54809994 6:-0.26369622 7:2.2194984 8:1.9564508 9:3.4942834 10:1.5492498 11:0.92444992 12:-0.050796464 13:0.31601584 14:1.9843786 15:0.2724252 16:2.9307094 17:3.1478384 18:1.7488416 19:2.7880318 20:1.8713504 21:1.1173935 22:2.1699343 23:1.2916963 24:1.0837451 25:1.2492927 26:1.4541535 27:2.0183771 28:1.2021488 29:1.3025326 30:0.22112177 31:0.19147089 32:0.52974242 33:0.97232616 34:0.83734798 35:1.8224515 36:0.89486802 37:1.2734315 38:0.29207474 39:1.2031301 40:2.3190122 41:0.48945042 42:3.0916784 43:2.1586406 44:2.3362851 45:0.62727535 46:2.3477783 47:3.9501352 48:3.3971128 49:2.5748501 50:3.0343475 51:0.91273957 52:0.61267442 53:0.3692134 54:0.63753635 55:5.520546 56:2.2128294 57:1.7789314 58:1.8564543 59:1.306144 60:1.2950749 61:2.0461347 62:1.4261696 63:3.9664705 64:0.70731002 65:0.79994732 66:0.46397474 67:0.80805433 68:-0.066033214 69:1.0794058 70:0.25817522 71:-0.16922911 72:2.929781 73:3.344995 74:4.8259497 75:2.2567599 76:1.474787 77:1.5806712 78:2.6911659 79:2.6107531 80:0.73493999 81:1.7360764 82:3.9721453 83:2.5304449 84:1.9473635 85:1.1631572 86:3.8384438 87:1.8258644 88:3.1475296 89:2.9938705 90:4.382246 91:3.1456573 92:1.4520371 93:1.3708683 94:3.4168735 95:2.7221601 96:2.3498275 97:2.0937114 98:1.6500353 99:2.1316559 100:1.2685049 101:1.1524467 102:1.5237036 103:0.95284945 104:0.57256752 105:-0.25801715 106:1.255327 107:1.9994297 108:1.0553954 109:2.0889237 110:1.1988807 111:1.668816 112:2.2655354 113:2.2365866 114:0.64429051 115:1.6671726 116:2.7017124 117:0.11022212 118:0.25895089 119:1.0566071 120:1.1383674 121:1.2636341 122:0.45891234 123:0.29385313 124:0.98266071 125:0.64576226 126:1.2014496 127:0.78194433 128:0.88822889 129:0.85962838 130:2.4162629 131:0.81956345 132:0.15858419 133:0.52228034 134:0.29682061 135:0.7357052 136:0.27251768 137:0.2919226 138:1.2929726 139:1.5313609 140:0.5820142 141:0.26114058 142:0.29771739 143:0.047422029 144:0.48341584 145:-0.096213758 146:1.0504187 147:1.814254 148:1.3096888 149:1.3176541 150:0.38792565 151:0.64552379 152:1.4286075 153:1.706172 154:2.4605196 155:0.49895424 156:0.48604071 157:2.0835912 158:0.21368928 159:0.26125383 160:1.0549014 161:0.92987013 162:2.573525 163:0.062904485 164:0.94295794 165:1.5030576 166:1.8906872 167:0.47291818 168:0.14643864 169:-0.088925235 170:3.8389182 171:1.2887249 172:0.46416527 173:0.44297585 174:2.1925395 175:0.88912475 176:1.7541552 177:2.770565 178:2.0364535 179:2.2405975 180:1.0342964 181:0.81909299 182:2.2235942 183:1.1035688 184:1.6153389 185:4.6785746 186:0.25780451 187:2.1419373 188:2.232774 189:3.0979843 190:1.5655047 191:1.6395243 192:2.0694242 193:3.684716 194:1.87937 195:1.0320003 196:1.5578389 197:1.9702133 198:2.251035 199:2.0437407 200:-0.060632572 201:0.23835778 202:0.53686327 203:1.0562209 204:0.18888485 205:0.68467671 206:0.78231758 207:-0.039462548 208:0.63325691 209:0.22842936 210:0.0063732867 211:0.4645716 212:0.98362732 213:-0.14860903 214:0.15485601 215:0.2684435 216:-0.069148853 217:0.07249514 218:0.80001533 219:0.14890723 220:0.55479342 221:0.70078224 222:-0.075982109 223:2.3217666 224:0.061380204 225:0.49705037 226:0.79454154 227:0.72919041 228:0.87133163 229:0.99722123 230:0.757824 231:1.7065217 232:1.2497245 233:0.57972246 234:0.68372667 235:0.49218354 236:-0.015031982 237:1.0474746 238:0.86899966 239:0.3800481 240:0.10954279 241:0.54175842 242:0.70944965 243:0.089892596 244:0.65708995 245:1.0425543 246:0.47373512 247:0.57959396 248:0.3569954 249:0.30056107 250:-0.16416924 251:0.017589072 252:0.97356707 253:0.40984938 254:0.62402785 255:0.249798 256:-0.093169101 257:0.41386688 258:0.36076093 259:0.56360668 260:1.3196564 #
-0.10032146027921889919198861207406 1:0.97035366 2:3.2269156 3:2.6314549 4:1.8716286 5:1.1741531 6:1.6475215 7:3.8107727 8:0.52114838 9:0.43276152 10:0.71510822 11:0.34406412 12:0.055145167 13:0.43520921 14:0.87394702 15:0.067316256 16:0.10952029 17:0.6778205 18:0.54708433 19:1.9452893 20:0.90018523 21:1.8645326 22:0.62136859 23:0.58529574 24:1.7156103 25:3.128859 26:3.4755931 27:2.2121177 28:0.39207357 29:0.62472785 30:1.1634824 31:1.4161948 32:1.050357 33:1.4792712 34:1.9412397 35:0.61052883 36:1.9708232 37:1.244894 38:2.9102824 39:2.6059949 40:1.3971258 41:0.93261528 42:-0.20883986 43:1.423357 44:1.3943708 45:1.6558386 46:0.70427334 47:1.771173 48:1.4208792 49:0.9265908 50:0.36082375 51:1.1152757 52:1.0048882 53:1.1475027 54:2.0057378 55:2.6159904 56:2.8227589 57:2.3501596 58:1.9429475 59:2.4471149 60:0.4910678 61:1.784943 62:0.47025609 63:1.1558421 64:1.7632153 65:0.12325051 66:-0.11089509 67:0.82699645 68:0.6362347 69:0.92478967 70:0.2353209 71:0.30387965 72:2.4408159 73:1.4039173 74:0.18615758 75:2.6854625 76:1.4135059 77:1.2103431 78:0.35608682 79:0.56315958 80:1.1451436 81:0.72847342 82:0.87746412 83:2.6603575 84:1.3444594 85:0.18743952 86:4.0168219 87:1.9971913 88:0.49975559 89:0.93044519 90:1.9562639 91:0.4879598 92:1.0004004 93:1.2358451 94:0.57142162 95:0.64024252 96:0.9614073 97:2.3408575 98:1.3233134 99:1.8687763 100:2.1898229 101:1.9269034 102:0.53350508 103:0.50714463 104:2.6463451 105:1.4387202 106:1.0689687 107:2.5816903 108:1.6841762 109:-0.15021999 110:0.54038066 111:0.81914234 112:1.4850739 113:1.7954144 114:1.5870769 115:1.1959901 116:0.18860193 117:2.0019422 118:1.1162087 119:0.93178916 120:1.3490443 121:0.68851596 122:1.0501486 123:2.728827 124:3.6783602 125:2.5436563 126:2.1282911 127:2.6019714 128:2.5184433 129:0.85780668 130:0.62022334 131:3.3017392 132:1.0190639 133:1.2488222 134:2.1583123 135:2.3384721 136:1.3025875 137:1.0475482 138:1.7552288 139:0.78978676 140:2.5609283 141:1.3967315 142:3.7055821 143:0.4951387 144:1.800891 145:5.5081363 146:2.640969 147:0.88719791 148:0.68325239 149:2.4532399 150:2.999054 151:4.7603898 152:3.6168816 153:0.33802041 154:1.7258657 155:5.5732884 156:2.5181587 157:1.0641742 158:2.1400182 159:1.7145256 160:2.436456 161:0.71951878 162:0.82953238 163:3.0394573 164:2.9535317 165:2.7280552 166:3.308099 167:0.7043491 168:0.77168733 169:0.046023343 170:1.3299075 171:0.74135023 172:3.9368689 173:3.1060519 174:1.7244833 175:2.0673108 176:1.2169142 177:1.6768515 178:2.8786311 179:2.0983531 180:2.220983 181:1.1490951 182:0.41910604 183:4.5532837 184:1.7100129 185:1.1771928 186:0.80213749 187:1.3866112 188:1.8047292 189:1.9105755 190:2.4347527 191:3.1532137 192:2.7316203 193:2.6188867 194:1.777084 195:-0.027412686 196:5.2010984 197:7.3211732 198:5.1648316 199:3.5563776 200:2.6443439 201:4.3734074 202:0.50793141 203:3.6315527 204:3.899065 205:3.4603484 206:4.1815982 207:3.1981511 208:1.872192 209:5.1908693 210:4.3686299 211:0.58504999 212:2.9815204 213:1.8551807 214:3.4514451 215:3.8396354 216:3.8701439 217:5.7581177 218:3.6950171 219:3.4117985 220:3.0614259 221:3.8884137 222:5.9809742 223:5.5252748 224:2.3435683 225:1.4702175 226:2.2315712 227:0.60762841 228:0.03432402 229:0.14973585 230:0.55494338 231:3.010509 232:0.82729518 233:2.6403639 234:1.3942845 235:2.4701674 236:4.6040711 237:3.4241593 238:2.2446647 239:1.0767802 240:3.4215231 241:1.9583998 242:1.652267 243:2.9660988 244:0.98247802 245:1.2523283 246:0.47643203 247:2.5452125 248:0.83480698 249:2.0063651 250:1.1871489 251:3.5177593 252:3.1097972 253:2.4440317 254:0.19054447 255:3.7119343 256:3.7033021 257:3.1240919 258:3.8476136 259:4.4651198 260:-0.22169821 #
-4.2122555435918602739775451482274 1:0.34158733 2:2.5060065 3:1.9927585 4:1.113203 5:0.10176426 6:0.39627317 7:0.77495021 8:0.25905204 9:0.10462192 10:0.70076752 11:0.69476175 12:0.415804 13:0.97323805 14:0.9153651 15:1.2875654 16:0.57677853 17:0.42291957 18:0.34835306 19:0.40803432 20:0.36186552 21:0.23666789 22:0.0024028774 23:0.80107796 24:0.53111774 25:1.0775265 26:1.6970042 27:1.9801445 28:1.7225842 29:1.6414931 30:0.70487422 31:0.079940766 32:0.70997727 33:-0.11456254 34:0.98070776 35:0.87929624 36:0.72254151 37:1.4953748 38:1.4258733 39:1.1701765 40:2.1948955 41:2.2965198 42:0.79653108 43:0.99430311 44:1.5457617 45:1.7288306 46:1.7687747 47:2.2083497 48:2.1801074 49:2.538342 50:0.48884651 51:1.0942968 52:2.4291265 53:1.7393405 54:0.63070732 55:0.99331683 56:-0.1972408 57:1.1050731 58:0.24315557 59:1.4254918 60:1.2615886 61:0.76396877 62:0.57290459 63:0.8771283 64:2.010056 65:0.58561331 66:-0.17700726 67:-0.17319782 68:0.15078905 69:0.049620222 70:-0.1851961 71:0.061370101 72:0.32262126 73:0.011975245 74:-0.046165872 75:0.088365749 76:0.17260012 77:0.11527238 78:-0.097576939 79:1.0796549 80:0.9526034 81:0.92246568 82:1.2862161 83:0.67887038 84:1.4813924 85:0.20537038 86:-0.079723209 87:0.21439302 88:0.49358195 89:1.0338703 90:2.4280536 91:0.9662829 92:1.0711385 93:1.3487319 94:0.57512069 95:0.59398884 96:1.6197604 97:0.58678156 98:1.709213 99:0.59535778 100:0.31677464 101:1.7698342 102:2.8742964 103:1.0007035 104:1.4581583 105:0.2536523 106:-0.22226456 107:1.6056155 108:2.3314478 109:2.1086457 110:2.0717616 111:2.0870795 112:2.5524251 113:2.1876998 114:1.8214608 115:0.45528939 116:1.3947831 117:0.37359965 118:1.0862238 119:1.6222563 120:1.6797402 121:1.6338639 122:0.70585471 123:1.4189318 124:0.92306626 125:0.48609442 126:1.694664 127:0.98206753 128:0.72428483 129:0.52851743 130:-0.13360724 131:1.0454991 132:2.2836509 133:1.1560959 134:0.74902564 135:0.67342287 136:1.0844557 137:0.092343889 138:0.13920669 139:0.95026457 140:2.2664983 141:2.1142249 142:0.84552175 143:2.3939841 144:1.8684945 145:0.38083121 146:1.0040634 147:0.29350865 148:1.0358407 149:2.4547536 150:1.2787117 151:1.575919 152:1.9090655 153:2.1062992 154:1.7628412 155:1.4735174 156:1.5660807 157:1.7445554 158:1.5261317 159:1.4230617 160:1.8169985 161:1.0682566 162:1.1945733 163:1.2463764 164:1.0800731 165:0.62622947 166:1.5061262 167:1.7295314 168:1.3035806 169:0.6845575 170:0.69541073 171:2.0720799 172:1.0155182 173:1.2643418 174:1.8839686 175:0.89089006 176:1.4810084 177:0.84101439 178:0.94782907 179:0.29366228 180:0.1349403 181:0.30510637 182:0.50315833 183:1.4830148 184:1.668054 185:1.4767306 186:1.8304498 187:3.0771337 188:2.6460767 189:3.5979209 190:4.2720966 191:2.5373495 192:1.4010061 193:1.940199 194:2.486769 195:0.9226439 196:1.354346 197:0.60854775 198:0.95521128 199:0.084439769 200:-0.23770915 201:1.3250504 202:1.1327006 203:0.28975791 204:0.05137014 205:1.1605145 206:1.0791652 207:0.52395427 208:1.5339772 209:1.8645295 210:1.4270387 211:0.58573318 212:0.52986592 213:0.22147043 214:0.95697886 215:1.0113524 216:0.64532089 217:1.0137713 218:0.68804646 219:1.266039 220:1.2556223 221:1.8206582 222:0.9548282 223:0.83633983 224:0.48536515 225:-0.13712969 226:-0.0087224338 227:-0.062826976 228:0.67833799 229:1.7175894 230:2.0505059 231:1.3453559 232:1.2392133 233:0.83819366 234:1.1439027 235:0.52947783 236:1.287874 237:0.11394197 238:0.84245378 239:1.3398334 240:1.4930161 241:1.2234557 242:1.2132286 243:0.09739282 244:-0.16917549 245:0.28630483 246:0.4857817 247:0.17971401 248:0.80549979 249:0.4701761 250:0.4714812 251:0.90866596 252:0.61402023 253:0.66451466 254:0.26587388 255:0.33782792 256:0.59357613 257:0.97390282 258:0.27408066 259:0.35956937 260:-0.25895244 #
-1.5087123355415057446293758403044 1:3.3932111 2:0.66356164 3:0.35899112 4:1.8906285 5:2.6699572 6:0.45346996 7:1.8481745 8:2.3039441 9:3.4951637 10:1.2429235 11:0.8918069 12:1.0861119 13:1.0920832 14:1.4940568 15:1.709604 16:2.6108844 17:2.3248076 18:0.98420662 19:1.726673 20:4.7376814 21:2.0671301 22:0.85525399 23:0.98382229 24:7.3590412 25:2.5485477 26:1.0933219 27:1.51617 28:7.0185261 29:2.2494717 30:3.323601 31:3.9736748 32:6.4941201 33:3.2478957 34:2.949656 35:6.165813 36:5.865788 37:0.22405303 38:1.3588824 39:4.3352056 40:2.4097168 41:1.4525105 42:2.7364542 43:6.1955967 44:2.9719186 45:2.1483102 46:1.7518349 47:3.3374884 48:3.345988 49:1.9277872 50:2.5717547 51:6.7281327 52:3.1094816 53:3.3628302 54:3.7742279 55:3.2853839 56:5.1705427 57:3.7647316 58:4.1809239 59:4.090497 60:2.6456516 61:2.3512998 62:3.0383775 63:3.0862935 64:5.5493126 65:4.9467726 66:0.769898 67:0.13338915 68:0.48526436 69:0.133891 70:1.1160371 71:1.6908162 72:2.0605271 73:2.5138988 74:4.4979568 75:2.0058801 76:1.865012 77:2.3841951 78:1.4912053 79:1.3474219 80:2.2757359 81:4.5589771 82:2.7732654 83:2.6168156 84:1.9016646 85:7.0919867 86:1.4903848 87:0.67204082 88:1.9425349 89:2.1000838 90:0.18674773 91:0.73517013 92:2.6263065 93:8.453721 94:0.76547545 95:1.004568 96:1.9067469 97:3.1471374 98:1.2672024 99:0.46049514 100:2.0876608 101:2.5093684 102:1.4074628 103:1.3012717 104:1.2855555 105:1.0865475 106:1.2798797 107:0.79335147 108:1.6284113 109:1.4089414 110:0.079468772 111:0.21631335 112:2.263267 113:1.7076265 114:1.0733079 115:-0.093325607 116:5.0869937 117:1.3148886 118:1.5146141 119:1.0816976 120:0.75375539 121:3.7195988 122:-0.075899549 123:1.6043651 124:2.5632954 125:2.0426481 126:0.9189375 127:1.9497234 128:0.96778613 129:3.1901722 130:0.45117941 131:2.2366202 132:0.40380707 133:0.15218242 134:0.33365566 135:1.115593 136:0.75653672 137:1.5917196 138:0.32373258 139:2.9445324 140:0.98086226 141:0.16138363 142:1.1397852 143:1.6552888 144:0.68459588 145:2.0347137 146:3.3622127 147:2.1726115 148:1.5969945 149:0.97592551 150:2.8784273 151:1.1830186 152:1.4241138 153:0.63124722 154:4.6282234 155:2.0121968 156:2.4491336 157:0.044871084 158:2.4307146 159:1.5394695 160:0.9379428 161:0.84757477 162:3.0327358 163:0.78969568 164:4.4869919 165:3.1655321 166:4.7816291 167:3.0583858 168:1.045455 169:4.5232921 170:4.9296837 171:0.73183507 172:2.5669398 173:2.2053828 174:0.85068679 175:0.83138102 176:1.893527 177:5.9842043 178:4.0576496 179:1.2080622 180:0.95046049 181:3.4376998 182:2.173846 183:1.3562093 184:1.9983146 185:5.0730319 186:0.11638261 187:0.51230162 188:1.2797592 189:3.5057406 190:1.0364627 191:0.86210221 192:1.2653748 193:2.0449903 194:1.2453594 195:1.6669737 196:0.013348887 197:0.15145116 198:0.74560231 199:0.2656959 200:2.6469967 201:1.5982015 202:2.9799709 203:4.5100918 204:7.6816134 205:2.413398 206:2.8491282 207:4.3440652 208:4.2416425 209:2.3769639 210:3.4742088 211:7.8558135 212:4.8996592 213:0.66353136 214:2.9372613 215:8.0823755 216:1.9432849 217:1.0777681 218:1.4291189 219:7.9344044 220:2.7971792 221:2.2069194 222:3.3405271 223:6.5121021 224:2.8232615 225:2.7617965 226:3.7433887 227:5.7940931 228:1.3367345 229:4.0726533 230:5.2835941 231:6.0926208 232:4.4812393 233:3.7775285 234:5.7574129 235:4.8021388 236:2.5227499 237:3.9508493 238:7.1173868 239:7.7451797 240:1.0841349 241:1.7448747 242:5.6254215 243:5.3566775 244:2.7306373 245:1.3712912 246:6.5061998 247:7.2479458 248:2.2267942 249:1.34858 250:7.4395003 251:3.0614202 252:1.5749911 253:0.69350076 254:5.4368386 255:2.5194607 256:0.69378477 257:-0.015618111 258:8.5493317 259:0.80222756 260:0.4631533 #
-0.70766150395658333760451341731823 1:2.2278447 2:0.64513361 3:1.80671 4:1.6987895 5:1.4162906 6:4.7678547 7:2.3931556 8:0.72841847 9:2.891902 10:4.1731915 11:2.3366458 12:2.349098 13:2.6224947 14:1.3211683 15:5.6040163 16:2.6517448 17:5.8488941 18:4.5428886 19:3.2875924 20:1.6608236 21:3.0010526 22:1.8684026 23:3.5655935 24:0.75302929 25:2.1238189 26:3.3233175 27:2.609966 28:5.1553898 29:2.4632361 30:4.8909931 31:3.539804 32:4.4297476 33:4.830277 34:6.7570171 35:1.0706739 36:2.5893421 37:2.4675853 38:3.1566892 39:2.7780125 40:6.7505846 41:1.3464479 42:4.8404932 43:0.7611478 44:2.5324287 45:2.241837 46:4.1251917 47:5.3009357 48:1.5529704 49:5.4199986 50:1.2696054 51:2.7448142 52:1.1767259 53:2.4122102 54:6.652596 55:5.2671318 56:4.5835705 57:1.993763 58:2.0830612 59:3.9258878 60:3.5351646 61:4.8498101 62:6.0651522 63:6.0039997 64:3.2648873 65:3.0321255 66:0.81268549 67:0.16581367 68:0.99607599 69:0.5665518 70:0.23119314 71:0.69608825 72:0.8437342 73:0.11449239 74:3.8201768 75:1.9554342 76:2.4825075 77:0.54493499 78:1.0188226 79:1.6804658 80:4.0929337 81:0.51482612 82:3.3173208 83:0.95055538 84:2.8872936 85:0.70831656 86:1.7815921 87:0.12823449 88:1.0945737 89:2.8341069 90:0.91113585 91:4.8203588 92:3.1538558 93:0.80419511 94:2.6551962 95:1.3440545 96:2.0603082 97:2.5150373 98:2.3914006 99:1.0376902 100:2.398823 101:0.72788399 102:2.0598574 103:1.9376855 104:1.9333442 105:4.2163496 106:3.3897436 107:4.7363176 108:5.0958848 109:1.3455008 110:0.83092612 111:0.51096392 112:3.8282335 113:3.5898812 114:4.7450538 115:5.8222799 116:2.7938786 117:5.5428982 118:2.9161754 119:1.2597725 120:1.7203641 121:1.3117484 122:4.5129271 123:4.942647 124:5.9842143 125:3.2694983 126:5.4617438 127:3.9090078 128:3.7557876 129:7.801754 130:6.5059252 131:2.1292806 132:1.2381923 133:2.129782 134:0.1029145 135:0.87422711 136:1.4844109 137:1.6516399 138:0.9905808 139:1.1989245 140:3.0639658 141:3.4909947 142:2.6870875 143:3.087024 144:1.4852965 145:2.5435793 146:3.1758924 147:1.3630363 148:4.5292983 149:1.9807303 150:1.9495528 151:4.9157162 152:3.3477449 153:3.8607705 154:2.2296822 155:2.3672731 156:1.9865875 157:3.5066092 158:3.2098961 159:2.6820655 160:2.8654542 161:7.132843 162:5.5168495 163:3.6473618 164:2.2797635 165:6.0595193 166:1.1686792 167:3.053669 168:2.9132385 169:1.7712737 170:0.62149668 171:4.5883217 172:4.0560293 173:5.3849053 174:5.176331 175:6.3432832 176:5.3010211 177:0.39967927 178:5.0377574 179:4.0884728 180:1.9497849 181:1.157307 182:4.5610862 183:2.0113702 184:7.2779183 185:4.9424539 186:5.1821284 187:2.7690859 188:3.1712127 189:2.4777005 190:5.4336939 191:0.020106606 192:3.416585 193:1.7757106 194:1.6352805 195:4.6471343 196:0.98681426 197:2.5000358 198:-0.22661267 199:1.0673237 200:4.2728896 201:1.0667462 202:1.6726488 203:3.9103649 204:2.4417331 205:2.2207954 206:6.2786341 207:0.9807654 208:2.8453529 209:0.67203945 210:7.4240279 211:1.9177402 212:6.7516112 213:2.8971295 214:2.8287115 215:4.3838382 216:6.4862142 217:2.4010713 218:5.0848441 219:3.3954389 220:2.2795603 221:2.8623827 222:6.2564812 223:1.2213628 224:2.4596584 225:5.7798133 226:2.5950263 227:1.7604026 228:1.0659742 229:4.2346454 230:3.2476752 231:3.1536977 232:3.3347456 233:3.6804838 234:1.3183534 235:2.4092762 236:1.875553 237:1.6627877 238:1.4561408 239:3.8431714 240:1.9323711 241:2.257247 242:0.89782107 243:2.1036305 244:0.10997801 245:2.1712482 246:1.4084578 247:2.863085 248:1.5289314 249:2.715059 250:3.5837438 251:2.3857973 252:1.4868659 253:2.07567 254:1.6110365 255:2.6087301 256:0.70348185 257:3.2936115 258:2.056706 259:0.44367358 260:1.0048447 #
-2.0211390084337628181287982442882 1:2.0592525 2:-0.010654839 3:-0.092641197 4:-0.059059478 5:-0.015777284 6:0.81854069 7:1.6642572 8:2.9962389 9:0.76537794 10:0.57808632 11:0.67945623 12:0.13408963 13:0.33225873 14:2.3348258 15:1.8156219 16:2.2205081 17:0.51295471 18:1.3230221 19:1.699808 20:0.12185205 21:1.3875587 22:1.0095274 23:5.8853106 24:0.74764889 25:0.95008141 26:1.9344347 27:0.72036707 28:0.39869526 29:1.8587697 30:3.5765352 31:0.56182945 32:0.52186418 33:0.89304239 34:1.8697132 35:-0.10593843 36:0.68100536 37:1.9534885 38:2.5793219 39:1.064052 40:0.73126149 41:0.38070527 42:0.37829509 43:1.1725893 44:2.1145408 45:1.9688785 46:0.59315783 47:0.87603486 48:2.1528718 49:0.92664462 50:0.69234234 51:0.66038531 52:2.2402129 53:0.51808906 54:1.7126828 55:2.7259398 56:0.3965922 57:0.52678555 58:0.99595737 59:1.8033223 60:0.71184289 61:0.86605483 62:1.9868433 63:1.0789304 64:0.24179557 65:1.3292911 66:0.57115102 67:0.95179319 68:1.9792414 69:1.2700616 70:0.48893651 71:0.72259212 72:3.0585747 73:4.6522145 74:0.70766014 75:0.31471255 76:0.77474713 77:2.8282726 78:0.96258873 79:0.53797191 80:3.7042513 81:0.84186721 82:0.17926151 83:0.26959196 84:4.3145018 85:0.097265452 86:2.9934547 87:2.5653086 88:1.2915628 89:1.0020319 90:1.3179927 91:2.8735702 92:0.31864429 93:1.7997537 94:0.60631508 95:-0.12318169 96:0.58968085 97:0.99635601 98:-0.042323407 99:1.4302187 100:1.3894994 101:1.5486451 102:1.8704919 103:0.85696381 104:0.46523151 105:0.014504956 106:0.66213697 107:1.0737554 108:1.3386421 109:0.54193437 110:1.1072258 111:0.31202355 112:-0.14298445 113:0.11465701 114:0.47736859 115:0.71886277 116:0.48811844 117:0.99677092 118:0.22482087 119:0.82602322 120:0.041231181 121:-0.10579873 122:0.52431124 123:0.41392338 124:-0.11013803 125:0.64513659 126:0.14179589 127:0.40088287 128:0.82782447 129:0.25594398 130:-0.12912694 131:0.87555152 132:-0.012918907 133:0.27030811 134:0.24236694 135:0.41136193 136:0.81677639 137:0.40862191 138:3.3249116 139:0.24100782 140:-0.12212295 141:0.51570249 142:0.085599914 143:0.70128798 144:0.057928853 145:1.5708039 146:1.3686651 147:1.0728115 148:1.4266577 149:1.2421393 150:0.11021503 151:0.28611171 152:0.74147719 153:1.7562342 154:0.91106939 155:1.0486864 156:1.8961843 157:0.60669518 158:0.8651402 159:1.4720099 160:2.403136 161:0.19517109 162:0.96433711 163:1.1200358 164:0.75189489 165:0.80802834 166:0.47279325 167:1.6090451 168:0.30179375 169:0.94443965 170:0.11285646 171:2.7315211 172:0.95427358 173:0.4422676 174:2.2403259 175:1.8973786 176:0.23399039 177:2.170706 178:6.0628605 179:0.81683713 180:1.2351254 181:0.57755828 182:3.4758711 183:1.9323719 184:3.1908281 185:6.9520307 186:1.0904192 187:1.2043304 188:0.80270529 189:3.0834482 190:3.0883229 191:1.4337202 192:3.7715466 193:2.5417507 194:0.81679541 195:0.16888921 196:-0.127692 197:0.31244501 198:0.45601919 199:0.0085824039 200:-0.13432829 201:0.57084727 202:0.47447023 203:0.31163797 204:0.38078755 205:0.0027381142 206:0.26856455 207:1.506775 208:0.011955167 209:0.59970319 210:0.66622984 211:0.30163375 212:0.003902751 213:-0.19463482 214:0.78208154 215:-0.11879886 216:0.16114779 217:0.51450866 218:1.5560791 219:0.56919777 220:0.69777608 221:1.7363752 222:1.0175761 223:0.13180847 224:0.20809352 225:1.005586 226:-0.069982603 227:0.46600243 228:0.7022993 229:1.3805026 230:0.27335262 231:0.053016968 232:0.75664741 233:0.4102377 234:-0.064803511 235:0.079211682 236:0.21523009 237:0.099554107 238:-0.055313312 239:0.20286864 240:0.48925763 241:0.23228568 242:0.39120299 243:0.88462681 244:0.20542376 245:0.30170372 246:0.59321308 247:0.60786051 248:1.0090383 249:1.2759198 250:0.52001083 251:0.31064823 252:-0.11037172 253:0.16115306 254:0.89424825 255:1.2089841 256:1.3219864 257:0.60105145 258:0.77612656 259:0.13603601 260:-0.091096811 #
8.2249106132485323428227275144309 1:-0.31872791 2:-0.21944395 3:-0.26121214 4:-0.2992695 5:-0.259215 6:-0.18414468 7:-0.15354337 8:-0.22639467 9:-0.28624856 10:-0.17430954 11:-0.22097923 12:-0.22190899 13:-0.074722871 14:-0.23542574 15:-0.2021649 16:-0.26357037 17:-0.24736591 18:-0.14640546 19:-0.19246277 20:-0.26757425 21:-0.27785614 22:-0.19121514 23:-0.29835007 24:-0.20301519 25:-0.17984146 26:-0.20926122 27:-0.29616591 28:-0.29552323 29:-0.242916 30:-0.20645455 31:-0.12909977 32:-0.19001624 33:-0.15079117 34:-0.28087437 35:-0.23431827 36:-0.059054319 37:-0.14158212 38:-0.17684582 39:-0.27672774 40:-0.31065699 41:-0.19428352 42:-0.24978349 43:-0.023152122 44:-0.24181874 45:-0.12323626 46:-0.18708356 47:-0.14323252 48:-0.26965514 49:-0.13524847 50:-0.20022815 51:-0.21903077 52:-0.14172792 53:-0.24280748 54:-0.25245667 55:-0.1695358 56:-0.22802299 57:-0.31983158 58:-0.13811815 59:-0.18318565 60:-0.075393707 61:-0.07586354 62:-0.1977457 63:-0.2223614 64:-0.137613 65:-0.25552753 66:-0.1768222 67:-0.20069736 68:-0.20745012 69:-0.16076545 70:-0.19818765 71:-0.30952063 72:-0.32614809 73:-0.27234617 74:-0.29526114 75:-0.27002105 76:-0.23689766 77:-0.21685849 78:-0.25484648 79:-0.1819199 80:-0.17458831 81:-0.27811113 82:-0.30556959 83:-0.31929389 84:-0.30159196 85:-0.23120759 86:-0.1943668 87:-0.19605823 88:-0.16390787 89:-0.24302022 90:-0.23933756 91:-0.057202138 92:-0.18128288 93:-0.082683325 94:-0.31221983 95:-0.20960742 96:-0.17801858 97:-0.30470395 98:-0.13416116 99:-0.2258402 100:-0.12996073 101:-0.21958871 102:-0.010497387 103:0.069287308 104:-0.34219107 105:-0.30710214 106:-0.039373353 107:-0.1797581 108:-0.24988922 109:-0.34257877 110:0.028279096 111:-0.20456864 112:-0.29874128 113:-0.35293686 114:-0.042671088 115:-0.060957354 116:0.031619579 117:-0.10638634 118:-0.18072139 119:-0.31622142 120:-0.048600454 121:-0.28330016 122:0.14743577 123:0.022050418 124:0.098791622 125:-0.27742356 126:-0.18698001 127:-0.24506755 128:-0.3165341 129:-0.17824689 130:-0.25300932 131:-0.15392645 132:-0.20708521 133:-0.17641224 134:-0.13023756 135:-0.18110503 136:-0.1002379 137:-0.23506044 138:-0.24120337 139:-0.16421558 140:-0.021143707 141:-0.10388827 142:-0.18329404 143:-0.014560172 144:-0.21961524 145:-0.30003354 146:-0.16739923 147:-0.035842262 148:-0.18406898 149:-0.0015455913 150:-0.19275196 151:0.24023508 152:-0.10729212 153:-0.1251214 154:-0.20072706 155:-0.22664633 156:-0.013373302 157:-0.13400015 158:-0.21128669 159:-0.09944129 160:0.1446165 161:0.0082265707 162:-0.15381405 163:0.0061381781 164:-0.20953336 165:0.0050359708 166:-0.033358503 167:-0.2395508 168:0.026887244 169:-0.20563388 170:0.069671877 171:0.22328518 172:-0.22796556 173:-0.092930585 174:0.068571433 175:-0.24239041 176:-0.093778543 177:-0.14341424 178:-0.14107853 179:-0.056608565 180:-0.017670739 181:-0.06028476 182:0.092680536 183:-0.040660515 184:-0.074119568 185:0.067414083 186:-0.05061454 187:-0.073746264 188:0.11275379 189:-0.24817105 190:0.017049301 191:-0.27031997 192:-0.14689624 193:0.0037196481 194:-0.012176552 195:-0.041120064 196:-0.14471211 197:-0.17666537 198:-0.21939065 199:-0.22215322 200:-0.26787254 201:-0.11244138 202:-0.22764625 203:-0.081254452 204:-0.26391807 205:-0.2117411 206:-0.10366235 207:-0.18625516 208:0.018018441 209:-0.29566914 210:-0.11866595 211:-0.17743315 212:-0.16132906 213:0.012846241 214:-0.1144649 215:-0.16392627 216:-0.11773741 217:-0.20483755 218:-0.053128496 219:-0.072752826 220:-0.13702005 221:-0.047307335 222:-0.091770642 223:-0.07955344 224:0.067349404 225:-0.063944884 226:-0.15471405 227:-0.14016205 228:-0.1065428 229:-0.060069896 230:-0.060614347 231:-0.16134271 232:-0.08697781 233:0.018172473 234:-0.1902346 235:-0.21763466 236:-0.043171607 237:-0.11294559 238:-0.20904967 239:-0.27017021 240:-0.012012945 241:-0.14442036 242:-0.081917867 243:-0.050005585 244:-0.2423144 245:-0.069208637 246:-0.2323112 247:-0.12321135 248:-0.015077999 249:-0.0090554496 250:-0.081632666 251:-0.1469539 252:-0.030546837 253:-0.20130952 254:0.063100807 255:-0.09734688 256:-0.018175041 257:-0.13781326 258:0.074641429 259:-0.082153089 260:-0.19042747 #
8.2249106132485323428227275144309 1:-0.31185618 2:-0.24947456 3:-0.31096283 4:-0.18021594 5:-0.20572855 6:-0.27284768 7:-0.17389171 8:-0.22789663 9:-0.22025397 10:-0.24038744 11:-0.31801379 12:-0.29420009 13:-0.26296672 14:-0.075498648 15:-0.24456796 16:-0.23867074 17:-0.19359137 18:-0.27877113 19:-0.28732619 20:-0.28678599 21:-0.24181116 22:-0.14966553 23:-0.2672379 24:-0.24046414 25:-0.16428053 26:-0.25951326 27:-0.32113656 28:-0.092492752 29:-0.30321008 30:-0.10854531 31:-0.16314436 32:-0.23788938 33:-0.18750836 34:-0.22623566 35:-0.16747193 36:-0.010967657 37:-0.1416142 38:-0.084630176 39:-0.24538668 40:-0.19001119 41:-0.0021026591 42:-0.25828984 43:-0.30517635 44:0.024038777 45:-0.21143019 46:-0.14701928 47:-0.085892275 48:-0.27610317 49:-0.074347705 50:-0.04507596 51:-0.21605222 52:-0.12379418 53:-0.095088333 54:-0.050457921 55:-0.12698746 56:-0.082248151 57:-0.19455279 58:-0.15878265 59:-0.24260278 60:-0.21645606 61:-0.099122733 62:-0.19871122 63:-0.17395104 64:-0.21472734 65:0.16733934 66:-0.17389955 67:-0.19784789 68:-0.30727297 69:-0.25447187 70:-0.22834373 71:-0.30920443 72:-0.25650755 73:-0.3315658 74:-0.30321011 75:-0.25812733 76:-0.18709309 77:-0.26634574 78:-0.17470619 79:-0.24951266 80:-0.25032303 81:-0.2404554 82:-0.31156576 83:-0.32434216 84:-0.30276847 85:-0.24096797 86:-0.27642402 87:-0.26325643 88:-0.19819194 89:-0.3168577 90:-0.17027648 91:-0.22109807 92:-0.19682917 93:-0.23385692 94:-0.22351705 95:-0.27612078 96:-0.33590725 97:-0.33775043 98:-0.05275077 99:-0.10643501 100:-0.341997 101:-0.20242165 102:-0.29034913 103:-0.050405271 104:-0.24340443 105:-0.26293799 106:-0.17025065 107:-0.2829839 108:-0.25581715 109:-0.22711654 110:-0.20057276 111:-0.11442626 112:-0.10566106 113:-0.10020094 114:-0.3022463 115:-0.11308189 116:-0.30422395 117:-0.12734115 118:-0.041062355 119:-0.3598347 120:-0.17791727 121:-0.0558699 122:-0.087886892 123:-0.13736683 124:-0.14925346 125:-0.062394079 126:-0.25611553 127:-0.25270644 128:-0.33023229 129:-0.1559962 130:-0.34954011 131:-0.14395671 132:-0.054284714 133:-0.10732911 134:-0.089557737 135:-0.14577579 136:-0.12042324 137:-0.0076812594 138:-0.16534458 139:-0.20309022 140:-0.11275923 141:-0.11361425 142:-0.13330072 143:-0.17138423 144:0.14378347 145:-0.13549334 146:-0.014696288 147:-0.010934833 148:-0.23939489 149:-0.087162845 150:0.13981591 151:0.056140352 152:0.11919321 153:0.11433974 154:-0.23288117 155:-0.12896857 156:-0.10719857 157:-0.20807768 158:-0.090040118 159:0.27993047 160:-0.19950673 161:0.037964843 162:-0.20666435 163:0.033134144 164:0.0077568991 165:-0.14250535 166:-0.021204691 167:-0.10505413 168:-0.028905919 169:-0.20434202 170:0.095803037 171:-0.09159717 172:0.026603084 173:-0.12722909 174:-0.091340818 175:-0.067869551 176:-0.14698884 177:-0.25668389 178:-0.10538056 179:-0.051916845 180:0.076014601 181:-0.04271654 182:0.030920956 183:-0.043227796 184:-0.037636802 185:-0.10045719 186:-0.19896142 187:-0.19402894 188:-0.043647498 189:-0.12936814 190:-0.088643022 191:-0.071964778 192:0.043543022 193:-0.076752745 194:-0.17327766 195:-0.039493609 196:-0.10444216 197:-0.089134499 198:0.0056407731 199:-0.20040229 200:-0.2995958 201:-0.07799831 202:-0.072270423 203:-0.22984888 204:-0.18053508 205:-0.21258143 206:-0.16288877 207:-0.19976105 208:-0.22019044 209:-0.1043315 210:-0.17590247 211:-0.18635781 212:-0.20986748 213:-0.13644913 214:-0.21004781 215:-0.012062496 216:-0.22625615 217:-0.23433617 218:-0.10175184 219:-0.21215729 220:-0.18326591 221:-0.2093648 222:0.015843162 223:-0.058738861 224:-0.067352273 225:-0.2160898 226:-0.22070853 227:-0.20949049 228:0.042369619 229:-0.12798132 230:-0.19162898 231:-0.072686039 232:-0.1970077 233:-0.15852696 234:-0.17122643 235:-0.13710164 236:-0.14917387 237:-0.090317078 238:-0.21638872 239:-0.17493887 240:-0.21522191 241:-0.085858524 242:-0.087363787 243:-0.25545818 244:-0.11537012 245:-0.1633351 246:-0.17748378 247:-0.19270076 248:-0.069151103 249:-0.19715019 250:-0.15675123 251:-0.096945211 252:-0.089139476 253:-0.16545632 254:-0.041086677 255:-0.064235382 256:-0.10246608 257:0.027129894 258:-0.19448632 259:-0.15730116 260:-0.19062401 #
